,0,1,2,3,4,5,6,7,8,9,10,11,12,13,14,15
location_of,1.1501479,1.2275672,-1.8629051,-1.1973013,-0.28488803,-0.33476502,-0.8741305,-0.9145242,1.0182706,0.7127745,-1.1943549,1.5108607,0.17896344,0.13263626,-1.1073382,-0.80674535
manifestation_of,-0.092427894,-1.5450755,-2.0827193,-0.16580178,-1.2888705,-0.32873324,-1.3063905,0.17076932,2.9332695,1.305886,1.3039105,0.4700896,-1.3764862,1.0716412,0.9008528,-1.2380664
isa,-0.24660498,1.2789973,-0.613133,0.58453965,-2.4958947,-0.23369059,1.1631216,0.88099664,0.9014474,1.013549,-0.48274708,-0.23674999,0.9186825,0.82450736,0.56836027,0.93434644
affects,-0.37262842,0.85306793,-1.2664914,0.13724893,-0.21013921,0.17270526,-0.97150445,0.02621914,-0.9306613,0.74460566,0.009629083,-0.1264368,-0.10587895,2.1425416,0.30115473,0.2877293
associated_with,-0.7553515,0.97131974,-2.5510633,0.6471729,0.7551956,-1.644334,0.34383425,-0.09242018,1.8279153,-0.075867966,0.43555143,-1.2123902,-1.3320946,0.11848535,-0.36109263,0.6384511
interacts_with,1.0141727,1.2036732,-1.394382,0.12909766,-0.19397068,-0.07360341,0.6549269,-0.093897976,0.91873217,-0.25738966,0.43001354,-0.35666347,0.49054712,1.2999018,0.9614099,0.59417385
result_of,-0.60576713,0.31576198,-1.2267995,-0.24002743,-1.485397,0.62056214,0.10539218,0.5257598,2.3003979,-0.19756688,0.7541972,-0.31141567,-0.9084566,0.038956918,1.0892377,0.6742538
complicates,-1.295611,0.0582177,-2.2036455,0.06791742,-0.25960705,-1.5763469,-0.273884,0.5734891,-0.015537044,0.10367254,1.8763024,1.7815217,0.6356934,0.6646698,0.1626239,-0.2134974
occurs_in,-0.13350146,-0.84871817,-2.6976898,0.85977024,0.059749264,-0.4238143,0.15430355,2.1636188,0.8886237,0.8232777,-1.3058804,0.13260832,2.1780965,-0.30659497,1.5447835,1.4439337
uses,0.19951306,-0.591371,-1.7421021,1.9173815,-0.50338876,-1.8886199,0.55108804,0.39836577,-0.61073214,0.57391906,0.62211114,0.40714148,-0.76572293,0.71935993,0.6241841,-0.3236805
produces,0.3027948,-1.0700583,-2.0410237,-0.2965882,-0.3848125,-2.2326922,-1.4149635,1.1944133,-1.022637,0.21808243,-0.75172347,1.1835963,0.27497083,0.35968348,2.1943283,0.8147033
degree_of,1.0859615,1.4087642,-3.6751118,1.7425315,-0.52052695,-0.3047891,0.6089756,2.3831518,1.0520641,0.8642571,-0.8889365,0.68589,-0.014029828,1.0791019,0.45400846,-0.13163865
connected_to,0.8844676,0.90398,-2.626502,-0.19341289,-0.8115264,-0.4296558,-1.2036021,1.0489786,-0.049508523,-0.86756235,0.24632029,2.2662716,-0.6892125,2.2435145,-0.5847907,0.86806875
process_of,-0.29031545,0.5306486,-2.2424803,-0.030024555,0.30152243,0.21358639,1.6750046,-0.41486248,-0.5616112,-0.41003847,-0.9507205,0.052900165,0.6807982,2.1729622,-1.0290163,0.6224904
co-occurs_with,0.88322943,1.0843211,-3.1607478,-0.22256842,-0.2669192,-0.29622322,-0.32742932,2.8371356,1.3940476,0.6669181,0.38930324,1.1700883,2.1931229,0.16696037,1.1051079,1.1544919
disrupts,-3.0925825,0.7921731,-2.374774,-0.18407248,-0.2563011,-0.8032224,-0.28536,-0.35982293,0.37902328,-1.1493012,-0.45680162,0.95442563,-0.81882775,-0.106518835,1.7198774,0.4129444
issue_in,0.12755802,0.16649991,-0.048297867,-0.012665082,-3.3835347,-0.26228276,0.016138483,-0.05066691,0.050435204,0.23424982,0.28403166,-0.19786622,0.046668608,-0.1416631,0.008886247,0.24164237
part_of,-0.05473675,2.444124,-1.5171355,-0.38877916,-0.48386866,-0.47370708,-0.9746986,0.34865266,-1.040966,-0.120695546,0.6660467,0.30601358,-0.914865,-0.26863736,-0.58529043,0.92091477
measures,0.36538908,0.7851617,-1.9285119,0.28381208,0.11908675,-0.6434993,-0.99052286,-0.3939252,0.13027987,0.013728729,0.5756518,0.087539315,-1.3186702,-0.26024273,-2.5299978,-0.20516986
prevents,-1.2932199,-0.8000352,-2.633191,2.0497818,-2.3625221,0.31125197,-0.40718496,-1.5644015,-1.4876637,1.0160364,1.692399,-0.51189125,0.05302191,0.21931185,0.064929545,0.69552076
causes,0.35435528,-1.4234802,-2.5026639,0.29660606,-0.10648909,-0.012880298,0.7693571,0.6804332,-2.0740833,0.0058937687,0.24351434,0.5220901,0.033681933,-0.10783508,0.23953845,-0.932289
indicates,-0.60986936,-1.6200451,-2.7506542,-2.0210688,-0.027919339,-2.1332083,0.13857976,0.24075994,0.62344676,0.054174047,0.23789452,0.12574752,-0.382544,2.1431456,-1.050022,-1.985558
treats,-0.061581977,-0.37937966,-2.2681947,0.89062685,-2.0054452,0.05743949,0.75464237,-0.33372378,-2.0323033,-1.4985629,2.6355112,-0.05479957,1.277348,0.47902086,-0.12557362,1.1229072
evaluation_of,0.5880365,0.7846963,-2.4923563,-0.027283223,-0.13975067,-1.3824462,-1.0317082,0.9032441,1.1637156,1.026769,0.957663,0.16091335,-1.3825657,0.2061149,-0.55802584,-1.6516019
diagnoses,-1.6853648,-0.9601919,-2.6924846,2.85229,-0.94613767,-2.3746772,0.6254914,-1.5859773,-0.3114594,0.3411441,1.3998001,-1.6582049,-0.21456188,-0.74426836,-0.2618618,0.23896423
exhibits,-0.40129825,-1.1208413,-2.097627,-0.31794718,0.36649188,-0.8397003,-0.44098425,1.050987,-0.74405915,-0.30013603,-0.46326143,1.0011427,-1.2721277,-0.29246366,-1.5509452,0.5739581
ingredient_of,0.8003507,1.2555524,-1.7921498,0.510216,-0.29933184,-0.0720907,2.097926,0.049826693,1.3474131,-0.03275643,-0.9141869,0.28750545,0.22690536,-0.584733,0.793493,-2.2695496
property_of,-0.7193697,-1.3235775,-1.8468324,-0.40011245,-0.34341824,-1.2268307,-2.3561976,-0.5430889,-1.1006124,-0.28567252,1.6076928,-0.37924248,1.26923,0.72136635,-2.3904512,1.2520558
manages,-0.7768462,-1.9606149,-2.0005882,-2.876306,-0.69886416,1.1021593,0.3803462,0.08428223,-0.69529575,-0.022730926,1.265159,0.53169733,0.94785273,0.7110797,0.86881596,-1.308539
assesses_effect_of,0.71580535,0.5994012,-2.3097625,0.81159663,-1.7607316,-0.27786133,-0.51222354,-1.1995962,-0.2718488,-0.5486929,0.49828362,-0.3765131,-0.47438475,2.2617102,-2.1805763,-1.0575166
method_of,1.038867,-0.5287591,-1.2986349,-1.3038675,-3.6225476,1.5291481,0.21669646,1.7729156,0.32639006,0.9661452,0.8625314,-0.36608973,-1.2548734,-0.02854774,1.3508581,1.3126594
measurement_of,-0.24207978,0.5902757,-1.8959296,1.8419398,-0.05058051,-1.6533388,0.027128216,2.4688795,-0.83926487,0.15147114,-0.7079605,-1.469159,-1.0078852,1.5678107,-1.3255771,1.1585399
precedes,0.9938565,0.7597121,-4.5543833,1.9834541,-0.563894,0.088656485,1.2348466,1.4541881,0.17924649,-0.4649789,1.4525936,0.1356205,0.6354098,0.7545867,1.0430883,0.5553705
consists_of,0.24840839,-0.22001512,-1.5250894,1.8373934,-2.3750095,1.5755775,-0.1479325,1.8503062,0.63296187,-1.9506731,-0.11632558,0.7691906,-1.7229993,-1.0833516,1.415789,0.7592725
performs,-0.3542988,-0.24269792,-1.7178485,-0.015410185,-0.47795528,-0.5155278,0.5691049,-0.96578026,0.14276212,0.0794449,-1.1799446,0.5741431,-1.562439,0.43647528,0.49782348,1.2566818
conceptual_part_of,-0.18854342,0.02695579,-2.0807817,1.9023564,-1.4779724,-0.005167364,0.025900263,1.6776122,0.042166814,2.693619,-2.238103,-0.5778442,-0.08206818,0.4095106,-0.65585375,-0.10391984
analyzes,1.4265255,1.2113276,-2.3207312,0.8376586,-1.5035814,0.17489085,0.64050657,-0.24452837,-1.3466336,0.15240698,0.20833345,-0.22964042,-0.44989595,0.0054508946,-2.1446257,-0.8019827
carries_out,0.22951713,1.0340762,-2.2483337,-0.44556057,-0.5710189,0.45355183,-0.48657393,-1.1235013,0.12372933,0.7910959,-1.187937,1.056665,-0.9883454,-0.028447937,0.77421594,-1.6281337
developmental_form_of,0.88445467,1.3317027,-2.0509233,-0.19675596,-0.34033486,-1.5745571,-0.25416932,-0.8931747,0.4286536,-0.49668327,1.0666345,0.71810186,1.6229473,1.7112069,0.7660584,0.37430277
contains,2.2584126,0.48620483,-1.9768119,-1.0326027,-2.0339546,0.29265046,0.27097023,0.82911855,1.1850259,-1.532377,-0.11741219,1.8952408,-1.696995,1.1454964,-0.62868625,1.6350814
adjacent_to,0.94116783,-0.4485893,-2.489714,0.49676028,-0.090181656,0.010748133,-1.0217025,0.6798426,1.1992524,0.47694987,1.5421572,1.8174096,0.95503706,1.8602442,-0.8890714,1.4156914
interconnects,1.6924889,0.35203865,-2.1549373,-0.5220151,-1.8577373,-0.34547314,0.45687446,0.4498529,0.44896212,0.9424837,-0.17763023,0.60597205,-1.5014813,1.0649092,-0.95330256,1.5589375
conceptually_related_to,0.07868312,1.2739352,-1.8173945,1.6712725,-0.37724063,-0.44759324,-0.728394,-0.24915522,1.3045292,-0.31064713,-0.34802505,0.40718868,0.59092474,0.36660817,0.8493996,-0.44021338
surrounds,1.9070928,0.031484596,-1.8807017,-0.11950914,-1.6611137,0.2819662,2.1653388,1.0963771,0.34495366,-0.20509666,0.03495019,1.376409,-0.4380263,1.0690873,0.6080821,1.5300301
derivative_of,0.93352586,-0.33564973,-2.3233483,-0.29730448,-0.111824505,-1.3455874,1.1452975,1.3047779,-0.13941452,-0.6356049,-1.1819577,1.5757544,-2.062178,1.525782,0.86631036,0.6345424
practices,0.978329,1.1317518,-1.2311567,-2.2227573,-0.6905302,2.5495634,0.35541785,-2.270974,0.7909331,1.0796585,0.3233215,0.44911298,-0.051950727,-0.047225863,0.7589844,-0.29138866
