,0,1,2,3,4,5,6,7,8,9,10,11,12,13,14,15
location_of,-0.4845848,2.3872917,-1.9978418,-0.58793896,1.6381308,1.6448181,-1.2603679,-3.9614615,0.08482093,-0.060137648,-0.93245304,-2.1093118,-0.18838495,3.3853903,1.4827138,1.1529227
manifestation_of,-0.0918803,-0.07977892,0.12305835,-0.5408685,-0.30788296,-0.22037677,-0.21131274,-0.5789659,0.12110933,0.30901596,-1.0583687,1.111011,0.25903958,0.38756952,-0.7816286,0.7859444
isa,-0.8381041,0.28522053,-1.2127409,-0.660474,0.948657,0.77001584,3.0101001,1.7183926,0.70094234,0.5973207,-0.5364641,-0.8119664,-3.1065593,-1.0117294,-1.57762,-0.39576882
affects,-0.33602956,0.9407724,0.20640226,0.5939811,0.69147885,-0.7665428,-1.6275078,-0.7065153,-1.7315052,-1.3051361,0.31644514,-0.48615533,2.1335588,1.6741699,0.37680593,-0.3026852
associated_with,0.12130752,-0.07003134,-0.25710002,0.5067382,-0.35989872,-1.5241247,0.82432914,-1.6411768,-0.010987424,-1.1616516,1.2366092,-0.5450898,-0.20788606,0.267771,1.0920057,0.09077285
interacts_with,1.1597995,-0.4987223,1.9702464,0.09525836,-0.09824637,-1.5355208,-4.537658,-3.1727793,-1.3001521,0.69105476,-0.14602454,1.937207,3.44332,3.3523936,2.7391813,-1.5613183
result_of,-0.0759122,0.04222948,-0.037660584,-0.50016254,-0.0042721196,-0.47284472,-0.6169279,0.32956177,-0.98782617,-0.094215065,-0.55734724,1.1472074,0.7809503,0.38266402,-0.30969268,1.0420246
complicates,-0.18361165,-0.11058476,-0.5115069,-0.6489271,0.94739664,-1.7827883,1.0555948,1.0262998,1.3234344,0.18685807,1.4292934,-0.2273379,0.7072454,-2.394394,1.4509536,-0.42983037
occurs_in,0.118516564,-0.073305294,-0.73435384,0.776729,0.11766768,-2.047247,0.085522935,0.20360723,0.8083967,-0.774738,-0.21366528,0.9042957,-1.5096161,0.23120712,-1.1338241,-0.08718938
uses,-0.10373165,-0.0487687,-0.16829291,-0.6225767,0.17473187,-0.48833755,-0.91232115,0.9001547,-0.74740344,1.466452,-0.5255889,0.6530057,1.5455118,0.02136199,0.04500999,0.4798106
produces,0.27157244,0.5111504,-0.35623205,1.6121252,-0.055800855,-0.2625752,-1.0320388,-0.08592038,-1.322059,-1.9039663,-0.46560022,1.1682117,-0.0060394253,0.45643073,1.1560541,-0.7941563
degree_of,0.20441306,0.113513656,-0.5501512,1.4082105,-0.037873592,-0.62173814,-0.693861,1.3977393,-1.3041993,0.47119775,0.27174267,0.08565668,-0.6951437,1.3075571,-0.6857174,0.18905023
connected_to,1.1169493,-1.7002311,1.688283,0.09660966,-1.4409766,-0.57653826,-2.2370112,-0.7356966,2.4453845,-0.19851534,-0.3454583,1.4435103,0.100405656,0.09161732,-0.006050232,0.4699938
process_of,-0.6448023,1.0309874,-0.41572067,0.061368845,0.55697536,0.30415285,-1.8675545,-1.345262,1.5023891,-0.21714142,-0.7702624,0.17418714,2.200931,0.8548394,0.22817321,-1.5155866
co-occurs_with,-0.18961032,0.020544225,-0.16944699,-0.2999477,-0.537444,-0.24285418,1.657368,-0.98164195,1.1977416,0.32462522,-0.82579565,1.9997019,-0.99274796,-0.058757704,-0.6847749,-0.25261673
disrupts,0.22356066,0.30721226,0.853768,-0.7514815,1.4894099,-0.33372408,-1.1243019,-2.0960412,-1.0110409,0.8453622,-2.0845954,0.2657953,2.3395607,1.149253,0.3927587,-0.8218206
issue_in,0.070437595,-0.05157475,0.042919114,0.5470694,-1.1219327,0.85432833,-0.3271743,-1.2163253,0.39418602,0.5506643,-1.5250835,1.1670945,-0.69294846,0.33496836,0.07487265,0.03498138
part_of,0.9774949,-1.1005194,1.1894618,-0.85740715,-0.6069372,0.039723523,-1.3069189,-1.2708863,0.014170502,-1.0439416,1.4263699,-0.4136967,0.9706357,1.0822052,0.8684558,0.68195605
measures,0.1345655,-0.09440726,0.40461177,0.00521724,-0.5723811,0.56213605,0.025275435,-0.9184061,-0.10920155,1.354382,0.38568687,-1.5539322,-1.1832093,0.41804042,0.18204094,-1.5890123
prevents,-0.1328856,-0.2783913,-0.27134466,-0.27016538,-0.99020064,-0.5675655,-0.82903594,0.50460565,-1.4149524,1.7523803,0.8453132,0.4183922,0.083197504,0.9978668,0.7095233,1.1158885
causes,0.17166808,0.5466919,-0.12263386,1.74289,-0.21118315,0.14055835,0.3825079,-0.5034607,-1.3525307,-2.195874,0.057472184,-0.8465568,-0.245738,0.86186075,-0.61506873,0.6092815
indicates,0.17173138,0.17314778,0.33577415,-0.44569463,1.2497506,0.34376523,-0.65665567,0.06311691,0.49923024,0.94953495,-0.31954056,-0.77515596,1.4103844,0.7327952,-1.1229588,-2.3030374
treats,-0.10744855,-0.33374465,-0.3407309,-0.25820762,-1.0954168,-0.8224915,-0.025092062,0.18528657,-0.11995126,1.1854869,1.2097868,0.82469165,0.35342523,-0.21958637,1.3289028,0.51462734
evaluation_of,0.44080997,-0.25598294,0.20175382,0.37859163,-0.58094794,-1.2583234,-2.3886893,-0.6512637,-0.3223269,-0.6871304,0.049886256,1.4565271,0.3144495,2.1194696,-0.35048807,0.26724458
diagnoses,0.107511714,0.079119086,-1.0395117,0.9227171,-1.1903343,-0.030760169,-1.9263601,-0.23592973,1.3685738,-0.22902182,0.52503866,-0.8864124,1.4199995,-0.18969591,-0.36265066,0.12660547
exhibits,0.05853348,-0.04398952,0.031541605,0.02526527,0.049134355,-0.46839574,-0.055943105,0.41990927,-1.7097899,0.39147255,-0.7632539,-0.036190204,0.6781068,0.024743259,-0.35677093,0.32738283
ingredient_of,0.15237403,0.0778845,0.4541015,-1.1316295,2.1734343,-1.0657015,2.3725138,-0.096954904,-0.31289533,0.9499474,-0.2784273,0.6270774,-0.3472394,0.27702236,0.03590153,-0.10951419
property_of,0.48420066,0.35114032,0.5326833,0.5886952,0.6359642,-3.0104587,-4.3863883,-2.202333,-1.5249834,-0.36672124,0.14785995,2.042911,3.3570147,4.978902,1.7321608,-2.476228
manages,0.10154557,-0.10149836,0.3958596,-0.83831507,0.45714968,-0.8754066,0.18144827,-0.76849985,-0.85617,0.14603284,0.6135552,-0.5397458,0.057251785,1.3882626,-0.4108684,-0.11730701
assesses_effect_of,0.39840448,-0.038273145,0.32440263,0.35360444,0.42167264,-1.1443392,0.19851011,-0.7368658,1.6435671,-0.74752337,0.19231786,-1.4579694,0.102235176,-0.16618508,-2.128333,0.7166241
method_of,0.15193954,-0.37403446,-0.30021745,0.6862264,-1.6287273,0.6077903,-1.5945657,-0.08927977,1.5734109,0.90301365,0.8432464,0.6868517,-0.011258035,0.6564142,0.12994911,1.4611809
measurement_of,-0.21908793,0.20321645,-1.6087517,1.3765229,-0.73149174,0.3030739,0.3649249,0.4760235,-1.2855668,-0.32022387,0.5464378,0.804351,-0.36051935,2.768706,-0.6227461,0.97227883
precedes,0.15888533,-0.043031085,0.3522501,0.5574727,0.3060394,0.5609426,0.0809974,-0.40683335,-0.94132555,-0.6088575,-0.66176015,0.30363414,-2.4500864,2.2907417,-0.09179669,1.6052643
consists_of,-0.39074075,-0.49417368,-0.2310851,-0.76753634,-1.6747282,0.21505292,0.8145779,2.0133538,-1.1584893,-0.68691057,1.4456342,0.28335255,-0.69018006,0.0507704,-1.8830853,0.8788783
performs,-0.4165921,0.45852065,-1.1417756,2.1794937,-1.607739,0.3384293,2.2381907,-1.0581108,-2.1291585,-0.37336975,-1.6822845,0.14325055,0.09377281,-0.96684587,0.86696684,-1.3040961
conceptual_part_of,-0.16783716,0.25565195,0.05433586,-0.5339311,0.38943163,1.3668216,0.683491,0.365084,0.07583593,1.4521811,-0.58770466,-0.74280316,0.6957423,-1.7182572,0.7605827,-0.36629426
analyzes,-0.1699877,-0.27922767,0.40395656,-1.5723042,-0.70519155,0.6600714,0.7377095,-0.2559575,-0.21583699,0.96413,0.23755488,0.9982383,0.66462123,1.063596,-1.0179545,1.6465174
carries_out,-0.15421188,1.5452967,-2.0448472,0.24549599,0.02714701,0.14174289,-0.6018757,-0.29675508,-0.8096223,0.37645406,0.031570528,0.18408108,-0.63119584,-0.044855073,1.6650373,-0.049572643
developmental_form_of,1.0073642,-1.1354748,1.4128795,1.014384,-1.031643,-2.0011666,-0.13987911,-1.3601516,1.884579,-0.10008536,0.9627386,0.7714552,0.6453855,-1.4279131,0.08282502,-1.1490543
contains,0.82378685,-2.1727672,1.6936233,-0.17776649,-1.8286171,0.4176942,-0.98019314,0.63305956,0.86156416,-0.8253689,0.31001708,1.1701983,-1.0661798,-0.3055721,0.94743204,-0.43965423
adjacent_to,1.1143061,-1.2821661,1.9191698,1.0042217,-0.3628955,-2.602386,-2.647357,0.23696014,0.014380265,1.1388704,0.25216076,0.35765746,1.298663,0.74475956,-1.4701524,0.9431
interconnects,1.33187,-1.827017,1.9634867,0.32902643,-1.2811503,-1.6893365,-0.4346501,-1.2694988,0.21646796,2.102893,0.36537287,-0.18980585,-0.8085376,-0.40587565,1.5297081,1.6793427
conceptually_related_to,-0.29019073,-0.03743641,0.6162231,0.17167313,-0.0842201,-0.28423423,-0.24651287,-0.3572969,-0.27420244,-0.79269475,0.31410623,-0.298556,0.8586099,-0.46431842,1.3955538,-0.11690478
surrounds,1.4078995,-1.8833255,1.0142742,0.5150582,-1.6525406,-0.5550577,0.27553108,-0.20646636,-0.23570757,-0.9919784,0.071778595,0.15110315,0.106562264,-0.39956987,-0.05119029,1.3040265
derivative_of,-1.2092113,2.0947084,-1.1820631,-0.39593154,1.7369604,0.29837567,0.37143484,0.49050555,-0.13772884,0.9708123,0.5744486,0.77862144,-1.0998569,2.0801306,-0.73958737,-0.57665384
practices,0.44363976,-0.6573186,-0.40841156,-1.3244041,-0.34844103,0.69457203,1.0657535,0.507297,-0.42818314,-1.4464257,-0.41303536,1.2268792,-1.5795537,-0.90817875,0.40165535,-0.86681014
