,0,1,2,3,4,5,6,7,8,9,10,11,12,13,14,15
acquired_abnormality,-1.4426732,-0.66769,-0.5715942,-1.5272155,-0.017932123,-0.5270116,-0.897629,-1.5270038,-0.63005227,0.3857997,-0.6952692,-0.16946614,-0.14039609,1.7684336,0.30828527,0.5400761
anatomical_abnormality,-0.45376247,-0.91785824,0.9427617,0.44266924,1.1096458,0.48871443,-0.41825977,1.0522833,1.3469927,0.06964098,-1.9991677,-1.2020137,0.3200484,-0.42565995,-0.31329417,-0.1477746
alga,1.5235273,-0.4051424,-0.17128535,-1.0222452,-0.037129104,-0.189513,-0.0882781,-0.72031444,-0.36157534,0.037895013,-0.41755682,-0.27439854,2.155098,-1.1829625,1.4431509,-0.41955376
mental_or_behavioral_dysfunction,-1.0264175,0.42187518,-0.036979638,-0.5594489,0.6608324,0.32309678,1.0609345,1.9166132,0.038984317,0.84541,-0.27870473,-0.72253144,1.501635,-0.77594846,-3.06819,-0.41429296
health_care_activity,0.16254373,-0.8218169,-0.40925118,-0.82416993,-0.032572564,0.16807577,1.8472391,0.18301667,-0.53213376,-0.01306214,-0.82389915,-0.6396307,-0.3063504,-0.0927094,0.30439436,-0.5291228
population_group,-0.3690193,0.23229738,-0.5236698,0.86031705,-1.3072637,-0.3749982,0.29622102,-0.036645427,0.3762794,-0.38666993,-0.96661013,0.715309,-1.1562686,-0.7023233,0.2669526,1.867489
clinical_attribute,0.7064108,1.2362919,0.863285,-0.86660117,1.4321563,-0.7667573,-0.88045686,1.1591631,1.3823419,0.65171283,-0.05660601,-0.10263767,-2.0577123,-0.56275004,-1.4565647,-0.9840808
body_part_organ_or_organ_component,0.337662,-1.0949349,0.76507217,0.30324692,-0.30123374,-0.20678449,0.038171794,-0.9430584,2.0700388,-0.7427931,-0.4965356,1.3502299,-2.468318,1.2889758,-0.3527898,-0.14111501
biologically_active_substance,0.9288764,-1.5573967,0.5063918,1.328115,-0.2514268,-1.6438127,0.654845,-0.76954114,-1.6272042,-1.8785197,0.4979149,0.670788,2.274837,0.85527366,1.8292726,-1.6701229
disease_or_syndrome,-1.6248134,-1.2727598,1.2456805,0.35322732,0.20556615,-0.71654606,0.2835704,-1.835297,0.25016585,-0.18163797,-0.019534903,1.0310203,1.457229,1.5384873,-0.9017909,2.3475251
carbohydrate,0.45230633,-0.14102906,-0.81330854,-0.37203237,-0.6302268,-0.9291521,0.8892537,1.0836463,0.3163712,1.5973984,1.1958244,-1.7525607,-0.41708013,-0.83900297,0.020293074,0.0879026
molecular_sequence,0.38211626,0.7183028,0.082432956,1.1636536,-1.3956678,-0.4107614,-0.515054,-0.9552595,1.3849394,-0.90540236,-0.08998537,0.74321836,-0.21581852,0.48719373,-0.6737169,0.16722466
steroid,-0.10140027,1.3101702,2.2595274,0.28295127,0.99542713,-1.3651772,-2.4328537,-0.08224369,-0.055402502,1.382292,-0.40298647,1.0388075,-1.2458595,0.424418,0.355768,0.12227128
experimental_model_of_disease,0.5623159,0.7037467,-0.862891,1.0126328,-0.106857434,1.5722634,1.4944925,0.98265994,-1.3108294,0.90982294,0.8685416,-0.8698412,-0.1235822,-0.9180441,1.109047,1.4022381
patient_or_disabled_group,1.3871405,-0.64200646,-0.46800017,-1.6189976,1.0826108,1.1157749,0.24562114,0.2453418,-0.21274453,0.21194358,0.8283897,-1.5152103,1.7002299,-2.7533607,-0.7105872,-0.07529909
professional_or_occupational_group,0.10166813,0.8028127,1.3323423,-0.7644567,-0.62454844,-0.3216818,-0.10193135,-0.06921576,0.50427866,-0.61766046,-0.43625367,0.9950434,0.033269383,-1.2056181,-0.066890046,0.20718217
nucleic_acid_nucleoside_or_nucleotide,-1.3736637,0.78244954,0.05794873,0.6465279,2.3117528,0.9220173,-0.5362655,-1.8256655,-1.3270688,1.4922239,-1.1995652,0.7034866,-0.6228456,2.2672868,-0.22493719,-2.114544
organism_function,-1.058654,-1.0594779,0.7392234,-0.5300873,-0.3003411,-0.12747726,0.57527405,0.9488907,0.6942735,-2.0586534,-0.52668214,-0.824332,0.10499982,1.0095509,0.2886061,-0.40816036
mental_process,0.61945575,-0.5855929,0.98612416,0.6546717,-1.0763402,-0.64640856,-0.4749767,-0.14240266,1.3308464,0.17395522,1.4640548,0.75038344,1.1542164,0.9480641,-0.468328,0.009768699
therapeutic_or_preventive_procedure,0.8495219,-0.51328224,-0.055004645,2.1470747,-0.79654104,0.6922807,0.1719604,-0.45470548,0.13428344,0.74299514,-0.32465112,0.30174044,1.3048714,-2.0180469,-1.0380249,-0.66986907
cell_function,0.8593232,-0.66365415,0.24512987,-0.08832258,1.7262143,0.83709544,-0.33792797,-0.4626828,1.1535422,1.0397623,-0.5867905,-0.54126376,-0.26405743,0.7718941,0.0062557533,0.31565377
pathologic_function,-0.53982735,-0.4428184,-0.50541085,0.08051261,0.781648,0.23139594,0.20316179,-2.2656317,0.41545615,0.5518719,1.3197435,1.3595947,0.20783944,0.7934769,-0.6566696,-1.4683391
organ_or_tissue_function,0.41029444,1.0656579,0.84754926,-1.5369599,-0.5244614,-1.157034,1.8847553,0.24523588,1.1452637,0.32771564,-1.4111707,1.0412587,-2.6053903,-0.8374149,0.4607416,0.28693882
enzyme,-0.32631823,1.0664626,0.22131728,-1.3140798,-0.79996175,0.73853636,1.332031,-0.96940154,1.4634085,-0.35193115,-0.11014484,-0.76494867,0.82451135,-0.30461746,-0.83086866,0.36093315
cell,-0.6492471,-0.24135275,1.4220691,-1.4748262,0.7220242,-0.7384987,1.1807314,0.4264015,-0.34403387,1.7759521,-0.10109715,-0.16084161,-0.67837816,-0.649214,-0.33823752,-1.8712858
cell_component,0.6728889,-1.3476899,-0.7705575,0.11862746,-0.07439608,0.29480726,-0.09949878,0.0036992272,-0.4415922,1.3241632,0.7888155,-0.32820746,-0.7559691,0.5534171,-0.11250498,-0.009999232
cell_or_molecular_dysfunction,-0.35262737,0.42105216,-0.25253823,0.78825283,-0.27379882,-2.3284671,-1.1755364,0.019406674,0.0075744917,-2.2322495,0.6388073,0.5878502,-0.12505154,0.77273184,0.5167598,2.212418
hormone,0.6164961,1.1175109,1.2012732,-0.16227427,-1.9847034,-0.12912884,-0.14479336,0.6042547,0.38897246,-0.19123071,-0.2892335,-0.26512596,-1.0968636,-0.5075649,1.3354685,-0.6828129
organic_chemical,-0.07872077,0.19237109,0.21477334,0.1916937,-0.49253824,0.91533417,1.7940618,-1.1562775,0.69933766,0.16509694,-1.5215851,1.6629955,-3.423529,0.824279,-2.2270699,-0.77819747
behavior,0.72461784,1.1711061,0.24446337,0.5784994,0.915587,-0.62162036,-0.67267156,0.25772393,-0.43542835,-0.99062324,-0.4749766,-0.7429323,-0.01333826,-0.75696653,-1.0321655,0.47950825
neuroreactive_substance_or_biogenic_amine,-0.10690468,0.24544188,-0.28846964,-0.38731498,0.99026424,0.9395405,-0.17310473,-0.13076036,-1.2575337,-0.47106794,-0.947235,1.5831807,-2.0185869,0.7583356,-0.3125349,-1.8737235
embryonic_structure,-1.6189854,0.07007696,-0.25021875,1.3168045,0.050834328,-0.42787382,-0.007776353,-0.5559002,0.931916,0.779844,0.6248519,0.86368066,-0.6632806,0.74112344,-0.087584,-0.039844513
neoplastic_process,0.4633634,1.2898829,-0.28595203,-0.11361826,-0.19486006,0.4797209,-0.25435168,-1.2963005,-0.023179157,1.3734295,-1.7818017,0.07093005,0.46487635,0.15476716,-0.2728291,-0.16150445
laboratory_procedure,0.12820864,-0.8794239,0.49481103,1.0521036,0.11038978,0.8929342,-0.1814739,-0.4714403,-0.9609653,-0.2161323,1.0013347,-0.82896626,-1.7686284,0.6511245,0.75768065,-0.107588045
natural_phenomenon_or_process,0.07047534,0.95522857,-0.19815089,-2.653523,0.42839783,-0.6345519,0.18352617,0.11610527,-0.80475336,0.876222,0.35754412,-1.194404,-0.7274946,1.2999804,0.46235025,-0.20988333
immunologic_factor,-0.63164306,-0.94675684,0.6023179,-0.7185312,1.2026879,0.7107484,-0.38108927,-0.63110274,-0.5095296,-0.05759526,-0.7928416,0.21886352,0.8005882,0.73081917,0.368371,0.068707496
receptor,-0.72931683,0.6937105,0.42779434,0.522823,-0.1475877,1.2626255,-0.8716976,1.5670819,-0.87160176,0.9693149,1.5645624,-0.6969121,-1.9822534,-0.43456718,-0.0037163983,-1.421655
self_help_or_relief_organization,0.5846547,-1.6856682,0.7138081,-0.8046704,-0.10072054,0.7232142,0.054295834,2.8292055,-1.6662984,0.13960801,-0.32676497,-2.84014,0.8754632,0.3506915,-1.2434145,-0.08550225
pharmacologic_substance,0.1742305,0.28015992,1.5606878,-0.05690804,-0.46275944,-0.064030476,1.2292547,-1.197309,-0.30799162,-1.046638,-0.11695895,-0.3072452,-0.25440183,2.0377164,-1.1814313,-0.36105594
molecular_function,-1.6565765,-0.49299857,-0.29990584,-1.6415118,-1.1272035,-1.2886598,1.8869039,0.04986334,-0.45747733,2.4948723,0.65346175,0.89426076,-0.56816846,2.0879982,-0.44659323,0.19554555
regulation_or_law,0.4674799,-1.0556407,0.68139005,-1.6102821,1.2148918,-0.7179529,-0.21491134,0.24519874,-0.021307107,0.085790955,1.1745647,-2.7373035,0.25903267,0.7078466,-0.110723786,1.7869841
human,0.16493353,-2.317712,0.7831969,0.49524352,-0.19815932,1.425066,-0.490416,-0.5553038,-0.9359929,2.0349402,-0.59733623,0.9361199,-0.22174904,1.4066684,-1.1217743,0.01716141
eicosanoid,-0.0299331,0.9196905,0.46681395,-0.37420163,-0.8882581,0.35740945,-1.279508,-0.39318386,-0.39423785,-0.96320194,0.7783767,1.2717885,-0.4068908,-0.22865953,-1.8394605,0.30021647
amino_acid_peptide_or_protein,-0.28755805,-0.23409753,0.8986033,0.32070038,0.1294871,0.1785839,-0.38592038,-0.035365283,-0.85569376,0.36669272,-1.4093617,-0.57526773,0.2926019,1.1804565,0.28914708,0.091872275
group_attribute,1.0594445,0.07759011,0.44405413,-2.672506,-1.4767975,-0.15925963,-0.90546405,0.33131486,-0.48445466,0.90339977,1.800567,-0.11476768,1.3822966,-0.48841652,-0.26133183,0.70848954
organism_attribute,-1.916567,-0.663326,1.3747054,0.29868245,-1.4955869,0.9646065,0.4166881,0.01602412,-0.39152497,1.693905,-0.22420518,-0.04563347,0.60035014,1.6819289,-1.5513557,-0.6720004
finding,1.139081,-0.3396941,0.6104108,0.19856596,-0.35825354,-0.8575225,0.39542148,0.8405575,0.2369535,-0.83062345,-1.3689684,-0.7621773,-0.16124234,1.3125508,-0.34522194,-0.019626612
congenital_abnormality,0.9657541,-0.08969469,0.45264027,1.5915782,-1.6801441,-1.6599486,0.049698338,-0.9590752,1.0084206,0.33128273,-0.7972957,0.9328944,1.2297177,-1.257293,0.31627935,-0.48517105
anatomical_structure,-1.0047486,0.081027515,0.16243081,0.040464755,-0.06623405,-1.4902323,-2.7620108,-0.83484674,-0.4841996,1.5727931,0.44831768,1.3115498,0.26149726,-1.1673026,0.77998585,-0.40890735
molecular_biology_research_technique,-0.319228,0.26943487,0.57302856,-0.16409966,1.5491236,-0.612022,-0.26825386,0.24576047,-0.274732,-0.93555677,-0.44169533,-0.8324149,-2.434973,0.3917889,-0.53147954,0.32100543
diagnostic_procedure,0.7510344,-0.33288935,-2.1079957,0.61851805,-0.7449754,-1.237656,-1.3403013,0.15334977,0.043074198,2.591855,-0.9752694,3.47494,-0.6993809,0.8912177,1.5634295,-1.4266219
biologic_function,-1.8813852,-0.65993005,-1.2203357,-0.89127153,1.244798,-1.2678834,-0.41258153,1.0419693,-0.7505839,2.8238409,1.0549423,0.7394686,1.7311159,1.7084545,-0.69912696,-1.2314606
tissue,0.07872755,0.27901453,1.806758,-0.7583113,-0.652753,0.32921937,1.062579,-1.9116904,-0.9989688,0.35266855,0.87328297,0.13732913,-2.140303,0.18706933,0.55559546,0.09631413
hazardous_or_poisonous_substance,0.7860937,1.3638186,-0.053679574,0.8750487,0.10461315,-1.0420685,0.03851062,0.7713042,0.40243542,1.0609642,0.08046511,0.30583644,-0.54019845,0.37458023,0.6599009,-1.1661452
chemical_viewed_functionally,-0.2953305,-1.1065357,-0.49234682,0.16165514,1.4173453,-1.2429298,0.4075528,1.3839655,-0.30586854,-0.34873334,0.2711245,0.48193923,0.9610955,-1.0246137,-0.34229854,0.14770006
reptile,-0.75888664,-0.044499956,0.3959206,1.5534502,0.3262358,-0.052479934,-0.5407822,0.4482404,0.062396735,-0.47418138,-1.3305559,-1.231597,-1.9915092,-0.5556311,1.6395655,1.8692139
family_group,0.48303115,1.7249454,-0.9900679,-1.2682316,0.13448077,0.29389057,-0.63109696,-0.15945834,-0.6270818,1.1836423,0.2961533,0.25998294,-0.2497456,-0.7327009,0.18982965,0.107913494
virus,-1.1943877,-0.6418391,1.7176386,1.7735227,-1.9152025,1.6546578,-0.20312575,0.7318503,-0.4911607,-1.7727814,0.534302,-1.1047921,-0.9468861,0.6323967,-0.6097963,-0.67666173
indicator_reagent_or_diagnostic_aid,-0.80596167,-1.5806875,-0.87511057,0.21547699,0.9509604,1.1031244,0.7067015,0.5960298,-0.72312653,1.3620322,0.2139761,0.040055443,0.83585113,-0.75937855,-0.79761255,-0.41032842
sign_or_symptom,-3.4949384,1.5292566,0.8729875,-0.65635073,1.3373461,1.2596911,-0.9850768,0.22596659,-0.116002545,0.2927851,0.78465545,1.0552464,0.3315777,-1.1112473,-1.7698727,0.65213144
antibiotic,0.5169179,-0.70793986,-0.317671,-0.7417185,-0.71149695,-1.849637,-1.6644105,0.4428802,-0.917461,-0.2520363,-0.6541379,-0.4685509,2.2896392,1.2300094,0.22325984,0.10967665
chemical_viewed_structurally,-0.007111738,-1.5233448,-1.4418608,1.079099,0.3614591,-0.31118187,-1.8983958,1.1535971,0.6712107,-0.3782205,0.7698404,-1.322392,-0.32557657,1.1749674,-1.2009836,-0.45091933
body_space_or_junction,-1.2503043,0.37226334,0.4690476,0.34547594,-1.0306593,0.050909374,0.20459345,0.10659127,1.4254019,0.3459252,0.7856747,3.058728,0.40054086,-0.26434338,-0.89233696,1.0483292
amphibian,-0.5915548,0.26844993,-2.218289,2.860661,2.6750681,-1.8166683,-0.82052106,0.17524737,-1.2492124,-0.124044955,-0.7287144,1.6625241,-0.13849357,-0.4881949,0.762306,0.28422624
health_care_related_organization,0.9247104,-0.8934188,-0.011545689,-0.25464687,0.28910214,-0.74966764,0.65702945,-0.50515926,-0.6647401,-0.30655867,-1.1347197,0.65770954,0.09741918,-0.7579487,0.6978976,-0.25601572
fish,-0.3932881,-1.9616041,-0.1090805,2.3307443,1.9558038,-1.9883546,-0.15009442,-1.35352,0.09556122,0.12461611,0.58697915,0.58881503,-0.39967945,-0.6678411,-1.5964605,-0.2654623
physiologic_function,1.1008468,-0.91167,-0.7778505,0.93468404,1.2328025,-1.9524338,-0.21240716,0.88286704,0.007672101,-0.06162988,-0.21568696,1.382979,-0.30780774,-0.03411636,-0.51353,-0.07961948
animal,0.72617555,-0.7934611,0.41861507,0.31757674,1.0113889,-2.416039,0.87272125,1.1913537,-0.041127518,-0.46555856,-0.15429296,-0.33953515,-0.09433579,-1.462252,0.805483,0.23579374
injury_or_poisoning,0.8531439,-1.9353971,-1.175426,-1.3337141,-0.022267,-0.08205776,1.7159233,-0.972669,0.077414654,0.9537416,1.2647974,0.047307603,-0.43012333,-0.38466898,1.5095427,0.10298317
lipid,0.15805675,-2.0191596,-1.9454011,1.4298182,1.0495108,1.341831,-0.33554453,-1.5454044,0.3050695,-1.0938647,-0.40943453,-0.29007754,1.5437245,0.18863767,-0.3253726,0.2624715
plant,1.1577393,-0.9293495,1.0553287,1.4705127,1.1353337,1.0664785,0.5220607,-1.0456512,1.9156729,-1.6247864,-1.5665182,-0.37731367,0.29161057,-0.33371913,0.7852995,0.4166532
organization,-2.4162114,-1.5693343,0.09532204,-0.5785675,-0.44708362,1.4528048,2.09972,-1.3886768,-1.5504465,0.85244304,0.4940416,1.4703847,-0.45117462,1.1207601,1.123256,-0.07784682
genetic_function,0.5276364,0.033131238,1.0854504,0.20278385,-0.98450303,0.8747683,0.46834242,-0.6221629,0.3456411,-0.7059589,-0.50239223,0.7670082,2.441269,0.29365796,1.0503538,-0.35111693
gene_or_genome,-0.15848088,0.24365638,-1.0725465,0.17231356,1.6883624,0.8442684,-0.31297746,-0.21773879,-0.44778198,-0.09760758,0.5115991,0.62485397,0.108518004,-0.14295831,-1.1686488,-0.71120656
laboratory_or_test_result,-1.161201,-0.039189853,-1.3783305,1.4865115,0.73789597,-0.2445966,-1.8594221,-0.46536344,0.10207651,1.8053685,-0.07730062,-0.16976576,-0.60575557,2.3299394,2.0985827,-1.0998971
spatial_concept,0.788742,2.4371543,0.76843756,-0.79809517,1.0447137,-0.33438265,0.14884932,0.20906003,1.1563501,0.9454311,-1.4967694,-1.3770592,0.69764465,-0.13435476,-0.91953784,-1.2882189
rickettsia_or_chlamydia,0.1565924,0.2297305,-0.967917,-0.1958103,-0.28690195,0.13277797,0.717459,1.0007366,-2.478739,0.8493976,1.1457058,0.26294526,1.0186348,0.6520555,-0.66451055,-1.103287
body_substance,-2.1039288,0.19976814,-0.6902328,0.65322274,-0.6132215,0.34419024,0.37164244,0.22280702,-1.1636372,0.40817213,-2.1832805,0.32041216,0.4489482,1.0904603,-1.1590191,-0.21522523
intellectual_product,-0.22980128,-0.59422565,1.7165475,-0.8279461,-1.0813303,-0.38288248,-0.2972091,0.75178975,0.42426044,0.21811664,-1.7108029,-0.9752541,-1.4009094,0.09527696,1.6194916,1.619624
element_ion_or_isotope,1.2919754,-0.30673185,0.027583087,-0.5146383,-0.024486398,0.6227587,-0.057967775,-0.050419286,-3.7640114,-1.618562,1.8318138,1.6760209,0.091505945,0.022535695,-1.2506697,0.1538725
research_activity,-0.65359336,-0.5463956,1.1691054,-0.6060889,1.4035481,-0.8520132,-1.5931506,1.5794625,0.42233318,-0.1359162,-0.78599626,-0.13393609,-0.9995391,0.75815487,0.37923518,-0.1909242
geographic_area,-0.0902482,-0.3237906,-0.46759057,-0.10114277,-0.4716874,0.52488375,-0.8192345,1.4142776,-0.10982337,-1.1520522,2.4719663,-0.7612571,0.6486627,-1.6875598,0.87978333,0.21452694
professional_society,0.6480661,-1.784563,-1.2343627,1.1077634,-0.9798686,1.2007222,0.9662233,0.23071691,0.804141,-0.42680416,0.0811899,-0.2691202,0.6012638,-1.1759435,0.32989687,0.05562775
organophosphorus_compound,-0.6880077,-0.6470755,0.7483813,-1.2175689,-0.14655846,1.53783,0.36189535,-1.6295769,-1.189547,0.09591733,0.09740335,-0.90164274,0.0746757,-1.1975416,-0.40350464,0.093717486
body_location_or_region,0.20435415,-0.5742339,0.675907,-1.0884277,1.0596287,1.0458382,-1.1290429,-0.6911027,0.7845356,0.41782862,-0.016629554,0.48584428,0.48980516,-0.47518855,-1.3112553,0.11883186
invertebrate,0.91724885,-1.8063861,-0.14126146,-1.1403925,1.1378574,-1.3081603,1.4573866,1.3719282,-0.63280374,0.9479027,0.39215854,1.4887612,2.0077498,-0.42251024,-0.4714853,-0.06028097
age_group,-1.7364413,0.8799781,0.1311545,1.5344273,1.6898566,-0.41462976,-0.6155903,-0.06742419,0.35551804,0.96515864,1.3159612,-1.1140946,-0.78836656,0.92773855,0.59878683,0.8892496
human_caused_phenomenon_or_process,-1.2092652,-0.75382876,-0.4750603,0.12826836,-0.23008461,-0.12428837,0.5817504,-0.5292921,0.02505821,2.0576851,-0.08475499,1.1243427,-0.1493996,0.21110691,-0.31800145,0.49993286
phenomenon_or_process,-0.28443354,-0.270138,0.54321194,1.8792095,0.11220467,0.18872544,-0.2852686,-0.27044168,0.13773754,-1.7479081,-1.3516527,0.97028,-0.011306655,0.67204976,-0.75029236,0.08218198
individual_behavior,0.6321909,-1.5383581,1.1368905,-1.8510826,1.3679292,0.54559255,0.0338506,0.4441267,-1.1731848,-0.35856065,-0.26414216,0.37105793,-0.21672569,2.0823443,-1.5744311,0.3051509
bird,0.595137,-0.69546515,-1.7033213,0.15310873,0.03539353,-1.5700887,-0.52781206,-1.5563204,1.822709,1.0750494,-0.0739936,-0.38228068,-0.36246452,0.82867724,0.4029676,0.37664682
mammal,1.3950026,-0.11759894,-0.8283189,-0.21429226,-1.0141933,0.38343045,-0.66063505,-2.1945698,0.6704171,0.2968494,0.2674806,-0.24687016,0.5660669,0.70523036,1.4114442,-0.015646312
qualitative_concept,-0.43074885,0.5108746,1.3504589,0.31534374,-1.3174697,-0.54890305,-0.105900876,0.49218053,1.8932912,-0.9073764,-1.3355461,-0.23102103,0.008682543,-0.1625798,-0.11249158,0.60964435
environmental_effect_of_humans,-0.90294385,1.4311062,-1.4964558,-1.0412555,-0.688294,-0.6528481,-1.1960956,0.50356823,-0.046106003,0.23333254,-0.12748848,1.2992297,0.7063366,1.2365835,0.58793753,0.39913076
social_behavior,0.5963246,0.59134454,0.88427234,-2.1228154,1.3965478,1.3789521,-0.8770892,-0.51990974,1.0293643,-0.93165267,-0.2536153,0.75430965,-1.8505298,-0.9306723,-0.08708935,0.79070866
biomedical_or_dental_material,1.0698264,-0.80588657,-0.27709022,-1.0891287,-0.17747691,0.35960245,-1.0707862,-0.99659806,-0.3255081,1.1928114,-0.08603003,0.41244113,0.85967875,2.2481983,-0.26024687,-0.8520156
quantitative_concept,0.26771027,0.18321708,1.2718798,0.65985644,0.3247507,-0.006221829,0.11496954,-0.21769483,0.36930135,-1.4686275,0.34626505,1.1498429,-1.4448721,-1.2533547,0.065618195,-0.5136164
inorganic_chemical,0.44288927,-1.3398025,-0.34632286,0.17052901,1.388368,-1.9809428,-1.7752612,-0.05894938,0.8837212,0.24809712,-0.54978085,-1.1802062,-0.12998934,0.054277863,-0.79007524,-0.019492073
drug_delivery_device,-1.874426,-0.5084365,0.33385718,0.5703908,0.7071608,-0.39828512,-1.3641512,2.2317464,-0.27543026,0.6621464,-0.048880648,-0.5061727,-1.0694922,-0.17951359,-0.34899238,1.6749462
educational_activity,-0.21578138,-1.815149,0.36280784,0.39733252,2.1369307,-1.6235117,2.8935869,1.2757866,-0.08040031,-0.9605517,1.4549865,-0.10270344,-1.8868903,-1.5297207,-0.91654253,0.6938681
chemical,0.23566023,-1.2323617,0.62115115,0.8908138,-1.7643763,0.35019025,1.4744135,-2.320948,0.9676358,0.0821394,-0.056452487,1.8340126,0.7692065,0.9986288,-2.6092618,-0.2392352
vitamin,-0.0027181848,-0.6381636,0.42217925,-0.02231525,-0.9993301,-0.33168775,-0.30627012,0.90371853,1.4321889,1.7273262,-1.105262,-0.17138635,-0.9653233,-1.2958237,-1.8201565,0.56232643
fully_formed_anatomical_structure,0.108699575,0.4851074,0.2773811,-1.1248555,0.22785807,-1.6350238,0.26403794,-2.272604,1.4258944,-1.0302527,0.04250324,0.6980735,1.3441615,1.2468356,0.43112057,-0.41922122
group,-0.5885853,0.7363542,0.5187135,-1.8555707,2.088419,-0.5250186,1.5230726,-1.052383,-1.6453277,0.9152154,0.15546876,-0.0035260862,1.08936,-1.1966482,-0.2166906,0.019310381
nucleotide_sequence,0.9091072,-1.4653507,-0.88718295,-0.50635856,0.3481148,0.95062315,-0.3086399,-1.3089269,0.47422573,0.093276866,-0.12232244,0.8015648,-1.6005054,-2.2298772,-0.07066343,0.011699899
body_system,0.67200744,-0.84123117,0.14450239,-1.7940304,-0.34798595,1.3866898,-0.07341384,-0.22631074,-0.72761333,0.88276005,1.375174,-2.0425522,0.082186185,0.2997912,0.5930981,0.363938
food,0.5918061,0.024325948,0.34990755,-1.10151,-0.15317674,0.44059485,-1.8357967,-0.1882188,1.3291732,0.029088205,0.28084517,0.9440939,0.5624278,-0.99685526,-0.20535237,-0.19942717
bacterium,1.0756863,-0.045833033,1.0049027,1.2559174,-1.0605819,-0.25764647,-0.5473278,0.36621875,-0.9518873,-0.9028765,0.55169666,0.9330542,-0.28951398,-0.401986,1.1545104,3.0860045
fungus,-1.5188147,0.023799667,-0.2595716,1.4844396,-1.2406633,0.5052556,1.0154964,0.35393617,-1.0361297,-0.44091865,-1.230373,0.38219684,-0.6261219,0.05686793,0.26732326,-0.2685504
research_device,0.19934197,-0.681152,-0.99255896,1.6966457,1.0624326,-1.4477342,0.46500757,0.41454735,-0.6494986,-1.1474179,-0.98549956,1.7942744,0.5207811,-0.6087587,0.5148077,-0.0737237
governmental_or_regulatory_activity,-1.0302767,1.1519042,1.300578,0.12244603,0.11288109,1.1494085,0.5368273,-0.4564017,-0.62475055,-0.15868337,0.18815103,-2.3742247,0.2967129,-0.4427804,0.3306724,-0.24951667
idea_or_concept,1.5267731,0.31831414,-0.5683033,-1.7506648,-0.4159026,-1.2847595,-0.46814844,1.1249073,-1.5857958,0.15271007,1.3023982,-0.5169354,-2.0948932,0.45480976,0.0019303921,-0.5942836
occupational_activity,0.6926808,-1.0167317,0.4768878,1.053107,1.1063739,0.34083596,-1.3170316,-0.37717894,-0.33845678,-1.8523625,1.4503433,-1.0880318,1.1708615,-1.1067927,1.270254,-0.80343956
physical_object,-0.2996959,-0.5628631,0.7783561,-0.9390092,0.17361948,-0.37275285,0.61396235,-0.16380903,0.93962234,-1.3991015,-0.34964722,-1.4494072,1.4006988,-0.0032308928,1.8754575,-0.18189903
vertebrate,-0.6296154,1.3560135,0.6564488,-1.2517966,-1.0013895,0.07086239,-0.3511789,0.2622319,1.0534104,-0.30593422,0.23361427,1.0736563,-2.385378,-0.54866314,1.3202727,0.6455232
substance,0.6610794,-0.2604038,0.7679314,-0.012344111,0.124807134,0.7633615,0.09744002,-0.6458246,0.6167926,-0.566409,-0.96049446,0.36276397,-1.4227113,-2.0226023,-0.08756071,-0.2439866
medical_device,-1.2547183,-0.97336954,-1.8638142,0.38023868,0.8469774,0.6198856,-0.067473345,0.10278692,-0.90466344,-0.36638793,-0.4382735,1.0352511,-0.6634379,1.5841428,0.108557634,-0.23781307
manufactured_object,0.17318955,0.35546955,-0.095044546,-1.6031208,1.0427625,-1.2458906,2.4891288,0.33122775,0.0943448,-1.2228625,0.9567524,0.5553608,2.855784,-0.31080657,0.3359998,0.29226422
classification,-0.10738886,-0.6815101,1.1564667,0.42033628,-0.8348235,-0.23458546,0.31171554,1.2280235,0.37142453,0.8595118,0.45146868,-0.06366482,-0.2642389,-1.4589206,-0.98503226,-0.12085988
daily_or_recreational_activity,0.31127444,0.17368014,0.2798185,0.54111266,0.26535362,1.4694442,0.20523655,-1.4989313,-0.48489377,-1.4311992,0.17598939,-1.1541328,0.55463594,0.9896601,-0.3486403,-0.13590567
conceptual_entity,0.38622975,-0.21408688,1.3640108,-0.7847171,-0.31031233,0.1260373,-0.34680182,0.80661976,0.7275113,0.2628222,-0.0076062134,0.29176596,0.32479918,-1.0839645,0.13278681,-1.1273521
occupation_or_discipline,-0.98656267,-1.1032594,-0.65034026,0.6167971,0.7135018,-0.111358725,0.7391507,-1.4979163,2.175826,0.27370143,-0.04246451,0.23724866,-0.23862287,0.8804403,0.361279,-0.14525977
amino_acid_sequence,0.1929119,1.0660954,1.0541213,1.0377111,0.6423008,-1.0022757,-0.8112003,1.2708443,0.41450906,-0.6233562,0.8463209,1.5658801,-0.8070902,-0.57128537,-1.8573,-2.7667203
clinical_drug,0.6807841,1.2125103,-0.48933545,-0.13231857,1.7434381,-1.7445408,-0.25382373,1.0436546,-1.4326012,-0.9976281,0.44026953,1.1533862,0.401696,-0.18121096,-0.5625306,0.2636928
activity,0.13215463,-0.027829759,0.48148197,2.2589612,-3.087832,-0.98642796,-0.12754454,0.06264368,-0.52049494,-0.005387679,2.02641,-1.3422232,1.0262285,-2.2549424,1.0072337,1.3528401
event,0.27025798,-1.1758785,1.5878263,1.4720628,-0.91844517,2.8652651,-0.6828449,-0.24214263,0.81705457,-0.7189115,-0.6155404,0.8379897,-0.84958315,0.64526993,0.32084748,0.99680716
temporal_concept,-1.3149494,0.06784486,0.06283662,-0.25844714,0.17000875,-1.013936,-0.890937,1.8650706,-0.61563426,0.2804518,1.1555092,0.02704004,1.137345,-0.3780728,0.16472109,-0.5153476
archaeon,0.28692326,-0.37836623,1.3696886,-1.5339346,-1.1121383,1.177198,1.4923155,-0.32489333,-0.060549095,-0.04554715,0.2986081,0.45449466,-1.5824178,-0.122589685,-0.43324524,-0.16370879
language,0.17826468,0.4617582,-0.8877396,-1.3605332,1.5208317,0.16470435,1.6474987,0.6946114,-0.3423181,-1.480584,-1.7381977,-2.139373,0.06978655,1.2841014,1.948846,-0.17284423
biomedical_occupation_or_discipline,0.2562398,0.8036978,1.3000096,1.6347251,0.10959884,0.021653868,-1.9865222,-1.6181788,0.23233789,-0.7105979,1.5998894,-1.0150735,-0.8832157,-0.27524057,0.7483784,-0.3469818
functional_concept,-0.5264619,0.8940425,0.35110846,0.8496437,-0.07067529,-2.0966866,-0.6719232,-0.70690924,-0.58136326,1.0415003,0.791088,1.4107152,0.50162214,-2.5334566,1.2909336,-0.12191371
machine_activity,1.2234733,-1.0659335,-0.3875676,-0.13911073,0.63099575,-1.375042,-1.7258804,2.0326653,1.7515583,0.5410818,-0.41500786,0.99376166,-0.75626016,0.6094868,-0.6446353,0.9280458
entity,-1.44769,0.29568726,1.1608657,0.7556373,-1.2881248,-0.7106701,-0.35650152,0.24623166,-0.07747705,-0.13885252,-0.48013112,0.11376111,1.5316732,0.80481625,-0.9994073,0.65199757
carbohydrate_sequence,-0.3710911,0.627241,0.50736475,0.6958218,-1.0520781,-0.18307516,-0.6422838,-0.049581222,0.68032163,0.22661236,0.16504833,0.7109187,0.060654208,-1.412993,-1.0838699,1.1195455
organism,0.17533252,-1.9156502,1.2705549,0.846798,1.6374869,1.62994,1.1373535,0.26834702,0.43382275,-0.72031695,-0.06765437,-2.2991543,-0.3789701,-0.24792984,-0.6795779,0.72613937
