,0,1,2,3,4,5,6,7,8,9,10,11,12,13,14,15,16,17,18,19,20,21,22,23,24,25,26,27,28,29,30,31
acquired_abnormality,-1.4767928,-0.7272264,-0.7023008,-1.4949639,-0.074692465,-0.61497784,-1.0345613,-1.495013,-0.6587859,0.42202842,-0.7089473,-0.34912875,-0.24569297,1.6417888,0.1954454,0.46507365,-0.7677291,-1.1962318,0.8153337,0.11307773,0.8309872,0.26805186,-0.6079091,0.79566115,1.0406691,-0.12801053,-2.3013456,-1.5055233,-0.003946919,-0.55559117,-0.752075,-0.17869109
anatomical_abnormality,1.7402669,0.1726316,-0.08180218,-0.83046657,0.22252573,-0.011738615,0.09796266,-0.46910673,-0.065265074,0.31256878,-0.08419906,-0.060496487,2.4092622,-1.0761135,1.4906865,-0.6071082,-0.9150036,0.57376313,0.3335194,-0.4549947,0.7457555,0.46070695,1.2087034,1.9413974,0.09066831,1.1005503,-0.16951662,-0.6214225,1.4436775,-0.7889333,-3.3208392,-0.7832448
alga,-0.007277186,-0.9715907,-0.6148327,-1.0038747,-0.26792058,-0.08830587,1.6016703,-0.019386316,-0.72517574,-0.18950993,-1.0612127,-0.80465645,-0.36619553,-0.49330652,0.32934675,-0.9903358,-0.5094446,0.35483062,-0.61392844,0.79396594,-1.3834764,-0.56553113,0.099758446,-0.080087796,0.25386846,-0.45154306,-0.96004987,0.804365,-0.98763853,-0.4391346,0.27766523,2.0923605
mental_or_behavioral_dysfunction,0.7442318,0.9459042,0.7815517,-0.96511126,1.4281033,-0.7348566,-0.8527418,1.0704418,1.3618816,0.68295246,-0.14404146,-0.064541265,-2.0347526,-0.5764161,-1.3987279,-1.0797775,0.8222226,-0.77744156,1.2118961,0.867486,0.11273445,0.22000612,0.5544179,-0.39385203,2.4934924,-0.23570482,-0.021379417,1.797775,-1.9754268,1.7263434,0.14798638,0.28973058
health_care_activity,0.9310038,-2.1088476,0.25745344,1.0574431,-0.53156495,-2.047172,0.7097014,-0.8025374,-1.6223794,-1.8209317,0.37186792,0.55728644,2.1341712,0.69897926,1.7707287,-1.751124,-1.54042,-0.79992074,1.3706532,0.98826313,0.794157,-0.40294892,0.58822066,-1.4436625,0.42825627,0.07681779,0.58222467,1.6990817,1.8685097,1.5637548,-0.44380212,2.5913136
population_group,0.34342948,0.06425495,-0.7862803,-0.48444784,-0.5714279,-1.0114379,0.8043872,1.0436487,0.3428076,1.529419,1.2622073,-1.8958137,-0.41336945,-1.0315084,-0.07872318,-0.09700487,0.97609746,1.3992497,0.47156367,1.682167,-0.9192711,0.087522745,-0.07461038,-0.31225446,1.737402,-0.27365476,0.19106275,1.5404453,0.1786294,1.4658562,-0.2831187,1.0453272
clinical_attribute,-0.8205409,0.8715253,1.7685405,-0.13511027,0.6670127,-1.774495,-2.9156513,-0.5657405,-0.6092464,0.8287353,-0.89481497,0.5749166,-1.4616168,-0.16040073,0.7235276,0.17953299,0.99632955,1.3020338,-0.42000824,1.3549831,0.15119068,2.0260534,1.7688072,1.318221,-0.97007066,1.2709149,1.1187629,-0.6038227,0.08856565,-0.5262633,1.4083148,1.8564475
body_part_organ_or_organ_component,1.7345505,-0.46386036,-0.34454542,-1.5118299,1.3250005,1.3277981,0.47340724,0.44414815,-0.07058374,0.2874321,0.8105733,-1.3245643,1.6685585,-2.356164,-0.9002475,0.24403699,0.22242032,0.9358177,1.4834269,-0.4526676,-0.67860657,-0.083957344,-0.225628,-0.10460666,0.29471466,-0.5323183,-0.5679332,1.0441831,-0.09030578,-1.1319766,0.019759985,0.51972336
biologically_active_substance,-1.1971856,0.91835517,0.103312135,0.825872,2.394967,0.9633382,-0.414729,-1.7082549,-1.2533883,1.4828981,-1.1572393,0.7679252,-0.48824754,2.0252192,-0.5132828,-2.4470844,-1.1931733,-1.0836384,0.76465565,-0.43862966,-0.26402843,-0.020112092,0.8083017,1.053251,0.8343588,-1.8352648,-0.34610087,-0.65251756,0.40935397,1.0814956,0.3113147,-0.6468994
disease_or_syndrome,-0.20058753,-1.1201196,0.14267273,0.21895823,-1.5923669,-1.057194,-0.77829844,-0.4617871,0.9715086,-0.09458135,1.1000419,0.59017485,0.8729675,1.2761256,-0.76904875,0.6524638,1.0184685,-0.0012326556,0.18179461,2.3715587,-0.5838785,0.78515583,0.23160325,-0.30464897,0.23855317,0.72732955,-0.1914979,0.11719232,1.1283104,-2.19592,-1.0190796,-0.91167384
carbohydrate,0.5280356,-0.6277698,0.12808175,-0.28602707,1.5770804,0.7509499,-0.6229645,-0.7997637,0.67211705,0.71304953,-0.8129888,-0.7770212,-0.8755552,0.9005963,-0.06186139,0.9498265,-0.38828957,-0.42644846,-0.5492087,-0.06736942,0.6123275,0.07629257,0.09579276,-2.5140002,0.39855528,0.5842257,1.2129015,1.0301902,-0.09683306,0.46765262,-0.52565473,-1.684746
molecular_sequence,0.19155064,0.780445,0.68426776,-1.7922007,-0.8489645,-1.4990814,1.5475348,-0.08138931,0.8622093,-0.018251747,-1.7849514,0.964498,-2.6323018,-0.18251602,0.34492958,1.1212432,-0.48406833,0.9404495,-0.07590257,-1.3552272,-0.9196968,0.79640853,1.2093664,-0.90441877,1.3930705,-0.37943742,-0.2064906,-0.6124169,0.7231785,0.42274347,-1.0304935,0.9536162
steroid,-0.6133683,-0.18956244,1.6074364,-1.3455825,0.85921144,-0.6438556,1.193938,0.57367486,-0.19479014,1.7567778,-0.05137375,-0.030135904,-0.5999936,-0.6959397,-0.36681852,-2.1318555,0.50057644,-1.4918529,-1.0030473,-0.00091034354,-0.27128613,0.12690261,-0.36455518,-0.20648125,-0.7351354,1.1940753,0.71470696,-0.4085499,-1.125494,0.31673533,-0.8084156,-0.6041318
experimental_model_of_disease,-0.51029307,0.28169888,-0.33831695,0.6139602,-0.4000226,-2.42095,-1.2428243,0.02799125,-0.1305803,-2.2905538,0.6706777,0.48418048,-0.23366907,0.63845605,0.38354218,2.201727,1.0354269,1.4169147,1.494483,0.11329032,-1.4910839,-0.027813284,0.19222869,0.6140892,0.6277303,-0.2373548,-0.018369813,-0.5481873,-0.3364641,-1.2011133,1.9673295,-1.8100386
patient_or_disabled_group,-0.06829107,0.15781556,0.31730857,0.2212277,-0.49010384,0.9341002,1.8084441,-1.0309148,0.8308469,0.28912324,-1.3902314,1.6059397,-3.213772,0.42155558,-2.1500254,-1.5099815,1.0642328,1.3391323,0.5947769,0.84803784,1.1063814,-0.30738935,-0.40982953,0.63391054,-0.26249692,-0.820939,-0.14732732,-0.44920003,0.11139554,-0.6593589,-0.9326465,0.6485147
professional_or_occupational_group,-0.45786634,0.059181873,-0.55537826,-0.59488946,0.777626,0.79671264,-0.4904682,-0.46016064,-1.4430369,-0.65308917,-1.1289549,1.3902305,-2.163652,0.35787365,-0.15400209,-2.4789908,-1.619858,0.26928988,-0.2193675,1.3538438,0.13160048,-0.37809518,0.15063761,-0.5685513,1.0018566,0.6436271,0.5800215,0.47823074,-0.5882186,0.2346854,0.25853607,-0.4711227
nucleic_acid_nucleoside_or_nucleotide,0.49830115,1.2773558,-0.27944773,3.300666e-05,-0.062942244,0.55685145,-0.21228346,-1.3006657,0.096817225,1.4961762,-1.8231657,0.13398495,0.48046646,0.32711527,-0.7369381,-0.20617673,0.4209713,-0.57387227,0.79812175,1.2824563,0.20731394,1.0614573,-0.074879654,-0.30214077,-0.67708594,-0.057047624,1.2745662,-0.5342134,-1.4808477,0.9692871,1.1488794,0.46215302
organism_function,0.23220225,1.1284565,0.02996891,-2.302486,0.59644026,-0.32930252,0.42965892,0.29911163,-0.5967117,1.1295227,0.5054878,-0.91688806,-0.44252333,1.6924014,1.0950477,0.7800255,-0.57268,-0.9096357,0.7717398,-0.6890083,1.0941727,0.74226004,-0.38503066,-0.65809923,-0.5629323,0.009741948,-0.82799387,0.22195762,0.88558084,0.8174985,0.23854446,0.7386346
mental_process,-0.88896525,0.64004326,0.2350664,0.41185656,-0.17788659,1.028984,-0.8434114,1.4693488,-0.8179083,0.7512033,1.4884089,-0.9151312,-2.0539968,-0.7469894,0.30591375,-1.884188,0.85668564,-1.2138687,0.96136457,-0.54069096,0.18292865,0.91064495,0.31155863,2.9335833,-1.470579,0.32745034,0.039477177,-2.7169561,1.270981,0.22438236,-1.0813212,-0.5257857
therapeutic_or_preventive_procedure,-0.29789147,-0.3198595,1.1200752,-0.47185826,-0.893163,-0.54391783,0.84219956,-1.7355466,-0.56693023,-1.5980475,-0.39091015,-0.80585784,-0.4659366,1.114303,-0.9372806,-0.7329994,-1.8891433,-0.61074966,-0.32878485,-1.4400953,-0.90239793,-1.0667027,2.0278428,0.4009916,-0.1527638,2.6201153,0.8479253,1.113097,0.025844904,2.0943415,0.35899112,0.75641835
cell_function,0.9851168,-0.5483502,1.1116191,-1.0033618,1.6689558,0.048279863,0.1326849,0.8948955,0.41435573,0.74742395,1.5685698,-1.93571,0.86735535,1.5509677,0.33460307,2.5417776,0.48125815,-1.9749147,1.1237934,0.85329247,0.074852884,1.6159365,-0.19906868,-0.19660644,-0.6548816,2.2444608,-0.24364787,1.2661641,0.08682789,1.7263368,-1.008057,0.1985537
pathologic_function,0.05285698,0.9359166,0.6153966,-0.25734216,-0.5197054,0.5107741,-1.051252,-0.11044525,-0.26338804,-0.82268244,0.87025625,1.4572906,-0.30960226,0.05306142,-1.6605917,0.68640846,-0.15356164,-0.73732024,1.1213834,0.31915638,0.15331788,0.15115474,-0.28141096,-0.08314777,-0.83036655,0.54099935,-1.2390326,-0.50819474,0.3230022,0.8650683,0.40736878,-0.12552314
organ_or_tissue_function,1.028544,0.07552631,0.4420425,-2.7722526,-1.6155802,-0.088510305,-0.9906272,0.20757371,-0.48850355,0.88383853,1.701073,-0.18126698,1.2630731,-0.3973146,-0.4148384,0.92524314,-1.8818115,-0.4458654,1.4225501,0.42808476,-1.627534,1.0238365,0.2853143,0.035451073,-0.37887073,1.6683824,-0.36293647,-0.08728772,0.5124816,1.5962892,-1.3590163,-0.88416284
enzyme,1.4774802,-0.07753266,1.1458458,0.7286199,0.1743195,-0.39116955,0.746615,1.1045223,0.6918355,-0.59270346,-0.7788527,-0.49893406,-0.29900035,0.29429862,-1.574569,-1.0209415,1.2797521,0.28774154,0.60942626,1.7171614,-1.5455847,-1.5165337,0.34692654,-0.697183,1.3163558,0.6194807,-0.6770262,1.0103945,1.3338063,-1.1028732,0.5920333,-0.5995731
cell,-1.0505248,0.1714715,0.13343051,0.11107668,0.056611434,-1.575067,-2.687265,-0.8443035,-0.36008325,1.6527739,0.5370044,1.3840207,0.36139926,-0.97459614,0.9661648,-0.25714037,-0.57136625,0.06777178,0.4059439,-0.37773654,1.4162503,-0.62008846,-0.13514452,0.3459373,-0.029913988,-0.68310934,-0.14753051,-0.3225195,-1.919895,1.4415712,0.10028703,1.058994
cell_component,1.327931,0.1662781,-1.7469571,0.97668916,-0.25802997,-1.0021218,-1.0245242,0.32654285,0.31050035,2.5025847,-0.7144026,3.440575,-0.7644516,0.3105,1.015582,-2.1079187,-1.9134176,-0.67070293,-1.1883447,-0.92577165,1.295206,-1.3433502,-0.32765275,1.0668595,-0.70193195,2.9308941,1.1850556,0.8070427,1.7717803,1.8295528,-0.7186063,-1.2079202
cell_or_molecular_dysfunction,-0.2941545,-0.031715743,1.4686539,-0.88435066,-0.7941958,0.13125074,0.7899761,-2.076499,-1.1525404,0.087388456,0.68080956,0.0009860335,-2.1806126,0.06669881,0.41808847,0.16943774,0.8421659,1.7582514,0.084838785,1.0253274,0.18872851,-0.8882873,0.053503856,0.8475512,0.50164247,1.1502208,0.16016737,0.42301708,-0.42864156,0.40879562,0.76207256,-1.139261
hormone,-0.8814442,-1.5598514,-0.8685454,-0.1814841,1.2658412,-1.5425005,0.089440145,1.0239016,-0.6365927,-0.55695456,0.13259134,0.41124338,0.82842135,-1.0167878,0.18300122,0.5890001,-0.8484241,-0.28324065,0.25622386,1.4412683,0.25761238,-0.14113559,-0.6365134,0.28544012,0.040066995,-0.6390653,-1.3853664,-1.4001619,-2.1803925,-0.57709897,1.6803687,1.8719455
organic_chemical,0.5603199,1.8459412,-0.94927204,-1.1438283,0.33491647,0.26160493,-0.49606848,-0.09091118,-0.58953923,1.3923868,0.35319334,0.30704254,0.14841075,-0.96103096,0.9597754,-0.6434612,-1.4442891,-1.0436745,1.2453302,1.429473,-2.4319348,1.3144729,-0.5362169,0.34601057,-0.79508436,-2.3821685,0.28085873,-1.4481649,-1.1941447,0.40938643,-0.94309264,-0.8499558
behavior,-1.1237981,-2.0030615,-1.1657026,-0.0908687,0.60076636,0.94979167,0.38615334,0.27092156,-1.007339,1.1110868,0.07217031,-0.35339555,1.0219721,-1.7592453,-0.7294127,-1.2884272,-3.7768404,0.93817085,0.5940655,-0.9776078,0.84765154,0.9543874,-1.3597822,-0.14832206,-0.4888606,-0.089109264,0.16115132,0.59337705,-0.15296067,-1.2572392,-1.6383705,0.69007164
neuroreactive_substance_or_biogenic_amine,1.0467256,-0.43977797,0.11074921,-0.24318072,-0.24790487,-1.3544092,-1.1402141,0.86612564,-0.5018904,0.30733645,-0.12996855,-0.09009459,2.852619,1.6791321,0.9723273,0.27504694,0.5968551,-1.11151,-0.7190331,1.8298283,0.9663071,0.28874478,-1.2868279,1.8864567,1.2799137,0.2794993,1.3559908,-0.5652332,0.46642637,1.6746061,-0.4221911,-0.6734862
embryonic_structure,-1.5099367,-0.070013426,0.11307486,0.05688119,-1.3319968,-0.18573502,-0.019857295,-0.1507393,1.1704546,0.07003435,0.4277356,2.9106236,0.16881457,-0.38452026,-0.8689523,1.5063595,-0.44954255,0.49511418,-1.9940102,3.1186793,3.022904,-1.5269667,-0.4984791,0.5614736,-0.91088724,0.23056765,-0.33757523,2.03756,-0.09423638,0.24135318,0.94577247,0.9952564
neoplastic_process,0.8302996,-0.96743256,-0.16588262,-0.36057606,0.16509861,-0.6457794,0.29521713,-0.8528874,-0.8168529,-0.5470458,-1.0930455,0.45060185,0.112251066,-0.7169023,0.55339205,-0.26273122,-0.5955394,-2.0179343,-0.0704145,2.059963,1.6523803,-2.0121677,-0.2886771,-1.1267486,-0.061784185,0.09249892,0.38106897,0.41147462,-0.5796357,-0.32802722,-1.6910532,-0.031128546
laboratory_procedure,1.4526883,-0.57429236,-0.494009,1.3094281,1.5268935,-1.6484461,0.13175394,1.1100874,0.33974484,0.19318579,0.027860342,1.6346046,0.015647946,-0.086532675,-0.022312451,-0.37774035,0.5972993,-0.8456802,0.44459063,0.28317913,0.8833971,-2.4741135,0.8164886,1.1376867,-0.02752859,-0.61454976,-0.1663041,-0.33846214,-0.20918137,-1.4847908,0.5738658,0.5792636
natural_phenomenon_or_process,0.46997526,-1.8858949,-1.077118,-1.3569725,0.01662898,-0.0054814005,1.5426767,-1.1659521,-0.05818089,0.8994848,1.354811,0.1813753,-0.2746024,-0.3514852,1.3416696,-0.0756921,0.5823026,-1.6131818,-1.5987564,1.4968534,1.1052041,1.6331868,-0.30594596,-1.3853012,0.8033908,-0.5939346,-0.16221762,-0.09852221,1.8879712,-0.1885463,-0.13069078,-0.5259941
immunologic_factor,1.2126877,-0.9279528,0.8412665,1.2562532,0.85757846,0.79855007,0.22268274,-1.3272163,1.639601,-1.783035,-1.9097538,-0.776319,-0.09732952,-0.40587962,0.581889,0.41869128,-2.0358496,-1.3469795,0.2614637,-0.17482659,-0.21846047,1.7958004,2.3235407,-1.0992799,-1.3009758,1.2305368,0.87027264,1.8360664,-0.18683468,1.0035692,1.6342325,-0.46332353
receptor,0.48148867,-0.0011724188,1.0664294,0.29286698,-0.98019457,0.9319705,0.49247,-0.54891306,0.39552945,-0.7878937,-0.41495183,0.64075327,2.3744094,-0.13706958,0.5783605,-0.7812979,-0.095206015,0.27357164,-1.1300446,0.14571495,1.7904781,0.9271925,-0.22704078,-0.25065958,-0.5546604,-0.014888543,0.62084264,0.59666234,0.16754162,-0.074900106,-1.2106202,-0.7696609
self_help_or_relief_organization,-1.3089682,-0.39163953,-1.4448065,1.2355453,0.8437862,-0.38051552,-1.9264823,-0.5609618,0.035903487,1.6938068,-0.36303696,-0.9683577,-1.593363,1.3058939,1.4087447,-1.7953668,0.92155945,2.4423552,0.92762685,-0.623624,1.237134,-0.23220517,0.34190458,0.39139637,1.1738341,1.0989982,-1.3292687,-1.2638222,0.74737495,0.0006910755,-0.83263576,-1.2318642
pharmacologic_substance,-0.09246972,0.1431577,-1.2182214,-0.306605,-0.3248374,0.13030373,0.7737315,1.1206905,-2.485023,0.7984392,1.1239604,0.30399725,0.913384,0.60503745,-0.7798002,-1.4010884,-2.0994146,0.3964616,-0.64517164,0.73805976,-0.48117903,0.5603981,0.57914305,0.43282348,-0.91368085,0.7341383,-2.0351524,0.52864254,0.94525063,0.8482029,-0.96370506,-0.7002646
molecular_function,-0.48405823,-0.44530624,1.5722789,-0.93379414,-1.1396315,-0.37799352,-0.38569537,0.6928549,0.31520212,0.027383767,-1.7581707,-1.0332484,-1.508095,-0.029478077,1.4579166,1.743846,1.8234671,0.2241357,0.42068475,-0.042812508,0.50999546,1.159283,0.2362935,0.36102784,-3.3322492,-1.03911,2.13374,2.0363789,0.509835,0.48510584,-0.9557634,1.0759648
regulation_or_law,-1.0286779,-1.1573453,0.71190786,-1.1300764,0.9022269,-1.2420651,-1.6894063,1.1014395,-0.08457963,-0.3870372,-1.2734352,-0.45309937,-1.4409124,0.36250612,-0.0022816206,-0.74201787,-0.3244174,-0.1469885,-0.45179662,-0.06317092,-0.5366815,0.55796957,-0.892233,1.3055985,-0.34997547,-1.1836905,2.53815,-0.58812296,0.8993409,-0.9516856,1.3458996,0.59907204
human,0.7121045,-1.740604,-1.1576777,1.2542493,-0.8387299,1.2087592,1.1293342,0.24986278,0.89498276,-0.24884182,0.32349658,-0.090701945,0.75847274,-1.2273465,0.5165611,0.10066288,-0.6431228,-0.59283113,1.00996,-1.0373579,0.10200562,1.6944785,0.59099394,-1.2762889,-0.8755759,0.2957739,0.41211975,-0.69491905,0.3864103,-0.69239473,0.30568686,1.5819641
eicosanoid,0.34682027,-0.3792501,0.82314306,-0.97125095,1.1130664,0.90458685,-1.2151432,-0.63689905,0.7182121,0.29085636,-0.071577065,0.44565186,0.54167736,-0.8493491,-1.1103653,-0.45336473,1.2264146,-1.4209003,0.10421718,-0.79028565,1.2694846,-0.8607594,1.801621,1.8091266,-0.33915713,1.3402978,0.8378617,1.6805215,2.280209,-0.061868005,-0.14167355,-0.24555297
amino_acid_peptide_or_protein,-1.9875607,0.72765106,-0.18510042,1.5026909,1.5216129,-0.36350355,-0.72450984,0.045979105,0.15937763,0.9917681,1.1236326,-1.0480105,-0.85313946,0.96463567,0.6089414,1.5996112,-0.7195721,-0.3708774,-0.010374756,0.55069655,0.21679068,0.35143617,1.047698,-0.1583586,0.40779388,2.555989,0.38578296,1.535916,0.2257492,0.6541978,-0.085971005,1.1974088
group_attribute,-0.36754608,-0.45374286,0.46566868,1.7025224,0.038838454,0.0844442,-0.36354393,-0.461185,0.06757616,-1.88232,-1.5012574,0.87074715,0.004839416,0.13141434,-0.44296202,-0.67592067,0.6492835,-1.438119,1.0879557,-1.7488148,1.4461678,0.67666554,0.061764356,0.4659025,-1.2502127,-0.30981213,-0.19666056,0.5882647,0.11564235,2.3332481,-1.3012949,0.4751388
organism_attribute,0.5223082,-0.7939525,-1.7136227,0.064184785,0.055538625,-1.649409,-0.46468368,-1.4832711,1.9043747,1.0749544,0.02019162,-0.35493544,-0.13736191,0.40524194,0.6869921,0.15763149,1.48808,-0.03992996,-0.7632883,-0.30337635,-1.0020075,0.43894547,-0.5520002,-2.2190173,0.69311166,0.3457285,0.42139545,0.0082102865,0.7639482,1.0635543,1.6934856,0.17752513
finding,-0.2574465,0.5838795,1.4343395,0.51750505,-1.1481038,-0.37662432,0.09234304,0.81504655,2.0984883,-0.75244814,-1.189158,0.057830047,0.3412873,0.20807965,0.18778078,0.96819115,-0.8931307,1.5997758,-1.3325728,-0.98796445,-0.59815687,-0.4447565,-1.1100624,0.61258274,0.15332468,0.4894552,0.13072965,1.59602,0.9409743,1.5704831,0.90996265,0.67808414
congenital_abnormality,0.6666914,0.6217008,0.86256456,-2.0512145,1.5389664,1.4568446,-0.83231246,-0.4107734,1.0319905,-1.0517308,-0.17647569,1.0459139,-1.1977547,-0.25130263,0.23413597,1.3148748,1.1058756,-0.66450423,0.015742185,-1.1550335,-0.15607002,0.26881412,-1.0599468,-1.214357,-0.4676761,1.1008569,-0.059467092,0.39584514,0.83969355,1.9061602,-0.047395,-1.6528845
anatomical_structure,0.754046,0.6177104,1.6962106,0.9976368,0.79618573,0.43257424,0.4140642,0.1958573,0.85977906,-1.0737053,0.67784595,1.0149326,-1.320769,-1.316474,0.038376853,-0.68583816,0.49479908,-1.2996457,-0.48980922,0.16641165,1.4345671,-2.054367,-1.7330364,-0.06085951,0.8446656,0.19402766,-0.5924333,-1.0986223,0.009140428,0.47564408,-0.24150732,0.6914536
molecular_biology_research_technique,-2.053149,-0.74776006,0.29878598,0.45538068,0.5839115,-0.48466876,-1.3173379,2.3051093,-0.31804967,0.6791572,-0.09185517,-0.5096022,-0.9727118,-0.15666443,-0.2149426,1.939348,-1.0443913,-2.338649,-0.4310406,-0.2936693,1.385271,-2.3287296,2.1652207,0.5776087,-0.688052,-1.3854722,1.2537652,0.099238396,-0.9739615,-0.7294581,-0.33865857,0.9948854
diagnostic_procedure,0.29030478,-1.0417867,0.64825994,0.9790239,-1.6473304,0.279527,1.4659882,-2.2311132,0.9977936,0.18939297,-0.03263213,1.9107373,1.0010518,0.5450233,-1.892067,-1.2415911,-0.041321285,-0.924028,0.4199386,-0.045006957,-0.97663873,-0.15974787,-0.20486353,0.9604467,1.5942581,1.924129,-1.0094823,-0.10842148,-0.8161336,-1.110742,-1.4633431,1.2977824
biologic_function,-0.020606302,0.16482896,0.020381765,-1.2617537,0.19071871,-1.7548132,0.12281093,-2.4199233,1.262135,-1.3830947,-0.06283125,0.7975867,1.2605232,0.99549836,0.022696685,-0.83595043,-0.5062193,0.7206699,0.70121264,-1.8737502,2.085968,-0.46448535,1.5298336,-0.9889401,-1.4202238,1.2087708,0.26034418,0.02068592,1.0049186,-0.906823,-0.27104443,0.59537435
tissue,1.0225166,-1.1964886,-0.8339096,-0.20509206,0.55559564,1.2489485,-0.062068895,-1.0842723,0.6155053,0.31437975,0.085318886,1.0886749,-1.3062687,-1.745343,0.43825367,0.5811498,0.7593341,-0.6604365,0.22133195,-1.624901,-0.30564103,1.4442452,0.008322873,-0.109925985,-0.5007221,1.036767,1.5316136,-1.923795,0.08203781,0.48832563,0.61560386,0.36042523
hazardous_or_poisonous_substance,0.47149956,-0.20249651,0.15783706,-1.6656909,-0.44088748,-0.1778078,-2.1147947,-0.6710064,1.074091,-0.48116088,-0.18261047,0.64167094,0.15444642,-1.1206152,-0.8210259,-0.48372552,0.5138436,-0.370094,0.57788545,0.8565842,-1.7356546,-0.82298034,-1.184075,-0.19899394,-1.640695,-1.618069,-0.18483593,0.29342642,-0.87272364,-0.8984896,0.83114195,2.818485
chemical_viewed_functionally,-1.1673923,0.35641086,0.12968451,2.0198867,-0.65295374,0.8898115,1.4957867,0.8013332,-0.35998654,-0.028835561,-0.9101983,0.56907856,-0.28496742,0.09384765,0.88897556,-0.70800865,0.42517576,-0.3963431,-0.8346892,1.8718104,1.0345986,-1.4560473,0.6718481,0.4149732,-0.5734743,-1.0287895,-0.9475719,1.891723,0.89520144,-0.8687385,0.47658986,-0.5696576
reptile,-1.7780601,0.45254365,0.5934582,-0.71540546,-0.7013914,0.50484294,-0.2027069,-1.0528079,-1.2469018,-0.71164453,-0.4214693,-2.864222,-0.4204383,-0.07488727,0.45211017,0.6260437,1.859635,0.63614774,-0.23336108,-1.2879323,-0.0042996397,-0.84269863,-0.03390895,1.4476072,-1.1624714,0.54627645,1.642306,-0.11937788,-1.5757805,0.48855308,0.33339125,-1.2678204
family_group,0.52431417,-1.1241375,0.18609023,0.8283461,0.8497151,0.02515582,-1.5112904,-0.5950463,-0.68324816,-2.0818775,1.1042789,-1.5064199,1.1648363,-1.4461218,1.2941128,-1.0201516,-0.0790573,-0.43698943,0.7704233,-0.7249187,0.20658945,-0.1483576,0.6526159,-0.0705434,1.0265754,-1.3148642,-0.15266918,-1.346708,1.679302,-0.095140465,2.2416346,-0.38706362
virus,-0.82233083,1.1695899,0.58406806,-1.3178654,-1.1908995,-0.06390519,-0.45961425,0.0768473,0.85870296,-0.39315197,0.04371214,0.89793843,-2.4582682,-0.5258687,1.4837633,0.796015,1.0831221,0.05634267,1.0803537,0.22779518,0.4281069,0.96693844,0.31810042,-0.25607875,0.9269972,-0.24238893,-0.66442645,0.6239459,-0.8446974,-2.1430647,0.123237185,-0.66571844
indicator_reagent_or_diagnostic_aid,-1.3970852,-1.0775616,-1.8616832,0.26179653,0.81215537,0.46397522,0.008582222,0.14452444,-0.77567333,-0.031907476,-0.37673,0.88969636,-0.51421565,1.6490558,0.09694682,0.006049765,0.049552623,0.16290535,-0.23612149,-1.5194783,1.0645508,-1.3317376,2.3499093,0.2754228,0.034962676,-1.3970712,0.653681,0.43140525,2.6736646,-0.38354033,0.33815977,0.6099594
sign_or_symptom,-0.16400154,-0.67820805,1.1078359,0.36656812,-0.7595835,-0.14954625,0.34427914,1.1628041,0.26155686,0.8081186,0.35874864,-0.049801253,-0.2009794,-1.8616532,-1.2585084,-0.37528414,0.4372218,0.24247183,0.38245818,0.6204593,0.28682917,1.4615926,0.22311886,-1.5090289,-0.40709594,-1.4975255,0.19662891,-1.4141986,0.5978471,0.3051415,-0.44013044,-0.892699
antibiotic,0.40410802,-0.20471814,1.4430401,-0.69785273,-0.20870483,0.2560862,-0.2634449,0.901569,0.8458496,0.42231423,0.12079769,0.29672077,0.41000766,-1.0806887,0.22292802,-1.4521787,-1.3021299,-1.2729312,-0.8755028,0.40499872,0.47698873,-0.3799924,0.66142863,-1.6657656,1.9765314,0.22106019,-0.19878548,0.18505608,-0.29021886,0.73719877,0.29180744,0.21894018
chemical_viewed_structurally,-0.27599013,0.7027927,0.51635474,0.41247526,0.12319015,-1.6306263,-1.3138561,0.7616142,-0.18638375,-1.1874963,0.14220642,0.98686635,-0.87405956,-1.3380411,-1.6221169,-3.2316916,0.2454849,0.7799154,-0.7877157,-0.46644998,1.3784924,-2.1451836,-0.47871453,0.64539057,-1.8500643,-1.4231174,0.14959739,0.9137402,0.045787577,-0.373532,-0.8535913,0.8025712
body_space_or_junction,0.048859313,-0.0065308316,0.6054021,2.269018,-3.0767365,-0.99412817,-0.0848454,0.07858838,-0.5552528,0.003646444,2.0823233,-1.3333646,1.0745351,-2.1926916,1.1539571,1.5961897,0.440768,-0.96819806,1.7500595,1.5738761,-0.778078,3.0667424,-0.48401806,-0.13486858,0.93704385,-0.6268675,-0.49639007,0.9193321,-0.69716483,0.8988297,0.3926868,1.1718649
amphibian,-1.0629153,0.2633557,0.22447334,-0.10360595,0.4416961,-0.869068,-0.70824766,2.0610647,-0.4588395,0.444966,1.3229269,0.2863866,1.298179,-0.28741595,-0.088672645,-0.95528924,1.1089425,0.2932085,2.036026,-0.8357462,-0.46508652,1.9356244,2.1794226,0.4234556,0.7179951,0.6937572,1.0396698,1.1912981,-0.9783102,0.40594026,0.10133771,0.11201985
health_care_related_organization,-0.2602307,0.23349407,-1.3944335,-1.6311617,1.2090254,-0.15783562,1.1965673,0.33139718,-0.6057022,-1.9196866,-2.018288,-2.8750286,0.17281923,0.3349973,2.7058756,-0.45765984,0.5106972,1.1610543,1.535147,1.9276266,0.2428308,0.20506904,-1.8279439,-1.4540511,0.41109565,-0.5411367,1.8173935,-0.9673546,-0.3693611,-0.3019461,1.2114196,-0.49187446
fish,-0.20933828,1.1257006,0.5890082,1.1439948,0.106459826,-1.9160001,-0.46878818,-0.48261935,-0.30399728,1.3210796,1.0076158,1.710119,0.83669555,-2.1357594,1.9331315,0.8990243,1.0537457,-1.3207834,-0.5141541,-0.3693581,0.53065354,-1.4481289,-1.8729619,1.8453636,1.6048789,0.39426386,-0.4401028,0.8114648,-0.88138515,0.49909434,-0.73073906,1.0220761
physiologic_function,-1.9352202,-0.16856173,0.8034066,0.3665397,-1.7846861,-1.1665603,-0.7936047,-0.29956555,-0.47820917,-0.5216488,-0.8653624,-0.3444437,1.029726,0.45575252,-1.3130084,0.34222394,-0.7122412,0.42162666,0.16678722,0.45052496,-1.3198165,-0.41350695,-0.8818527,-0.17868307,0.4111236,-0.0077004167,-0.05814548,0.49985835,-0.0780157,-1.2049131,-0.97303545,1.319713
animal,0.062829204,-2.036696,1.2148305,0.74900824,1.5297736,1.6171211,1.1152241,0.24602957,0.2998451,-0.7519122,-0.12278133,-2.3066094,-0.4993505,-0.36672202,-0.89961,0.9070875,0.5926495,1.2192922,-0.68616056,-0.7822078,-0.16301769,-0.06591361,-0.82331395,-2.8555121,0.48089066,0.108059436,-0.36110908,-0.6555557,0.758894,2.3840876,-1.0017233,-0.3794618
injury_or_poisoning,-0.69260746,0.9467547,-0.68433374,-1.0907092,-0.26782835,-0.59803885,-1.2563299,-1.3342878,0.11465672,1.0677454,-0.09409183,1.9330198,0.59869,0.43948692,-0.81047773,1.2343535,0.0022515978,-0.038514957,0.047435742,0.09300581,1.1435361,0.36756748,1.956117,0.9573643,0.5289537,0.6362657,-0.4419287,0.13932994,-1.0051631,1.7057995,0.5344975,0.81878126
lipid,-1.8668836,1.8580135,0.7870382,1.2362703,0.9806764,-1.1855083,-1.8237029,-0.4339651,-1.1153989,-0.5169157,1.0899369,-0.06851536,1.9023331,1.3477743,0.17740662,-0.50458604,0.22450109,0.65276426,0.08824132,0.67557067,0.36944807,0.06287125,2.7569065,0.09300972,1.3458092,0.06766683,1.6994349,-1.1583592,-1.0030152,0.13087615,1.8863741,0.78107214
plant,1.170886,1.3974116,0.39464006,-0.062689476,0.3409756,-0.47097853,-3.1762018,-0.58289903,0.8249968,2.1478472,-1.113293,-0.8000118,-0.88992757,0.13742775,2.3120315,-1.0362036,-1.058786,0.8988907,-0.8124226,-0.68326837,0.3792626,-0.25849012,-0.5865951,0.8217898,-0.601877,0.055935588,-1.1625278,-0.11871369,0.3257637,0.8769762,0.34077793,1.0064416
organization,-1.2551546,-2.0345159,-0.86605334,-0.90169054,1.182128,-1.9449904,0.610977,-0.17639306,0.030159784,-0.109561086,1.7272016,0.4020312,0.8168237,-2.9796832,1.0061294,-0.6108811,-1.1384296,-0.061501272,-0.6118934,1.3624688,0.24351312,-1.5106838,0.88003165,1.0812716,1.7362189,-0.8147078,-0.93425024,0.9109456,-1.6023356,1.1474729,-0.50052685,0.12215383
genetic_function,0.7898063,-0.31910148,0.09931619,0.32138708,0.74308777,-0.31758025,-0.5326887,2.0525548,0.45369372,1.4087963,-1.8971125,-1.0793213,0.30550137,-0.19791818,-0.21238048,-0.5036736,-0.5687244,1.332469,1.0024774,1.5304313,-1.2052401,-0.66312236,-0.8416632,0.5693671,-0.99018425,-1.1178925,0.6495821,1.7365787,-0.23016982,0.0314195,0.9347166,-0.4224339
gene_or_genome,0.8255197,0.78593385,-1.410151,1.0274669,0.09065601,-0.3617067,-0.60662746,1.4051677,-1.316851,0.11364584,0.015332705,-0.2877799,-0.6971524,1.6407942,-0.16444722,0.26786363,0.43005046,-0.8437162,-0.013372276,-0.719806,-1.3408855,0.49461237,-1.0467616,-0.33186507,1.3241872,-2.0293949,-2.3754017,0.83412635,0.91057545,0.909875,-0.37296286,-1.0205088
laboratory_or_test_result,-2.5038383,0.3101352,0.2191081,0.33102947,0.7402806,0.838605,-0.99936366,-1.3592427,0.9721277,-0.14565688,-0.25495905,1.1011858,2.3940833,0.76203215,1.0347272,0.1916448,1.3254601,-0.15248248,0.089906365,-0.09310627,-0.5981469,-0.7176588,1.7087114,-0.32332015,1.7435242,-0.05700916,-1.93324,0.8053583,-0.96196204,0.8025409,0.39962348,-0.21104208
spatial_concept,-0.6690293,1.2887219,1.6603079,-1.7186273,0.44297475,0.21987171,0.14437993,-1.0893536,-0.85771704,1.1210217,-0.9995784,0.55983925,1.7519333,-0.46404848,-0.026731042,-0.64684814,0.82811457,0.04790473,0.13653591,0.036288574,-1.5953896,0.8146106,-0.51064533,-1.495268,0.4417467,1.3224889,-0.49218687,1.7736115,-0.97834355,-0.49114197,0.12969945,1.2698854
rickettsia_or_chlamydia,2.2843523,1.1701932,0.7596392,-0.61230505,-0.39569083,0.60964245,0.06293775,0.41210106,1.3718394,-0.600899,1.2649045,-0.7031471,-0.32163602,-1.169283,-0.6390157,0.65200406,-0.54472977,-0.6587537,0.25739393,0.91428536,0.015700767,0.62238264,-0.5842712,-2.2678363,-1.4933532,0.72931373,1.2009308,0.18985023,0.4593626,1.3233953,-0.12433165,-1.9969807
body_substance,-0.7061368,-0.7031117,-0.58183527,0.30286327,0.5467007,1.1330309,0.03487709,0.35348102,-2.2272198,1.3109595,0.8647188,0.7782728,1.0944057,1.4126133,0.17103086,0.11653259,-0.72503465,1.8066599,-0.2039656,2.0874228,-0.35751623,-0.6448259,0.006936181,0.33790755,-0.15702973,-1.13161,0.76262784,-0.526584,0.22585283,1.0860463,-1.2192194,-0.46162975
intellectual_product,1.7772528,-0.13223527,0.44684866,-0.25497752,0.7541348,-0.68707734,-1.5138772,-0.15714617,0.8265253,1.6208134,0.36360314,-0.77696985,0.8759901,0.41685593,-0.53305566,-0.8919446,0.040330034,-1.7297777,-0.10876565,-0.54594696,-1.5371922,-0.57532054,0.96188974,1.2933415,0.5341059,1.2661756,0.6319205,0.07643124,-0.07512883,0.032770112,1.5526923,0.7497673
element_ion_or_isotope,-0.13905077,-1.16813,-1.2199003,0.009883505,0.046871793,-0.5019637,-1.8332222,0.097357295,0.69836515,0.64248526,0.6800975,0.7567351,-1.0815005,1.1053816,-0.59473854,0.32709336,-3.1478305,-0.21737425,-0.9324252,1.6856284,-0.59111375,0.09373842,-1.772517,-0.26001954,1.2640934,-0.6279237,-0.12555134,-1.498719,1.5600159,0.21833004,-0.33741748,-0.64952505
research_activity,-1.0608997,-0.8090136,0.42661694,0.6022296,0.3659336,-0.3629033,0.007468565,0.55703014,-1.9025224,0.35118878,-0.9913524,-0.38837183,0.3032227,-0.3235306,-0.59085953,0.4419239,0.7966435,1.8248984,-0.11971274,-2.442543,0.85518146,-1.3774436,2.1977422,-0.11492962,-0.36499432,0.7465868,-0.5305271,0.35198015,-0.7609615,0.09107246,0.16235109,-0.05364286
geographic_area,-1.8527827,-0.9451403,0.20289002,-0.8573817,-0.35426325,-1.4122164,-1.3564811,0.93581533,0.37691158,0.9129181,-0.48243284,-1.0045491,-1.4653581,0.7950179,0.8038658,-1.1748084,0.7495385,0.5132104,-1.1571,-2.8562827,-0.6257132,-1.3296362,0.36314076,-1.1025548,-1.2642792,0.28324452,1.2126228,0.05614759,0.7693351,1.6899728,-0.6984789,0.8938503
professional_society,-0.9667833,-1.4205323,-0.50464433,0.594408,1.281103,-0.3295925,0.19073418,-2.1685512,-0.3103522,-1.3865017,1.2970647,0.64527714,1.5231884,-0.7702475,-3.6686456,0.017108686,-0.4714043,-0.535824,-0.30210865,0.8198674,-1.9644953,0.38443652,-2.061929,-0.85417414,0.95626634,0.17135009,0.37653354,0.39719436,-0.67999923,0.2937963,-0.5131014,1.5948848
organophosphorus_compound,0.36132336,-0.17747965,-2.2223675,1.3377293,-0.37098253,0.46973124,0.8745638,1.5964135,-0.2798092,-0.039964706,-0.7865161,-1.5007654,-2.4223382,1.3646256,-1.3944062,-0.12230985,-0.39976302,-0.2773126,1.0174308,0.6928797,-0.17041267,-0.20511672,-0.47380307,-0.7952895,-0.8650211,-0.2627444,-0.3600339,0.1021619,-3.3504922,0.920435,-0.587251,1.6578345
body_location_or_region,2.0571299,0.2789141,-0.69801456,-0.4091241,-1.1698107,0.17019041,0.14435719,1.5502019,-1.5704347,-0.8651804,1.0010655,-0.34249324,-1.2074308,-0.013031726,-1.7315326,1.1811602,-1.1494641,2.4620774,-0.7221438,1.2877232,-2.4818115,0.10287436,2.183621,-0.57375365,-0.9251367,1.5006618,-0.45942426,0.27278528,-0.9954198,-2.152552,0.68918705,0.3283968
invertebrate,-0.4225601,-1.110065,0.4927915,-0.6564097,-0.4447799,0.32375693,0.048973083,0.8387554,0.65762806,1.9724615,-0.8566339,-1.7430972,-0.1090603,-1.2387872,2.058785,0.8431777,0.92399645,-0.9210795,0.020988995,-0.57895213,0.17431119,1.0167147,0.46641216,-0.38916093,0.38942078,1.8286039,-0.15819842,-0.4918453,-1.3470156,-1.034157,-1.723957,1.4747739
age_group,-0.029649809,1.1457657,-1.0839531,1.0546713,0.9522241,1.095235,0.3569841,0.34022895,-0.9057858,-0.019322112,-0.1536227,0.28398415,-0.21401843,0.5081578,1.7330235,-0.57721514,-1.4109763,-1.8662003,-1.5130274,-0.2664204,-0.53611916,-1.0682333,-0.102972195,-2.0905445,0.87653553,-1.1038749,0.15095033,0.13111278,0.3333698,-1.4426795,0.17263909,-1.1350048
human_caused_phenomenon_or_process,1.885941,1.1298509,0.4556861,-0.115620166,-0.5742405,1.286927,-0.6623979,0.829865,1.2036827,-0.458692,0.17710903,0.41119504,-1.6790968,-0.59674686,1.3125376,0.1455332,1.2781729,-0.7906563,-1.0329082,0.12616825,1.4576449,-0.011983809,-1.187182,0.66009355,-0.5917443,0.74953747,-0.2951403,0.27780673,1.478002,1.368314,-0.7094005,1.6162502
phenomenon_or_process,1.7049162,0.9788197,0.7697898,-1.534047,-1.777777,-0.8006701,0.5459153,-0.65251684,-0.364909,1.2355179,-0.44562164,-0.028197931,-0.52369446,0.078308865,1.6264522,1.5340565,-0.24616763,0.6909306,1.0858033,0.31198278,-0.19948995,-0.23698004,0.027846212,-0.009404207,-0.017783653,-0.9054532,0.28480834,0.2714328,1.4556212,0.5788987,1.676339,0.012568959
individual_behavior,-0.01681306,-0.5545806,-0.3195191,0.84355956,-0.49719328,0.1547372,0.72550964,-0.06446865,-0.45079806,-1.5175633,-0.5323468,-0.36876795,0.0560127,-0.07301612,0.3002988,1.2831001,-0.28458852,0.14367759,0.6304074,-0.16127743,0.875706,-1.0896537,-0.96349424,-0.1561877,-0.28597715,0.6656047,-0.038943715,-0.035103984,-2.5131476,0.57573533,-1.3569646,-0.90240777
bird,1.9217409,0.021170314,0.18576047,-0.031147756,0.7891238,1.0767174,0.42312157,-0.57111454,-0.41273913,0.0778232,0.74580014,1.1836057,-2.7339964,-2.6351194,-0.20970654,0.37187937,-0.35646608,-0.045177016,-2.4012485,-0.093738,1.3641906,0.6084074,0.8928342,-0.97874975,0.91724026,1.048455,0.28543103,-0.28631288,-0.9052164,0.16586779,-0.69949996,2.0591698
mammal,0.9886275,-0.7659242,1.3410224,0.28141308,0.6202851,0.49128458,-1.8718531,0.14890128,0.9505057,-0.26701596,-0.13573444,0.15303777,-0.17236078,-0.6008015,-0.42166007,1.4443125,-1.838627,1.4961627,-0.580401,-0.38284263,0.013622908,-0.46000993,0.6739192,0.27244768,0.048314147,-0.5995187,-0.39048398,-0.43097964,0.6454541,0.72616714,-1.3409078,-1.6078732
qualitative_concept,0.67725044,-0.49149087,0.24521692,1.2740042,0.48656794,-0.34140477,-0.9394646,0.01391315,-0.9708081,0.35422578,-0.046021122,0.34742916,0.37266222,0.95271444,0.178121,-0.16228087,0.6780339,-0.18589605,-0.4948941,-0.66008,1.7103893,0.48117134,-0.28824034,-0.3854439,0.8227888,-0.07274521,0.05319382,0.35501242,-1.3201767,1.0840632,-0.0004802437,0.713806
environmental_effect_of_humans,0.60153836,-0.2971773,-0.82789844,-1.2023767,-0.65021926,0.82334864,-0.8784441,0.38860393,1.1119075,0.46169126,0.24929696,0.8936284,-0.15346992,0.1473476,0.5788485,0.20192957,-0.91430813,-2.474871,0.5283482,0.14371568,-2.700133,-0.6680922,1.6031741,-0.608829,-1.5046517,0.22753136,-0.27368554,-0.37772614,1.0874277,-1.9120175,0.5633778,-0.27576193
social_behavior,-0.27351877,2.0762055,0.14182487,-0.3970988,-0.46968287,-0.6663388,-0.06797483,0.1255476,-0.6055915,0.6748221,0.5281825,0.16814238,-0.013901207,0.6631124,-1.2980723,-1.190954,0.6975535,0.6427505,-1.011594,0.30562502,-0.6375496,0.9468064,-0.5809607,-0.27714202,-0.82171595,1.0886533,-0.15586118,1.247342,0.4818318,0.4290197,0.24859384,2.3143804
biomedical_or_dental_material,-0.033929344,-3.0929742,0.04570167,1.5607344,-1.3604765,0.48394802,0.045164775,1.5192492,-0.39636597,0.46920618,1.3053181,-1.1968708,0.3189706,1.0034639,-0.76414865,0.0051068114,-1.311423,-2.048273,-0.21729131,-0.13673456,-0.6847534,-1.8509679,-0.26432765,-0.00096769934,2.2350245,0.55444336,-2.3943315,0.0046220836,1.2952807,1.258565,-0.5719705,1.4735179
quantitative_concept,-1.6583807,0.18288885,0.56058586,-0.61770236,0.46477503,1.4228576,-0.07248663,0.57841706,-0.9081788,-0.16806373,0.0787112,1.2803496,-1.0093237,1.1694019,-1.5387225,-1.0851852,1.4072666,0.6644211,0.66723496,0.6817637,-0.3317934,1.4925857,-0.6748078,1.0271995,-0.37772024,0.06560694,-0.010709352,-1.3254439,0.6090444,0.1539273,1.332888,-0.826417
inorganic_chemical,0.4576637,-0.6472742,-1.5518754,-0.75704557,0.93792063,-0.6494119,0.29824686,-0.90922904,-0.9411987,-1.6326716,-0.72313976,0.35909492,1.3994496,1.404732,-0.50473785,0.2346754,0.37983197,1.0559717,-0.1464752,0.78976375,-0.26830906,0.1573234,0.7387793,-0.61783284,0.50220925,-0.6471414,-0.2848329,0.9421051,1.1006918,-0.06433501,-0.12362936,-0.11445555
drug_delivery_device,-0.9179426,-0.37408456,-1.70946,0.68000746,-1.2943114,0.5929966,1.2269999,0.1350416,0.80398625,0.16723233,0.042329837,0.57078576,0.17805438,0.6984722,-1.0153282,-1.4436305,1.1306834,-0.56672686,1.0410936,0.023611048,-0.71633214,0.5818244,1.4190245,-0.6481485,0.27745348,1.9356668,-0.67129874,-2.582618,1.0877671,1.412096,-0.17186221,-0.11841262
educational_activity,0.2904784,1.157425,1.0592226,1.0496427,0.81615555,-0.51984596,-0.43181315,1.4761789,0.25909364,-0.45993695,-0.75977975,-0.028970527,0.13418597,1.309762,0.41298068,0.4315428,1.5420642,-0.853001,0.5656938,0.50198525,0.32456857,1.2510892,0.6790499,-0.41398478,-0.66776943,0.4983498,1.0401129,-1.5641481,0.41661325,-0.22914612,-0.42694646,-1.9476353
chemical,0.6879391,1.7454336,0.998539,-0.95068944,-0.182273,0.25727338,-1.8046263,-2.2840023,0.11741526,-0.57938796,1.7830873,-0.5025626,0.6603856,1.2275659,1.0464784,-0.18089627,0.3080573,-1.0768232,-0.78938025,0.19161831,-0.45950943,0.42684025,-0.1694687,1.0008097,-0.27107382,-0.18898316,1.8321626,1.046084,0.45001438,2.3258393,0.0053881686,-0.2599211
vitamin,-1.423102,0.11903878,-1.6411225,0.14932619,1.1465962,1.2619573,1.316678,-0.17422381,-0.8379551,-0.7606464,0.43956444,-0.28681844,0.5080516,-1.8723537,0.047625016,-0.43181556,-0.19338124,-0.8490571,-1.0952914,-0.71304023,-0.85293967,-0.32468808,-0.6881278,-1.848285,-0.30350143,-0.23886852,0.5420439,-0.69333994,-0.63948274,0.28662783,-0.00487302,-0.36118177
fully_formed_anatomical_structure,-2.3807738,0.3085649,-0.43641904,0.6585632,0.64933985,0.43967965,-0.4645256,0.06508985,0.6706726,0.1054646,-0.36971822,-0.6080455,-1.4592274,0.39426807,0.62150735,-0.7942331,-0.23885728,0.9891066,1.1863213,-0.69466573,-0.13492842,-2.5262358,0.7342221,-0.81831056,-1.559353,-1.2713066,0.96221167,-0.74699086,1.8612428,-0.46282884,1.3003861,0.4842636
group,-1.0734364,0.35894802,-0.47989932,-0.72954863,-0.78616595,-0.58099693,0.81844527,-2.0099492,-0.11760083,0.7054142,-0.04275516,1.4190105,-0.6003163,-1.8338753,0.3476716,-1.1022648,-0.933638,-0.45499638,1.1239433,0.99943185,-0.39114332,-0.7026133,-0.38404617,0.5244709,-1.405789,0.28336754,0.16358332,1.5565039,0.33916107,1.8977071,0.3782083,-0.77627414
nucleotide_sequence,0.6450982,0.02078371,-0.12683515,-0.759569,0.641537,-0.6242191,-1.1620784,-0.6742655,0.44220316,-1.2856561,0.33208552,0.12061603,2.0971076,1.3976419,-0.23222847,0.4617727,0.93626916,-0.40562657,-1.4008397,-1.3633847,1.3751422,1.2858603,-0.15869306,0.6986721,-0.5991326,1.0332372,-0.20396551,-0.2739611,2.0491393,-0.21619658,0.29403016,0.7598695
body_system,-0.3020901,0.62899184,-0.061347075,-0.6318227,2.011291,-0.2660758,0.4390707,-1.4613417,0.45924994,-0.124013476,0.15381633,1.9818865,1.3140758,0.35286164,-0.52028054,0.8601099,0.21398851,1.7880621,0.3324768,-1.2868817,-1.1430905,0.7565081,-2.2565508,0.5576991,0.26447603,0.16010343,-0.65224254,0.8600627,-2.8140638,1.4952823,-0.48854685,-0.13529037
food,1.4020733,1.3081807,0.017128922,-1.3285782,-0.9765315,0.27994084,-0.18200278,-0.8954408,0.077540785,-1.7135482,0.3646985,0.13340472,-0.058998447,-0.028083358,0.88556266,-0.74497867,-0.6953896,-1.4380236,-0.6917801,-0.81054527,1.1773927,1.3432417,0.34155262,-0.21932037,0.69324297,-1.1439399,-1.2066323,-1.0983535,-1.2544913,-0.2717158,0.33202142,1.3989887
bacterium,-1.2492824,-0.57841843,-0.33825636,-0.020729352,0.72107154,0.98129094,-1.707341,-0.61198896,-1.0505085,-0.42752063,1.3625524,-0.41252384,-0.38547868,-0.68571967,1.4782534,0.1195917,1.1101819,-0.72222346,0.5123523,-0.1188837,-1.8043892,1.7460561,-0.7756703,-1.7492727,0.5745113,1.4021623,-0.4023761,1.3480388,-0.30896905,-0.22519732,-0.36340055,-0.07774068
fungus,0.860927,0.34872577,0.20496625,1.3443207,0.83495694,-1.2127497,-0.00962835,-1.1424555,1.0392091,0.6174477,0.034215797,0.8844023,-0.7547293,1.0631167,1.1991522,1.6313115,-0.6791139,1.0010409,0.10469727,-1.0734061,1.0320424,0.1998853,1.3646278,-0.81159264,0.95555407,0.5693912,-0.030948607,-1.6262975,0.48031095,-0.52182746,0.46488062,0.2952422
research_device,-0.14757566,-0.6058597,0.005162325,0.6071589,1.0313979,1.1938423,0.48392168,-1.5077143,0.4761801,0.1905433,-0.41001225,-0.21137747,-0.526823,0.30970782,0.5573718,-0.81575716,0.8038052,1.0809742,-0.2859979,0.5589907,-1.4634588,-0.5909656,-1.6077722,0.6155841,-0.866675,1.7142392,-1.6399381,0.04568305,-1.9572637,1.2159026,-0.14149083,-0.7033749
governmental_or_regulatory_activity,0.6735724,0.91438454,-1.2465441,0.69603956,-0.010318938,0.30205852,-1.750757,0.16788863,0.24696033,-0.4164771,0.5845324,0.21937189,-0.8934353,0.7467145,0.3294137,-0.303365,0.6164569,-0.15055126,0.6834453,0.84953403,-0.29256517,2.005021,1.3047531,0.5325317,0.1560762,0.51504093,1.0840589,-0.009458056,0.8501546,-0.2856081,-0.13272855,1.4047997
idea_or_concept,-1.4100047,-0.060293693,2.541409,-1.8709892,-0.89183396,1.3603331,0.9688757,0.9421211,0.7023703,0.7780686,1.4032906,0.8486747,1.0912021,-0.9758775,-0.21749724,0.26924607,0.5524682,0.0680367,0.09201542,0.16806623,0.32076985,0.78890413,-0.60762,-0.76091325,0.059103325,0.68313414,-0.007181726,1.0254732,1.3177725,-0.7560653,1.1584094,0.5310029
occupational_activity,0.03488527,-0.9967834,-0.8922973,-0.772977,-1.2099909,-1.5463847,-0.3856812,-2.0432744,0.60129225,0.30917564,-0.85045826,-1.0730462,2.1631935,-0.48763743,-1.1404103,0.31583488,0.84678257,0.3075777,-0.7360351,0.011103686,0.91256785,0.32746083,0.13745165,-2.1780808,0.18370916,-0.30657497,0.11523174,-0.017584566,-0.114704095,-0.14574885,0.9000878,-0.21337016
physical_object,0.13846216,0.16493052,-1.5752667,-1.37468,-0.9653948,0.14786538,-0.75467634,0.53039116,0.9852037,-0.13011009,-0.07846878,-0.9312846,-1.95394,-0.6110188,-0.69977075,1.5598168,-0.8964819,0.5823828,0.96482515,0.058423247,0.5338918,0.39632928,1.04192,-1.290563,2.109315,0.39123577,-0.8432251,0.09151518,-0.6037554,1.98553,-0.5076958,-0.11847327
vertebrate,0.2877373,-0.33969697,1.9699488,-0.333773,-0.17570841,0.9002565,-0.42214465,-1.5797843,0.6545063,-3.1271167,-0.73806155,-0.7417423,0.70743084,-0.14911886,1.1069069,-0.94936633,-0.044746257,1.2903696,0.103131935,-1.0408386,-0.07691242,0.22496678,0.034187686,1.9247892,-0.55548745,0.7581225,-0.1692068,1.0070932,0.52972066,0.11793914,0.77250564,-0.4010401
substance,-0.3331306,-1.1790891,-0.79964185,-0.23023745,-0.93703365,1.1912161,1.0986196,1.2225798,-0.266232,1.6201664,0.19954827,-0.31396332,0.42862466,-1.0969775,-0.86994284,-0.57776976,-2.325598,-0.19452046,-1.0572842,-0.06736731,1.9477465,-0.96859807,0.7744388,1.4391005,-1.1939282,0.0917669,0.2032531,-1.6937878,-0.187075,0.7910964,-1.1559194,-0.1926288
medical_device,-0.8833188,1.5914057,-1.6935332,-0.30687013,-0.58962685,0.67455626,0.35696387,0.78366596,0.92917216,1.1162702,0.3090421,-0.14431295,0.25270462,1.5108303,0.6869574,-0.3986468,-1.589286,0.27095032,-0.23052388,-0.9398589,-0.3312771,0.10657273,-0.35353315,1.0562758,1.7110837,-0.5249757,-0.5613582,0.25345194,0.76212364,-0.0784213,0.38525718,1.9913934
manufactured_object,-1.267393,-0.87122357,-1.1964104,-1.2936709,-0.09163757,-0.2890884,-0.7580347,1.1744334,-0.913097,0.093490586,1.047843,0.7857815,-0.2398149,0.7979555,1.0586796,-0.24544573,2.5267293,1.8889304,1.3255223,-0.1003307,0.83655363,-0.49038455,0.33443943,0.8383533,-0.43760842,0.31244296,-1.8680034,0.46698627,-0.4764333,-0.27179164,0.7246634,-1.4930209
classification,-0.12201458,-0.21571732,0.55017334,-0.809168,1.5472158,-0.56079245,-0.6471081,1.2204255,-0.57728875,-0.7773368,0.37140426,-1.3005629,0.3591785,0.41504902,0.19402084,0.43557945,-0.22892933,-0.40751162,0.8089293,-0.4974193,-0.3153901,0.09387009,-1.2907637,-0.47770527,1.7426242,0.572884,-1.0639365,-0.5169276,1.6191199,1.4526691,1.0503803,1.072202
daily_or_recreational_activity,-1.0832009,1.0599949,0.51158255,-1.9273343,-0.32305878,-0.24860951,-1.5516504,-0.11083319,-0.19333768,2.1951432,0.6441139,-2.682476,-2.2313998,0.773592,0.43003204,-0.20525615,0.2519885,-0.5615516,-0.08515642,-0.76302683,1.7866611,0.8090741,-1.023565,0.13904476,0.04682712,-1.0106466,0.13974983,0.4447411,-1.5483767,0.016730709,-0.35334253,0.27836815
conceptual_entity,-0.01100339,-0.96269596,-1.3780907,0.17688861,-0.7456321,0.41384035,0.89543766,-0.15900669,-0.5260476,-0.06738898,0.6338615,0.11824961,0.0988778,-0.019388368,0.26575267,-0.69667834,-0.0019133525,0.5264378,0.11695121,-0.99794835,-1.7143052,-0.87120867,-0.56429136,-0.5939836,0.09045142,1.1473149,-1.274677,-0.381788,0.62816983,0.41846943,1.8043568,-0.35519618
occupation_or_discipline,-0.23155761,0.28029698,-0.55230457,-0.41217878,-0.5576908,-0.13631386,-0.011151072,-1.2455093,-1.1791065,-1.0890589,-0.60575557,0.41002825,-1.0901077,-1.275058,-0.26582325,1.922374,-0.6039185,-1.1152904,2.174389,-0.6529484,0.7271094,-0.59238523,-0.3471858,0.46995184,0.24568562,-0.4287176,-0.22069758,-0.2781836,-0.60061806,-0.30814308,0.19307964,-1.4194463
amino_acid_sequence,1.1967177,-0.93056643,-0.60694647,0.44413704,0.1428071,1.3548069,-1.0677463,0.68622303,1.2944531,0.020528203,-1.1906135,-0.6458326,1.1554734,1.066234,-1.8500701,2.3004904,1.6152654,0.46564195,0.5817713,0.52703226,-0.32162094,-0.0699053,-1.1174212,-0.8889268,3.2809682,-0.006444111,-1.5292834,-0.622368,0.365273,0.14325424,-0.970949,0.29007077
clinical_drug,-0.92298424,-0.27402458,-0.05638146,-0.9730303,0.70077735,-0.29018158,-0.51780516,0.8174001,1.4198716,1.0377932,-0.9342458,0.59052825,-0.6188446,-0.54353786,0.8992555,-0.08780695,-0.35870975,0.006123066,1.4138929,-0.5349413,-1.9279765,1.9208481,-0.750896,0.6516911,-0.73534113,-0.37178457,-1.1579864,-0.50687224,-0.53850824,-0.7297211,-0.5590778,0.50942594
activity,0.71783686,-0.36508802,-1.4129045,0.1052154,-0.024511391,-0.27559233,-0.6295202,1.8150434,0.48869377,-1.0178962,-0.32209578,-0.111336134,0.06284552,0.65100986,-1.1873181,0.22377263,1.1782417,-0.77200514,0.7242618,-0.58513314,1.8746849,-0.90586466,-0.91762644,-0.40672532,1.352146,-0.2992974,1.0503162,0.15165564,-0.9323232,-1.1962585,1.0633671,0.7380777
event,0.43890268,0.16991338,-0.40435964,-0.1752749,-0.39290252,0.6228464,0.076942235,-0.35804483,-1.5252805,0.43145448,0.18803537,-1.0735674,1.8291743,-0.0045481334,1.0410322,0.69559395,-0.3784445,-0.6947843,0.04059273,0.30188134,0.19123738,1.3607829,0.67818457,-0.06172752,-1.187562,-0.11721271,0.111510694,-0.4703657,0.20240027,2.0495877,-0.9925535,-0.70813924
temporal_concept,-0.4136913,-1.5410649,0.7000611,-0.14286122,1.0660198,-0.8016325,-1.6116853,0.54722524,1.5084822,-0.08880701,-0.46193147,0.002043964,-0.36507156,2.2151833,-1.2302196,0.91041464,-1.1700968,1.143992,0.4942118,2.4493678,1.8696753,-1.241448,0.76936036,-1.2924894,-0.48377773,2.1218925,-0.12056933,-0.09325342,-0.6737402,-2.0075502,-1.0075781,-2.007751
archaeon,-0.046758167,0.7088852,0.1764382,-0.6546903,-0.97509354,-0.71168697,-0.04193248,1.6328194,-0.28422582,1.3370193,-0.4168896,-0.53231835,-0.33366594,-0.20329808,0.9539239,1.0245886,-1.1798494,-0.15492433,0.18455599,2.071184,-1.6519812,-1.6637781,-1.4941397,0.8734168,-0.49989793,2.2268326,0.3836385,1.3732424,-0.2504456,-0.82986134,-0.9511337,1.7715826
language,-1.8734907,-0.18597041,-0.02586051,-2.5070746,-0.47033218,-1.5505849,-0.1491877,1.3399959,0.26293284,0.5761168,-0.27775872,-1.7491574,1.3280984,1.2962009,-1.2157358,-2.0992754,0.18290901,-0.4432052,0.4537929,-1.216623,1.0450085,0.89642143,0.40485588,-2.0610027,0.4260268,-0.4055746,-1.765984,-1.5747079,-0.32078707,0.17155565,-1.5373471,0.6063603
biomedical_occupation_or_discipline,0.58976495,0.787077,-0.4047396,2.2577565,-0.57846135,0.33820096,-0.4458544,-1.6050344,-0.4920827,-1.082867,-0.7216648,0.50041336,-0.16548973,1.3529719,-0.66492534,-0.667207,0.35318562,-0.39497584,-0.5892077,-0.17715406,-0.67720634,-0.8726835,1.5928774,1.4517105,0.25911698,0.22276036,-0.44096467,0.17888923,-0.60667145,0.16733992,0.66003424,-0.74807096
functional_concept,0.4603121,0.7498333,-0.738583,0.33289126,1.0589819,0.867063,-0.095588356,-0.05703885,-0.24376749,0.4406546,1.0917469,-1.4923987,-1.0119559,-1.1603968,0.34716317,-0.49281988,0.28068718,-0.122545764,-0.44050708,0.23844206,2.4689908,-0.9431801,-1.4337069,-1.5409372,-1.5520262,-0.510634,0.41223136,-1.1772503,0.3372192,-0.28287464,-0.5642945,1.2992246
machine_activity,-2.6328447,-0.35436648,-0.1504504,-1.1334615,0.6228553,-0.6774841,-1.2885885,0.9784752,-0.18723622,0.22789593,0.48192936,1.8440216,0.759636,-1.1392897,0.30853155,1.9479055,-0.54225266,-0.43784913,1.3753605,0.6242274,-2.5121562,-0.27160472,-0.5192838,-0.29946956,-0.83517295,-0.8243388,0.6265627,0.24608624,-1.3816863,0.12385685,2.8437312,1.0985839
entity,-0.107413836,1.2836355,0.031319305,0.740441,0.084869005,0.85855734,-0.10280335,0.16653211,-0.6047343,-0.85010093,0.4160698,-0.25627673,1.6945211,-1.3340684,-0.831074,0.15667737,-0.21856724,0.62591684,-0.99610054,0.09633548,-0.49487147,-0.81420404,0.32516,-0.7336748,-1.3371134,0.35176736,-0.2324519,1.1472051,-0.10980848,1.2831695,1.8902004,0.6442878
carbohydrate_sequence,-0.28734085,0.87439346,-0.32137695,-0.8899028,-0.08645088,0.6902821,0.76589423,0.50762504,-0.23665157,0.5470771,-0.7723832,2.868457,-0.64937216,-1.040654,-0.84719247,-0.07977529,-0.96762663,0.1916398,0.8300024,0.06129215,1.3345675,0.05489737,0.6211396,-2.2049913,0.26622728,0.07387154,-0.2546073,0.11290959,0.35016137,-0.38492534,-0.87003505,0.69393617
organism,0.38444516,1.5196483,-0.9611974,0.23497766,0.0024757595,-0.75171787,-1.6531309,0.48897266,-0.15622823,-0.19112313,-1.0255164,0.5439617,0.8119807,0.9113338,-0.5526199,1.0230511,-0.2124543,0.25757933,0.25717342,-1.0267867,-0.71413106,0.9926912,-1.0139257,0.62803453,0.06765271,-0.9202166,0.34394452,-1.1665255,-0.22544326,0.033822864,-1.3590333,1.1201895
