,0,1,2,3,4,5,6,7,8,9,10,11,12,13,14,15
location_of,0.11217379,1.1806749,-0.5228334,-0.57605463,-0.043974847,0.2829017,-0.45591563,-2.5933905,0.7097149,0.28646266,-0.09342189,-0.33778194,1.0620503,2.5539804,-0.68543535,-0.27238235
manifestation_of,-0.5507086,1.6561234,-0.5428504,-0.81206757,-0.1381737,-0.47943288,-0.98406124,-1.2803323,0.07835945,1.051865,0.07581802,1.7868524,0.4049627,0.2823902,-1.18238,1.0221242
isa,-0.46277365,-0.06869595,-0.3092542,-0.2960369,0.84632254,-0.076655716,1.6975907,0.48663288,0.23894416,0.41280162,-0.7198432,-0.2763638,-1.4817958,1.4143337,0.12022183,0.6500799
affects,-0.7982472,1.634599,0.46220595,0.8445885,0.7447379,-1.3978523,-2.0616033,-0.68968254,-1.3267416,-0.86396545,0.85640585,-0.2684824,1.7822344,1.1905131,0.023282845,-0.6662773
associated_with,-0.20267797,0.34020156,-0.31921285,0.3591469,0.014332956,-0.3221774,2.3109033,-0.23469605,1.0948063,-0.37494576,1.2616068,-1.5756234,-1.3734063,-0.29251164,1.5007495,0.50813746
interacts_with,0.36517623,0.85907865,-0.06970868,-0.46778667,0.057671525,-0.8329879,-3.479591,-0.74131435,0.8450634,2.3023767,-0.8595527,-0.5967751,-0.35841036,0.8220857,3.1017723,-0.12261428
result_of,-0.4659619,1.2838341,-0.5679944,-0.4731109,0.54316235,-0.18677649,-0.41774786,0.7878888,-0.57358223,-0.11935005,-1.1931411,-0.12656638,0.25910836,0.7300038,0.018284732,0.6318594
complicates,-0.62817043,-1.3504466,-0.16820994,-0.32773277,1.2206463,-1.67657,0.93103194,0.15560156,0.32364288,-0.046388946,1.8693917,0.5203416,0.7653158,-2.7409556,1.0709133,-0.07684461
occurs_in,-0.301015,0.13361579,-0.18677153,1.2404939,0.21406125,-1.4198165,0.99348116,1.1983835,1.4133192,-0.70330375,-0.8680256,0.54451174,-1.3537592,0.8883302,-0.5361695,-0.1347495
uses,0.5815782,-0.8393856,-0.10222396,-0.028103322,0.49936587,-0.5381407,-0.5863121,1.9967401,0.36506695,1.4795519,-1.9457865,-1.1740812,0.30130747,-0.23938844,-0.118843794,-0.45851052
produces,-0.4817162,0.7343657,0.67874837,1.4478055,-1.207194,-0.7720337,-0.8454011,0.54556924,-0.9029351,-1.3822923,0.61844695,1.733621,-0.14091213,0.028350845,1.0130647,-0.4584237
degree_of,0.17972337,0.49809057,-1.5629883,0.8082317,-0.25626084,-0.6136605,-0.5874577,1.2566077,-1.3217376,0.29592347,-0.086533934,-0.13708499,-0.4916394,1.6222394,-0.13128503,0.41365755
connected_to,0.5791529,-0.46318817,0.16802645,-0.5281414,-0.90443325,0.8390177,-0.63312757,-0.14195819,1.5079353,-1.9944303,-2.1011016,1.1075531,1.2223574,1.0768819,-0.13941306,-0.9036486
process_of,-0.9841107,0.34271756,0.13318819,0.047965597,0.50527984,0.6497708,-1.3331685,-1.6052881,0.6845558,-0.50183845,-0.6132461,0.85263884,2.1208127,0.47746632,0.6714833,-0.22414236
co-occurs_with,0.9913211,-0.49517745,-0.18849263,-0.1794911,-0.7849584,-0.8118371,1.6935699,-0.3762571,1.8490468,0.034938555,-1.9015617,0.78147453,-0.9431198,0.9396512,0.4774182,-0.02552932
disrupts,-0.30631143,1.0884113,1.3135815,-1.9797236,0.3450221,0.18409818,0.14984523,-1.1260426,-0.7556297,1.244127,-0.9368235,0.7140001,1.8824506,-0.27913338,0.063042864,-0.44262454
issue_in,0.22721635,-0.09509129,0.14245737,0.04757767,-1.423104,0.956398,-0.35695955,-1.483578,0.5183945,1.2658294,-0.53316015,1.7673451,-1.1039009,-0.6319956,0.07361544,1.1979661
part_of,1.2115959,0.54008615,0.2683805,-0.9611276,-0.64419526,0.44151756,-0.16949236,0.19466373,1.1535814,-0.78495896,1.0917422,-0.8977409,-0.4025639,-1.2531214,-0.83057594,0.4454886
measures,-0.59210914,-0.046739075,0.64015454,1.1252201,0.23355559,0.85647225,-0.4107687,-2.0639813,-1.4085851,0.7690786,1.2598101,0.30144334,0.47026873,1.3671772,-0.11882333,-1.9747381
prevents,-0.34309313,-0.5806129,-0.60100234,0.26378393,0.38082698,1.0138941,-0.14532861,0.057279546,-2.4398925,0.82122636,0.5564575,0.4682524,0.66018593,0.9451222,-0.08391074,-0.18618819
causes,-0.47443974,1.2283585,-0.6677038,1.5471429,-0.7357275,-0.97327036,-0.23044914,0.2514973,-0.14013249,-1.0934722,0.7530389,-0.4053146,0.3162443,1.3229976,-0.7874751,0.06369873
indicates,1.0542663,-0.5488527,0.04178881,-0.4293445,0.78095216,-0.60617536,-1.585116,-0.25379267,0.9368655,1.7154818,0.2590731,-0.97745675,0.9231838,0.53094476,-0.55254257,-1.0067813
treats,0.48587573,-1.1759214,0.07871948,-0.42935222,-1.6034998,-0.7904294,0.7577855,1.1659595,0.25267544,0.95996517,0.33328003,-0.15944728,-0.30738983,-0.27795893,1.4272041,0.4448394
evaluation_of,0.3391699,-0.82938135,-0.7820006,0.35134917,0.24973366,-0.20583412,-1.6590278,0.26593706,0.80286044,0.7404224,0.78097385,0.8982232,-0.90608346,1.1964751,-0.5079478,0.42664218
diagnoses,-1.7255411,0.36780995,-0.61894447,1.8923649,-0.40651613,0.400989,-1.6100417,-0.156178,1.4138496,-0.47872198,-0.037063196,-1.2632128,1.7479036,0.41070935,-0.21593575,-0.4961175
exhibits,-0.6486455,-0.44236627,0.61440355,0.67666817,0.56576514,-0.24962181,0.22249451,0.6849007,-1.6236006,0.44532207,-0.8669765,-0.33324975,0.479902,-0.14845443,-0.430868,0.49927956
ingredient_of,0.1368343,1.5102175,-0.2733949,-2.5541573,0.8709155,-1.403445,2.1929615,-0.24674882,-0.401633,0.6987237,-0.46670178,0.4148436,-0.6815666,0.1741421,0.26976383,0.056112114
property_of,-1.4964051,-0.43968552,0.2648391,-0.45747256,-0.034105025,-1.0159521,-1.0889022,1.0295901,0.6167652,0.92219204,0.076373294,-0.40452012,-0.90125257,0.6810623,0.7058437,-0.5090277
manages,0.93710047,0.27573672,-0.67939246,-2.309054,-0.66049325,-0.9069579,0.53334457,-0.6651494,-0.90101874,0.49788865,1.1688439,0.12048442,0.64792657,1.5657228,-0.2812761,0.73815453
assesses_effect_of,-0.64389,-1.0495815,-0.14324032,0.8582329,1.3724085,-0.14933299,0.14515705,-1.9528127,-0.014157215,-1.2902828,1.5795889,0.77928185,1.6803193,-0.37649244,-3.3100054,0.3527485
method_of,-0.21630204,-0.4939281,-0.040498327,0.8696139,-1.5560682,0.5263379,-1.7623879,-0.5790578,0.8866993,0.5481895,0.79510885,0.48485938,-0.31592587,0.3979039,-0.045134038,1.6617126
measurement_of,0.48893705,-0.08363089,-2.1247203,1.5441438,-0.23245154,0.6680894,0.990079,1.8030001,-0.19737014,0.033424605,-0.60403943,-1.4102277,-2.3161647,1.6024041,-1.207904,-0.013579979
precedes,-0.24795951,-0.033552345,1.0941459,0.7358541,-0.050860804,0.027078751,-0.24189988,-0.66534925,-0.6768362,-0.051527444,-0.1919896,0.15488057,-3.2106242,1.127095,-0.5224068,1.8039701
consists_of,0.72588444,-0.09857102,-0.64360774,-0.19492401,-1.0176781,0.38319758,0.51803523,1.9166949,-1.1940153,-0.6521539,1.3634232,0.011715256,-0.99623275,0.30152184,-1.4305478,1.3979187
performs,-0.6515514,2.6088889,-0.8042808,1.2375599,-2.444233,0.013158218,2.0831542,-0.5163615,-0.86292535,1.434294,-0.47481412,0.2698485,-0.8486108,-2.1336477,0.83155364,0.35558313
conceptual_part_of,-0.146793,-0.4841778,0.66338766,-0.5669389,-0.5201947,0.34480202,0.09099942,0.8444337,0.6880189,2.04841,-0.9848628,-1.7956744,-0.1837479,-1.3214015,1.9104097,0.7612498
analyzes,0.9558204,-1.0873572,0.10251552,-0.5825363,0.2977255,1.1694603,0.4685487,-0.28224626,0.45757914,1.8144538,-0.05792043,-0.27580065,-1.2579454,-0.96024585,-1.4990153,1.527739
carries_out,-0.19662288,0.81549484,-1.3404667,0.8467461,0.79745936,0.9391563,0.12334766,0.06820526,-0.98971206,-0.17714246,-0.45577708,0.09193772,-0.3224575,0.37446094,1.592832,-0.72193515
developmental_form_of,-1.0870798,-1.3989676,-1.0348775,0.14845827,-0.034824558,-0.7665332,0.23279694,-1.7423441,1.231662,-0.7805139,0.55846894,0.59549433,0.76184225,-1.1836839,0.44916308,-0.8781997
contains,1.2561586,0.66021407,0.0837739,-0.32722014,-0.902423,1.1145203,-0.85309964,0.5489545,1.0155255,-0.71328056,-0.07987891,0.34775144,-1.8919948,-0.76754946,1.0490052,-0.06798017
adjacent_to,1.0914454,-0.98837155,-1.1876953,-0.043232307,1.2221913,-0.16145681,-1.4612113,0.55021113,-0.73247176,0.64822286,-0.4655903,0.12901866,1.1784898,1.1244252,-0.8309622,1.4610399
interconnects,0.72437865,0.5631511,0.47314987,-1.8335532,-2.1135535,-0.9998355,0.67040956,-0.70522606,-0.299028,1.1474787,-0.5006695,0.025589358,-0.39922848,0.029217608,1.5749232,1.6818259
conceptually_related_to,-0.67699826,0.4859135,1.1033837,0.20249057,-0.3222216,-0.28067413,-0.019073676,-0.11238175,-0.19364808,-1.0244287,0.16430607,0.10740239,1.2962167,-0.10717614,1.3920352,-0.28940207
surrounds,0.023447989,-0.45718813,-0.05408777,0.9365157,-0.31942508,0.34522542,0.79855806,0.013072175,-0.4140702,-1.3867826,-0.39624327,-0.29200047,0.18600316,0.11005776,0.4045639,1.3222331
derivative_of,-0.15358996,0.25493112,0.71218556,-0.032257993,1.1098347,-0.99223065,-0.722152,-0.033453077,-0.10901592,0.76727,0.2058012,0.12472984,-2.2897625,0.83472395,-1.207987,-0.69025075
practices,1.0825343,-0.69873595,-0.12774335,-0.22129197,0.49495342,0.88553643,0.3909896,-0.5765586,-0.35976025,0.06562223,0.8694477,1.3523469,-2.5549228,-2.4173872,0.0055204965,0.7044166
