,0,1,2,3,4,5,6,7,8,9,10,11,12,13,14,15
location_of,0.1412443,0.67502785,-0.67193544,-0.063206695,0.92524195,1.1418056,-0.011964202,-2.4845798,0.78622484,0.53189206,-0.10259808,-1.1502819,-0.4573095,0.9752503,-1.2632464,1.2410636
manifestation_of,-0.055044293,1.7494545,-0.50455683,-0.25292948,0.88890797,0.4949934,-0.38807333,-1.0797209,0.00092319254,0.8651993,-0.08171935,1.449998,-0.40502012,-1.2576537,-3.1079664,-0.5301563
isa,0.19923566,0.31352252,0.026843313,-0.12492469,0.5727988,-0.7675936,0.70191,-0.6210569,-0.61684847,0.49133298,0.16531311,0.7359863,-1.1014216,0.8386738,-0.7491866,0.3584731
affects,-1.2161814,1.4300601,-0.4787716,-0.054088157,0.72957927,-0.071329735,-0.5452672,0.32588637,-0.5629342,-0.23576592,1.1522123,-0.22463846,1.1572673,0.033662573,-0.41064772,1.8794175
associated_with,0.09527715,0.15535942,-0.18167329,1.2112193,0.7334534,-0.42658648,1.3278781,-1.643078,0.015142884,-0.646517,1.8907303,-0.6739706,-0.9432876,-0.5224805,1.0297124,0.25375527
interacts_with,0.58669275,0.4971471,-0.74677086,-0.5151417,1.5668193,0.9603308,-2.237389,-0.6294353,0.10143259,1.5250331,-0.8825253,-0.2298001,-0.38925323,-0.16437541,1.1592411,-1.9419092
result_of,1.0508009,0.72165906,-1.6358932,-0.5668354,1.7278421,0.7203505,-0.6561628,-0.031125616,-0.9209011,0.59750164,0.26718527,0.8451695,-0.5003395,-1.2145275,-1.1199248,2.4828238
complicates,0.70762527,-0.6407971,0.0150323035,-0.27246752,1.3122854,-1.8156947,0.33651498,-0.96708643,-0.79826903,-0.6928055,1.9402207,1.1272494,1.4993497,-2.1323202,1.3279955,0.41170996
occurs_in,0.021642553,-0.4259813,-0.87741053,1.2272108,0.9173909,-1.0949296,0.5975959,0.45133603,0.976343,-0.26096043,0.35506743,1.7591301,-1.0759772,0.24860458,-0.7315147,2.4477694
uses,-0.041885484,-0.8436138,0.16993314,0.28243148,0.6367254,-0.8569586,-1.2389641,1.2553816,-0.22303247,1.3845608,-1.206967,0.00052861683,1.129503,-0.04603222,-0.5015448,-0.8594223
produces,-0.38832158,-0.25198823,-0.5535466,0.69360733,-1.1260313,0.08203982,-0.052414853,0.9116256,-0.56580955,-0.78951937,1.1520098,1.7319447,-0.83983135,-1.117697,0.21771488,0.14712477
degree_of,0.81037766,0.53595954,-1.5180277,1.1794189,0.45117742,-0.15694368,-0.8078334,0.7757228,-1.4685239,0.7585816,0.84267277,0.6334309,-0.61141986,0.3512213,-1.8743436,-0.42376933
connected_to,0.84636635,-0.080241956,1.0980345,0.5454241,-0.39860398,0.4331121,-1.6470406,-0.83873284,1.8848741,-0.88264745,-0.7886952,1.7321147,0.42890322,-0.34505194,-1.0214012,0.014055893
process_of,-0.30962923,0.6914377,-0.28142253,-0.38436145,0.9250858,1.3900263,-0.877475,-1.6106038,0.7753921,-0.17679593,-0.27468532,1.0194824,1.5652385,-0.8012757,0.08667873,1.8116041
co-occurs_with,1.2529196,-0.62609684,-0.25062233,0.4220947,0.21830074,-0.48924375,0.735899,-1.9747621,0.6821642,0.30710194,-0.39884335,2.2473278,-0.77012783,-0.5920536,-1.1951293,0.09688687
disrupts,0.24470866,0.59963375,0.25865495,-2.5046802,0.5294446,0.6241232,0.03343235,-1.889486,-1.5609366,1.1040354,-0.06814252,1.9454935,2.290893,-1.0825436,-1.1974312,-1.1433005
issue_in,0.03950216,-0.17439389,0.17618117,0.28142473,-0.9780904,1.3774301,0.063922375,-1.3245422,0.04416028,0.62202615,-0.9138096,1.9347076,-0.4333814,-0.17686066,-0.5890359,0.19353965
part_of,-0.14330515,-0.042836133,0.6268771,-0.044516873,0.30608377,0.8981627,-0.22377211,-0.22850807,0.55268383,-1.1711127,1.0504094,-0.57763433,0.28885767,-0.42796922,-0.319861,0.30831516
measures,-0.8264335,-0.10998567,0.60154724,0.76788735,-0.5314991,0.26325542,-0.14924182,-1.0722625,-0.41138828,1.33679,0.791866,-0.9209486,-0.68150204,0.95686954,0.3446696,-1.1504655
prevents,-0.63292855,-0.6165416,-0.19948225,0.5792109,-0.016261235,0.06446823,-0.9935285,-0.27592278,-1.8900243,1.6090896,0.52819306,-0.3389077,-0.5887678,0.2445712,0.2737221,1.1960078
causes,-0.69765174,0.6064572,-1.4464879,1.2385263,-0.6102515,-0.6891975,-0.11760747,0.17659858,0.03010428,-0.36595494,1.7627807,0.11724369,-0.051020674,0.18244968,-1.7678491,0.72361356
indicates,0.90425014,-1.2766703,-0.14407237,0.277457,1.7561783,-0.0031313389,-1.7096028,-1.1868104,-0.4785938,0.7871975,-0.14657706,-1.1569352,0.78706956,0.7712749,0.63947564,1.823446
treats,0.49652565,-1.2419252,0.3594654,0.4188098,-0.5854658,-0.37866238,0.15990986,-0.28454736,-1.2803245,0.24555431,0.6645947,0.5728181,-0.11931823,-0.8450772,0.9535812,1.3692187
evaluation_of,-0.113371246,-0.18512106,0.057064347,0.8617591,0.47794437,-0.031815086,-1.4721539,0.16223124,-0.1533271,-0.5642325,-0.35208145,0.4727312,-0.863653,1.1526654,-1.2487003,-1.0316566
diagnoses,-1.5743239,0.6513675,-0.60978854,1.6693,-0.34341452,0.5181099,-1.7266743,-0.61568743,0.72763056,-0.86511016,-0.07324012,-1.1072139,1.7250396,-0.054329596,-1.1116971,-0.6498539
exhibits,-1.1628247,-0.25015724,0.80713284,0.44726908,-0.2924581,-1.0988958,-0.24457891,0.6479925,-1.4680912,0.6159691,-0.65451384,0.022923058,1.0130398,0.1918483,-0.6819099,-1.2882107
ingredient_of,0.38982582,0.7996304,-0.833712,-1.8268785,2.2430172,-0.38364923,1.6846621,-1.6224629,-1.5669508,0.7355198,0.263291,1.0296522,-1.0776025,-0.77616286,0.008596622,2.5441325
property_of,-0.72321117,-5.5796132e-05,0.60180116,0.12234271,0.78153855,-0.32898074,-0.8614747,0.6069124,-0.13319053,0.5331919,0.38157448,0.5795518,0.16289994,1.3140287,0.7662228,-0.72620183
manages,0.40635526,0.5081202,0.6612465,-0.46962127,0.63569975,-0.4446397,0.51251125,-0.7559739,-0.8757219,0.63476384,1.1911561,-0.23028836,-0.053772267,0.53907734,-1.3136027,0.23203687
assesses_effect_of,-0.7161435,-0.02522656,0.59368634,0.5087652,0.271959,-1.1481915,0.37178192,-0.6251531,1.0245621,-0.95870864,1.0402923,-0.4048967,0.9335855,0.39478862,-1.9934298,0.20980722
method_of,0.84832114,-0.6244407,-0.83205336,0.5162652,-1.0953854,1.6004654,-0.8239375,-0.20857474,0.3599723,-0.3411888,0.31287757,0.4967707,-0.2747015,0.193867,-1.0160956,0.6253583
measurement_of,0.27942696,0.48778528,-1.4932024,1.7096388,-0.5284608,-0.30238667,-0.13489838,0.75071263,-0.71206313,0.35498574,0.47987357,0.17079924,-0.9405328,2.0160646,-1.7815415,-0.87802106
precedes,0.7390364,-0.32411274,0.11432972,0.0005156463,0.2496184,0.66554296,-0.14101522,-1.048508,-0.9750779,0.28878096,1.0580724,2.0649214,-1.5575979,1.4051983,-2.0590441,-0.47085148
consists_of,1.0124308,-0.4931798,-0.625739,0.54995024,-0.1248936,0.5949644,-0.47108158,0.74503464,-1.764592,-0.21568586,2.4865797,0.68658185,-1.409138,-0.3299681,-1.2429109,3.1036897
performs,-1.6127732,2.2268088,-1.0943557,1.2665449,-2.0603948,0.2839819,1.7286569,-1.5232991,-2.0900333,0.7388498,-0.029264469,1.6156927,0.29881686,-1.6512022,0.38198674,-0.520745
conceptual_part_of,0.17514217,-0.43632334,0.8292011,-0.19993769,-0.057829723,0.51152104,-0.36723083,0.008738833,-0.36846966,1.2952607,-0.49156475,-0.66004664,1.0075058,-0.8639145,0.83511055,-1.359552
analyzes,0.098961614,-0.8368067,0.6261241,-0.40710026,0.16876006,0.53323096,-0.710121,-1.1436015,-0.15709713,1.5303634,0.4706806,0.9041499,0.03486469,0.20417303,-1.3382739,-0.90463114
carries_out,-0.3394986,1.0456768,-1.1351813,0.6717978,0.46364218,0.45605844,-0.6910429,-0.86615425,-1.0499226,0.2301554,0.18984786,0.49017018,-0.6879273,-0.39444205,1.0131807,-0.4651854
developmental_form_of,1.2141964,0.32321656,0.22942977,0.9151374,0.3367094,-0.62908393,0.20970203,-1.8366369,1.2825654,-0.55595744,0.88292176,0.9043178,1.0928717,-0.744078,0.9206233,-0.20424922
contains,0.6003083,0.11680936,-0.005078234,0.08920702,-0.23765247,1.5443373,-1.1085006,-0.19318,0.41882506,-0.60744697,0.8348422,1.6437142,-0.9130039,-0.5593928,0.7416066,-0.646548
adjacent_to,1.9171686,-0.43363518,-0.71085566,0.40872037,1.5656211,-0.04690812,-1.4944386,0.6303357,-0.29057884,1.1539929,-0.26655096,-0.32472932,-0.0036821698,-0.21161811,-1.845949,1.1615554
interconnects,0.7760498,0.15723069,0.97938514,0.02016781,0.07510083,0.40189174,0.7699002,-1.6055125,-1.1197354,1.3336843,0.42877123,0.748543,-0.50719476,-1.27341,-0.26854005,0.39311227
conceptually_related_to,-0.3779984,0.49660417,1.3556968,0.820124,0.27903295,-0.30771676,-0.7060564,-0.63397944,-0.24641402,-0.19837046,0.93361455,0.51633936,1.1081302,-1.3761165,0.27741215,-0.7100959
surrounds,1.0043991,-0.18842308,-0.08314654,0.9940673,-0.20373915,0.24349777,0.26174998,-0.36838612,-0.2326055,-0.6748872,0.6806722,0.521543,0.020662012,-0.73347527,-0.4153197,1.266361
derivative_of,-0.38084236,-0.39308283,0.08339208,-0.057129495,1.8741995,0.06782001,0.19973655,0.60334706,0.39524922,0.9539835,0.13550298,-0.15062831,-3.4208796,-0.55114275,-1.8126113,-0.4624261
practices,1.3056543,-0.87466615,-0.16827883,-0.13670546,0.21805449,0.011814169,-0.5129399,-1.2834328,-0.16701049,0.9638897,1.7072936,1.6626033,-2.4344974,-2.2001965,1.5087773,3.0646992
