,0,1,2,3,4,5,6,7,8,9,10,11,12,13,14,15,16,17,18,19,20,21,22,23,24,25,26,27,28,29,30,31
acquired_abnormality,0.590317,-0.17639455,0.4462155,-0.018001774,0.32039168,-0.3881171,-0.49463254,-0.93560714,0.1500699,0.3984662,-0.010856734,0.48996076,0.024035072,0.1649086,-0.089630954,0.5265696,-0.72543174,-0.58607215,0.080750816,0.40050596,-0.13753279,0.27723315,-0.21838558,0.012433433,0.11260071,0.2896167,-0.6306386,1.1046791,0.6788096,0.7886846,-0.81884974,-0.12512636
anatomical_abnormality,0.49753565,-0.22315973,0.6989769,-0.13159376,0.44178244,-0.3704869,-0.6856712,-1.0315156,0.138456,0.043750465,0.11689978,0.4000791,-0.043934107,0.23868954,-0.13037507,0.40174425,-0.5807889,-0.6172163,0.027066983,0.13666944,0.006647174,0.1940775,0.1705187,-0.061556973,0.11029015,0.19950421,-0.37804678,0.973913,0.7094706,0.7164091,-0.7085061,-0.09439511
alga,0.8734549,-0.2536103,0.14432243,-0.9263416,-0.64713407,-0.8099526,0.49320176,0.45036054,-0.8273699,-0.22543323,-0.35920647,0.020931594,0.21150497,-1.033293,-0.17816508,0.06416706,-0.29478234,-0.40021148,0.00930688,-0.36669812,-0.34296915,0.0408759,-0.24015765,0.24757096,0.6065076,0.79034525,-0.528747,0.08346063,-0.12269188,0.13396075,0.31823653,0.65952104
mental_or_behavioral_dysfunction,0.30443314,-0.108178675,0.5291887,-0.4900171,0.6582973,-0.91754097,-0.39289865,-0.1912001,0.36986548,0.2793084,0.3480844,-0.4765859,-0.50073457,0.04258473,-0.0029337688,0.23551169,-0.15493178,-0.6485659,0.18350385,0.16217816,-0.15203072,-0.29463944,0.2860177,0.48868603,0.18008667,0.51127124,-0.42025235,0.74447083,0.18900758,-0.009478779,0.3080526,-0.6441052
health_care_activity,0.20373641,-0.35848233,-0.004252663,0.6498547,0.3054436,-2.0244637,0.36842167,-0.65380776,0.20697197,-0.7276846,-0.45527536,-0.7001661,0.36445078,0.56999654,0.290431,-0.22026908,0.4385729,-0.8231135,0.19426341,-0.6228536,0.3434379,-0.71873856,0.7433307,0.49505872,-0.18718696,0.94927937,1.1726869,0.3677964,0.030053303,-0.123580106,-0.32392558,0.5508737
population_group,-0.3093673,-0.17494534,-0.7814346,0.6317878,0.10387723,-0.6574331,0.5293693,-0.19515291,0.07906805,-0.6168356,-0.36744446,-0.08077647,-1.761955,-0.48343447,0.43041673,0.063507035,0.41419125,0.27875182,0.42174459,0.008441322,-0.50596255,-0.57506883,-0.07374631,-0.20999043,1.1686808,-0.069704644,0.6531991,0.06848682,0.3793576,0.97639996,-0.08191176,0.16856213
clinical_attribute,-0.20588134,0.27528438,0.69573814,-0.6321315,0.21986364,-0.64552677,-1.0924454,-0.6227801,0.76647294,-0.7282849,-0.2082355,0.07124007,-0.43442982,0.7064216,0.22104071,0.27280146,-0.2128351,-0.68622065,-0.6246113,0.04431313,-0.38479954,-0.0664999,0.7056087,0.2466798,-0.33764216,0.2671182,0.19173291,0.6108053,-0.72704726,0.7946662,0.40138847,0.8681174
body_part_organ_or_organ_component,-0.29085338,0.30054632,0.67194206,-0.79966307,-0.4477915,0.51204693,-0.13984767,-0.391739,-0.74551785,0.308886,0.6170963,-0.0040648067,0.38638335,-0.9173324,0.25624904,-0.45303467,-0.48766717,0.7149345,0.59548223,-0.2933033,0.21924545,0.0882127,-0.001975591,-0.47618702,0.6250082,-0.5668398,0.8571993,0.40364036,1.0952753,0.41882646,-0.29666284,0.42895618
biologically_active_substance,0.018833425,0.15123524,-0.7045069,-0.38117838,0.73204094,0.0014098712,-0.22112396,-1.0111705,-0.38315225,0.16144462,-0.8228284,0.4571952,0.95361215,0.08917641,-0.2559463,-1.1569201,-0.8125053,-0.15009683,-0.06687184,0.3572011,-0.45309788,0.31162867,0.502655,-0.0036191707,0.3765945,0.36685905,0.49999985,0.6705164,-0.32314432,0.420225,0.103065476,-0.2708755
disease_or_syndrome,0.5313046,-0.2559705,0.4033104,-0.17437086,0.5199852,-0.7043455,-0.44936377,-0.3784353,0.4091741,0.46372163,0.23965871,-0.23606075,-0.45146555,-0.08688144,-0.16417652,0.3483165,-0.22549322,-0.644659,0.2205868,0.4371462,-0.0055627264,-0.2466237,0.15730049,0.61995584,0.22848801,0.5002158,-0.36354232,0.6911063,0.004416515,0.2360167,0.12787983,-0.40969452
carbohydrate,-0.16540825,-0.1539482,-0.32832474,-0.6551917,-0.03330989,0.7159129,-0.45828223,-0.82072514,-0.016674332,-0.20744222,-0.1441346,-0.47191665,0.73520994,0.102922834,-0.90887064,-0.8094344,-0.0699431,-1.0073034,-0.12708463,0.21003391,0.27825055,-0.1724062,0.79057133,-0.67215616,0.32978022,0.88430536,0.5174661,0.3972523,-0.54676986,0.22572708,0.34883937,0.4418825
molecular_sequence,0.4962825,1.4113649,0.23166813,-0.94546646,0.28924912,0.23501205,-0.7337075,0.105542,-0.56684536,-0.9133618,-0.56183535,0.20568062,-0.5080287,-0.28239608,0.15643835,0.007292136,-0.061238028,0.805464,-0.6304063,-0.48619553,-0.9742945,0.19499059,0.69858974,-0.9985809,0.07232165,-0.41308334,0.73912334,0.94053155,0.8195093,0.6521503,0.03426609,1.2336001
steroid,-0.25991535,0.3406727,-0.006342496,-0.73295885,0.32924113,0.33517945,-0.5198228,-0.6151313,-0.41884163,-0.35735098,-0.32334873,-0.036366537,0.5437902,-0.0630782,-0.20864484,-1.094011,-0.12728304,-0.7525994,-0.021057744,0.640345,-0.4191435,-0.28272852,0.5672107,-0.40708497,0.3086419,0.6906853,0.6772497,0.18925391,-0.598923,0.32463244,-0.027927527,0.19866516
experimental_model_of_disease,0.37934816,-0.004117227,0.30655172,-0.47882608,0.748801,-0.5999756,-0.39693624,-0.29306057,0.56972474,0.36725625,0.15394418,-0.056398187,-0.80633664,-0.09643526,0.024829613,0.40854958,-0.42101166,-0.4125744,0.07893605,0.29292595,-0.01509153,-0.11099975,0.25845543,0.47795725,0.07076956,0.55133903,-0.23643276,0.8009658,0.06500597,0.10608569,0.113065064,-0.48551273
patient_or_disabled_group,-0.12516697,0.0922575,-1.0884247,0.60547733,-0.19122829,0.028282408,0.66057414,-0.4575134,-0.15291062,-0.67660797,-0.142786,0.46529767,-2.0353098,-0.20543411,0.007612687,-0.26549023,-0.13305272,0.4476714,0.37353128,0.4497892,-0.532523,-0.018007487,-0.32455462,-0.07378722,0.53097683,0.1025876,0.47249877,-0.273094,0.4372891,1.1081679,-0.24165624,0.32202196
professional_or_occupational_group,-0.48377645,-0.37663287,-1.1011583,0.7233217,-0.18796428,0.0392869,0.41673818,-0.03361332,-0.45571,-0.09360345,-0.8938388,0.8252843,-1.5449544,-0.18050829,-0.11023558,-0.022084696,0.2159546,0.28567487,-0.04795032,0.44692904,-0.50362074,-0.28057754,0.0891277,-0.14046341,1.043603,0.22609375,0.38379046,-0.23102672,0.758207,0.93806857,-0.11889404,0.60365266
nucleic_acid_nucleoside_or_nucleotide,-0.39187935,0.17431214,-0.4657461,-0.5364323,0.17149514,0.59973156,-0.66592866,-0.9854558,-0.16278952,0.02666716,-0.3342488,-0.14997576,0.63463163,-0.2977606,-0.47183168,-1.1096545,0.029384114,-0.7670393,-0.019162383,0.311916,-0.09135367,-0.24028385,0.80558395,-0.3564674,0.19315305,0.88083416,0.70862806,0.39919472,-0.64912266,0.33218786,0.07686139,0.26560822
organism_function,0.08703794,-0.16900043,0.6175175,-1.1648479,0.0805765,-0.20253648,-0.18294299,0.33189136,-0.036253214,0.44101065,0.30504018,-0.8430846,-0.19711438,-0.0003998601,-0.8101899,0.21612859,-0.039030697,-0.11044331,0.38840613,-0.11851461,0.11726537,0.33545646,0.25500068,0.42245233,-0.7408319,0.5687184,0.1948717,0.5026481,0.20072186,0.41613856,-0.1327094,-0.11096452
mental_process,0.21336015,-0.107623756,0.464609,-0.8868088,0.35020718,-0.53240615,0.03256975,0.08641993,-0.24716671,0.204831,0.23517063,-0.6852038,-0.68827796,0.21109341,-0.23809701,-0.4559715,0.6300456,-0.75901324,0.54440784,-0.22676876,-0.12750396,0.19204149,0.30799803,0.5552064,-1.05356,0.5152692,0.39827484,0.0556172,0.61959887,0.25042585,-0.4131565,0.023091948
therapeutic_or_preventive_procedure,0.042200804,-0.015641565,0.29258642,0.33095235,-0.55841494,-0.5053434,1.0534511,-0.956052,0.22083037,-0.18222326,0.38984722,-0.8432619,0.40938044,0.9723349,-0.20388316,0.043120913,-0.64844626,-0.083396286,0.55439264,-0.87474567,-0.52821225,-0.3743822,0.7187358,-0.03592669,0.029890671,1.1707565,1.1285169,0.29663813,-0.35923326,0.2894902,0.46166182,0.22984822
cell_function,0.33906293,-0.1468005,0.7388842,-0.97388756,-0.23102756,-0.08107017,0.08138258,0.31618965,-0.1482502,0.5776851,0.031339772,-0.7384737,-0.44063908,0.122041754,-0.86764425,0.25466397,-0.07718377,-0.23789713,0.3947266,0.30214992,-0.06526428,0.21431376,0.22612171,0.28663233,-0.69320023,0.79664344,0.121096484,0.57317543,0.4442315,0.21301305,-0.27865857,-0.12779099
pathologic_function,0.13991782,-0.042073876,0.39291587,-0.3874453,0.6075948,-0.61094815,-0.34958488,-0.2815435,0.56426686,0.42944294,0.16786511,-0.20235124,-0.40284058,-0.086016834,0.06809438,0.23577496,-0.28084654,-0.48050737,0.11759078,0.22619407,0.0594495,-0.23863529,0.08090103,0.5461112,0.08459346,0.5174793,-0.35833913,0.74383986,-0.021798851,0.22520927,0.11937083,-0.47070107
organ_or_tissue_function,0.1424126,-0.1296385,0.7984632,-1.1879045,-0.061252404,-0.038428593,0.09042282,0.1474008,-0.061581627,0.57200086,0.050169725,-0.9283873,-0.48427117,-0.08655393,-0.57872504,0.26653415,0.010779054,-0.40565836,0.49434504,0.05171579,-0.06685068,0.5584184,0.26119798,0.18091722,-0.7991705,0.8429689,0.29067484,0.523795,0.20446855,0.279815,-0.17778933,-0.044820808
enzyme,0.35642785,-0.26037964,-0.6723109,-0.3606935,0.57423055,0.07195081,-0.04455725,-0.91081655,-0.13615899,-0.1469261,-0.5623478,0.33314803,0.93909824,0.09470362,-0.35545236,-0.97903,-0.78687537,-0.40452713,-0.23480958,0.4647598,-0.4466873,-0.2129574,0.61814624,-0.19969927,0.45860767,0.12366435,0.3901282,0.7653862,-0.1597021,0.12738855,0.1816047,-0.26168168
cell,-0.3241975,-0.37415704,0.32783028,-0.017336363,-0.67302537,0.019768484,-0.75839216,0.03969519,-0.7601502,0.3260154,0.92005426,0.29047883,-0.17134042,-1.0772661,0.8186034,-0.0136475945,-1.0578525,-0.2750128,0.7281612,-0.18450542,0.2386,-0.029818922,-0.3465449,0.007535979,0.5366779,-0.2778146,0.83800083,-0.060026992,0.7164677,0.7508802,0.12182385,0.77757716
cell_component,0.10096235,0.20204787,-0.10088673,-0.3021906,-0.200113,0.39113754,-0.76479226,0.081946254,-0.49490213,0.5994575,0.1900242,0.8214046,-0.32599264,-0.19469684,0.20042759,-0.26027775,-1.4421129,0.04062957,0.115174085,-0.6823375,0.68546766,0.5968347,-1.3063872,0.30495563,0.91281784,0.1454044,0.63136846,0.42408472,0.3070159,1.067244,-0.53550696,0.37774172
cell_or_molecular_dysfunction,0.26578784,-0.08470465,0.47584596,-0.437909,0.63195866,-0.6285678,-0.40660957,-0.21101087,0.3943858,0.5386353,0.33519587,-0.286972,-0.654547,-0.12224457,-0.19878916,0.31201392,-0.2672753,-0.36097744,0.3730784,0.31822166,-0.15991598,-0.21437499,0.22176611,0.4717222,0.26880252,0.62365913,-0.29674748,0.5768272,-0.016761856,0.10037343,0.30337474,-0.42701745
hormone,0.14041753,-0.27019498,-0.7160134,0.0030375503,0.744577,-0.19354469,-0.24731043,-0.57760024,-0.3176814,-0.058016818,-0.40271968,0.58335066,0.7010963,-0.14841856,0.063089095,-0.42792085,-1.0406728,-0.66417485,-0.15862256,1.0895492,-0.3939567,-0.23329982,0.7011792,-0.07254579,0.16622786,0.2796407,0.61470884,0.85631037,-0.40890113,-0.1651657,0.57710594,0.47665063
organic_chemical,-0.18250817,0.4260305,-0.07836924,-0.3912039,-0.04923581,0.23047043,-0.8846991,-0.33177677,-0.6017943,-0.49210817,-0.28815067,-0.02318118,0.20299312,-0.07377561,-0.68091846,-1.5934806,0.31924278,-0.12890986,0.16572553,0.32887352,-0.76293087,-0.34954587,0.83938664,-0.062613934,0.11202381,0.15323083,0.7214184,0.030015757,-0.714497,0.81923115,0.023218326,0.027980717
behavior,0.40557224,-0.021566605,-0.2308906,0.6551904,0.3550254,-1.2425685,-0.13999392,0.16705504,-0.93933684,-0.0043410584,-1.2357575,-0.7635683,0.3668574,0.31802994,0.48385328,0.7227286,-0.893037,0.54616827,0.003212898,-0.47079298,0.40420407,-0.56026876,-0.108001895,-0.3210496,-0.74495506,0.5361511,0.09476962,1.8700067,-0.11538298,0.39894915,0.24208908,-0.008793057
neuroreactive_substance_or_biogenic_amine,0.44696254,-0.12128719,-0.757851,-0.07446047,0.7942518,-0.04240654,-0.13313161,-0.541032,-0.16772014,-0.15735427,-0.64672905,0.45832413,0.72660464,0.26185766,-0.199472,-0.92974776,-0.7134686,-0.4371699,-0.30745655,0.82769716,-0.40198836,-0.41026798,0.6465905,0.025764072,0.43878052,0.2123124,0.16538,0.6425474,-0.17705446,0.55238,0.21533813,0.018729389
embryonic_structure,0.22218302,-0.7850728,0.17600282,-0.1039599,-0.5447019,0.45141187,-1.2148597,0.36928952,-0.5941015,-0.17378038,0.027718054,1.0212613,-0.1782175,-0.69054997,0.014167746,0.1501286,-0.42321014,-0.017778669,-0.27545175,0.65292096,0.34247467,-0.11209866,-0.9011418,0.6836962,-0.08353066,-0.7440676,0.745901,0.46765935,1.1887898,0.99571306,-0.21765582,1.336294
neoplastic_process,0.39965168,-0.08254412,0.38447315,-0.219844,0.5344413,-0.8799394,-0.3477836,-0.3708114,0.66182405,0.5001109,0.16331634,-0.4407645,-0.5559567,-0.2687798,0.008455089,0.34944302,-0.07451771,-0.6532208,0.2515192,0.24482451,-0.028499769,-0.042759392,-0.0005921093,0.26629338,0.17380261,0.46836856,-0.2599778,0.6819983,0.11789055,0.049372114,0.09469601,-0.35286584
laboratory_procedure,0.02877333,-0.49276337,0.26184854,0.46672213,-0.2994969,-0.8542746,0.40691134,0.07123603,0.22905876,-0.30227068,-0.11361226,0.16713189,-0.50174624,0.7702652,-0.15355153,-0.43773946,0.20730403,-0.27295366,-0.20857692,-0.46635512,0.38382307,-0.8196374,0.50572354,0.28217447,-0.033146266,0.7932783,1.0558605,0.17556567,0.38676825,-0.62760615,0.119708225,0.31034273
natural_phenomenon_or_process,0.5724825,-0.7524289,0.017547382,-1.2827471,0.3569096,-0.77708334,0.10494655,-0.21330488,0.59572786,0.5947065,-0.20754907,-0.730056,-0.46327305,-0.051155914,0.049906768,0.27830997,0.23041928,-0.93671745,-0.99595815,0.3260171,0.34438068,0.080014855,0.011916157,0.33618754,-0.25656798,1.0182835,0.6446658,0.4373175,0.077961534,0.05008825,0.86380213,0.14056554
immunologic_factor,0.37358594,-0.6430191,-0.48543578,-0.40277937,0.07217421,0.41997117,0.022422727,-1.0899527,-0.010133031,-0.22373971,-0.14756693,0.5595835,0.6003088,-0.052093416,-0.22412868,-0.67712075,-1.0285345,-0.30102086,-0.054816455,0.3544884,0.26868764,-0.3077701,1.0857354,-0.20188992,-0.4714678,0.68185127,0.7054377,0.73622274,-0.35016572,0.09697038,0.526978,0.06917828
receptor,0.42879182,-0.23740871,-0.64980674,-0.36297274,0.6935584,0.04921834,-0.07344232,-0.6751502,-0.17193101,-0.16641201,-0.4378458,0.4435074,0.779437,-0.13909283,-0.23149106,-0.97598124,-0.59002256,-0.32205248,-0.16919549,0.6782111,-0.17380945,-0.18369602,0.5717811,-0.064200856,0.25357834,-0.03196009,0.3573006,0.72116786,-0.15302196,0.049001575,0.46328145,-0.014156407
self_help_or_relief_organization,-0.892273,-0.33717152,-0.40595964,0.15713659,0.3778613,-1.0311378,0.21690968,-0.7222605,0.11490819,-0.9992341,-0.47720197,-0.065644026,-0.13668932,-0.170579,0.7481531,-0.88639545,-0.17737779,1.1630094,-0.42090765,-0.09465733,0.112303816,-0.10655775,-1.3040502,-0.55550003,1.1208363,0.34415615,0.5004118,-0.22539935,0.52547425,1.2601421,1.524369,0.010495108
pharmacologic_substance,0.17832932,-0.025442207,-0.3756618,-0.33007646,0.20179829,0.00378405,-0.13282168,-0.044984158,-0.39662325,-0.15474394,-0.4055425,0.47499537,0.5955327,0.63519645,-0.40266058,-1.1579131,-0.73281026,-0.37104362,-0.3062046,0.8430144,-0.20389548,-0.47747698,0.45537993,0.62768716,0.48559117,0.22312994,0.31787136,0.12446674,-0.5329868,0.8582586,0.5789721,0.36048192
molecular_function,-0.062450916,-0.21234086,0.76451164,-0.86569655,-0.29258963,-0.1780753,0.0159383,0.35092005,-0.080156446,0.61456645,0.20029332,-0.57764304,-0.58285195,-0.030880878,-0.84054023,0.46285748,-0.080480345,-0.4214434,0.34672594,0.28808725,-0.12848572,0.15916657,-0.03157265,0.49827906,-0.8413388,0.6541254,0.28336844,0.6071377,0.13655365,0.23211166,-0.23212105,0.20515509
regulation_or_law,-0.3640362,-0.481471,-0.019398538,0.3226441,0.58156043,-0.8285339,-0.90189296,0.0246291,-0.54243743,-0.963977,0.044793926,-0.33474934,0.17194033,-0.45631692,-0.06518188,0.49351752,0.25958148,0.1708581,-0.56692445,0.13443267,-0.8269858,0.05348452,-0.28441358,0.7721039,-0.035238564,0.46512377,0.8819901,-1.6518747,1.746231,0.08249507,0.7456392,0.6420527
human,1.0392175,-0.6978301,0.09321796,-1.040944,0.083298855,-0.40203166,0.4809319,-0.21566243,-0.70853484,-0.22360702,-0.2506861,-0.09477807,-0.018627157,-1.2658174,0.37827745,-0.19235796,-0.06477267,-0.123046935,0.12616016,-1.2052847,0.01581324,0.30627444,-0.416123,0.027337885,0.5172483,0.8015541,0.029077474,-0.14993465,-0.42131695,0.375803,0.0868825,0.60602695
eicosanoid,0.15801975,0.2350267,-0.28407183,-0.9023705,0.4794747,0.54345065,-0.729646,-0.65385383,0.020359127,-0.6781534,-0.25396937,-0.35941976,0.90229297,-0.38157192,-0.55528295,-1.1625766,0.30767334,-0.89462686,-0.17940418,0.22629276,-0.060175616,0.09156293,0.79108703,-0.5057564,0.609521,0.28191176,0.34769598,0.47034135,-0.24436659,0.1057889,-0.24891567,0.37924212
amino_acid_peptide_or_protein,-0.705458,-0.06689298,-0.2930085,-0.14135727,0.412497,0.3721312,-0.7904441,-0.48101678,-0.8064703,-0.009428852,-0.2636127,-0.44359723,0.34538528,0.3790453,-0.27022505,-0.8052429,-0.5871175,-1.0178214,-0.093698986,0.53321475,-0.1344641,-0.0977326,0.67764896,-0.7236345,0.15025146,1.2141646,0.26477903,0.44397885,-1.1231433,0.44718164,0.07933396,0.9040056
group_attribute,0.02150197,0.46803048,-0.7539426,0.53686076,0.35180917,0.10495195,-0.53650576,-1.4031255,0.43593886,-0.88634115,-1.058737,0.62308633,-1.2184119,-0.05021687,0.27691975,-0.09712846,0.44336903,-0.5552359,0.2931336,-0.46194792,-0.65126157,-0.53981507,0.26933572,0.5251818,-0.29367176,0.1375876,0.39051044,0.15203348,1.2317448,1.100345,0.3848446,0.74643946
organism_attribute,0.3845606,-0.1422973,0.49011773,-0.6331145,0.39852896,-0.9324475,-1.2441589,-0.6975454,1.1094738,-0.6394096,-0.37988287,-0.20253342,-0.21252151,0.85328096,-0.30350858,0.16980419,0.3735317,-0.57728547,-0.6851359,-0.005040842,-0.6721255,0.28054687,0.70842236,-0.43424055,0.24780656,-0.19516897,-0.052609727,0.46723086,-0.16440211,0.5151811,0.47696266,0.68732274
finding,-0.18872172,0.902768,-0.15340589,0.39257848,-0.63797635,-0.49130824,-0.9325962,-0.20506378,0.7954541,-0.66431487,-0.40946448,0.022358265,-0.15332033,-0.48648882,0.6966041,-0.2154875,0.26691827,0.10324089,0.20241605,-0.7989342,0.42740288,-0.48232692,0.25904325,-0.14745866,0.55641574,0.1295891,-0.26285172,0.8977218,0.1072679,1.3086796,0.54655284,0.18014479
congenital_abnormality,0.67664254,-0.041997455,0.53648776,-0.13293347,0.44401577,-0.18689433,-0.37236103,-1.0343653,0.19805658,0.2659389,0.05159896,0.3471874,-0.11038888,0.06371666,-0.19486897,0.4655128,-0.77506876,-0.7247887,-0.011208876,0.14205688,-0.12379298,0.4144074,-0.22435862,-0.14872552,-0.027623182,0.6120801,-0.4434439,0.94770294,0.5485491,0.8630454,-0.7514579,-0.14381963
anatomical_structure,0.091086805,-0.0163165,0.35965917,-0.034874953,0.27427033,0.0858914,-0.26769835,-0.444833,-1.2191347,-0.8187792,-0.2576122,0.32406473,0.26067692,-1.0986097,0.80591077,-0.4188543,-0.58297914,-0.07192986,0.36204565,0.20113352,1.0327814,0.24528493,-0.70996237,-0.16052344,0.21355218,-0.021763332,0.021592926,0.6075854,0.7960284,0.90727836,-0.14554381,0.7707264
molecular_biology_research_technique,-0.61647886,-0.46209967,-0.28386298,1.1663258,-0.575057,-0.59189916,-0.079951726,0.10803345,-0.623848,-0.5066434,-0.11958922,-0.08887392,-0.62344694,0.5498587,0.2722829,-0.1097586,0.50179785,-0.8054261,-0.27928486,-0.8305279,0.8103895,-1.37025,0.80572885,0.18309139,-0.24251962,0.32750592,1.1935825,0.08026216,0.3683894,-0.53010666,-0.07741972,1.2339863
diagnostic_procedure,0.0013846704,-0.37090564,0.39863235,0.8664736,-0.6185709,-0.35032707,0.22049688,-0.5042326,0.05975156,-0.04593709,-0.12568893,0.11223116,-0.49710113,0.7347506,-0.16202714,-0.23104814,0.29064405,-0.2679461,0.13101037,-0.7313682,-0.17223822,-0.32003817,0.3841434,0.1471313,0.19425872,1.0037768,0.92202556,0.08894157,0.20168568,-0.5639849,-0.30152503,0.61569905
biologic_function,0.59001243,-0.048222125,0.9479348,-1.2211083,0.20976806,-0.2921646,-0.023681875,-0.3335062,0.17516154,0.3365668,0.33526993,-0.67588663,-0.23016572,-0.41300008,-0.321939,-0.071561776,0.17604235,-0.36544386,0.23911093,0.08914931,-0.04287271,0.11428392,0.54907227,0.2516173,-0.42177704,0.53413916,0.27407113,0.3541378,0.76208127,0.12617043,-0.11652547,-0.5398282
tissue,0.24828498,-0.45690653,0.2704946,-0.43120906,-0.060416624,0.09454572,-0.5105365,-0.4614683,-0.6134173,0.513515,0.5242895,0.6844507,-0.14589201,-1.1775582,0.6697121,-0.24881902,-0.8798793,0.13576053,0.14372075,-0.42090976,0.26424816,0.50921667,-0.6480815,-0.06934345,0.6893178,-0.77553,1.431221,-0.30042183,0.6420381,0.06671575,0.18422428,0.60251576
hazardous_or_poisonous_substance,0.35120076,-0.006877674,-0.7396836,-0.39384425,0.5158168,0.045338094,0.18430807,-0.6633262,-0.16838226,-0.16466786,-0.20811968,0.7170296,0.59540623,-0.72809994,-0.40402442,-0.5973999,-0.5692224,-0.13599429,-0.38822588,0.71232325,-0.22994684,-0.26119524,0.6538337,0.39874247,0.25882086,0.019917328,0.44391048,0.6697308,-0.74603474,-0.022213327,0.27959573,1.030077
chemical_viewed_functionally,-0.08328775,-0.11941499,0.14128657,-0.089653574,-0.22017236,0.25764203,-0.59534425,-0.07651897,-0.10397546,-0.3695376,0.045184746,0.33036768,0.5613117,-0.613242,-0.4314852,-0.88894427,-0.24160525,-0.28621644,0.13459125,0.7506253,-0.080157205,-0.8597206,0.64257497,0.7904007,-0.033184372,0.09464768,0.79389083,0.50787723,-0.8444769,0.45659688,0.34356242,0.24214098
reptile,0.5207363,-0.14896378,0.079813816,-1.1090341,-0.07581257,-0.21448298,0.4146151,-0.032065824,-1.0274392,-0.249092,-0.5761038,-0.27756795,-0.08246195,-0.9232218,0.576951,-0.20603915,-0.18001483,0.09955795,0.1533565,-1.2664274,-0.27105415,0.3252954,-0.60487485,0.28258044,-0.114957295,1.1290151,0.26088867,-0.02776602,-0.89066094,0.8272534,0.06136039,0.40097526
family_group,0.3744329,-0.643168,-0.74352413,0.16939168,0.04050072,-0.42695162,0.7357568,-0.92952764,0.4080876,-1.0920874,0.014246484,0.04898388,-1.3499067,-0.4832838,0.5734648,-0.4953245,0.19653569,-0.30043408,0.56021166,-0.15165819,-0.08254565,-0.77282846,0.24986461,-0.64539903,1.2882943,-0.31279948,0.7272588,-0.6383685,0.826826,0.75214285,0.49596602,-0.34889242
virus,0.904878,-0.4754998,-0.5679208,-0.9423338,-0.7358721,0.031192549,-0.022290383,0.10928666,-0.40090558,-0.21580835,0.29688743,-0.14774309,-0.29555225,-0.7526324,0.59670967,-0.26368758,-0.55093277,-0.46702406,0.6733393,-0.26650122,-0.84180796,0.108519726,0.2939209,-0.05239434,0.7453794,1.02912,-0.24680309,0.36797115,-0.48751926,-0.19569948,0.54930717,1.0301358
indicator_reagent_or_diagnostic_aid,0.14454438,-0.39655715,-0.22630341,-0.94383717,0.5943995,0.56014735,-0.86099076,0.15230696,-0.35376832,-0.4979349,-0.22971904,0.22408548,0.5231918,-0.17872603,-0.6874466,-1.2504748,0.39508915,-0.50682765,-0.08355097,0.271886,-0.067449704,-0.46522602,0.3995693,0.108138055,0.25482622,0.050960828,0.93035495,0.32647133,-0.048354246,0.072622895,0.4988007,0.3482596
sign_or_symptom,-0.45796955,0.46802452,0.2924675,0.38254437,-0.34237435,-0.7731016,-0.65289855,-0.04223765,0.2917261,0.18871872,-0.6337119,0.46688926,-0.31129608,-0.4936236,0.58965003,0.28214076,0.6632127,-0.47326228,-0.12662818,-0.29024804,-0.34532982,-0.36982724,0.31520492,-0.8435021,1.0612915,-0.36244184,0.15532391,0.22692685,0.114278965,1.2970543,0.6029928,0.41527092
antibiotic,0.33012736,-0.09928506,-0.33930182,-0.5897228,0.39378566,-0.23424107,-0.07762022,-0.11319563,0.109402254,-0.090303615,-0.5203318,0.40349588,0.9459184,0.20063983,-0.18686345,-1.21206,-0.27780923,-0.13401587,-0.5396131,0.86499554,0.01807539,-0.648382,0.6541513,0.33552906,0.6252197,0.17983283,0.5778766,-0.17063947,-0.2632844,0.6927376,0.85126764,0.4827383
chemical_viewed_structurally,-0.20871653,0.19282492,-0.5532561,-0.39910823,6.078706e-06,0.14080973,-1.0307571,0.05205533,-0.3348716,-1.0781159,-0.018102538,0.46842515,0.003970023,-0.2798433,-0.80646783,-1.300796,-0.13834183,0.10089383,-0.29242235,0.3675838,0.18987837,-1.3898767,0.70896757,0.63914984,-0.26211318,0.15777777,0.6456138,0.5054436,-0.3879375,0.05044058,0.32476592,0.4772078
body_space_or_junction,0.03221947,0.9913335,0.74712396,0.244231,-0.5822097,-0.30429706,-1.0578419,0.055658218,-1.1855965,-0.36988935,1.2023883,-0.0071649808,0.23505269,-1.3724438,-0.13983402,1.1902913,-0.6102542,-0.43778998,0.06761714,0.8898803,-1.059508,0.9042752,-0.37995335,-0.71128786,0.47693145,0.059718803,1.0973947,0.8551763,0.277886,-0.32693383,0.5088767,0.375046
amphibian,0.99353844,-0.22667766,0.18754458,-1.0941243,-0.38757277,-0.55868953,0.2084997,0.25736257,-1.1181301,0.103596255,-0.3472731,0.008678029,0.22570398,-1.0305313,0.24567339,-0.1365438,-0.27061087,-0.17124036,0.13830832,-1.0728269,-0.5513909,0.482685,-0.2540404,0.31409466,0.62024546,0.6334249,-0.04498486,0.12613711,-0.70876944,0.7177482,0.03113882,0.6140774
health_care_related_organization,-0.6684954,-0.3162786,-0.4682277,0.49734983,0.647414,-1.2079469,0.7030256,-0.76889753,0.10715667,-1.0624865,-0.41805428,-0.46991238,-0.3391416,-0.5979683,0.50857145,-0.63671595,0.32786715,1.2727255,-0.28178844,0.6188421,-0.13163167,0.46546042,-1.0392346,-0.8690928,1.1265317,0.15455733,0.9960803,-0.22037221,0.662643,0.6923853,2.156121,-0.036260605
fish,0.61921436,-0.67714274,0.15529862,-0.39474568,0.09863662,-0.4650998,-0.13389306,0.31730485,-0.6244131,-0.1915613,-0.32342,0.10878321,0.08163435,-1.4600486,0.37057862,0.06812681,-0.5007216,-0.124461584,-0.07787962,-0.6306254,-0.16306382,0.23537439,-0.77136356,0.7411441,0.5522495,0.9737689,-0.318652,0.30334532,-0.82737863,0.6379392,-0.049293533,0.9916009
physiologic_function,0.09785845,-0.17981577,0.76191145,-0.90633965,0.046089027,-0.33019766,-0.22499727,0.4316398,0.024109574,0.555506,0.037917618,-0.5712302,-0.41655624,-0.019041752,-0.71971196,0.38412368,-0.06939309,-0.33601308,0.37550062,0.26498556,-0.20802015,0.3541243,0.05525751,0.36277232,-0.57149386,0.49162838,0.18028106,0.6137769,0.39443666,0.25523496,-0.21860692,0.12444752
animal,1.43718,-0.9508125,0.07606689,-1.0390635,-0.1907684,0.15493284,0.073634505,0.07840212,-0.5131847,-0.37859204,-0.4730177,-0.074972786,0.1495972,-0.9498394,0.08478222,-0.2141916,-0.1106053,-0.04874964,0.17543483,-1.2820857,0.1546384,0.25107464,-0.48299712,-0.03347411,0.8856458,0.74546754,0.12108078,0.033995654,-0.30911118,0.8275266,-0.1344458,0.11379026
injury_or_poisoning,0.4247811,0.37861657,0.14118741,0.09008186,0.29245764,-0.39743793,-0.0041612363,-0.7120806,0.3392731,0.48914242,-0.22938289,0.38171884,-0.32103762,0.21507232,-0.23559771,0.75585574,-0.70322084,-0.6877324,0.027592363,0.7873946,-0.5915251,0.23099378,0.16620848,-0.11860919,0.27232748,0.5564412,-0.58567303,0.8103784,0.7294293,0.35332412,0.04657596,-0.40251407
lipid,-0.60994357,0.0744149,0.14545384,-0.2915865,0.14950481,0.35279098,-1.0311425,-0.6819154,-0.35183856,-0.6575224,0.052074302,-0.37982944,0.49048713,0.15944666,-0.07706755,-1.0370142,-0.21586378,-1.0366184,0.0869385,0.48969525,-0.17433847,-0.5756117,0.88480806,-0.096035995,0.24082792,0.78641194,0.35832915,0.24832776,-0.621739,0.20504452,0.6372475,0.18718387
plant,0.9963717,-0.08553296,-0.50955707,-0.73649883,-0.21291883,-0.6174512,-1.0429908,0.078184985,-0.27994797,0.18363711,-0.61766654,-0.20616142,-0.110835016,-0.60272354,0.060936432,-0.28837755,-0.41142544,0.13416538,-0.77421236,-0.53469324,0.5301358,-0.02829919,-0.8749377,0.32047996,0.7940044,1.274927,-0.62649435,-0.4981179,-0.53415567,0.8954623,0.38522077,0.34288427
organization,-0.63167346,-0.6499539,-0.13369061,0.39239177,0.24238202,-1.0729101,0.46456861,-0.44955856,0.38962227,-2.0863748,0.46779108,0.16805582,-0.113511644,-1.1096287,0.40092075,-0.6901275,-0.055040155,0.8639551,-0.6004957,0.43203416,-0.7126019,0.107390046,-0.77706486,-0.050968014,0.8888968,-0.23671947,0.3910632,0.09337324,0.6793243,0.7303394,2.0519042,0.16873701
genetic_function,0.2136966,-0.26651937,0.7104443,-0.8524835,-0.12185383,-0.1350706,-0.25783175,0.546985,-0.05970938,0.44130385,0.08376216,-0.45763218,-0.40184483,-0.055372596,-0.779417,0.17600352,-0.11838761,-0.3393594,0.4925259,0.40377945,-0.24843784,0.42742485,0.14294975,0.24968472,-0.9330258,0.61002064,0.25201994,0.6639145,0.34083834,0.1622264,-0.25489295,-0.16450094
gene_or_genome,-0.035305813,0.3750444,-0.16327408,-0.24547973,-0.24018598,0.28536266,-1.2238622,0.6410508,-1.0349125,0.60253185,-0.00094830367,0.59408873,0.06428123,-0.22765642,-0.27975848,-0.78981346,-0.9718185,-0.22886065,0.4958972,-0.78863305,0.34929866,0.3211681,-0.85172576,0.5502116,1.2018902,-0.38844377,0.20030624,0.81795657,0.49148306,1.191127,-0.6849711,0.7595163
laboratory_or_test_result,-0.7011935,0.1133605,0.042510927,0.26573467,-0.98182595,0.060256552,-0.5034357,-0.17447893,0.39488932,-0.052066177,-0.035574786,-0.24475308,0.24814178,-0.36738974,0.46507725,0.23720314,0.58294004,0.12535116,-0.5325954,-0.7320133,0.07465997,-0.29642314,0.072172016,-0.87066793,1.0666183,0.23612839,-0.042750157,0.8797115,-0.18090239,0.69054955,0.4490438,0.56119156
spatial_concept,-0.4796888,1.0106791,-0.11276702,-1.4331764,0.12388373,0.5745629,-0.73470986,-0.048550937,-0.92434955,-0.7613309,-0.12807444,-0.9446673,0.41407007,-0.14025284,0.43756816,0.39882413,-0.22122948,0.008514765,-0.87996334,-0.13025232,-0.37653017,0.7020119,0.48815826,-0.818521,-0.046318628,0.33934692,0.046577282,1.067366,0.57366866,0.40577227,0.5655235,1.6863511
rickettsia_or_chlamydia,0.98500216,-0.32257962,-0.55851775,-1.0055078,-0.29986906,-0.021962078,-0.2337379,-0.077795155,-0.38859645,0.16477613,0.24154405,-0.4208706,0.006347137,-1.1364863,-0.054980356,0.07192534,-0.6879154,-0.60924304,0.8743467,-0.6698709,-0.46316424,0.2146505,-0.124756694,-0.21171735,0.49080378,1.2268242,-0.084254324,-0.11639058,-0.26307172,-0.018148901,0.56284505,0.5150037
body_substance,0.3754083,0.36164597,-0.37694892,-0.23671593,-0.29155335,0.74385506,-0.74357754,-0.014040636,-0.19213091,0.7090442,-0.8565494,0.3351011,-0.2817904,-0.6070988,0.046648357,-0.8787619,-0.78923887,0.75963914,-0.08451301,0.44091025,-0.83907086,0.105671346,0.6358026,-0.8508236,0.2619975,-0.03984849,1.7972996,0.058214646,-0.3613399,0.4579794,-0.30439392,0.06448558
intellectual_product,0.267596,-0.05387439,-0.6211696,-0.24956715,0.66432935,-1.0809925,-0.44859612,-0.057577398,0.27201894,-1.271944,-0.08383395,-0.20882225,0.3916943,-0.22909681,-0.8160116,0.16887577,0.20755672,0.30350325,0.2757813,0.13078508,-0.49078107,-0.20541233,-0.66081613,-0.036688954,-0.033988316,0.46391335,1.0861999,-1.518687,1.2441958,0.66385883,0.71253926,0.40795144
element_ion_or_isotope,-0.12539,0.2326942,-0.8952893,-0.59992903,0.3274824,0.37957036,-1.1795026,-0.12480802,-0.080561966,0.11562377,-0.76253235,-0.06861468,0.19464846,0.24880846,-0.8825958,-0.96861005,-0.32894218,-0.8692022,-0.14709398,0.5893226,0.23171335,-0.22880271,0.0005089063,-0.15948953,0.63848466,0.40393242,0.3650558,0.3574993,-0.5733402,0.3482941,0.6812523,0.9030467
research_activity,-0.610514,-0.02425831,-0.21817835,1.0863515,-0.9424543,-0.33659014,0.30285257,-0.17749864,-0.43256885,-0.0073805675,-0.33949935,-0.4649794,-0.4863996,0.41246593,-0.1677694,-0.44416448,0.40742582,0.09728062,-0.40209007,-0.918371,0.22042102,-0.6140255,0.7130117,-0.15675175,-0.0197489,0.3145565,1.0581425,-0.08841557,0.82182014,-0.39236686,-0.28772455,0.93835795
geographic_area,-0.42817003,0.37744746,0.2631722,-0.43102193,0.004889181,0.24501872,-1.685975,0.12423828,0.13180245,-0.8480986,0.064087786,-0.8561662,-1.4469686,0.74644244,0.07831774,0.42860925,0.19043744,0.11203014,-0.33917874,-0.40399382,-0.088124074,-0.21486473,0.7423144,-0.6447171,0.37205923,0.32970604,0.39298663,0.12874222,0.22733483,0.77882916,0.12075015,1.2689755
professional_society,-0.34739992,-0.39037555,-0.1329102,-0.15641347,0.9917841,-0.7858456,0.4544889,-0.92483884,0.3025653,-2.2362716,0.18360373,0.48449698,-0.24217701,-1.1306142,-0.3097706,0.052096013,0.2671314,0.2903906,-0.72040737,0.3204301,-0.48517334,0.7784788,-0.9791727,-0.22067165,0.7094307,0.09866635,0.4738533,0.29420546,0.49016476,0.34698182,1.258889,0.71081656
organophosphorus_compound,-0.5323506,0.15935218,-0.9595997,-0.010573267,0.063220456,0.24145728,-0.6918108,-0.2719467,-0.83277917,0.042063776,-0.23227875,-0.14605126,0.12044338,0.29496288,-0.7840105,-0.588957,-0.17059185,-0.9232041,-0.1884577,0.935528,-0.39761114,0.2230277,0.4268927,-0.14692535,-0.09453598,0.9587768,0.5662029,0.79992783,-1.2664965,0.98399925,0.06700705,0.711935
body_location_or_region,0.2974796,1.340936,0.11654964,-0.6783132,-1.0514809,0.83310795,-1.3674364,-0.08432642,-0.5590817,-0.99199164,1.3462284,0.6635407,-1.213438,-0.40085146,-0.10638436,0.7351457,-0.4569564,0.39127052,-0.16376628,0.7663989,-0.8219554,0.7501747,-0.1569184,-0.24169496,0.18571939,0.03166312,1.0029316,0.52131444,0.5789525,0.019731015,0.03341924,0.18916036
invertebrate,0.44331956,-0.6860323,-0.49565193,-0.2021367,-0.3544642,0.09278181,-0.08478088,-0.13859342,-0.24729192,-0.09794249,-0.4845157,-0.1879457,0.07957326,-1.3978506,0.56778955,0.12609828,-0.030493522,-0.68838286,0.15552504,-0.6445893,0.03567351,0.43557206,-0.3479888,0.41060206,0.8184907,1.3663931,0.07830926,0.18249768,-0.7080699,0.24199481,0.10491633,0.96542126
age_group,-0.12202643,-0.042459078,-1.0033714,0.5326921,0.068167545,-0.19663684,0.5244531,-0.48772156,-0.190476,-0.4889753,-0.35685363,0.3667722,-1.6409836,-0.31353718,0.51823777,-0.103145696,0.06546447,-0.17870077,-0.18341798,0.20903142,-0.24869277,-0.602619,-0.09076072,-0.49611133,1.0843083,0.038270395,0.61463225,-0.5211608,0.66209173,0.72406334,0.03778053,0.0919387
human_caused_phenomenon_or_process,0.46277374,0.11125204,-0.15991215,-0.80085474,-0.35026973,0.43638816,-0.41489643,-1.0204095,0.72486275,-0.12391011,-0.90817285,-0.75725394,-0.6092822,-0.20764351,0.28550357,0.35612446,0.29524744,-0.0008816428,-1.4333363,0.27016973,-0.0013998547,0.5112632,-0.50658005,-0.61834,-0.5498636,1.0241346,-0.14569649,0.4720194,1.012705,0.076999374,-0.71418685,1.2171233
phenomenon_or_process,0.582637,-0.39168346,0.85660964,-1.0791154,-0.42549968,-0.6663788,0.8511059,-0.6663941,-0.20393704,0.09461213,-0.4816693,-0.7542532,0.28762594,0.24127163,-0.050681,0.50182056,-0.28273314,-0.48321155,-0.596449,0.33915094,-0.052001875,0.0038904187,1.2075212,-0.24225008,-0.86970556,0.44539323,0.48104268,0.18097605,1.620864,0.20205763,0.47793922,0.15566808
individual_behavior,-0.0035119466,-0.27611235,0.090210944,0.38676977,0.45565867,-1.2498869,-0.5443955,-0.048138227,-0.38660258,-0.1768562,-1.0315304,-0.99250716,-0.02991833,0.6632482,0.66547364,0.3778922,-0.6157818,0.58904433,-0.03611636,-0.2842833,0.42878732,-0.56081223,-0.5889004,-0.6647152,-0.032518353,0.6792032,0.052907158,1.5322709,-0.3149278,0.51951176,0.40375188,0.14806154
bird,0.7689953,-0.96893305,-0.15013829,-0.87187916,-0.43072388,-0.17360106,-0.043074585,-0.34850833,-0.8459008,-0.13892515,-0.08330928,0.13309266,-0.3775265,-1.7081727,0.33550125,0.17280658,-0.20465378,-0.35349235,-0.40699252,-0.5502134,-0.15761189,0.64200747,-0.2816611,-0.10141684,0.17037646,1.1898831,0.5896749,0.20415288,-0.7767238,0.36108014,0.13172679,1.215575
mammal,0.6926947,-0.8909641,0.06844471,-0.8906196,-0.28109682,-0.5329994,-0.14016902,-0.18621776,-0.25860453,-0.22114773,-0.48741245,0.15874721,0.24881437,-0.9465813,0.09433056,-0.4423045,-0.64887565,0.2371708,0.14178523,-1.0714061,0.09009077,-0.2076518,-0.37619582,0.47763038,0.5056082,0.8484204,-0.17035481,-0.19541232,0.026298035,0.6249685,0.22426498,0.5898187
qualitative_concept,0.4087829,0.17151913,-0.14976327,-0.49065998,0.9221864,-0.9369989,-0.7785032,-0.052610748,-0.9142653,0.021806542,-0.67780703,0.06578553,0.695707,-0.20973755,-0.8901588,0.14560953,-0.10721911,1.0669878,-1.3520079,-0.44805217,0.044252474,1.1058908,0.052348897,-0.6407557,0.30118236,-0.04246129,0.66096777,-0.13560756,0.48643726,0.61208624,0.3009573,1.0003653
environmental_effect_of_humans,-0.23229454,0.63177925,0.16039416,-0.8947157,-0.043686062,-0.637409,0.5079716,-0.47743666,0.086919256,-0.40122256,-0.708896,-0.7449523,-0.19647852,0.1691181,-0.28620872,0.979964,-0.44797853,-0.58023953,-0.07717361,-0.10282905,-1.3829297,0.75354797,0.40560374,-0.82537234,-0.32439083,0.16494067,0.031683758,0.5862122,1.3152397,-0.019064004,0.59140956,-0.24468324
social_behavior,0.3801461,0.010129837,-0.14889161,0.66902953,0.22459885,-1.3810241,-0.28549978,0.058681294,-1.5995495,-0.08936798,-0.78029627,-0.7848331,0.081136405,0.9477872,0.14525616,0.47174066,-0.80847335,0.4006352,-0.50731266,-0.33921733,0.52874154,-0.15422887,0.031157278,-0.6059493,-0.7736211,0.3851314,-0.08802091,1.9889221,-0.20992795,0.58146226,0.44550803,0.10110639
biomedical_or_dental_material,-0.011718201,-0.58670676,-0.24082199,-0.0729072,-0.12044162,0.089576975,-1.4322356,-0.021489002,-0.3538066,-0.21853068,-0.7631472,-0.4043117,1.147118,0.06993791,-0.70751494,-0.878629,-0.76279575,-1.1192508,0.035567008,0.937186,0.5205434,-0.8205995,0.3128825,0.1705138,0.6581249,0.52201074,0.11766507,0.09163975,-0.13076125,0.29517987,0.033240557,0.72776306
quantitative_concept,-0.19631068,0.3908265,-0.0065413495,-1.2629377,0.36129627,0.8336086,-1.4456693,0.2817966,-0.32003367,-0.6429275,-0.26336917,-0.10307231,-1.1717695,0.35716936,-0.6744872,-0.03151025,0.016077297,0.19019291,-0.79373264,0.8090827,-1.0680507,1.1858782,0.22994617,-0.84632415,0.30789444,-0.34057796,0.8169091,-0.11210291,0.05925322,0.21086906,0.0033366734,0.9247854
inorganic_chemical,0.16228546,-0.12362228,-0.093862936,-1.0348418,0.40600327,0.098205775,-0.5713644,-0.33460996,-0.44034028,-0.52680284,-0.25694516,0.2712512,0.8513837,-0.16528422,-0.8912018,-1.1882204,0.027878046,-0.6216399,-0.2722915,0.4355618,0.13861938,-0.17892891,0.7871949,-0.29392013,0.59974974,0.14229065,0.5835815,0.2470797,-0.278399,0.10347935,0.24517238,0.5582532
drug_delivery_device,-0.032280523,0.58317417,-0.6446466,-0.5134847,-0.3710784,0.72958255,-0.5143241,0.1139609,-0.031193279,-0.09160947,-0.11092763,-1.3151542,0.68591005,0.5109382,-0.0025655562,-0.75092274,-0.31874815,0.27998558,0.16923574,-0.5542913,-0.4682893,0.17497063,0.62094,0.37706813,0.061272997,0.902277,0.68238324,-1.3675392,1.1492314,0.7304243,0.35821512,0.8755081
educational_activity,-0.05951809,-0.043954633,-0.507829,1.1223422,-0.61652124,-0.77104974,-0.2667127,-0.30120715,-0.14007485,0.022562867,-0.74867064,-0.8196564,-0.07694806,0.26230988,-0.11453209,0.06802574,0.45794266,0.06891424,-0.0813176,-0.7749001,0.26396424,-0.62944937,1.2292948,-0.69120854,0.17976215,0.28173825,1.0291046,-0.16505487,0.49391615,-0.17760947,0.3326934,0.36593276
chemical,0.2503451,-0.0800434,-0.32970873,-0.38030365,0.08765289,0.53996956,-1.1708351,-0.41695935,0.037609622,-0.4258292,-0.10602596,0.17978528,0.32736614,-0.23999575,-0.7707277,-1.3377812,0.27600023,-0.3487771,0.036091384,0.2045304,-0.39944288,-0.23683341,0.48337638,0.007032311,0.08919892,0.4082819,0.78537565,0.06375238,-0.5276642,0.6438235,0.39174896,-0.07002874
vitamin,0.49725997,-0.2946916,-0.59254515,-0.43935093,0.40538502,0.21837074,-0.06181259,-0.7641719,-0.43412524,-0.03372456,-0.25359496,0.6152838,0.6274785,0.135094,-0.21137401,-0.9019978,-0.5013504,-0.27201438,-0.27177516,0.76782477,-0.5565562,-0.013014687,0.53131914,-0.14053968,0.09007596,0.24212472,0.5660897,0.5552525,-0.28782892,0.05787952,0.2947167,0.04519079
fully_formed_anatomical_structure,-0.36775115,-0.06576786,0.20722331,-0.02750467,-0.004615954,0.045886476,-1.3204192,0.20237018,-0.48273844,0.039006718,1.0151081,-0.16986297,-0.20017967,-0.5796039,0.91757905,-0.6811246,-0.69186056,-0.07335991,0.79164374,-0.45206597,0.683879,-0.40934315,-0.3118873,0.006131024,0.89698344,-0.38907474,0.45811328,-0.043305624,1.1921198,0.6608974,0.23134859,0.8311296
group,-0.18407246,-0.0153731145,-1.1374316,0.5351515,-0.53936446,-0.43349883,0.92454594,-0.80908,-0.16942899,-0.72666514,-0.056145214,0.5459466,-1.575424,-0.3980878,0.11027412,0.063313216,0.009187842,-0.085876025,0.32455158,0.39049783,-0.7211778,-0.42950693,-0.015210477,0.018925963,0.8451004,0.067075245,0.21986927,-0.76837224,0.7707915,0.9588914,0.13108566,0.2676318
nucleotide_sequence,0.8996986,1.0870258,-0.20553747,-1.4091592,0.71613985,-0.3050182,-2.3805,-0.4833327,-0.605377,-1.0019524,0.5418891,-0.3236532,-0.20385987,0.31752872,-0.97553134,0.27849796,-0.44296053,0.023918144,-0.569021,0.0035127816,0.6198096,-0.13078047,0.5395389,-0.83665824,0.63906705,0.2497104,0.09141775,-0.34706926,1.4367816,0.08530683,0.345908,0.427955
body_system,0.5701797,1.4614506,-0.76235855,-0.5335413,0.3844452,-0.17568542,-1.8571547,-1.575673,-0.25853458,-1.3231715,-0.18374927,-0.504881,-0.11583119,-0.55914307,-0.31913635,0.29394475,-1.312441,0.63316506,-0.9316883,0.19410624,-0.37848988,0.794969,-0.8688539,-0.21253467,0.7179733,-0.086710595,-0.29748148,0.3747455,0.26283187,0.72017676,-0.42924118,-0.035025466
food,0.4872821,0.15353677,-0.778505,-0.8717882,-0.15857258,0.53653836,-0.78679156,-0.16096708,-0.5886912,0.40112793,0.076767616,-0.21585879,0.96557575,-0.14597967,-0.070588864,-1.6053047,-0.036991186,-0.23272382,0.23224758,-0.9235644,0.7366761,0.15486676,0.62444115,-0.048839197,0.07298198,0.6317776,1.0570041,-0.1445001,-0.6258802,0.94863427,0.47589874,0.7897562
bacterium,0.48149773,-0.010706487,-0.46723887,-0.88883215,-0.6894539,0.42532843,-0.4519588,0.18848206,-0.16654806,-0.028771317,0.22692008,-0.3660442,-0.23326936,-0.92191786,0.14536795,0.5910818,-0.5780369,-0.96466494,0.24087627,-0.64920485,-0.31796607,0.7632208,-0.0107107535,-0.13203245,0.41094014,1.9442585,-0.496946,0.28842828,-0.3799546,-0.41105917,0.51229256,0.91440773
fungus,0.92668873,-0.3924834,-0.6138343,-1.1429855,-0.16697358,0.09565555,-0.34107354,-0.12882048,-0.10664968,0.18326497,0.07738668,-0.50519633,-0.037137825,-0.59716564,0.079525344,-0.09098959,-0.32315233,-0.67241555,0.53232354,-0.5411379,-0.30521858,0.2939927,-0.5073334,-0.39637408,0.8270701,1.3222399,-0.2870789,-0.31961477,-0.11493918,-0.040046304,0.69444245,0.53539085
research_device,-0.24570076,0.6983785,-1.4981724,-0.03226705,0.25351375,0.39761922,-0.8607943,-0.37490124,0.58565474,-0.5624106,-0.049804054,-1.0023625,0.48425877,-0.28164104,0.0053395093,-0.62411904,0.24408047,-0.12993822,-0.2731182,-0.4344795,-0.3385758,0.37630185,-0.4331097,0.32695273,-0.26163015,0.6665209,0.9170182,-0.99439794,0.27276438,1.033859,0.10400064,0.7844352
governmental_or_regulatory_activity,-0.1377885,0.02543211,-0.5589408,0.96044606,-0.5934217,-0.5652703,-0.085603654,-0.41631967,-0.15129703,-0.22810443,-0.6138831,-0.7578547,-0.16061254,0.44346654,-0.48437786,-0.07211347,0.6363861,0.10310506,-0.2595314,-1.0539589,0.070362,-0.21865493,0.9268934,-0.5314588,-0.118156314,0.44392148,1.1874952,0.1920984,0.45655534,-0.070497975,0.35137424,0.7512893
idea_or_concept,-0.03250721,0.013536411,-0.09124138,-1.4401591,-1.043513,0.9767352,-0.3647689,-0.3278065,-0.36967131,-1.8406425,0.27915746,-0.58376986,0.4607871,-1.5848608,-0.11977407,0.41558668,-0.2761833,0.8633808,-0.90043414,0.4494904,-0.544047,0.14447168,0.5565208,-1.1270648,-0.58099365,0.25995058,-0.07005098,0.77055806,1.5750418,-0.11162281,0.54425794,0.6700316
occupational_activity,0.021890251,-0.15421586,-0.6480747,1.4153554,0.3544639,-1.0453975,0.06500134,-0.6349301,-0.34543592,-0.20703964,-0.9330057,-0.8502694,0.4345773,-0.22957928,-0.08594102,0.071583435,1.0361872,-0.61149055,0.04724594,-0.99013287,0.27186546,0.12668793,1.2142723,-0.6767433,0.26943678,0.34296829,1.6547797,-0.006251502,1.0171037,-0.10870551,0.36265668,0.2741733
physical_object,-0.332005,0.31525186,0.10559033,0.022577912,-0.073440544,0.562182,-0.1356456,0.27177814,-1.4789484,0.31200752,-0.33530864,-0.1271625,-0.07199781,-0.19501136,-1.3804505,0.42970175,-0.17607674,0.71636844,-0.11513295,-0.45915005,0.48845342,-0.33741078,-0.25397715,-0.41985297,0.45812836,-0.03686897,0.061262693,0.21804489,0.13090573,0.76064026,0.9782514,-0.33535984
vertebrate,0.9409121,-0.86743206,0.09351526,-0.99065214,-0.5360341,-0.5001206,0.20933893,0.022570254,-0.31605047,-0.91407627,-0.1322668,0.22258069,0.02450376,-0.92668414,0.063854724,-0.06721159,-0.3718201,0.24439874,0.26019633,-1.2937093,-0.25288892,0.18190038,-0.2414187,0.37412086,0.47041523,0.73602647,-0.3810077,0.15182798,-0.48946425,0.46657297,0.34529534,0.1523
substance,-0.008590584,0.25591508,-0.38813826,0.5308137,-0.57669735,0.7329892,-1.0032551,-0.012504585,-0.57046825,0.07552757,-0.5719237,0.04649326,0.9073128,-1.9886649,-0.21228458,-0.6426365,-0.34968776,0.4986838,-0.023941051,0.015740868,-0.03828574,-0.27010524,0.8103839,0.2472252,-0.5313866,0.39891487,0.91361195,-0.1508218,-0.039299738,0.7870934,0.56250596,0.27893844
medical_device,-0.6727544,1.0575598,-0.8323283,-0.06793287,-0.102863126,0.19150142,-0.7389778,-0.06286557,-0.0789375,-0.26445937,-0.5094767,-0.4207701,0.55773324,0.2648397,-0.05251518,-1.0345541,-0.59136754,0.54877144,-0.22676924,-0.1429801,-0.23021516,0.2518205,-0.40168467,0.7624613,0.12194113,0.5823062,1.0688232,-1.0211943,0.40641472,0.8840652,0.70200974,1.3622738
manufactured_object,-0.6896491,0.81853884,-1.4011614,-0.289415,0.07011517,0.46231586,-1.1170976,0.04128676,0.08392773,-0.62521315,0.15766723,-0.6373056,0.23449546,-0.17178462,-0.004749539,-0.48923895,-0.09719234,0.1725473,-0.07979613,-0.9848037,-0.37420264,-0.21219951,-0.046968862,1.0133069,-0.47546336,0.106308356,1.0695468,-1.1360308,0.7704152,0.59848887,0.77845985,0.8260879
classification,-0.22197752,-0.03751356,-0.20587091,-0.057117242,0.63962793,-0.5721062,-0.5127816,0.37607807,-0.058585215,-1.012437,-0.0720494,-0.6570323,0.77673393,-0.71622556,-0.5588602,0.49162415,-0.26049092,-0.021343125,0.08401936,-0.12171377,-0.35812768,-0.048043177,-0.28895658,0.32201454,-0.13628994,1.1510487,0.20366776,-0.9953421,1.5722904,0.62261957,0.9439819,0.23263432
daily_or_recreational_activity,-0.4972466,1.1719096,-0.49073976,0.7015992,-0.30223507,-0.93598557,-0.65056175,-0.10576933,-0.66447306,0.59797597,-0.34075677,-1.3447438,-0.41243523,0.31415388,0.6006112,0.1743315,-0.2241709,0.33879933,-0.4861521,-1.3447195,0.7660537,0.114210136,0.32865,-0.43804866,-0.23878478,0.8682048,1.3784214,0.11919859,-0.33821267,0.30329067,0.92126787,1.0677013
conceptual_entity,-0.10146651,0.13199641,-0.46841168,-0.3187156,-1.0607834,0.080094375,0.25678784,-0.9781736,-0.14972892,-1.1007475,0.0071999175,-0.67990375,0.51714796,0.13644671,0.41720504,-0.38977894,0.10440518,0.10973181,-0.24846095,0.031215422,-0.82818776,-0.52567226,-0.50671655,-0.10937365,-0.6115168,0.47361514,-0.39455685,0.6816616,1.0587775,0.1812396,1.4891106,0.58532006
occupation_or_discipline,-0.34256232,0.20053145,-0.50124,-0.0049990476,-0.37150133,-0.10182714,-0.025579512,-0.48565412,-0.24814336,-0.49178216,-0.17530006,0.16796404,0.12702936,0.07575135,0.23237604,0.5593412,0.37045482,-0.26218453,0.0015898643,-0.04709241,-0.38864172,0.22580379,-0.08534333,-0.13540924,0.15722486,-0.1579598,0.42456502,-0.3468209,0.2680914,0.2591447,0.3241357,0.039125506
amino_acid_sequence,1.4825734,0.21434928,-0.3236801,0.21145561,-0.17328669,0.2549759,-1.6793314,0.19035816,-0.043811962,0.022586657,-0.53317785,-0.93987477,0.092361115,-0.33858845,-1.9014087,1.4902087,1.6100806,0.23617099,-0.99696255,0.06468901,0.16600691,0.19933593,-1.2414057,-1.5389544,1.3665048,0.82278913,-0.18994881,0.5193528,1.4321206,0.8369325,0.81283,0.58944637
clinical_drug,-0.5432542,0.43052214,-1.566108,-0.19983463,0.18736735,0.13163908,-0.7225401,0.5809216,-0.041242067,-0.56114316,-0.2166358,0.52671856,0.19216019,-0.55473536,0.11531494,-0.19037867,-0.07043806,-0.42126352,0.14124778,-0.15052976,-0.55271864,0.2919311,0.0017542109,0.4479291,-0.39952004,-0.023866214,0.5028375,-0.43343234,0.7164484,0.021927712,0.49071997,1.2017632
activity,0.7448712,0.17789486,-0.72323984,1.337499,-0.023135012,-1.3525761,-1.2798641,0.70277494,-0.79156685,-0.27214205,-0.99516255,-0.49450907,0.3982476,-0.33074075,0.085936494,0.69545156,0.39824307,0.05559082,-0.60395944,-1.0962894,0.687384,0.26689062,0.12738709,-0.30232808,-0.094030604,0.32955447,1.3356029,0.046605773,1.2981591,0.5403352,-0.14321744,-0.11298794
event,0.888329,-0.09076964,0.54158324,0.02260073,-0.7583261,-0.28096512,0.3498693,0.24941213,-0.41763282,-0.9643211,-0.9405284,-0.8790443,0.44887656,0.26265076,-0.025438365,0.11454028,0.7751434,-1.5811874,-0.527299,0.2731649,0.44207615,0.8631476,0.2526745,0.112252735,-0.83861125,0.19850491,1.203198,-0.62166774,0.5017562,1.6394492,-0.6045951,0.1244042
temporal_concept,0.36091554,0.027907133,-0.4938692,-0.92502844,1.0448761,-0.13248777,-1.5332766,-0.47423974,-0.40306675,-0.37528625,0.0861596,-1.0411625,-0.6310559,0.5274966,-0.38145325,0.2468791,-0.114193216,0.43113786,-2.0252702,1.1555029,-0.6854705,-0.66232514,0.6009165,-0.6585392,0.9037644,0.7811544,1.2816681,-0.74059373,0.41038546,0.47063306,0.05589782,-0.033439074
archaeon,0.16354409,-0.6064369,-0.14428098,-0.5352211,-0.375048,-0.52784425,-0.20863207,0.6570616,-0.8910297,-0.21051638,-0.7265072,0.38069573,-0.18345627,-1.0235249,0.12562275,0.50549364,-0.797316,-0.022373185,0.033563863,-0.35597235,-0.26699096,0.40400147,-0.7936585,0.88587105,0.10252873,1.1195695,-0.25924423,0.30213016,-0.6201441,0.7680863,-0.14071865,1.3972032
language,0.32493433,0.93409324,-0.3264129,-0.4008469,0.092048556,-0.95623237,-1.0277475,-0.11911115,-0.18682766,-0.19618887,-0.6142796,-0.52420306,-0.23105216,0.20939346,-0.96221876,-1.479567,0.27426285,-0.09292602,-0.6847057,-0.2666283,-0.8122295,0.80141056,-0.02287456,-1.1800019,1.2884121,0.109587304,-0.007988467,-0.819809,1.3827118,1.1896342,0.7270145,1.072899
biomedical_occupation_or_discipline,-0.19695827,0.18859231,-0.4907175,0.07836328,-0.4219171,0.00081206136,-0.34992352,-0.449141,-0.3275615,-0.52515495,-0.11372593,0.17798536,0.08056454,0.26779193,0.28719234,0.47939363,0.32303977,-0.12829562,0.04832464,-0.038343485,-0.28386274,0.11587358,0.07103532,-0.0011007062,0.13081664,0.20651767,0.22198564,-0.35875005,0.07742834,0.5481863,0.0052439286,-0.027523616
functional_concept,0.19753344,0.14111093,-0.26149118,-0.94828105,0.29998,-0.3462687,-1.3291948,-1.1477107,-0.5949694,-0.30514285,-0.32883173,-0.9974676,-1.0959578,-0.8286432,-0.25666383,0.50256115,-0.35988674,0.44516963,-1.4681827,0.38852513,0.7431329,0.24820353,-0.91286284,-1.1465793,0.4445009,-0.40019214,1.0958259,0.11170412,0.49588206,-0.30939516,0.9858245,0.30559418
machine_activity,-0.875565,0.58878607,-0.3870336,0.92809725,-0.19377646,-0.3799987,-0.06491212,0.34312844,-1.3908359,-0.07835302,-0.26801816,0.13939749,-0.056188248,-0.38631865,0.2972275,1.7609463,-0.54664874,-1.0950171,-0.23629987,-0.5044103,-0.71484363,-0.44468972,0.40011322,0.43977627,-0.56391925,0.33329126,1.8776662,0.74986774,0.38926336,-0.8412523,1.3927902,0.54701006
entity,-0.12286283,-0.005464819,-0.268252,0.1861914,-0.37541366,0.25892594,-0.2965668,-0.15810382,-0.51844305,-0.20427981,0.05087396,-0.4599818,0.10086576,-0.19112688,-0.2768197,0.14185926,-0.045137305,0.5692039,-0.039155416,0.19001992,0.020066218,-0.6246996,-0.30441144,-0.32499087,0.09203121,-0.08644271,-0.28010318,0.5119873,0.22979276,0.08547093,1.1420597,0.1778412
carbohydrate_sequence,0.2783429,0.41205472,-0.37698463,-0.6032663,-0.2292524,0.76528656,-1.4437189,0.23951963,-0.8819329,-0.9313631,-0.1033573,0.35991696,-0.8484637,-0.11766729,-0.65977114,0.9475346,0.7701146,0.10485884,-0.33500707,-0.32252452,-0.29123208,0.42411473,-0.086031504,-1.2108458,-0.27029094,0.79618955,0.28936368,0.25906056,0.8928341,0.3260619,0.773747,1.83726
organism,0.9884583,-0.59899837,0.03573289,-0.96782464,-0.12377004,-0.20697016,-0.47413024,0.45081377,-1.0302695,-0.32239825,-0.8377135,0.23688906,-0.17245051,-0.40658456,-0.74598527,-0.05210265,-0.35063258,0.21017781,-0.2536815,-1.1866883,-0.20310098,0.5837986,-0.43834102,0.83866864,0.8295815,0.26794568,-0.5165987,0.033954624,-0.015015307,0.845563,0.052906502,0.6402622
