,0,1,2,3,4,5,6,7,8,9,10,11,12,13,14,15,16,17,18,19,20,21,22,23,24,25,26,27,28,29,30,31
acquired_abnormality,-2.7607708,1.4637895,-3.1822977,0.6242704,-1.4210807,2.385458,-0.1726196,-5.147655,3.54059,-1.1423748,-3.173966,-1.1210548,3.0521858,2.0257895,-0.205746,-0.655474,-1.2564497,-0.6917086,0.48818696,0.7336148,0.038005635,1.4326996,0.87074524,1.8105391,1.1684731,-1.4759994,-1.864242,-0.63624394,0.73455286,2.5962749,-0.35252786,0.13250995
anatomical_abnormality,-2.5343435,0.0854615,-2.2599342,1.6588743,0.038364314,-3.224992,0.18541934,3.1533282,-2.9693525,0.35021996,1.790523,0.1462804,-1.2368327,2.1416843,-5.328736,-0.46481597,-1.2536939,1.3816273,-1.0703801,0.24157305,-0.7401336,-1.4329141,-0.92988807,0.3780928,0.45187062,1.8290727,2.186908,1.8814234,0.19952938,-2.674387,0.45087922,0.19889942
alga,2.0552845,0.95360005,3.013184,-0.15117693,-1.2414895,4.020847,-0.07854339,-0.901879,-4.8569746,-0.19600677,2.0210068,0.35828823,-0.7946374,0.5044815,0.75330985,5.879186,0.2562791,0.55976146,0.15703136,1.0960733,2.1709588,0.7206401,-1.8981259,-1.537725,1.4946351,1.7518082,-1.7177705,-2.6292737,0.8397503,-1.5555522,0.06956552,0.04083017
mental_or_behavioral_dysfunction,1.6720371,-2.0951252,5.166991,1.3236995,-5.7204504,-1.7166557,0.85297596,-0.80321693,-0.009578189,-0.34682494,-1.2485561,3.0592854,3.440392,-1.6034809,0.9489185,-2.3199883,-1.0808785,-2.108705,-0.46412638,0.11825381,-1.8065733,-2.1877337,-2.1114752,0.59104574,-0.93362206,-0.538049,0.83177227,-1.8686862,-1.1812441,-0.3905589,0.7781199,0.31533042
health_care_activity,-5.668966,1.2516384,-0.382857,-0.60967165,-3.6845663,1.416553,4.832574,-0.22635871,-0.2187254,2.0038447,-3.2031696,-0.5965243,-3.3269227,-0.020588081,-0.31451827,3.183879,1.9802109,2.074965,0.63531905,2.4322064,0.42452505,-0.5986941,1.9645442,-2.5203035,2.3263702,3.3877494,-0.9079675,1.3357241,-2.5693119,1.1933173,-2.2094097,-0.3759827
population_group,2.4237814,1.1618135,3.2984922,-3.321354,3.439619,0.66212237,1.2933817,3.620473,1.469964,1.6594869,-2.1302347,-1.401987,0.31515497,-3.724525,0.19131893,-1.9793757,-4.5764117,-0.38343668,-3.2008743,-3.1849923,1.8351617,-0.36486936,1.4374106,0.7618191,-1.8541102,-2.1478465,0.7867529,-0.27287087,-1.0824844,-4.0320187,-0.27757543,-0.36606866
clinical_attribute,1.7044475,0.4313224,-2.1947758,2.326006,-1.7363042,-2.2503014,0.26440644,4.4326224,3.607957,-0.78582203,3.4379122,0.9669157,-1.0389122,-2.9044828,3.9047925,-0.8856317,1.0473049,-0.56721854,1.5326493,1.8234754,-1.3169885,-3.1433444,2.0888085,-0.79004925,1.362797,0.60397977,0.312357,-1.2514763,-1.065411,3.2066023,0.6735129,3.4546337
body_part_organ_or_organ_component,-4.9409566,0.105082035,-2.6067789,-0.60119444,0.33944798,5.0977025,1.9271036,-3.3038852,-0.45540467,-2.893572,-2.6800523,-1.5164689,1.3454549,4.4673586,-1.6028748,0.16634971,1.8815258,-3.0892987,-2.984694,-2.3668225,-4.151347,1.801406,1.7916107,0.1517103,-0.99840987,-0.5817981,0.018839091,0.11327335,0.47401243,2.8496387,-0.4862739,0.81341535
biologically_active_substance,2.7333071,-0.65369,-1.555993,-2.6216156,1.9403278,-1.60302,2.5663815,-0.43473086,1.5031496,5.9166374,1.8563937,-0.18791853,4.0132594,-1.6036887,-4.6645713,0.9786941,-1.4715368,0.5916366,0.2874869,-0.42516634,2.1937835,0.3682405,2.171457,-2.1383789,-1.0156171,1.8835155,-2.1469743,0.5044476,-3.7306259,-1.9133247,-0.3980409,0.061015185
disease_or_syndrome,1.5967718,-2.6690633,2.5627337,-1.2503053,-1.1049931,1.9159669,1.9093398,-2.2282095,-2.8080919,0.21277317,2.627494,2.4420962,4.3104253,-0.5741763,-0.109388046,0.13565868,-0.43387133,0.65941775,-0.79415935,1.1087213,-0.89119095,1.0263504,-2.1283655,1.2116423,-2.205641,0.01978289,0.41919073,-1.0189428,-0.9336731,-0.2780797,-0.7103385,-0.52088463
carbohydrate,-0.37602603,-1.9352001,3.766368,2.1500766,-0.594976,3.4336157,1.7433879,0.08640749,-3.5968966,0.5586186,-0.12354276,2.8634126,-1.8691933,-2.8700464,1.082943,-2.1750383,0.72053224,0.20711777,0.16816846,0.9009003,-4.441387,2.4940836,-4.3171654,-0.7686065,2.9920018,-1.4760108,-1.5024003,1.9722861,0.50341934,-0.52669305,1.6646148,-0.8959216
molecular_sequence,2.8141644,4.2193503,1.427681,0.7170173,-0.55040395,1.7289616,-2.4201374,4.577494,2.0902174,1.5892998,-0.091391176,-2.759192,-4.1651697,-1.7286937,-1.1882343,0.58073854,-3.0908272,-0.3130327,-2.4955757,1.807836,0.48008674,-1.4986166,2.5892136,-2.0959113,1.1951405,-2.259106,0.44192904,-1.7708632,-1.7054236,-1.1102822,-1.1696775,-0.50949323
steroid,3.4164417,-0.595763,2.5762563,-2.2146864,2.3279848,-1.3512851,2.5257335,3.4494333,-0.46366912,6.5403824,-0.12883715,-1.0131174,-3.9462814,-0.90596235,0.23667817,2.890334,1.0740505,0.23344707,0.3731592,0.82932377,3.0459986,-0.3329415,3.2329443,-3.9632814,2.017137,1.7627844,-2.6335163,-0.22850691,-1.369197,-0.41989428,-0.07166782,1.6089518
experimental_model_of_disease,-1.846565,2.5892558,-2.3633091,1.1846926,0.58374935,0.44570544,1.9050437,1.7285705,-4.378513,1.5289162,0.8542278,0.41110623,1.7802622,2.9819412,1.4729663,-3.1148539,0.55304694,-0.12887649,-1.0838915,1.0298558,0.2990087,-1.1525096,-1.3902581,1.8393257,2.2404146,0.72185576,0.4828242,-0.69166493,0.2473509,-1.0417715,0.6021497,-0.06729095
patient_or_disabled_group,1.4023192,-0.45403838,3.9574423,-2.0554368,6.8000913,-0.5452152,-2.4052002,0.08988153,-1.2675858,-0.5932072,2.0396273,3.427642,2.205975,1.0968494,1.4579921,4.469895,-3.0150898,-2.6393192,3.1472135,1.0549349,-0.26514632,0.85735404,-1.3895392,-1.2682829,-1.921425,-0.8374256,0.12481032,-0.40009153,-1.8617414,-1.4779484,0.11513289,-2.9646432
professional_or_occupational_group,4.4349184,1.0635408,0.9371605,-2.6141763,2.0091336,-0.2940107,7.1033063,0.20869964,-0.068042874,-1.7779244,2.2725258,-3.6017992,-4.599095,-0.28550828,0.43173292,-2.5195181,-4.609047,2.9887958,-1.7243751,0.06877259,1.1692195,-2.0908456,0.6323628,0.5402185,0.5970659,-1.4177932,-3.0361557,-0.528276,-2.5781553,-0.8032236,1.2461313,3.8430252
nucleic_acid_nucleoside_or_nucleotide,-1.6794709,-1.210628,-3.3009663,3.8225064,2.6017816,-3.31744,1.1021278,-1.1451573,1.6750587,-1.1121755,-3.1829789,-0.8410239,-3.0533044,3.3800347,0.76489407,-0.798753,0.7562506,1.2030137,0.02097254,0.3734122,-4.5655336,0.13418941,1.9035921,3.8610811,-1.2774626,0.80929714,0.900849,-1.9291923,3.0016665,-0.3305291,-1.9834554,-0.32857305
organism_function,1.1490258,0.57264364,-2.3401303,-3.1747837,2.3653734,-2.312603,0.28762144,-1.4734589,0.99103767,2.5685985,-0.820275,3.6487858,4.8162594,2.0704103,-0.6708696,-1.7106361,0.7114698,-0.6846583,-0.200967,0.84420544,1.7792578,-1.1320821,0.54404694,1.9998664,0.7660219,-0.8774384,2.2062948,-0.70671225,0.036578044,0.5884675,1.2513795,1.1909399
mental_process,-0.43422914,4.122454,0.46665993,-2.65181,-0.14999643,1.4360393,-2.020094,2.3273263,-1.7473423,1.438613,-0.8013939,-5.306578,-3.5720327,1.1432729,1.500635,0.69420177,1.0076935,0.5420303,0.049520567,-1.0983962,0.33407575,-0.19920126,1.0626137,-1.7162313,0.53138435,2.019113,-0.024633415,-0.3389848,1.1039157,-0.07874132,-1.7732155,-0.9855684
therapeutic_or_preventive_procedure,3.1678007,-1.7623442,3.5913637,-0.54884547,1.0612472,0.36106524,-5.101346,2.3887448,2.175845,2.8156734,0.81092995,0.31586817,1.4734452,-2.1080306,-4.8675175,-1.7542613,-2.1719086,0.18054718,-1.7412163,-0.83901733,-1.1339427,-0.42850423,2.4149272,1.213336,-1.4095726,-1.3162647,-2.1999536,-1.5271163,0.90010023,-0.25066143,1.1347377,-3.2588785
cell_function,3.7464812,1.7718939,-1.3891068,0.3554718,1.1539195,2.2565987,-1.6401029,-1.9431453,-0.8917582,2.4401,1.2670488,1.1924419,2.0899103,2.2638316,-0.03768053,4.8109117,0.48665658,1.2453301,0.37813455,-0.689889,1.5791214,2.4830012,-0.11785496,0.13853453,-0.4655887,0.25289452,0.8926145,2.349827,1.0587784,0.24032198,0.1549092,0.07216544
pathologic_function,1.2457814,0.66647214,-1.6918168,-4.4998903,-1.3170613,2.865291,-2.183096,0.6154233,-3.8367546,0.2125328,-0.9533,1.1915478,1.0221765,-0.56181747,3.679771,0.4597085,0.7100682,0.05498211,-1.0764915,-0.4223684,2.128565,0.68007445,-0.9531633,0.24875149,-0.6997613,1.9982176,0.91477996,-0.33410674,0.68789047,0.14633365,0.9327448,0.32151103
organ_or_tissue_function,3.8484728,0.93742275,-1.630469,-2.8475914,0.3831991,-2.6090915,-2.0099888,1.7014295,0.62520325,1.1177664,-0.69149595,3.06082,2.0000813,-3.634683,0.6975126,-1.4842306,0.65105456,-0.30380386,-0.07345141,-0.55565494,2.5098176,-0.8201812,0.68203664,-0.6296529,-0.12336603,0.30163708,1.2247831,-1.8570758,1.0752047,-0.33894318,1.3427682,-0.09130324
enzyme,-0.3555634,-1.3434721,2.3177903,-0.1663507,-0.45485607,-0.058922082,3.9890482,0.98425144,-2.8902364,-1.5959607,-1.437431,3.5613422,-1.4096107,4.252841,-0.27424553,1.658651,-0.20417957,0.4136727,0.6460174,-0.145956,-0.48734248,-0.11370322,-2.8711407,1.3838519,1.2256457,1.006037,0.21423855,-2.013718,-0.85836464,-0.025300564,4.3877683,0.6395304
cell,-0.2992358,1.4767603,2.601157,-1.657226,2.5009847,1.7837834,-3.444919,-2.8892798,1.4625003,2.899445,-0.34277514,-2.2491865,2.6031845,-1.3105433,-1.0933051,-2.7898443,0.1555346,-0.22135532,-2.0969822,0.26601794,-0.5239678,0.65683144,0.524157,3.196235,0.97269905,-0.2371101,1.0729353,0.37974775,0.39622036,1.1378297,2.7775342,-0.67990863
cell_component,-3.7646205,-0.8843252,-1.607368,-1.6512029,-2.0824091,2.4079092,0.44823977,-4.9638357,0.09549351,-3.4790134,3.1855032,-0.35518754,-2.7792718,2.9532633,1.274909,-4.535812,0.75595915,-3.4525726,-1.941709,-2.266061,-2.626798,2.1592014,0.09216888,1.3023028,0.24805993,-0.57132477,2.368269,0.4061451,-1.1905574,1.5605717,-1.09736,2.6164877
cell_or_molecular_dysfunction,-2.8316445,-0.5100306,0.4868691,-1.9979161,-1.2883614,-2.919401,-0.9088194,2.81041,2.0211358,-2.2953026,0.64795446,-1.3978038,-0.26493245,1.1595656,-2.6714056,0.7697068,-0.6519009,-1.2358127,0.4334567,0.34632343,-0.37708575,-2.662435,0.89191127,1.1587317,0.48351374,0.7103417,-1.6919309,0.6838256,0.49070743,-0.25908992,-0.42375973,0.3028496
hormone,1.9036504,-3.1342328,3.0355058,-1.4127005,3.8407152,1.0550481,1.3051676,-3.0987885,1.2967137,1.8958131,-1.1894169,-3.4028704,0.57047075,1.2262166,-3.6467881,0.46456328,0.47879556,0.091887765,-1.3006943,-0.11147461,0.22364585,1.5365353,2.7336445,0.6072443,2.3536923,0.2930121,-2.4801433,-2.2365956,-1.3468187,-3.6248794,-0.9179977,-1.5697501
organic_chemical,1.4919596,-0.6286221,2.1335342,-2.4921687,-5.386137,1.4795879,0.765747,2.0990644,-3.6365805,-0.8634304,1.5861262,2.2941363,0.72533023,6.937337,-1.6676781,-1.646761,0.3630334,0.44703954,0.6006031,-0.34225225,0.6319857,-1.5306249,-3.425314,2.1826332,-0.063194975,-1.7675059,-1.0954587,-3.8479035,-1.1121372,-0.29526716,1.8307525,0.5502717
behavior,-0.5366565,-4.067611,3.981466,-0.7455689,-2.4277573,-2.199411,-2.1952794,-3.4939973,-5.005244,-2.1729307,2.0839863,2.0338423,-1.7264278,2.852759,5.6772923,1.5252771,0.5805879,2.5066183,2.1061258,-2.336367,-1.4860392,0.28187755,-2.5661085,-1.6980282,0.9673328,2.0850468,0.43236727,-0.93205285,4.381958,-2.3941946,-2.2288687,-1.7562346
neuroreactive_substance_or_biogenic_amine,0.40516722,1.7313683,-3.7881453,-1.7433583,2.628872,1.3340801,0.94192696,-2.433097,0.31945273,-2.3642051,-1.6248325,-1.3592255,1.8175995,-3.254453,1.3885134,-2.865496,-0.41897827,-0.83969104,0.063496776,-1.0431672,0.83777404,2.4549568,-0.25470376,-0.67106056,-2.8119578,-0.07483495,-0.10646949,1.8798572,-0.6506263,-4.6310067,-0.15575346,-1.0833011
embryonic_structure,-3.6058707,-0.4819621,-1.4075676,2.5591004,0.6559578,4.2466817,1.8981119,-1.4721023,2.4020386,0.25159422,0.85151595,2.131022,-0.045625873,-1.407763,2.8465345,2.4436643,1.3569981,-2.8431091,0.17890835,0.83571184,-1.5273001,-0.5191968,1.2611713,-1.3489184,-2.0910063,-1.5580907,0.2275945,0.18348287,-1.5579934,2.14209,0.4933227,-1.9510572
neoplastic_process,3.582504,0.8316968,-0.93931115,-3.376485,3.1195986,-1.7255807,1.9253519,-1.6033485,0.3042959,2.0659642,-0.4789089,0.71705836,4.241128,0.72679615,0.0330639,0.095803745,0.92483205,0.08845028,1.0017816,0.5459765,2.3924274,0.03566633,1.2333673,0.049354006,-0.43824443,-2.030024,0.6586928,-0.40266204,0.81294113,-0.9314241,-0.19828738,-0.41288814
laboratory_procedure,-1.9401573,0.4464774,-9.1555195,-0.4575736,-1.9277822,3.0257955,-2.723663,-4.7871313,5.8240156,2.2404428,1.7433017,-2.26765,-3.1628892,-5.0019655,-0.16226287,-0.3405294,0.8088933,-0.8607584,-2.8827283,0.75125384,2.727831,-1.1835328,0.60327625,-3.1664133,-2.0293615,2.093466,-3.605179,1.569496,-1.9084042,0.88318306,-0.55801326,-0.58538306
natural_phenomenon_or_process,-4.0431356,2.094362,2.0428267,-0.8489417,-2.207301,-3.8118947,-1.437601,-0.06270772,-1.4321309,2.333214,-3.0885673,2.557048,3.3966305,1.6772363,0.033368133,-2.3842652,1.0197679,0.0050227083,1.5018295,0.76392704,1.210094,-1.6908433,0.0134967975,2.7339544,-0.2901335,-0.8552662,1.7534678,-0.31034797,-1.8325984,0.20918882,-1.204398,1.2565539
immunologic_factor,1.0968382,2.6221838,-3.2818966,-0.76528996,-1.0562887,5.545023,0.22481844,-0.8106297,-3.35833,-0.07814458,-1.0599502,2.1890795,-0.95315146,-3.0035188,0.518396,3.4686487,-0.95216626,1.6914967,0.3981622,0.8151321,-0.3695021,1.4812232,-1.1732363,-1.1852645,-2.470523,-1.5254507,-0.5675947,0.8540812,0.52255034,1.4530326,2.5338292,2.2557046
receptor,-1.6772864,-3.3411334,2.1252418,-1.5922676,-3.1311178,2.4805853,-2.07707,-1.439353,1.6515529,3.0616825,1.863767,-2.6850157,-2.226979,0.5885886,-0.3052325,3.1994684,-0.06242698,0.028048702,-0.007394706,0.7325464,-1.069919,-0.05482728,1.850889,-0.6873085,2.9502153,-2.484853,0.27181375,-0.7479568,0.89778364,-0.5699981,-1.9492207,2.4695902
self_help_or_relief_organization,3.1442437,0.35060978,-6.075388,1.2107708,3.4240956,0.32631895,2.343146,-2.0762115,-3.226431,-1.1807168,-1.4640068,2.4151917,-1.7581224,1.5706589,-5.37365,-0.1338981,-2.2887166,-3.0415719,3.9336476,1.4567916,-1.7890688,2.9886532,-1.2114619,-1.5656699,1.2850153,1.7195317,1.04649,0.39180103,-5.2987313,-0.37790653,1.3751361,-2.416163
pharmacologic_substance,-3.8396914,-1.2109703,-1.5574665,3.5262249,0.67806494,3.015038,-2.0871394,-0.023230754,-1.8440857,2.268082,-4.0817895,-0.3038118,-2.7864013,3.9809887,0.6147361,-1.7742112,1.2815429,-0.45217955,1.2933209,-0.44874752,-2.059784,1.31488,0.40567312,2.6973407,-0.4737331,-1.5067451,-1.385855,-1.0102026,4.4667935,0.17423862,1.0052625,-0.7801097
molecular_function,4.1274667,2.33949,1.5744256,-0.46076062,-1.0839862,-1.3066578,5.3869452,-0.059014823,-3.467305,0.29014546,-2.6618598,-1.2062999,-0.3445479,1.5364834,-0.21116926,3.2939548,1.0871971,-0.97628933,0.92758286,-0.3782498,3.197009,-2.299953,0.22993016,-1.6270933,0.7880932,-0.56782675,1.0292395,2.8134394,0.6417085,-1.493469,-1.183583,-0.27974966
regulation_or_law,-3.5855572,-0.80119395,-0.5303866,-1.0869514,-3.4595535,0.5069446,3.0551975,2.3397188,-2.4898617,1.4635339,1.2717255,-3.0440824,2.3923595,-3.3183641,0.042065077,3.6911347,2.1330738,3.48102,-1.6588333,2.928381,-0.08009615,-2.0079718,1.0524678,-2.275795,-2.5517008,-3.701348,0.6333614,1.0269922,-2.0720577,-1.9411639,-1.684103,0.44192952
human,0.4609423,-3.7389483,-1.1740328,-0.33690855,-3.8868723,0.1603578,0.041838046,0.92587745,-2.5816908,-0.62559515,0.07844243,3.939745,-0.44283274,1.9307897,0.58528876,3.7343152,0.08434064,0.3072619,1.2845008,1.2473526,-0.30642903,-1.6628356,-2.1721318,-0.061384663,-2.457528,-0.7518321,-2.4763107,0.6015856,1.2205031,-1.1117191,0.6820185,-2.7573783
eicosanoid,-1.4003917,0.4804745,-3.526762,2.1538696,-3.762132,0.2320376,-0.5086803,-0.10409293,-1.7138852,-1.0666395,0.6328839,3.9025652,-1.0594332,5.846469,0.45678148,-0.61331344,-1.2645522,0.44171795,0.59659255,1.1339189,-1.0299695,-1.8372544,-4.7006526,2.7814536,-1.2973205,-2.339276,-0.257991,-3.9101803,0.15705255,2.1838605,1.6475399,0.7503614
amino_acid_peptide_or_protein,-1.2094661,4.6728745,0.23339304,-1.4826788,-2.816044,3.2332852,0.098781325,-0.23321962,-2.3038068,0.9443195,1.2930231,3.42195,3.7234042,-2.140893,-1.454158,-3.707925,-0.04469541,-0.57905185,0.7478491,0.34784555,3.5560696,0.046767175,-3.0412858,2.3684547,-3.5334,-1.4089172,0.094560385,0.8566199,0.31729412,-0.43084896,0.28219557,-1.2261084
group_attribute,-2.0828955,0.9559147,3.2035098,-2.9081767,0.66386867,0.7090699,-2.9674222,-4.8252187,2.5047607,-2.7621791,-2.1506412,-2.7613087,2.4689655,4.0822535,0.030581763,-0.24982923,-2.6957343,-5.4704266,1.0171641,-1.4189316,1.5791135,2.6576226,-0.016372776,1.6322422,-2.3807895,0.60204095,2.183474,-0.58783185,-0.27913806,-0.52189106,2.937492,-2.6921668
organism_attribute,-0.07754887,2.8356674,-1.5157231,2.3679504,0.021480095,-3.1707368,0.054979444,3.8356493,1.2441924,1.153315,3.3005886,-0.4735711,-3.9560921,-2.3038576,1.273126,-1.0613711,-1.8193885,0.9813947,0.4225514,-0.58002216,-1.6309865,-2.6786337,1.567803,-0.8403541,0.5637145,0.48048803,-0.7771926,-1.4745015,-2.260666,2.435939,1.0168384,1.9190769
finding,3.139265,-1.3007839,-2.5361824,1.5136281,0.90407896,-4.257052,-1.5107617,-0.7713546,-2.404449,-0.9044724,-1.505045,3.518694,-2.0015383,-2.8812907,0.70173585,2.7391365,-1.5049149,3.2243235,3.9165156,1.0080534,0.35601655,0.46983054,-1.1942736,-1.8372442,-1.0828443,-0.7991155,2.1467981,1.7303002,-0.2916888,3.4885173,-0.5161041,2.4646227
congenital_abnormality,-3.5624456,-0.38639677,1.940566,3.475627,-2.12607,-2.714174,-3.2341168,1.2754622,4.180435,-0.36584228,1.3442534,0.9669782,-1.3667153,3.4998498,-1.4847239,-0.72296584,-0.5682572,0.15904304,1.1532377,-0.6120944,-1.5254956,-1.5890101,0.39716578,1.3453926,1.9270693,1.332867,-0.2718441,0.80511725,-0.9641336,-0.7716693,-0.90574837,0.7201357
anatomical_structure,-0.91770107,3.4455583,-0.8271599,-0.41917986,-0.7873498,3.0455852,1.2635671,-3.387217,-1.6035945,-2.718693,-1.2045391,0.9056445,3.936452,-1.0987259,-1.8686975,-2.6119447,-2.9343257,-4.369425,2.6577768,-1.335124,0.046449106,0.62648743,-1.2473515,2.0615928,-2.5550635,-0.20859541,-0.9376441,-0.53628,-0.343167,3.1753504,-0.81684005,1.2539947
molecular_biology_research_technique,4.020278,2.2021937,0.06011125,-0.72029245,-0.5723755,-2.451896,4.895973,-3.20119,-2.1990032,1.9427079,-3.356522,-1.180133,1.0226134,-1.3426826,0.05098464,-4.108352,-3.9960601,-0.3056007,-0.9333323,-2.8167312,1.7339717,-2.1637518,-0.2708553,0.5048757,-0.7153414,3.325649,0.6056781,1.2875569,0.579821,1.451021,-2.714614,1.3536717
diagnostic_procedure,-1.7183614,-5.7952375,-1.0897627,-0.7398295,0.5968626,2.239664,6.7838817,-0.067707516,3.0849855,-4.2004895,-1.9862225,-0.5211544,4.949203,-1.5175029,-0.9392968,-1.8632553,1.2230296,-1.9422911,-1.4237757,-2.6027665,-1.5509497,-1.5021446,0.36980224,0.41231114,0.6077837,0.9550755,-0.6130232,-1.7579638,-1.8544438,1.6962771,0.28351936,-1.611821
biologic_function,1.7982825,0.63375217,-1.5391053,3.9606977,2.2186062,-4.2653728,1.6798816,-1.6383984,-3.3659365,-1.4959257,0.36660805,2.0847483,-2.7506077,-2.0178854,3.551665,-0.076082245,-0.8410641,-0.7010027,-0.84567106,-0.59250903,-1.4999646,-0.67427504,-2.6868298,-2.2784517,1.0622581,-1.8112239,0.56469905,-0.4320137,0.59100384,0.8574277,-0.30867195,-0.5304656
tissue,0.06728097,-5.5523295,-1.5195498,-0.61445135,2.1557958,-0.28935292,3.824568,-0.584259,0.7005558,-5.0532045,0.1431168,2.8976269,2.6312158,1.2148778,2.518583,0.4948471,1.3848596,-0.7428634,1.8974059,0.49990815,-0.023167504,-0.17931889,-0.5399469,0.48389104,2.4289758,0.30948383,-2.395138,-0.23449802,-1.5825607,0.19930811,-1.7467633,-0.14581703
hazardous_or_poisonous_substance,-1.2844981,3.353142,0.21517316,3.2613807,0.5023487,-1.1278707,2.9063346,1.8452567,4.9457107,-0.44356373,0.80268383,-1.398664,-0.93234164,-4.803349,1.2377282,1.6051806,-0.22232167,2.2050154,-0.8780056,-0.17006506,-1.0568988,-1.2659479,2.0578399,-1.6754841,-1.7434621,1.0983905,0.95892835,1.963522,2.0854208,0.073405445,-3.1580188,0.95737314
chemical_viewed_functionally,-4.355938,-0.8572531,2.354754,2.8757265,2.5033417,3.9960845,-0.4754193,-3.6318734,0.5397164,-3.930317,-0.6631189,-0.8055051,1.4877568,-2.8616843,2.626719,-0.2884748,0.6418871,-0.05333895,-0.51109475,0.5188379,-3.2564726,1.998797,-1.2327998,0.5816625,-0.69504166,1.2332671,0.59659964,4.7573123,1.7668246,-1.2354113,-0.31217661,-2.0157363
reptile,-0.30801734,0.025996948,2.5227244,-0.5839183,0.34577242,-0.7976705,-1.6999953,4.865796,-1.8123538,4.127972,-0.1463,2.1517189,3.955046,0.3348314,-0.019709274,-1.8783377,0.7335422,1.5787755,-0.21343294,-0.1761041,0.19440353,-1.1783355,-0.2245917,2.429421,-0.7313925,-2.2498388,1.6180619,2.9303813,-1.8853934,-0.37941405,-2.274346,-0.31076533
family_group,-4.356247,-0.51166385,-2.3938468,-1.2719213,2.861494,1.0887716,-0.06554841,-2.341066,-2.2296798,-1.1127367,-0.32767838,4.0784893,4.5733023,-0.9435582,-0.38266033,1.6646695,0.016783781,-3.4889455,3.1020882,1.7289534,-1.2222044,1.871854,-0.5029711,-1.0384005,0.29858172,-0.43783018,0.08803668,-0.26463234,3.283795,-1.1663952,0.547591,-1.9511707
virus,0.5586687,0.5470659,-4.264775,1.7749399,2.4881454,2.61969,0.81582314,-3.0005105,-3.049336,0.78048205,2.6232088,3.1153216,-0.8273464,0.71204257,1.8504026,-1.7931037,1.0913036,-0.49131125,0.43400913,0.100945935,-0.14080395,1.7150403,-1.6980518,0.44600442,-0.92826134,2.829957,-0.88171554,0.82321495,-1.5919061,-0.73466706,-1.1918694,-0.40331665
indicator_reagent_or_diagnostic_aid,-2.9636185,2.5206802,-0.4623746,2.4371738,0.6778416,0.036374502,6.247897,0.83806896,5.032645,1.9292626,1.4950669,-2.639661,0.1865043,-4.70364,-1.0130806,4.2113028,0.6178387,0.39519212,0.39243278,1.0963068,-0.61180073,0.32948515,1.8932819,-2.5042398,-3.7823062,1.3109782,0.7728793,2.284514,0.53525877,1.3414985,-1.3417312,-0.32557052
sign_or_symptom,1.2173353,-3.3428752,-2.172992,-0.4144266,-1.1464506,-2.4335554,2.3142402,-1.3188462,0.016958576,-0.5069834,-1.219706,-6.867353,-5.982106,-3.8058221,-1.1081378,1.185237,2.0502958,2.2338667,-1.4328935,1.2836403,-0.2713608,-1.1890054,2.077591,-0.5717199,-0.9169738,-2.2749314,-1.0251298,2.198507,-0.60975754,4.0148215,-1.3853474,2.1510706
antibiotic,3.3193774,-2.8354206,-0.020600855,4.6312423,-4.07368,-0.78372276,-1.6218747,3.7513704,0.3811173,3.2789135,-2.6778367,1.1621366,1.2781066,1.647488,-3.5984738,0.3812734,-0.40080467,1.6567049,0.008739128,-0.30475152,-3.123513,-1.6423696,1.5444725,0.49714005,1.1773428,-0.839086,-3.166316,-0.031452075,0.50926757,4.6746774,1.2720158,0.26686966
chemical_viewed_structurally,4.232759,-1.9348248,-1.3088441,-3.996359,-3.0664608,-0.56289643,-2.8950014,2.8097086,-0.39205718,-4.6500645,-0.6805444,-0.9943364,1.2226673,-1.352127,4.0430217,3.2502093,0.623852,0.036799736,0.37772653,1.6549914,1.0672736,-2.341729,-2.518413,-1.8692207,1.7084655,-2.4648468,2.1340203,2.0694706,-2.6312478,1.1546263,-2.0716772,1.2627783
body_space_or_junction,4.8029256,-3.121911,-0.28224677,-0.32680058,-2.8302994,-3.8051553,0.90235794,2.8991315,0.10207963,0.5466514,6.1755652,2.2114468,-1.2579222,-3.3678484,0.7299581,-1.4649673,3.0297844,2.4351072,2.6978564,2.213704,-0.8079907,-1.7167072,-1.5007116,1.7964389,2.4496489,-1.4008017,-0.6716744,-1.4513172,-3.0282855,-1.7561466,1.9248495,-2.0096924
amphibian,-4.9320188,0.3693387,-1.0888077,0.3949672,-1.8791629,0.48030588,0.8742792,4.657671,0.73226106,0.22390637,-2.6042256,2.2905526,0.2877457,-3.6339364,0.62823284,-0.8701385,0.3151651,0.43548143,1.4108952,0.08379141,-1.8047792,-2.3540812,0.10730807,-1.082203,-1.5554926,-2.812679,-1.992374,-2.15809,-0.039958294,-1.1332347,-0.32773402,2.1592796
health_care_related_organization,-2.5881872,0.8403401,5.635222,-1.3858153,-3.267082,-0.76191336,-2.2000194,2.610601,-3.7107687,-2.303382,-0.82455695,0.46758902,-1.9856502,-0.37587592,4.7890525,0.28453544,0.53475404,4.8891397,3.3356948,1.0772349,2.6327271,-3.0403957,-1.7125318,0.6955742,-0.57792777,-0.70609295,-2.3831592,0.7042366,2.37311,1.2693362,0.17529586,3.3696158
fish,-3.5440378,0.43054667,-0.45021537,5.6729245,1.7511727,2.6754036,0.47617838,1.2457019,-2.7341099,2.0120068,1.343791,1.5785717,-2.8487036,0.013264629,0.51851666,2.292512,2.0580153,-0.82128453,-0.18833141,-0.44197965,-1.8899252,2.195594,-0.5192171,0.17151824,-3.3492665,2.4504662,0.51434225,-0.97531104,-0.6236465,-1.6132851,-1.0049491,0.3538992
physiologic_function,-0.17557809,-1.9770975,2.254735,-2.5699785,2.801064,0.13761665,0.7477276,2.0514612,1.2584928,-5.290897,1.637077,0.3880233,4.2098727,1.2851892,-0.7568009,-1.5427415,-0.2935923,-0.57110155,-0.50784725,0.69659203,0.62308836,0.35517728,-0.63998693,2.4772701,-1.2270766,1.3812072,-1.7351965,-1.3741992,-1.0335358,0.85823965,0.09964977,1.175198
animal,-3.4721713,-1.5011053,0.14126863,-0.48521146,-0.917307,2.1971262,0.6155508,2.6716983,-0.7987342,-1.2362511,-0.03329118,4.050397,-3.3203921,2.26841,1.4266685,-0.84985095,-0.5371425,0.56003374,1.2738931,0.057433363,-1.4154514,-0.038213946,-2.1247528,-0.32199734,-1.4057853,0.3727729,-3.5354116,0.3040616,1.9949635,-2.55166,-0.1492196,-2.2366483
injury_or_poisoning,-2.776118,-1.8118132,-1.3807945,2.9716568,-1.9619846,1.748056,-1.493514,-3.4237714,1.8795615,-2.8032165,0.89996856,-1.3916035,-3.3063676,-2.1925178,2.1385171,-3.1935058,-0.8486737,-0.287611,0.019099656,-0.06923407,-1.8318038,0.86461306,-0.2684501,-0.48157513,1.5925472,0.5150142,-1.976837,1.5671406,-0.70591176,-0.61111605,-0.121155344,2.3809812
lipid,-1.6882787,1.8938264,-1.7859571,-0.9322827,5.4673533,-1.5245513,-1.6872033,-3.9489298,-0.77168536,3.1216502,-0.4025083,-0.3791542,-0.20830414,-1.14126,-1.5328542,4.0049825,-1.239142,-0.43047154,1.2902296,-0.038973257,1.3893249,3.191845,2.8987947,-2.2548559,-3.3874788,1.8058335,-1.4677483,0.9309249,-0.45248425,-2.011156,0.40003994,0.7665042
plant,-2.6709933,0.96432227,0.5321556,0.036186986,2.2822876,-1.0973747,-1.8273324,1.4460897,-0.58898574,2.0182838,-0.94179875,-0.5330677,-2.6260128,-0.3780035,-2.034551,2.1601071,-0.09746095,0.40277684,-0.85666215,0.61368304,-1.0439954,-0.278225,-0.14749193,-2.7013671,-0.9255703,-0.4216191,1.2586385,-3.2065933,0.2001515,-0.231691,-1.5898118,0.49111587
organization,2.941774,-0.79352975,2.8075178,-1.0375448,-1.7686774,1.2872511,5.490803,-1.11404,-2.6689196,0.59711426,0.6227098,4.424768,-3.1439967,-1.9371445,-1.7545358,0.92070925,-1.502604,-0.21088366,4.4360914,3.53348,0.285702,1.5696867,-2.2621946,-0.73029006,1.4708395,-1.451811,-0.6930705,-0.38064465,-0.59344774,5.562561,2.0345926,-1.1423155
genetic_function,0.22110255,1.4048119,-3.3806756,1.7725306,-3.4475067,-1.6604977,-0.23879065,-2.4269848,0.08960459,-2.555503,-1.0268462,0.06313802,-5.119559,-0.7604211,2.2127674,1.5073274,0.029349152,0.3344047,-0.9101143,-0.7970036,-0.09493165,0.4374114,-1.8403355,-2.6922967,2.4728363,-0.907533,-0.93492275,1.2124115,0.43150148,-1.2001151,-0.27965435,-1.2914026
gene_or_genome,2.0941324,6.827995,0.7061253,-0.26968637,2.9151735,-1.3669356,-1.0936399,-2.0317678,1.0237304,-0.96558166,-1.9147588,2.3045993,-2.5746596,-3.972324,-1.0487443,-0.87254035,-2.2582908,0.13930343,2.3741639,0.8148284,1.7866042,2.679169,-0.029712439,-0.6453453,-0.1514924,-0.81397635,-0.8673212,-0.11691011,3.2921925,1.1064897,0.7887847,-1.2783924
laboratory_or_test_result,-2.9720361,0.08260052,0.40530095,5.0732193,1.7476922,4.487614,-1.2937329,-1.6189106,2.2825294,1.5504665,3.8045535,0.09867191,1.3966736,-4.5695353,1.0404733,0.8388177,5.854411,-2.0518353,-2.1270618,0.9443718,-1.6449025,1.5111257,-0.34111965,-1.0074301,2.015839,-1.6892891,-0.83817494,-0.7273433,0.14123817,-2.8976421,-1.1652408,1.9535142
spatial_concept,-0.04941374,-5.215308,2.4100852,0.06405556,-1.8342403,-0.7351371,0.16252695,3.6609404,5.924899,0.12433859,3.0554624,0.9982528,0.36037496,3.3403835,-1.6679931,1.7828074,4.156357,3.932833,-2.5371609,-4.6359973,-1.3574044,-1.4677858,2.2809033,-0.8534306,0.83666927,-1.1748203,1.6061472,-0.3869045,-0.44476822,-0.21579027,0.32768098,-2.0418828
rickettsia_or_chlamydia,1.4665853,-1.3329195,-4.187981,2.6189318,-0.351765,4.1384387,-1.1409247,-0.19293275,-2.017828,0.051996738,1.0026299,5.823958,-3.5371907,-1.1456339,-0.9117053,1.8060964,0.58914506,-0.08151991,0.5164445,-0.09802827,-0.16782922,0.597781,-1.9538893,-1.593892,-1.4607494,1.3981898,-1.4457705,-1.8852558,-0.15817048,-0.2893371,-0.75577986,0.41964668
body_substance,4.619738,-0.4633113,-1.636169,-5.1446576,2.03494,0.4367267,-2.7329016,3.8881693,-0.69085634,0.35581136,1.9797724,4.613876,-1.0950848,4.667206,-1.1315986,0.17647302,-1.9846301,-0.3685047,-0.025828771,-2.267042,1.742174,0.42426085,0.9740743,-0.06199507,0.95167303,1.3759295,0.6581227,-2.104802,-3.2258039,0.76471907,0.5976471,2.2675622
intellectual_product,4.679754,1.1509178,-0.82658964,0.8826368,3.7063582,0.4883549,-2.0883694,-1.2289892,-1.3614433,5.156173,0.61094165,-2.3134587,2.7053769,-1.0320971,-1.4111145,-2.9580772,-2.2813313,-1.8436236,-3.0792346,-0.3864803,-0.59518546,0.05354529,1.9052386,1.4652033,2.2544513,1.2662388,-1.3622402,1.9549491,1.4945854,0.14996941,-1.4532738,0.85669595
element_ion_or_isotope,3.2125833,-1.2217909,1.8402556,-1.4885945,-2.1163056,3.6912773,0.72060794,-2.056733,-3.3399234,0.111001134,-0.23510264,3.0797315,-0.8775146,3.5147765,-0.083151475,-0.096754864,1.0587724,-0.28294125,0.92692745,-0.59497255,0.5231313,1.5451133,-4.328242,1.4494346,2.0164506,-0.7630114,-0.86181146,-1.4125242,-0.77106273,0.08499304,3.2247915,0.37947303
research_activity,0.49789166,-1.6341575,5.6949005,-3.0571473,0.8105901,4.3246803,-1.1766934,-0.975101,-4.2845335,0.3677719,-1.4847882,-0.7747096,-4.3591385,0.02840975,1.8011775,2.3652132,-1.3839034,-2.0349827,0.14199673,5.1147532,-2.0126193,0.53173053,-0.23913804,-1.417787,1.1494198,-1.5860711,1.6681725,0.8313837,3.0396762,-1.0300732,-1.8195835,0.29533437
geographic_area,0.5364324,1.3674674,-3.3951733,-1.8713691,-5.5156703,-1.787445,-0.64036673,3.1612473,-1.3761983,3.9223921,-0.018703932,2.631689,0.85744536,3.7196157,3.5671456,1.7967863,-3.716607,3.0049076,-1.7686468,1.2544299,0.03375278,-2.795335,0.42179868,0.8069302,1.5400414,-0.22617425,-0.9472201,-2.1360302,0.41084552,-1.120865,-2.6117928,-3.2718825
professional_society,3.106149,-0.3516281,-7.2845283,0.9942915,-3.4733698,-0.14826545,1.675848,2.595644,-0.8284787,0.762308,-3.674289,1.1089475,-2.421076,-3.4802718,-1.4383591,0.84102464,-0.3263072,6.3225417,2.1272736,1.6487303,-2.3237827,-1.3608198,-1.1920576,-1.4791263,2.8397748,-0.7925865,-0.2701921,-1.3331023,-3.674074,0.57799643,-2.9981668,2.7196622
organophosphorus_compound,-2.2942939,1.2002399,-2.1048896,-3.9615753,0.35309675,-3.6792693,-0.36804527,-0.06585734,1.8835542,-2.5619204,3.019891,0.32349503,-3.2597182,-1.5866255,-1.6661172,3.1067612,-0.43880758,-0.26272455,1.002226,0.4221909,1.6198202,-1.6771951,-0.035500135,-4.334931,-1.3372544,2.3872905,2.4419727,-0.81497735,-1.3727107,-1.1963143,-0.3342391,1.8464499
body_location_or_region,4.0607004,1.1953638,-1.7265162,-3.231674,0.73618835,4.219475,-1.2169143,1.5710447,4.0759673,1.8235706,-3.094572,1.9323734,1.4125494,-3.0525556,0.50714624,0.8440601,-4.1368775,-0.89262664,-0.8417831,1.2802298,3.6416156,0.32159138,0.12663908,-1.7760541,3.1516185,-1.340708,0.13760799,-1.583007,0.8529335,1.8300669,-0.37286773,-1.2872211
invertebrate,-1.321236,2.175247,-0.78947675,3.9173083,4.3283405,-1.2325307,-1.559003,-0.20450109,-0.5552928,-0.60798484,1.7387276,-2.4309778,0.9797908,3.1539178,1.4116094,-0.45812088,1.1239853,0.35068068,-1.1963658,-0.75331825,-1.3115381,2.0001106,0.047163393,1.861116,-1.5069727,1.5608923,0.6725922,3.0187395,-1.1917254,0.88623863,0.22717793,-1.2800378
age_group,-0.25541967,3.4667227,-0.70722914,1.7788116,-0.28532627,-3.4713552,1.9625261,2.1377218,-4.104365,-0.55805796,-0.43981272,3.3066146,2.699444,-0.0077315345,2.4358552,2.2665665,2.2689629,3.8023434,3.0164795,-0.5558397,0.52012867,-0.1559539,-2.0479205,-0.1519661,-0.8483611,0.50790197,0.23733369,-1.347202,-0.6541554,-0.98597944,2.2987742,-3.9653454
human_caused_phenomenon_or_process,-1.897953,2.6750464,-0.35158318,3.4196033,-1.9187247,2.047206,-1.4853106,-0.97408235,1.2634739,1.7955868,1.1395717,-0.47926936,-1.426065,-2.6986935,-0.22676383,3.5872097,-0.59506154,-0.23212844,-1.9939907,1.236517,-2.1546109,1.0134777,0.29284918,-2.517287,1.5787158,-1.3441659,-0.25743476,1.520319,-3.0401042,-1.4134278,0.3713803,-1.8709497
phenomenon_or_process,3.1530647,0.925318,0.88957787,-1.5597454,0.15445182,-1.8728215,0.098985225,-2.9283946,-0.6400464,-2.182673,0.8440769,2.105247,-2.4509745,2.9831765,-2.8289142,1.52521,-0.86224043,0.6312203,0.12630196,-1.1233668,5.011851,2.5049407,-2.7357497,-1.6640474,-1.0198143,-0.70371413,0.99026114,1.1779855,2.0369802,1.6138375,-0.09835086,-1.9381706
individual_behavior,-0.02622626,-1.193185,-4.518179,-1.3676577,2.1298687,-3.1216583,1.0339952,-2.2306273,-4.055637,0.07065103,-0.74535936,-1.7936555,-3.462546,-1.5789975,0.9744368,1.2584975,2.349713,0.7903754,0.77712667,1.3205069,2.363223,-0.8544504,-0.23912904,-2.6582546,0.9927124,1.7055588,2.0248344,-0.12023377,0.20451725,3.3199515,-1.7636416,-1.6820643
bird,2.167828,2.0849535,0.9985831,-0.21658137,-0.847321,-1.68297,-1.1127896,5.183832,-3.2471855,-0.040335417,1.1233166,-2.226995,2.027376,-4.3858266,0.57394594,-2.8884025,-0.3174517,1.2552197,-0.9587158,-0.28728268,1.5185272,-2.5312219,-1.6794258,1.2022572,1.7235614,-3.1572201,-0.37872687,-0.43176264,-0.34068274,-0.6945114,0.3508174,2.5412693
mammal,1.7789546,-1.500159,1.5555528,-0.2809664,-2.854221,1.9508833,1.433118,2.5990674,-4.959689,-1.3395168,-1.5972593,1.4340967,-3.0103452,1.1555964,3.5122864,-0.804099,0.7759993,0.58673155,0.7268081,-1.2631634,-1.0801392,-2.0728052,-2.1045108,-0.53153235,-1.6865565,-1.1041031,-3.519286,1.2989906,0.47046256,-2.0872767,-0.061718937,-0.524755
qualitative_concept,0.3556264,-2.3830729,2.75155,4.3377113,-7.1853156,-0.51004636,-0.6160991,0.7721633,-2.0193057,-1.5760069,-0.62270373,3.2748299,1.2645733,-0.68787926,2.2789958,1.8559842,1.7741737,4.0051413,2.2259176,4.3178983,0.00524609,-4.7547345,-3.539529,-1.7775415,-2.3857877,-0.65954894,1.6786497,1.6315967,3.450185,-2.9402118,-0.81939477,-0.6426528
environmental_effect_of_humans,1.8274865,0.105804875,-3.7924514,1.241672,-1.9729034,2.55708,0.5174707,2.6766436,-2.168247,-1.0593668,1.4244952,6.0269046,-2.8998318,-1.5834746,-2.618445,-0.15835977,0.12088887,-0.75118166,1.2724847,1.1557018,0.12751384,-2.1794612,-3.2424293,-2.1175604,-0.18990654,0.8160999,1.9819565,0.85816205,-1.4206742,-2.898763,-0.55901355,-1.0238
social_behavior,6.6010423,-1.440909,-1.0194741,-0.9165635,0.5471055,-3.763168,-0.7571173,-1.2362922,-1.0421332,-0.916934,-5.0056725,-1.7889447,-3.03666,-4.3541245,0.99857336,1.5068817,-1.918135,2.3434815,2.7055883,-0.42088163,0.8978338,-0.43712848,2.0447967,-1.9174532,0.8639695,1.1551801,1.9682924,0.8342838,2.7768836,2.8681412,-3.1251247,0.21862371
biomedical_or_dental_material,-2.4931479,1.1921824,-2.2421134,-3.3773465,-4.5895495,-1.7147415,-1.656456,2.002868,3.7775702,-0.075621754,-1.7379887,-0.84935904,3.0029771,-3.213054,0.7225412,-1.9704951,-1.5529252,0.16078031,0.81507146,-0.78079605,2.70466,-2.9467716,0.24500675,1.1915191,-1.9021484,-0.22851506,0.20078754,3.712044,-0.77732843,1.8577392,-0.6514547,-0.6264512
quantitative_concept,0.88904876,2.0676854,-2.07015,3.86808,-1.7366066,-2.3516674,0.13158002,3.8544478,0.11619395,-7.0944157,-0.88930404,0.05275276,-2.1670094,-1.2822268,1.2906877,4.779378,-1.5471287,0.9361126,1.816452,1.9049436,-0.64190793,-2.5958757,1.9228147,-3.190567,3.1362321,-2.4971046,2.018721,-0.51702785,2.1648347,1.3872721,2.077761,3.1803467
inorganic_chemical,-2.5676963,-0.037629284,-1.4528024,3.118329,0.88166386,-5.4561143,-0.5580186,0.4188806,3.4926078,0.30220705,1.3440123,2.8473861,-0.992977,3.9687262,-1.0693649,0.2832815,0.6349647,-0.7488865,1.3426759,-0.91292673,-4.22246,-1.2319608,-1.4904681,-0.46806502,-1.4797076,2.0736444,2.2393625,-1.9230314,2.877615,-0.23653117,0.6222965,0.26005664
drug_delivery_device,-3.2252874,0.25908533,0.83998656,4.24203,0.73281795,9.3584585,-2.2021947,-1.6743885,3.7249954,0.9014014,1.9766451,-1.4370888,4.963018,0.22104263,2.2181275,0.36764655,1.6962785,-4.227997,-1.1724788,-1.3775437,-3.2897875,1.5683318,0.7381404,-1.3226062,-3.6650517,-3.1685057,2.9284742,1.8762487,0.2325145,-0.63154286,-1.1032201,0.016102333
educational_activity,-1.2868658,-4.1390924,2.2467806,2.050702,-1.4292591,1.7770352,-2.897608,-0.18838343,0.39411238,-1.148426,-4.674276,-0.17579369,5.487879,0.4089723,-0.36276713,-1.2296125,2.9403956,0.8572078,-1.3720471,-3.048672,-1.7395265,0.6101256,0.72659147,0.8014768,-0.6397241,-1.1434268,-0.8059788,-1.6908476,0.5604144,-2.8240721,-3.228694,0.8467883
chemical,-0.8453558,1.256527,3.0658731,0.8579482,2.6804926,-1.1744844,1.188545,-1.0561191,-3.1192274,-0.21471527,-0.3755259,2.5917904,-0.61286485,2.9787905,-2.5127442,-0.32764724,1.5267708,0.15334612,-0.04056585,-0.44798493,-0.6660466,0.3587013,-3.130803,1.136506,0.45795986,2.0226533,-1.4913217,-3.6483629,-0.9590829,-0.35407904,1.2816666,0.7841379
vitamin,-3.7225688,-1.0152518,-2.2626255,3.4872637,1.6252546,4.407841,-0.06758268,2.0454597,-1.2463257,1.1372399,-3.5153465,-0.77212906,-2.0498943,0.338302,2.742048,0.85151875,0.75003284,-0.36273536,-0.63823485,0.3536499,-2.1411364,1.0763235,0.83861715,-0.9032338,-0.8099965,-2.4404626,-3.313344,0.4545343,3.6202106,0.23030776,0.46367612,0.80106634
fully_formed_anatomical_structure,-5.371226,0.60161567,1.1444517,-1.2710145,-2.530847,-3.3956444,1.423538,1.5944091,-0.6001564,1.8596189,-2.5908544,-2.1750638,-2.9457572,-2.987439,0.4679056,1.6066514,-0.2730624,2.211315,-0.6694477,4.136801,-1.3495207,0.16887298,1.542276,-1.7299604,-0.85708845,0.31595308,-0.41384825,-1.1055725,-0.21871637,-1.0685352,1.4409113,-1.7212973
group,-3.399548,1.0977442,1.2855445,-2.6510966,-2.7001162,-1.0325904,-1.0277566,2.2447484,2.2207239,0.04301846,3.3548524,1.3994602,-3.2936053,-1.0169604,0.08915054,1.8999264,0.19186738,3.9044664,2.2983742,2.6496823,0.008500082,-1.2311903,-0.41547427,-0.7984644,-0.90425855,0.65726846,-1.8208784,0.51453835,3.111027,-0.6839783,-3.7036228,1.8293877
nucleotide_sequence,-0.89512676,-1.4679329,2.5753818,2.555678,2.2313263,3.4400935,-1.3138413,-0.12755556,-1.0916349,-0.48171133,-2.1746411,2.3118415,-3.0118475,-0.97330093,-0.2258969,-1.7005339,2.8317814,-5.898243,-0.95243216,0.13647673,-1.4441168,2.512966,-2.5222216,-1.0738182,0.043611333,-0.38585752,-1.2397113,-1.6457143,-2.1356454,-0.87122434,0.077299416,-2.5423028
body_system,-2.7410069,0.94486475,1.6633452,0.7326885,-0.4822519,0.682314,0.23142388,-2.046538,2.0505435,0.68160397,0.18792906,-1.7053907,1.9553818,3.32432,-2.4587119,-0.56854945,-0.39062005,-3.73838,-2.1033356,-5.5151205,-2.293145,1.3657868,2.694359,-0.55511564,-0.23030302,-0.79760844,0.9566557,0.4891504,-2.5844111,0.35918745,1.219668,0.6314227
food,-1.3179301,6.661987,0.057569057,-2.2899806,-3.4603899,-0.6992932,-1.1843,2.5922108,-2.0001879,0.83971906,-0.42774713,0.8470228,0.28440595,-1.3044595,3.2524061,-1.5258881,0.56721276,1.8600117,0.45755386,-2.372226,5.587239,-4.2396216,-0.6056229,1.2443244,-3.6993854,-0.56155485,-0.5548739,3.2539217,-0.25228244,0.627676,-1.1198475,0.16386746
bacterium,-0.029065568,3.495053,1.8423926,-0.0021756496,0.64720374,1.1179724,-2.0478535,4.83379,2.441974,1.00253,0.84908223,-5.0600915,-3.406939,0.3424467,2.0159967,0.6001665,-0.93966365,1.5264552,0.29796907,0.6416111,1.3052324,-0.86013204,2.1469285,-1.8642768,2.35347,-1.7847314,2.144687,-1.6947119,0.33802202,-0.6656587,-0.8599439,-0.66676676
fungus,1.6293607,-2.0379555,-2.077494,0.4920529,-1.4569267,-0.80422676,0.19540638,-4.508076,4.0638947,0.21922374,-0.37367985,-1.5320202,0.5915418,-3.5855062,-0.105096914,-0.18785301,-0.091350935,-0.4604839,-0.5680305,-0.12723835,0.9286258,1.8290503,2.7568336,-1.0630499,-0.6149119,2.2596507,2.4209902,-1.6285452,-0.0046445196,1.1826649,-0.07500911,0.45508406
research_device,1.8909986,1.1735859,0.39575744,-3.2061672,5.0091834,-0.4537684,0.13266927,1.5905325,2.078645,-1.1434351,2.9063275,-2.3895764,-0.6505704,3.3128834,-0.12314617,-1.2541974,-2.0759652,-3.4867241,-0.9855356,-2.9220915,2.2293596,-1.8457845,1.9568471,1.4805897,2.4383154,2.4855254,1.796685,-1.4340396,-0.66841656,0.25908872,-0.43673757,-0.77985096
governmental_or_regulatory_activity,-1.4722664,1.0978591,-5.9700418,-0.72284293,-4.3978634,-1.4321018,1.8515182,-0.43310145,-4.125982,-1.7646884,-1.4012016,1.6859406,0.5663365,1.5776831,0.2331194,-2.6100862,-1.4052241,2.092667,2.1055565,-1.408063,0.6775014,-0.038419142,-0.74543965,1.2356519,-1.3562411,2.9263582,0.37283468,1.1954727,-4.453079,-0.34899384,-0.98423177,-0.23644768
idea_or_concept,-3.7191756,-0.088885926,-0.7949295,3.0020392,-0.015417077,0.6380766,1.6433444,-1.792078,1.4126364,4.3478284,-0.35286176,0.24602857,-2.347584,1.5976579,-2.3374288,-3.1615756,4.0127826,-1.2972314,-5.5981317,-1.3005438,-3.1464026,1.8404197,-0.93328744,-1.2760937,-1.5808963,2.1393335,0.20857894,-1.9027346,-0.082000405,-1.4212235,-1.0261166,-1.9015998
occupational_activity,-1.949304,1.0281377,-2.6361678,-1.993729,4.680267,0.9867209,-1.4044948,-0.15289019,0.645038,0.69510925,-0.6238381,-2.751877,0.064483725,-1.6985414,5.877092,0.942928,-1.0532764,-3.1240866,-0.9017842,0.8066753,-0.47527608,1.724225,2.6193764,-1.597685,2.6344206,-1.9816097,0.08460923,3.0352361,-2.8282924,1.2283609,-0.044781238,3.265878
physical_object,-0.81191105,3.1182115,-1.2284188,-2.6049075,5.399275,-0.111412145,-0.90002894,-1.0431056,0.86360306,0.50065595,4.8116665,4.095411,0.6884175,0.4987435,-4.321565,2.6719182,-2.6455905,-0.62083954,1.1195886,-0.3375463,0.85433775,1.6888967,-0.7892789,-0.36531356,-1.4273739,2.6474056,-0.04304436,-2.1851575,0.594641,1.5415981,-1.045842,0.66165495
vertebrate,0.3149474,-3.0305772,-1.5681872,-2.5703487,-1.4087929,-3.4829173,0.31497583,0.22576337,0.49781,-0.30593368,-1.8873442,2.1853628,3.2006276,-0.09748034,-1.3610164,-2.329027,-0.3441118,0.19536543,1.1744863,-0.23530842,0.43509144,-1.9618642,-0.27873564,2.1183069,0.4932917,-2.6496737,-2.0352342,2.0772815,1.5773796,1.3199137,-1.0097375,0.23363271
substance,-3.545574,-0.56651795,-2.0102942,-0.3527406,-3.4316874,-4.21394,0.9854242,1.4398835,-2.9530258,0.7498957,1.7705857,3.1137612,-1.0214922,2.7538126,-2.5507355,2.4672003,1.3373576,0.9739248,2.360151,-0.9009748,-0.23917614,-3.084862,-1.4329685,0.16484933,-1.7520269,1.0196455,-1.0204631,-4.4657135,0.67765534,-0.5546602,0.9576019,0.9043955
medical_device,4.6159487,-1.0920178,2.1643138,0.40272585,0.11991114,5.6722474,3.749414,-1.1526707,-4.3375525,-1.1675602,-1.2034634,3.0863953,-1.181407,3.4548144,-0.37170756,-1.7937304,-2.85591,-1.7753787,4.2512717,-2.3424382,-2.0950732,-0.10185964,-2.8512614,1.4779911,1.6341726,-1.2054121,-2.947034,0.5996804,1.3250217,-3.8923264,0.59920514,-2.0542355
manufactured_object,-3.7649066,0.2708388,-0.90887475,-1.0272063,-0.15636764,-2.8053553,-0.78819674,1.6578946,1.9190233,1.952558,0.73530084,-2.7755442,0.5466676,2.8741083,-0.08733402,1.206353,2.159599,2.0800474,-2.6291456,-2.3253386,1.9596223,-0.9793853,2.7374685,0.610528,-2.4111133,-0.228623,2.3726566,-3.3010032,-0.19844832,0.9257239,-1.0706155,-0.53309
classification,3.414907,-0.13415663,-3.2891552,0.17651549,-2.842948,3.3077192,0.43481964,0.91450286,3.5903046,0.23909329,1.5825008,2.9610002,-2.1082506,-2.770676,0.96973664,4.485426,-3.1756213,0.1584659,-2.2089164,3.3709729,0.7922582,0.59105206,-1.3941535,-3.4452617,2.1208742,-2.3102987,1.0146799,-1.6151378,2.4881337,-1.5123738,0.9861085,0.79291785
daily_or_recreational_activity,-1.2604393,-1.2001227,0.6128944,3.6333215,-0.2562187,3.4706688,-1.1862125,-3.814259,5.592158,1.340986,1.1651572,0.08068123,2.7694018,-1.6923652,3.767985,-0.13515587,1.9228482,-0.55447567,-3.9620275,-0.7613514,-1.5653385,1.5486956,1.161567,0.48511854,-0.20350914,1.1491292,-1.5584837,2.1466503,0.042250086,-3.408361,1.8079835,2.6798062
conceptual_entity,2.2703283,3.6117165,0.24880068,-2.693438,-1.2124057,-3.7269733,2.8163977,-1.9210383,2.2224538,-1.06564,1.211964,0.330182,-3.072376,0.19202882,1.7985246,3.5271218,-5.172774,2.3330028,0.09967936,3.3563168,1.349125,-0.5173594,1.3937522,-0.60165983,-1.0767405,-0.13835748,1.4756066,-0.9966241,0.35086772,2.0861635,-0.8021624,0.016348645
occupation_or_discipline,-2.2357259,-0.78325474,1.8243046,-4.3169622,1.9009562,-2.271781,-3.2558613,0.057127938,2.703796,1.4249463,-0.44300973,3.4068632,3.6407814,0.075974986,-3.0162663,-0.3500801,-0.8036964,0.93201107,-0.36818963,-2.9228616,0.34754816,0.29599902,-0.35790363,-0.035839338,2.0921164,-0.310772,0.30824077,0.66866106,-0.28327677,1.2812926,0.52536386,0.69938123
amino_acid_sequence,-2.7594569,-0.7177447,-1.7527931,0.019454215,-0.4075678,1.3861017,-1.8039664,3.2022648,-1.7584505,-4.6159616,-0.24720165,-0.0070688482,1.7725959,1.4403949,-1.3103445,-4.6154885,0.14422004,-2.0298243,2.3484304,-2.853588,-0.43835467,-1.4592268,-3.0391943,4.2436724,-0.265749,-0.36452916,-1.7101505,1.7003003,-0.18091212,0.35187426,0.82265526,1.2832854
clinical_drug,0.10431518,-3.5767574,1.4031371,-1.771816,-3.812984,-1.8424236,-1.2059437,2.1292088,-2.456854,1.1931664,2.1690116,-0.7381093,-2.1178699,-1.7171378,-2.3066084,-1.8164331,0.0055530686,3.0111387,-0.21297453,1.3849635,0.5307872,-1.0927649,0.048918817,1.0284393,2.6204865,-1.3185405,-1.2144687,-0.9508261,0.5191485,0.91488653,-0.95418304,0.27591574
activity,3.653617,0.006342996,1.0244861,3.2990744,-0.52648324,1.5625888,3.523133,1.5192927,-3.532747,-1.0492594,-0.5556916,2.548084,0.022003673,3.7287946,-1.7588134,-2.1877155,-0.53056866,-0.49050936,3.965847,-2.3222368,-0.7067477,-0.86745524,-1.8524573,1.2958398,-2.4606633,-0.42601845,-0.16304994,-0.88893384,2.8773155,0.23436978,-2.6178296,-1.5342531
event,3.6752815,2.110449,1.2172595,-0.0035743294,2.7044306,-2.2955031,1.6960821,-2.4965425,-1.3904775,-1.7773395,-0.20363446,3.8515725,-4.042735,0.40751028,-0.16169682,-2.4510565,-0.88192177,-0.91787606,3.9343646,-0.3578271,0.06569706,1.0759999,-3.081768,0.7654581,-0.51950145,-1.8711922,-1.1307054,1.0935874,1.8623637,3.3038356,-1.6774,-0.74253243
temporal_concept,-1.1349353,0.69287026,1.9882351,2.830702,-1.2011784,-0.34920865,1.582991,-6.5473557,2.8120582,-0.0007402173,2.7038097,0.98501974,2.7167401,4.30875,-0.01634873,-2.0315037,0.7020751,0.8094571,-0.41256112,-3.998304,-0.9883085,0.60309756,1.2054869,2.579121,0.32070705,-1.8655137,0.8639359,0.2541423,0.6154211,-4.5378757,0.28774133,-1.6088395
archaeon,3.784902,0.32388464,-0.448561,-0.4403576,-1.5976185,-0.7748616,-1.0091444,2.1225934,-0.7076781,3.2867668,-0.21008185,-0.25621435,-1.291225,0.677448,1.0757227,-0.46686026,0.2076089,1.7534794,0.32538968,-0.9888968,1.918792,-1.7913129,0.15511353,0.19685598,1.9537843,-2.3137596,2.1060483,0.77047634,-0.59831756,-1.6202068,-2.1023817,-0.18817805
language,-0.3321856,-3.6965456,0.7431362,3.8181736,0.11560047,3.5479739,-1.8808212,-1.176582,0.7373793,-2.2723272,1.4986436,-2.4845216,-2.6663003,0.9572711,-1.2304084,0.5447297,2.9754298,-3.2525713,1.6842514,-1.7546581,-4.3264318,2.9327364,0.6427779,-1.2317626,-0.6652776,0.6011755,1.8475683,-2.117213,0.19504286,-1.1711025,2.0396194,-1.6921232
biomedical_occupation_or_discipline,0.069278404,-2.901078,-0.67340606,-0.36999142,-0.5400463,-0.3012423,-4.10016,0.2693633,3.119872,-0.77320105,-2.881564,0.3965754,-0.1425949,1.6934712,-0.6553868,4.9854097,1.688816,-0.20306675,-2.7821734,1.6983752,0.084491685,0.2943719,-0.5838571,-0.8289775,-0.32587045,0.7062985,-0.07963215,-1.9779686,0.2550384,0.14052637,1.4928137,0.040954843
functional_concept,-0.4028665,-3.9309456,1.3601466,-1.4329277,2.9226623,-1.3795652,-0.78413457,-2.1386275,-1.5013686,-2.8306773,0.4892887,3.9402533,-2.531438,-0.490847,0.69725704,-2.0355093,5.3252826,-1.5586829,2.8169558,0.64444506,0.9108821,2.0977182,-3.048193,0.37047023,0.3835746,2.2427065,-0.8126812,-1.2494794,2.0504541,2.2621439,0.6761196,-0.36261398
machine_activity,1.0354697,-3.0288458,-2.5344083,-1.3021824,3.8174827,1.6447985,0.500507,-0.66529715,0.60444736,1.2415226,-0.8416658,-2.920947,2.3089566,-1.6299628,2.5606902,3.803761,1.5464628,-3.4391694,-3.0532007,-0.74660885,-0.5536588,2.0000641,1.37914,-0.75752723,2.6880925,-1.1021607,-0.31885138,-1.7371254,1.4837683,2.8532863,-1.2700901,1.9046261
entity,-0.98601604,-1.4543476,3.833708,-2.7547665,-1.5754489,-0.45557538,0.7524611,-1.2110344,-1.9160911,-1.2589247,1.8286731,4.8427143,2.5247543,-1.7743711,2.177847,1.4868125,0.41778967,0.7722114,2.3175404,0.45193377,-0.2240731,-0.15013681,-0.5145475,-0.11472158,0.6719545,-0.11469889,-1.6295116,2.1348176,1.7321446,0.26856703,0.3571176,-0.49605587
carbohydrate_sequence,-1.790305,-1.8207986,2.880473,-2.2201707,0.688467,-1.3551263,-2.801238,-0.8848,3.5716553,2.1662035,0.43907112,-2.296893,-0.7858474,3.0939245,0.5667711,-1.6284884,2.7522335,-1.4225188,-3.1053965,-3.1786966,0.6873425,-0.0038897404,4.0071416,3.3439417,-1.4540416,-1.3208514,2.968449,-0.976475,1.1533792,1.2680216,-0.16753532,0.07809537
organism,0.82167435,3.2559862,-1.5856713,0.0680056,-1.6887338,-0.5199139,-4.0446033,-1.9346416,0.9547507,-2.7810411,-3.8600018,-0.815588,-2.9485662,-0.3932553,0.0972506,2.1992116,0.945769,-0.87013954,0.34583437,1.4492874,0.1537078,0.6319522,1.3810357,-3.0613286,1.490061,1.1662914,-0.72003603,-3.2368228,-1.6941434,-1.0029483,0.7736076,-0.4837447
