,0,1,2,3,4,5,6,7,8,9,10,11,12,13,14,15,16,17,18,19,20,21,22,23,24,25,26,27,28,29,30,31
acquired_abnormality,0.6300834,-1.5940511,-3.3181663,-2.8508363,1.0948049,0.82085115,2.1355534,2.2764049,0.33427775,2.4985907,1.0075344,1.1992179,-0.35556054,-1.1546137,-1.205575,-0.26096848,-4.3270097,-5.18869,0.6081914,0.7270537,0.38695535,1.7321692,-0.1856793,2.1336417,1.428671,-0.97564054,-2.493155,-1.3352679,-0.6989058,-2.8538764,-0.61631167,2.2082226
anatomical_abnormality,0.6069318,-1.1710002,0.60274315,1.3616451,1.0695766,-0.83710885,0.35479277,-0.29641056,0.58585775,1.920856,0.30250773,0.3617406,2.1593919,-1.7861708,2.6281593,2.0071595,1.5178207,3.3580763,1.2414536,0.15760286,0.03507351,-0.4728847,0.33940977,3.1285906,0.03791547,1.346005,0.57671976,-0.80902606,0.05196133,0.13184062,-1.8225093,2.5007114
alga,-2.1619036,-2.6032746,-0.09832114,-1.3942271,-1.0775406,-1.7868896,0.8076027,0.52632314,0.4454295,-0.92633826,-2.2861183,-1.6353071,-2.4987912,-1.2493789,-0.60266477,-0.9359902,-0.5575681,1.4868611,0.91855717,1.1509632,-2.0212343,-2.1514256,-1.1843694,-0.27170464,2.083123,2.0779366,3.7033842,0.17839724,-1.8963115,-3.744443,-2.8368812,-0.663758
mental_or_behavioral_dysfunction,-1.8751309,0.4208187,-0.42726272,-0.03323393,1.3952203,-2.955242,-1.4300795,1.5291713,2.0535145,1.1709943,0.20576489,1.0894258,-1.0751064,0.0274865,-0.7401507,-0.80901635,0.9422758,-0.64039886,-0.52313846,0.036449198,0.8443498,1.6209965,0.43158948,0.30680093,2.8893971,-1.7083827,-2.0812428,0.91778284,-1.274165,2.750832,0.08890135,-0.509957
health_care_activity,2.298949,-5.803374,-0.22354771,2.4603407,3.241032,1.7083042,1.7267178,-1.7863088,-5.1856875,-6.0513725,-2.4195304,-2.1319754,-0.23484585,0.58157516,0.85458434,-3.91407,-0.9626201,0.38241905,2.6756856,3.6577935,3.9979556,-0.10843886,-1.2153761,-3.1064947,-0.56239617,-2.826757,-2.4991355,-0.49395794,-0.4249534,-0.1375837,-2.4398065,4.9066386
population_group,0.9170835,-2.5317388,-4.6570115,-0.89368105,2.4075484,0.22044703,-1.1265732,-1.8178829,-2.4004102,-1.999367,-0.11535051,-2.0482194,1.1552223,1.6961973,0.46302763,-2.2358756,-4.533091,-1.2852206,-3.2387297,0.52798903,0.10616849,-1.7130427,-0.58125085,-1.1151063,1.5802473,0.97899383,1.8625996,5.7182016,-1.8900256,-3.1462133,-6.0292344,-5.470535
clinical_attribute,0.40247968,2.182458,2.141713,-1.535194,0.97999156,-1.1990507,-3.24912,-0.279373,0.9315957,-0.68280226,-1.163702,-0.62143904,-2.1913605,-1.0334802,0.12095828,-0.9606517,1.8514946,1.2563052,-1.887862,-1.3625075,-0.6180351,1.6192292,2.2119036,1.9961299,-2.1902223,1.1653448,1.5820884,0.63808626,2.6512997,-1.7749139,3.2902684,1.7551538
body_part_organ_or_organ_component,3.1878448,1.6492845,0.163946,-1.6271393,3.4866462,1.564535,-0.080406316,-1.2172369,-2.0513303,-1.3176982,0.8446354,0.7614398,4.3877997,-1.378005,-1.0798563,-0.6065652,-1.110141,-0.35114482,0.37732354,-4.253438,-1.8693379,1.5572481,-0.23352537,-0.5797001,-1.7814474,-6.977097,-2.6917372,-0.60887676,1.9501994,0.6301448,2.3242886,1.3937289
biologically_active_substance,3.5919054,0.65956527,-2.4686627,-1.880237,1.5203846,-1.6686759,-0.5537676,-2.7506397,-1.2883098,3.7768977,-2.3060923,-1.6574779,-2.484784,1.0558697,-0.49399954,-0.82450616,-0.9360712,-0.4906179,-1.1826792,-3.6904244,-3.096283,-3.5017567,-0.8584471,0.017772613,-0.33698967,-0.87172604,0.28683677,-0.5871978,0.4696082,1.963387,2.346568,0.69682133
disease_or_syndrome,-1.8022722,-1.2768227,1.1969123,2.2496727,0.5922041,1.047223,1.8933592,0.8762828,0.9710216,-1.9250245,-0.3545317,0.6414061,1.2621273,1.8195497,0.28409255,0.7053422,1.2201661,0.034461986,-1.9459636,-0.47308502,-2.1274018,0.8427793,0.5950638,-0.36392578,-0.42038006,0.4918627,0.41415393,0.25442588,2.2260277,0.35857928,1.5837235,-0.6741071
carbohydrate,-2.5949616,-3.2570748,-2.6587934,-1.792771,-1.213999,-2.490091,-0.210956,2.242849,3.8813121,-0.5346432,0.6392267,1.2871186,2.0777338,1.8780489,0.5338101,1.5158116,0.121576056,-2.1941185,0.5412637,0.005994463,-2.8431168,1.3564358,-0.40381977,-5.4587317,-2.4556074,0.029211553,-2.6053054,-0.7088523,-4.6805377,-2.4951756,1.1066105,-2.7386725
molecular_sequence,-1.9795076,-1.340039,0.9874734,1.1126554,5.012916,9.464565,10.7078,3.836078,-0.4836992,-3.334688,-2.9979095,0.6988963,-0.3803234,1.7622874,3.2361972,0.42518124,-4.6908216,-0.91641504,-0.46970168,-0.87707466,1.825824,2.3842235,1.800141,-1.1197325,-1.5195276,-5.2462635,-2.1120176,0.12305562,3.4972894,6.363372,3.6363451,2.2987227
steroid,-1.0074598,-0.61336285,2.3525786,-1.4054338,1.9283985,-0.07187193,0.60279757,-0.8864351,-0.017535876,4.0879827,2.5088077,-0.27679175,0.5584606,1.040849,-0.25482956,-2.1538694,-1.1971323,-2.0163937,-1.2894702,-1.9993029,0.5478683,1.3441695,-0.96103436,-3.261545,-1.9978352,1.6359766,1.4236224,-2.0723145,-1.5242978,0.16377483,-0.7376682,5.536901
experimental_model_of_disease,-1.1188064,1.961765,0.68067706,1.1689177,0.64467424,-0.25383535,1.0388682,1.544682,-0.40477234,-1.6245319,0.05028472,0.03749749,-0.4515552,0.41353646,-2.3665524,0.2030242,-1.457897,-0.24778917,1.3838844,0.15681599,-0.44488895,0.6645043,0.5917944,0.9228054,1.6481336,1.2714982,0.16598853,-0.041139673,-0.14981431,0.05867881,1.895702,1.3467308
patient_or_disabled_group,3.7859404,1.0044107,-1.872316,-3.2475169,-2.6315658,-0.77876925,2.1591218,0.4683614,0.960825,3.0593727,3.795289,8.455951,2.1018903,3.085432,1.2819153,0.93454397,2.5256953,-3.8773315,-4.2582936,-2.7246463,-0.6797351,0.24849801,0.6152018,-0.602982,-1.6150676,0.11553608,2.1438458,2.7250526,0.92881006,-4.5929418,-4.2453265,0.49091712
professional_or_occupational_group,1.1148553,2.3577013,2.0605068,1.6932087,1.2673473,0.49898112,1.7855011,2.215277,3.765095,1.9169234,-0.7109282,1.3529867,-0.25714883,4.035978,2.6542137,-1.2596537,-1.214998,-0.11075432,-1.7097429,-0.42038748,0.31641558,-0.64267623,-1.0043828,0.029088141,3.7491207,5.310834,3.140417,1.0300186,1.1079069,0.4236612,-3.8343883,-0.76173615
nucleic_acid_nucleoside_or_nucleotide,0.7978648,-3.4798768,-4.914033,-4.253357,0.9993011,3.600005,-1.1578965,-5.8432026,-1.7688301,-0.13442244,-5.030476,2.0036833,1.074851,-0.19952953,-0.32208708,-1.094364,-2.8192883,-3.0137546,-0.53329194,0.24807213,1.6396434,0.69299394,2.3303726,1.9994173,1.0561385,0.508845,0.4066684,0.54902494,-0.63210624,1.732673,1.4375046,-0.42949274
organism_function,2.0207338,1.38699,-2.04764,-3.8740356,0.009207535,0.25346586,0.09917188,-1.1352096,-2.038345,0.78388655,1.9297527,-0.53241557,-0.3784714,-0.17504331,-0.7819378,0.2022584,1.1229395,0.7809551,1.2761774,-0.2890783,1.4120959,-0.0024214347,-2.0250826,0.34139025,0.6204646,0.60342187,0.877054,1.0027963,-0.2685407,-1.0231192,-1.2529725,0.9724359
mental_process,-0.6064112,0.2770867,1.7437795,0.34865934,-0.41168034,2.1134782,0.7729286,4.6897526,1.256091,1.8151098,0.5971875,-1.5578411,-2.0257797,0.4007387,0.44958496,-1.6625392,0.8209421,-1.1155565,1.2868845,-0.015319627,-0.020594275,-0.9117763,-2.9730797,-1.1189357,-3.4439042,2.0623648,2.952995,0.013294417,2.6611218,0.24265349,-1.8250853,-0.47949532
therapeutic_or_preventive_procedure,-1.5569423,-2.5829265,0.6343795,-1.3372523,-1.3040428,-0.09496772,3.1909053,-0.6466499,-2.070725,-1.2525759,0.84481895,1.8691618,1.6556538,2.337962,-0.91666883,-4.894343,-4.8930492,1.7553906,0.57916695,-1.1283785,-1.9634714,-3.1641107,0.11936232,-0.567441,-1.7229228,1.4652721,0.88051397,3.573618,0.8349134,1.2790946,-3.8590782,-4.977483
cell_function,1.5418092,-4.0411854,0.1646183,-0.5277012,1.8524129,1.2760386,0.67490834,1.805582,1.9788201,2.6039402,1.8479928,1.1182748,3.5382953,1.3356309,-2.175517,0.45754802,-1.8937196,-2.2019641,0.6956863,-0.6830947,-1.4789253,0.2980811,-0.83372325,0.45469844,0.5209469,2.956569,-0.549493,1.8135189,0.37888113,1.283523,-2.3441024,-1.0312945
pathologic_function,-1.2756,-0.795646,1.746046,1.8233742,0.53265876,2.6087995,-0.54938763,0.68726885,0.56301033,-1.0073056,2.1353843,3.592488,1.0211059,0.2967597,-1.7314951,0.5623891,-0.6192063,-0.8634371,1.2539645,1.549588,0.26449275,-0.8867933,-1.0491935,-1.1016315,-1.3939228,0.14667986,-0.10560799,-0.48599994,-0.4680924,-1.4171678,-0.17814828,0.79787606
organ_or_tissue_function,3.3667774,1.6705358,0.93921125,-0.33860415,-0.24531361,1.9757756,1.166475,0.044953965,-1.3964972,-0.085500784,3.2757897,2.4665458,1.905883,1.5461926,2.1061835,2.7284987,-2.082747,-3.3074458,-0.24185842,-0.6784978,-2.7141922,0.509648,1.354381,-0.03170586,0.08620208,1.0806956,-2.0174496,-1.5047971,0.16976748,2.088035,0.57622087,-0.52385736
enzyme,-0.044254996,0.5846782,2.730591,-0.88343495,-3.4281518,-3.9673746,-0.2896693,-1.8930721,-1.8601862,-2.5290842,-1.733761,1.1212705,1.2941908,1.194852,-1.1615992,-2.0394552,2.2135801,1.2214849,2.8360577,4.247892,-1.3210417,-2.214046,-0.29147342,-2.1624405,0.9993006,1.2858607,0.47200498,1.1613454,0.12762572,-1.8442684,1.1099145,2.9351308
cell,-3.7308536,-1.7263628,-0.564273,-2.9420645,-1.7394974,-1.9401528,-2.113165,0.87049997,0.80553263,1.6044737,0.17642231,1.8249786,0.11775353,1.1679918,2.8726165,0.6238026,-2.3764575,-0.9322227,0.86787325,3.6501856,4.787889,4.333749,5.23445,2.102983,-0.54812294,3.0904336,4.6204314,3.1604702,-2.1153784,2.2461784,0.82941663,3.7379737
cell_component,2.2507749,1.2093345,0.13904162,3.4120336,0.7883085,-1.5945597,-1.4568605,-0.26666594,-2.1360188,0.6396917,-3.120753,0.9689724,-2.9999993,-0.5980958,3.6051323,2.2407568,0.4101717,1.2623128,-0.5190956,-1.847347,-0.92363805,-4.318533,-2.2586508,-1.1900774,-4.3407745,-0.6238241,-3.0835674,-1.5129906,1.6826819,3.454903,1.0082158,0.4370162
cell_or_molecular_dysfunction,-1.5544382,-0.08317695,1.2699537,-0.031311724,-0.95509917,-0.24198738,1.7538118,-0.57586133,0.790203,2.4089272,1.5812088,0.083760545,-0.9867847,1.9408054,0.85311943,-0.59426427,0.9976616,-0.4840687,-0.7899278,0.8531632,-0.45969054,-0.47380224,-0.50558525,-0.1551007,-0.28174546,0.99292016,0.23752908,0.7949465,-1.4490014,-0.893916,-0.95482826,-0.23068869
hormone,0.1704125,-2.2811859,-0.61395764,1.9169142,1.5131731,-0.4764995,0.83535784,0.97293276,-3.1352,-3.351752,-2.1786537,-1.9058707,-0.39373308,-0.081966214,2.3731856,0.85337794,-0.9828787,1.2916504,1.9668057,1.4991221,0.0062097767,-0.02607495,0.5239464,0.32675183,-0.48857677,-2.0695198,-2.8951783,-1.0913342,-1.3908865,-1.8149753,-0.50622517,2.5667143
organic_chemical,-0.6861242,2.8818517,0.5590788,-1.2107605,0.59998775,0.69823736,0.17404631,-0.70514643,-3.2710776,-2.6444678,-2.1011777,-1.2144287,-2.4687276,-2.5768025,1.6600525,0.49904922,-1.817994,-3.3675663,1.7912476,1.2911177,-2.521885,0.038017973,-0.9289361,1.3873883,1.9494808,0.3091895,2.5860534,0.40432394,-1.7671484,-0.8452176,-2.332099,2.2374072
behavior,1.2663013,0.41393203,-0.42809626,0.2921046,1.298602,2.1012182,-4.883997,-5.8201213,-4.880905,-2.2817934,-1.8427905,0.50112003,0.57768214,-3.888104,2.0276003,0.20353097,-2.2735486,2.253982,1.2456174,-1.5293194,-1.3137821,-1.5909185,-4.463474,-4.4769506,-2.8951173,-0.45749184,0.27689907,1.7350837,3.3629293,2.1673458,0.92242354,2.9491596
neuroreactive_substance_or_biogenic_amine,3.8142562,1.3424028,1.9164296,1.4080845,1.86961,1.5661385,1.8843194,3.047473,-0.4441719,-2.0744097,-1.0940642,-0.32738885,2.0312176,-0.039446644,-1.9217281,-1.9016331,-0.10748149,-2.9133093,-3.4084408,-2.6980062,-5.304916,-5.9693475,-5.421827,-0.24075365,1.1567129,0.5586164,-0.44020998,-2.9831302,-0.2958587,0.4274242,-0.97191924,-0.20688054
embryonic_structure,-0.26990417,1.4650335,1.7412477,-1.19811,-2.841697,0.5637122,2.2151854,0.062149607,2.012135,-0.16435345,-1.473523,0.77015936,-3.5147238,-4.095648,-2.327877,2.133651,0.49023306,2.7884326,-0.017846908,3.2970045,1.8691531,-4.3784995,-3.7761688,-2.4377747,-4.856906,0.36039537,-0.5636228,1.7381341,-2.4180691,-2.614131,0.5954862,2.281972
neoplastic_process,0.7682275,-3.6254892,-1.3741249,1.5849655,2.9144564,0.90255696,1.9954644,0.4782793,-1.1112927,-1.1318597,-1.320904,-0.024755647,-1.1220319,-1.4034894,0.71464145,0.40254125,1.4683988,-0.46568024,0.75285596,0.39813364,-0.5102281,-2.4033947,0.24906126,-0.2471034,1.6608461,1.5512098,-0.21903946,-0.14214474,0.7170728,1.430935,-0.06357601,0.509353
laboratory_procedure,-0.648951,-3.4391916,-2.0306149,1.0626224,2.5153885,-1.2827002,0.47905895,1.6760963,2.5856218,4.6225533,1.8459437,0.8606928,-0.12856513,-0.92215395,-2.9672997,-2.8608813,-1.1397583,-1.7303329,1.5150968,2.531617,3.7881298,-2.393462,-0.4582299,-0.028862555,-0.52889967,0.6925803,1.5573477,4.6489267,2.181604,-3.9894383,-2.5077546,-3.610097
natural_phenomenon_or_process,-0.79086435,-1.0515007,3.0250614,2.7998269,0.699894,-0.35463366,0.468698,-0.5326066,2.8119419,2.8978848,-1.1053625,-3.753801,-3.7844346,-3.1348338,1.2362082,0.7773993,0.87070894,-1.5357556,-2.2814515,-0.0894051,1.3585552,3.2827353,1.1440862,-0.8364029,-0.22272116,-2.6399372,-1.4151943,-0.4411435,0.41360122,-1.906516,-1.3854765,-3.2703116
immunologic_factor,3.369543,0.24613269,2.5323045,0.14037864,-0.5113174,-0.8530326,-1.7392584,-3.1247528,1.5723543,-0.8489364,-2.526265,-3.6549797,-3.9186697,-4.68538,-1.9628555,-3.557425,-3.5055351,-0.06580664,1.4645743,0.9030993,-0.12541893,0.728796,1.4541538,-3.243822,-4.115498,-1.4897143,-2.342916,0.15035169,0.1978627,1.7307152,4.2653265,2.0291026
receptor,1.4551926,-0.009893894,-1.5443734,-1.0416355,-2.0455437,1.5629827,1.7896955,0.6265836,0.7419807,-1.4414485,-3.0504358,-4.639167,-1.1940337,-0.13284332,2.120537,-0.6212596,-1.0969156,-2.310324,-3.6919236,-0.23412913,1.1718531,-2.1676881,-0.9742322,-2.0248063,-1.1665251,2.3675642,3.7550654,-0.13504007,-0.5261543,-0.72318256,0.120072246,1.7915953
self_help_or_relief_organization,2.7561717,4.286191,1.2631611,1.190227,-0.12903105,-0.73957676,-1.0088654,0.4056782,-0.52640927,1.5277827,-1.5409544,-1.3704848,-2.9326603,-0.58543664,-0.76166475,-3.944075,0.034253757,2.3543315,1.3817536,-1.0684518,-1.4877398,-5.2151403,-2.2815259,-0.8739939,-1.5459368,-2.0383196,-5.3029203,-2.1895351,3.5618527,7.391579,4.23706,4.2962523
pharmacologic_substance,0.10396503,0.14989707,0.61924726,4.126433,4.6184254,2.9888742,2.46136,0.73120916,-3.6298568,0.36204338,-1.262347,0.5618307,2.453665,1.4972936,0.19129878,-0.63362795,-0.26722777,-1.0630369,-1.8328509,0.46343443,-3.5398586,-1.8572042,0.07706045,0.20317619,2.364441,3.7145681,-1.3867114,-0.36906716,-3.8368475,-0.29939726,-2.3626173,0.97273695
molecular_function,0.8464409,-2.2330666,2.0244384,-0.06925482,1.946563,2.8669093,0.03639562,-0.2675068,-0.8109975,-0.09177584,-0.27322868,0.7586092,0.34998056,1.0006927,-0.3233818,-0.8206517,-0.17998715,-0.8109175,1.0768629,-1.1511618,-2.076212,0.5647513,1.0092357,2.583712,0.44699302,1.4465675,2.568109,0.658968,-0.31808212,1.8498545,-1.6196895,-0.68971336
regulation_or_law,-2.026511,-3.5564246,-0.29187742,-3.690795,2.5580425,-0.39265984,-2.4188356,-0.37899983,-2.2781675,-0.7380986,-0.10611986,1.8232921,0.08068799,1.9529258,-3.3691144,-8.242162,-4.335072,-3.8849657,-1.7100977,3.4877574,6.895855,8.310083,7.283705,5.3683524,3.5418832,1.6922233,1.3971322,-2.2882872,1.9058827,2.3998008,0.5092965,2.0192034
human,-1.2749965,-6.509953,-2.5918646,1.7644039,0.32416084,1.6656231,-0.097462475,-1.4797963,0.9862798,-0.024863176,2.1755095,1.3229901,-1.095695,-3.1395624,0.03183254,1.5002246,-0.43156686,-1.0888655,2.1459734,-1.1276914,-0.6488487,1.6333091,-1.6596138,-3.9378815,-3.182581,-1.102894,1.605537,2.3806593,4.1881204,1.32793,-0.5845625,-0.82952523
eicosanoid,-4.9097843,-2.0129242,1.4551579,0.53352624,2.973864,2.8065984,-2.8362453,-3.5125453,-1.1646433,-0.94761306,-1.0826049,1.8181247,3.5954227,0.25319073,-0.51562124,-2.1910539,-0.682101,-3.4618988,-1.825182,-3.9625182,-2.8420765,-3.5985966,2.6947243,5.756626,3.9553425,4.412488,1.284115,2.9475102,2.9048097,-0.5329116,0.26446375,1.4352094
amino_acid_peptide_or_protein,-3.9892323,1.5053232,-2.0981588,-2.3497374,-1.1065649,-2.3857841,-0.99114954,-0.20439908,2.1194959,2.465284,1.6135131,0.733892,-3.7106473,-1.8111045,-0.19741246,2.3010135,0.35951197,0.84348327,-0.7192426,-2.4998357,1.6448603,-0.9604531,-1.265351,-2.783499,-1.6308701,1.1783528,1.1633857,3.7407541,-0.025436824,-0.62656873,-1.6681136,1.5081713
group_attribute,-4.0303736,-2.1790807,-2.8856225,-1.9069296,-1.7249051,1.3574598,3.2775319,4.1582103,4.81383,3.4393046,2.0839996,1.2489061,0.64143425,0.6787715,-0.43399677,2.052838,1.811642,-0.87437105,0.6052028,-1.9392071,-0.41136393,-0.7248606,1.4936053,0.48699299,0.9739626,0.92148894,2.732245,0.6304142,-3.2873905,2.0232549,-1.7911791,2.9082355
organism_attribute,-1.7215136,-1.4792035,0.90630984,4.096499,-1.2920078,-2.7038436,-1.6507233,-2.631327,1.0442073,0.435285,-2.185266,-5.322652,-2.7405686,-0.41987935,0.631116,-2.1418297,2.957702,0.07461234,-1.6589926,1.3668175,-0.84634393,1.5460173,-0.9971556,-3.015865,-0.6571267,0.58661675,-0.093898624,-0.5058301,1.122743,1.7698308,1.8510725,2.5099132
finding,0.28063682,0.39034802,0.68890834,0.6783914,-1.2978058,-1.4772321,-1.8096403,-1.0361905,0.71185505,-0.69378936,-1.9422668,0.7685252,-2.194149,-0.68069476,0.65470254,2.1688614,0.37314534,1.5772139,-1.1291025,-0.17516442,1.5798017,1.7722762,0.6670577,-0.5294218,-0.9991347,0.97451866,2.714051,1.7768697,2.2105935,2.3263469,-0.009649207,0.10383833
congenital_abnormality,-0.58692193,-0.13809554,2.3513582,0.7251669,-0.7634233,-1.8301426,-2.494272,-1.144319,1.3194898,1.5964249,1.2898703,3.3123496,1.0494615,0.4227275,-1.6432196,-1.3146919,1.1999589,-1.4614377,-1.6607866,-0.1878716,-0.085151136,1.3291923,0.10754239,-0.52287406,-0.12772983,0.40277144,-1.2596955,0.68835443,1.5441277,0.8297135,0.6207853,-2.1142628
anatomical_structure,-4.6933665,-3.1868536,-0.19615248,-0.8170582,-0.92099625,-1.523962,-4.776275,-2.371497,0.39726958,-0.7452081,1.645845,1.7522465,0.7431313,2.1016104,1.7519318,-0.4755722,1.4196318,-1.9654905,0.9585962,3.5603902,2.5300758,-2.8266895,-2.6512046,2.4490666,1.9427227,0.10491593,-3.200588,-5.329735,-3.5580635,-0.51634085,1.5134943,5.060574
molecular_biology_research_technique,1.6552107,-0.3441573,-0.29427513,2.2847877,1.7898147,0.57084364,-1.731603,1.0808066,-0.9285766,1.6761031,-0.43580958,-2.9489787,-3.4364133,-1.2857447,-1.0203886,1.0238926,-1.5850323,-2.548814,-0.67441565,-1.0433011,1.5181344,-1.6726793,2.223498,0.8663394,-1.0431055,-3.8131504,-2.2844307,-0.915724,-2.5711222,-4.6314163,-2.0873992,-0.7955673
diagnostic_procedure,-2.7111833,-0.8623578,3.7725742,4.2681108,0.72571856,1.4466763,2.2206209,-3.755679,-0.7374295,-0.37820715,1.6582234,4.526996,1.8285902,-0.83606285,-2.6934159,-2.7719443,-1.6615925,-0.52678984,3.1928651,3.7267225,1.2037052,1.0098382,0.88150686,0.61757904,0.67249525,1.4414973,2.3749702,1.9559599,-0.48313463,-0.22278827,-3.1728866,-0.25698116
biologic_function,2.451345,0.5266771,-0.5927036,-1.8528857,0.20998932,-0.06497113,0.39835632,-4.2086844,-1.3899482,-5.4536505,-2.0956695,0.081714414,0.09470369,0.7657202,-1.4958137,-3.8726308,0.16091233,4.476146,0.8179839,-2.7737815,0.098764345,-3.534556,1.4675459,0.99441737,-1.7941123,0.20101008,1.2689505,0.45729068,1.2059711,0.10500907,1.4373782,2.920725
tissue,3.5137973,-1.6072946,-3.6595657,-3.7909088,-2.7151601,0.45848888,0.9645375,-0.07630009,-0.7720178,-0.90644795,-1.450214,-0.26356816,-1.9745977,-1.0624855,2.4541137,0.9379877,-0.112199634,-1.3060119,2.630429,-0.37806407,0.24236046,3.3361259,4.1440806,3.7472048,0.9629008,0.74994147,1.6345136,-2.4048893,-1.1286534,-1.2232229,-0.63950646,-0.6991409
hazardous_or_poisonous_substance,-0.069911055,-1.3554676,0.37459692,-0.38706827,1.6814952,0.41533396,-3.30053,-1.3317194,1.8990549,-0.038036514,1.284382,2.7907205,3.5364528,0.8917879,1.1951233,2.5042639,6.3282943,3.8347964,2.1076424,1.4606897,-1.3710612,-0.32743672,0.50498,2.619453,1.2711674,-0.7734205,-0.5309605,-1.6677477,-2.845565,-1.6172564,-2.605796,0.3854106
chemical_viewed_functionally,2.859333,0.7831466,-0.5836003,0.5296002,-2.5213547,-1.2817502,-0.8227019,-1.150912,-3.2122366,0.6888808,2.2614784,2.0070522,0.012446487,1.4271874,3.527179,1.3015683,0.41167045,-2.18361,-3.6135955,-2.1393466,-2.22011,-6.006211,-0.5452874,1.1817999,1.6656256,2.6451893,0.49021366,2.5915549,1.3480195,-2.024917,1.2716683,0.26027486
reptile,1.8595022,-0.33898783,-0.5991977,-4.2363944,-3.4027088,-0.63888884,0.48185605,2.2998998,-0.2604543,0.008575259,0.10826081,-2.0573163,1.9310915,-0.060896926,-2.4938107,-5.3623166,-2.4751654,-2.4600017,-2.114411,-1.19452,1.81376,0.8523463,1.099294,2.486271,-1.6170685,0.214058,0.35080767,-0.10776614,-2.6012175,-1.5045984,0.050556302,-0.8758955
family_group,-5.1993084,-4.5478034,-2.1707842,-1.9282582,0.86086494,0.27708727,-2.268209,0.44311386,1.5949382,-4.0251,-3.1363754,-3.887852,-0.55066437,-1.5880342,3.7273746,2.34872,3.7507124,3.1303084,3.0203624,1.2595422,2.9453259,0.04647438,-1.278421,-2.5007644,1.5274411,1.074603,1.9264883,1.722162,1.1183248,-3.4006717,-1.4054058,1.6264983
virus,0.83744586,0.7319621,0.868938,-0.5816399,1.173986,3.637535,1.580978,-1.483433,-2.7775145,-1.0268848,-0.8702222,2.9769106,0.054280166,-0.4599311,3.8871157,1.4180934,-2.0295973,-1.9885687,0.6249167,1.9947672,-0.18744993,2.6490722,1.4212437,-0.5064985,2.461427,0.18807709,-2.0398915,0.86529386,0.8739672,-1.2822183,-0.23053338,-0.35763815
indicator_reagent_or_diagnostic_aid,3.836144,3.7867353,-1.5831465,1.2022368,-1.2925025,-3.5729702,-3.9989088,-1.8084972,-0.6075317,0.023306886,0.9800387,-0.0029406652,-1.6348333,0.19587286,-0.15449747,-0.6402145,0.24100214,-1.5696558,1.424998,0.029381655,2.5218096,-0.23879708,1.1006194,-0.536334,-1.041391,-1.4873204,0.29191917,2.1317532,2.1136858,-2.6063054,-1.8644798,-1.1698745
sign_or_symptom,-0.7887613,-3.4611568,-0.7332761,0.15073015,-3.21992,-2.0014677,-1.1150533,1.4362485,0.088002466,0.2761154,-0.29787737,1.3957472,1.8881749,-1.3383764,-0.9597174,-0.31976193,0.015705401,-1.8834829,-2.034228,-2.2377863,2.089324,4.70021,1.5822887,-0.7933685,0.1385656,-2.3302472,-5.2267118,-4.1145215,-0.07119425,0.7710166,3.96695,1.6665255
antibiotic,0.16117764,-3.527475,2.1894085,1.7812614,3.6384642,1.0621164,1.0437088,2.884898,-0.93765396,-1.8797306,-3.9573355,-2.1286016,-2.8782895,-4.108124,-0.0024622586,1.0993962,-0.7366315,-2.4880824,-4.610256,-3.6741664,-2.2813604,-3.83243,-1.8881254,-2.5301325,-0.58672357,-1.0905607,1.2347139,0.17490341,-2.0359516,0.5525582,0.74081576,2.2528226
chemical_viewed_structurally,-1.5796236,-3.124408,-0.58674234,-0.56391984,-0.9179625,0.6175277,-2.851323,-1.461377,-2.7350004,-8.558598,1.8460761,2.3784676,-0.44072014,-2.5681298,-0.9565221,-3.79913,2.2754703,4.5252714,5.8589835,6.0785656,2.4004169,-4.0538807,-2.2073448,2.2457547,0.48261616,0.9894409,0.4675679,0.9202385,0.021272806,-1.8913554,-1.8583497,-1.5856566
body_space_or_junction,0.15916799,-2.3580909,-0.9939093,4.2144303,-0.47620058,-0.88645047,-3.1572423,1.05424,1.1912231,0.2731853,1.7332234,-0.15212728,4.363014,-2.9240792,-3.1686625,-1.3125677,-0.74924004,-3.8058465,2.0096915,2.04127,-6.679345,-0.85079134,-1.2864909,-1.3011398,-0.9440688,-4.495982,-0.8944941,-1.7624309,-10.180071,-8.155953,1.7587827,2.6713486
amphibian,-0.85189205,-0.1377356,0.16572261,-0.41007832,-2.218211,-5.7545886,-4.2366385,0.27826825,-0.048881844,1.8904082,3.6129336,-2.1401577,-1.712772,-5.804769,-1.9576423,-3.6572886,-2.5833666,-1.4712311,-1.0759369,-2.773482,-1.5439001,-0.018391566,-1.1459447,1.6552907,2.2588346,-1.1978928,0.45450425,1.8356086,1.4145736,0.90483016,1.2208651,5.326706
health_care_related_organization,2.6365619,0.013760392,-1.4006393,0.374371,1.5290763,-0.1679468,0.9300672,-0.4015438,1.2134957,2.367181,3.8474653,-0.45813397,-1.9783429,-2.631012,0.39932537,-2.2867312,0.35677615,3.066595,2.5832822,3.9706862,2.8966992,0.63001937,-0.87070787,1.772864,2.4250858,0.7723681,0.97241133,1.9864612,3.552411,-2.4838176,1.7917888,0.49283433
fish,6.854906,1.4992698,-2.172332,0.62315565,1.1983154,-0.6959659,2.687974,2.477301,-1.3186615,-4.222856,-4.097151,2.2336488,2.3322408,-1.7728436,1.733802,2.1733556,-0.005841557,-3.7686276,-3.5913622,-1.7299608,0.5575485,-0.67775464,-1.9741963,2.0690882,-1.258747,-2.468512,-2.2592432,1.8352242,3.4581947,4.439809,0.024976166,-1.0523666
physiologic_function,0.18750526,-0.29026955,-0.09609036,0.78054625,-0.087763585,-0.041432954,2.0335777,2.1294334,1.8476194,-0.05122038,-0.8081069,-2.3473043,-0.2529664,0.8795573,-1.4970821,0.094692655,1.5020324,1.2941481,1.2894492,3.1799688,-0.7340073,-0.1668028,-1.3839052,-0.4584677,0.13017754,0.54843485,1.6753659,2.3884223,1.0155293,0.019806601,0.065227136,0.14524658
animal,4.2578006,-0.047265742,1.057265,-2.0376801,-2.1774762,-0.8196231,0.53695464,-1.2713801,-3.3025815,-0.7728074,-0.5504972,-1.2440993,3.5329406,7.2838564,1.0844178,-0.61385757,-0.24483232,-0.014977533,2.0810885,2.000404,3.0663416,3.024563,0.7164617,-4.710789,-0.75554323,-0.5924888,-2.7164283,-2.0527196,-0.32393125,1.277838,-0.8759876,0.6821854
injury_or_poisoning,1.3493373,1.8766319,-0.6689755,1.0165889,2.3456078,1.7959334,0.029996851,-1.2586153,0.6966057,0.89562196,-0.5963717,0.7443291,-0.96681714,-0.8499538,-2.0248895,1.050691,1.1811498,1.7754163,1.6160713,0.6540475,0.9695173,-1.1301554,0.7930382,-0.95023906,-0.9459718,-0.28070855,-1.8877761,-1.765325,-3.2137735,2.0146472,2.224988,2.363546
lipid,-3.538748,0.286754,1.0990742,0.87438864,0.7122232,-2.5208979,-4.9819045,-2.2063491,-2.9562562,-2.9932935,1.9445801,0.7888238,1.1205689,-2.6851864,-0.21494335,-0.8291506,1.3806039,1.1235862,0.9382738,-0.3481958,0.83808905,-0.4939653,2.1087964,-0.33647433,-2.2281618,-2.8551419,2.8085864,0.5807712,-1.93879,-5.4562626,-3.3388085,-0.24361248
plant,4.0291696,3.7185023,0.89054734,-1.2884283,-0.47065133,1.9304149,2.9085917,2.9553943,1.0328757,-0.59016603,-5.1823883,-2.1111867,-0.7837865,2.7577512,3.8678868,-0.50591534,0.68138194,0.7818846,0.6787123,-0.20267756,0.47080716,-3.060248,-2.9757113,-2.3714473,-2.4785411,-0.8180197,-1.912896,-0.8564651,1.9530506,1.1784339,1.7371941,4.0091324
organization,-1.0026395,-1.0001417,0.8817854,-0.9927778,2.457154,1.1896056,-0.09666777,3.9562953,2.4086044,3.0385826,6.7444525,3.3037155,5.1049232,-0.39324504,2.371055,2.3206367,-3.852555,-3.8487313,0.80555326,4.715989,4.6409006,-1.8145316,1.0947174,-1.4605922,-3.2619889,-4.0929203,-2.7284994,2.1526139,7.509226,5.976704,1.9180171,-0.13855983
genetic_function,-1.3019023,-2.8297772,-1.13602,-0.60332936,1.4694302,-0.6273751,-1.0986845,1.6949232,1.3921641,2.2956326,-0.28149027,-0.3004402,1.4428442,0.35460773,-0.17391047,-1.4581362,-2.254513,-1.1977608,-0.7674057,0.64230746,-1.2907203,-1.0507902,-0.3637343,3.4888856,-0.40742108,-2.7055972,-0.19069853,0.07883981,-2.2235804,-3.1590552,-1.5670943,-3.3998265
gene_or_genome,0.38657618,0.9129082,-1.6505089,-0.34127802,-0.493867,-0.44058466,0.8539962,3.9258585,-0.5244714,1.1241587,1.5555874,-0.55396885,-3.3451645,0.984729,-0.6013058,-0.80169034,0.27126628,-1.0958915,-2.9290633,-0.36139584,-0.3723578,0.36899757,-0.34553173,-1.9955641,-2.5259805,-7.5390825,-1.6257384,1.8076158,1.5694857,0.0487935,-4.3772755,-5.9164686
laboratory_or_test_result,-6.239744,1.0333555,0.9852521,1.4533025,3.87008,1.5450461,0.61353517,-1.3897363,0.57239306,-2.351299,-2.4423013,-2.9341097,-0.12083874,-1.4955258,-3.4308128,-3.0306373,1.0664572,1.1511096,0.87567097,0.62288266,0.09606744,-1.5401758,3.017417,0.072287016,4.7101293,0.934641,-1.6323719,1.9715867,-1.8678083,-1.1460801,-2.9718244,-2.7091384
spatial_concept,-1.4823445,-3.2350247,-1.9457707,-4.7249174,-4.1973357,-5.2593913,-3.7861922,1.3070599,3.7717528,6.9207006,2.037205,-1.362725,-1.9494464,-4.07448,0.55931973,0.30178466,0.41011822,-0.17987564,0.074684896,-0.32380223,-1.9020073,0.42334637,-0.1313673,-1.1463728,-3.1313357,-3.6920118,-4.6190705,3.1721287,-0.104809016,1.1698328,-0.056019362,-0.842227
rickettsia_or_chlamydia,0.6963785,-0.28943473,-1.7587558,-1.8103956,-0.8052424,0.15532593,-2.2564802,-1.1525964,-0.8819096,-4.7228003,-3.4116113,-0.070572816,3.1807256,3.2937174,2.2457192,0.6174043,-1.4552761,-3.0774186,-1.1713281,1.9122286,1.5367405,0.6314065,0.91174597,-0.73841476,-0.43536198,1.2532371,2.5895305,-1.0204601,-1.8025217,-0.7471265,-1.1435779,-2.0081313
body_substance,0.19136488,-1.1108856,-4.1307764,-2.1554022,-3.198451,-2.077441,-1.6560017,-1.7701182,-4.0964293,-4.6061816,-5.616718,-5.297459,-1.3518299,2.5611556,0.74746084,1.4147508,-0.0670262,1.7352442,-0.10920803,4.883731,0.6394575,-0.5204593,-0.4412767,3.1245608,-1.0918287,-2.9160879,-2.5377223,-3.4359221,-2.0751135,-1.516529,-3.4544783,0.3319902
intellectual_product,3.3027003,-0.9115036,-0.4331984,2.6835675,4.315386,1.1659333,0.007926327,1.8929639,0.8483398,2.5931191,-0.6093445,-4.854897,-1.6469357,-7.8271785,-7.1892686,-5.6872797,-3.3892043,-5.0851464,-5.780806,-6.3083296,-3.378717,-2.8769817,-2.0834901,0.86047137,-1.1067117,-0.9553369,2.0726333,1.6491479,0.44859174,2.9632797,5.5612874,3.6322508
element_ion_or_isotope,-1.626394,-3.9810452,-1.9404705,-0.9415351,-1.5995817,-3.222008,-2.8756523,0.13351212,-2.7238145,-2.2222445,-3.1345356,-1.5638784,-2.6538653,0.7062073,-0.70800716,1.7777184,0.71265936,-0.5436518,-1.8603233,0.99364233,-1.1337514,-0.7537869,-2.7110322,1.1751704,2.9552336,2.2539234,2.0584757,0.1491672,7.0864034,1.7727197,0.75151813,-0.18404715
research_activity,-1.6980476,-2.050889,1.3553699,1.1521766,-3.0548258,-2.7216392,0.20815349,-0.24507178,1.086238,0.10351465,4.460361,2.3542225,-0.37819713,-3.7254105,-2.5149336,-0.74015665,-0.17363401,2.207139,-1.4363092,-4.9752054,-1.675862,-1.8571702,1.4785604,-2.620576,-5.431485,-1.776463,-4.020909,-3.0995066,-1.2610524,-0.7660314,1.3183118,1.982563
geographic_area,0.3307956,-1.4061674,-2.912859,-4.103094,-6.0702553,-5.714439,-4.3691506,-1.7309544,-0.44190776,-0.83958554,1.648158,1.4433657,1.220981,2.8263643,-1.842263,-6.36457,-2.252828,0.40241864,2.290132,5.001177,2.3406708,-0.26851094,-0.057920065,-5.7243714,-6.647542,0.993835,-2.6240537,-2.4212446,-1.3964138,-0.87018245,-1.9157145,-1.8727484
professional_society,-1.9449836,0.8886627,-1.3557061,1.454257,0.806776,-0.6119636,1.043779,-2.6162972,-1.2153368,-0.22019818,1.597094,-0.51280594,-0.043688025,-3.1337557,-8.470263,-5.3328404,-3.821903,-2.7364604,-0.8031207,5.2310977,3.225777,4.062654,-0.9410187,-1.5234231,-1.2282538,-4.181163,-0.3643269,1.8625025,1.5842025,-1.8725108,-3.9309492,-2.718656
organophosphorus_compound,-2.2197278,-0.37258196,1.0275962,2.8260224,-3.6989884,-4.6852245,-5.313452,-5.038341,-2.5077815,-0.023590848,0.024996815,1.2423592,0.26106587,2.4034388,-0.14346129,5.958364,1.9194976,0.4638836,-0.007199321,-4.2349453,-1.1187885,1.0131197,-0.6576008,-2.324764,1.364938,0.40221563,0.5153638,1.5433195,-2.1516628,1.9227211,-3.6195674,0.9811473
body_location_or_region,1.1474701,-0.4945133,-2.1718452,0.66959417,0.1786005,5.278824,3.433112,5.397582,4.6925855,-0.18653071,-2.532016,1.4399219,0.31308904,1.4536097,0.3406866,-0.122367814,-3.5475903,-1.0399014,-1.8958279,3.8305883,3.0988014,2.8387485,0.16196845,-4.8797994,-1.9288592,1.864206,1.6941202,4.6013155,0.6220549,-2.917553,1.1559279,0.026628636
invertebrate,1.436908,1.1421748,3.8166263,0.32339194,-2.5266187,-2.9684293,-1.9721301,-2.6207197,-4.2919054,2.2422462,-0.20966099,-1.3774337,0.69544524,0.57261693,0.9169694,-1.2946326,-1.559345,-0.80067253,0.8373024,-4.217631,-5.446052,-2.2538867,-0.9165806,-3.0439727,-1.036054,1.9680685,-0.9683968,-3.1880283,-4.5305734,-1.4178311,-0.09667568,1.0465002
age_group,2.803937,3.7317612,2.8489137,3.624267,0.84522957,3.1272562,4.019481,2.31292,-1.7045463,-2.51711,-3.476127,-4.0201764,-2.8779583,-0.6566714,1.2051923,-0.6542227,-3.1668272,-1.8997353,-1.3660904,-0.2797027,1.2106826,2.0771797,2.2872007,0.16526124,3.4594052,1.4025204,2.4850843,2.5414953,2.9688253,-2.2005858,-3.5818398,-4.7513676
human_caused_phenomenon_or_process,3.0311136,0.11244875,-0.40596217,-1.9441516,-4.0273585,-1.4990323,-2.200584,1.6760812,-0.59270626,-2.029238,-0.55430543,-1.9037166,-2.1460063,-0.21681818,1.437258,4.025897,6.7758565,0.019319596,-1.3500701,-2.728435,-1.2965503,-1.3905114,-1.1555855,-0.9585089,-1.1784085,-1.1797842,-3.7231052,1.8638878,3.6523952,1.9376951,-5.174594,-5.5826383
phenomenon_or_process,2.0755727,0.28331771,-4.8305607,-3.738849,-2.12653,-0.5992281,0.1192317,-4.165394,-3.4531944,-0.86398256,-0.9748731,2.5382488,1.9747332,0.116913944,0.8360333,3.4860091,2.825236,3.4842422,3.097023,1.4759841,-1.0908035,-1.0651256,0.8833436,2.28761,4.133335,2.1215384,-1.6761249,-4.7388167,-4.058969,-2.3758776,2.6189828,1.5247515
individual_behavior,2.722921,1.5258207,0.5593568,0.834175,1.4048336,3.11528,4.064271,1.2549515,0.39600414,-0.83164,0.7389133,-0.24668998,-1.4528921,-3.8571103,-4.4126205,-1.547338,-3.31491,-3.1373956,-1.2385342,-1.5253296,-0.5096715,-1.5436581,0.5549636,3.3712869,3.0001595,2.9828513,0.9098499,-0.48900837,-4.1412606,-0.032649443,0.85524035,3.4538836
bird,-0.977829,1.4093506,5.013124,2.5987844,0.94312876,0.7937424,-0.9231812,-1.3037776,-0.85155743,1.6226325,2.3780239,1.9755497,-3.6294746,-4.210756,-1.8986675,-1.3815747,-0.82992506,0.52034634,-2.301143,0.6567512,0.93160105,-1.3893971,1.5310918,-0.95712763,-3.1753795,-1.0601696,-0.6044088,0.61968875,1.43744,1.9992838,0.7159808,6.4742002
mammal,-2.9772282,-1.0517323,3.9626143,4.4619904,4.1212955,1.7584623,-1.6631347,-0.10384976,-2.4540024,-4.159432,-2.6802793,1.2318434,1.9858165,2.0968637,0.1890845,3.073942,-3.0625927,0.28988627,1.4801179,3.2050753,0.030280886,0.7756138,0.46721026,0.0019461794,3.056372,-0.19153257,0.13026807,1.7811936,3.3600392,5.0648465,1.9629966,-1.088693
qualitative_concept,1.5290701,-0.36603063,-2.417409,-1.4623045,-0.29969737,-2.0772147,-4.048668,-0.799711,0.19858281,2.1336303,1.6278551,1.5244622,1.6665907,4.8101926,4.150116,3.6253016,2.787134,0.7665063,1.4017289,-0.89902735,-0.29659227,-2.1200955,-0.20164165,2.1804514,1.9289111,-2.5132039,-2.0294862,-0.56236523,-0.13665253,5.21751,3.7441766,1.018126
environmental_effect_of_humans,-0.38723308,2.9651756,1.6458938,-2.28497,-3.282665,0.2111451,0.5700126,-0.2001812,-0.07008755,-1.6376225,-2.481164,-3.8112547,-1.3390185,2.7169414,3.178701,0.2790225,-2.3816762,-3.0741773,-1.2628454,-1.1405605,-3.2037737,-4.500044,-2.4191053,-4.2407823,-5.1114984,-2.6819668,0.046660934,0.86400354,2.0550566,-2.6660793,0.67099327,1.3543876
social_behavior,-3.3352768,-1.0813779,-3.0003085,-2.343033,-0.15130404,1.1246773,1.4986644,0.07197152,-1.166498,2.2430985,2.440704,1.1949884,0.24504851,0.43134615,-4.406278,-2.353948,-2.6864321,-1.2887422,-3.654126,0.851848,0.5505127,0.9670372,-1.4502667,-2.4799125,0.22777891,1.8557508,-4.2644577,-1.6409202,-1.8540195,-3.6276193,-2.8049967,3.6949115
biomedical_or_dental_material,-1.1836622,-2.114217,1.9805713,2.9184384,0.13648398,-1.7542964,-5.1467953,-2.480001,-4.1302676,-2.621077,1.2599422,0.38834462,3.867486,5.7774944,0.2945169,-0.23688738,-0.32968193,1.183514,3.8416169,5.217282,2.916493,-0.23961209,2.6064374,2.6158154,5.2777553,1.205446,-4.646448,1.3800675,-0.19880058,-2.0687635,-0.9142576,0.6417471
quantitative_concept,4.7903957,4.6200924,1.1026819,-1.793061,-3.0961094,-1.263851,-2.6620734,-3.45597,-6.549622,-5.612244,-2.870308,-1.0505389,-1.9245737,2.805568,-1.5158275,-1.6863405,-0.034358118,-0.0061898734,3.1137955,2.8166726,0.63009304,0.66474813,-5.3117704,-2.8294766,-2.3016493,0.9551271,2.2386954,1.0568086,5.048705,6.121246,1.6030148,-5.761837
inorganic_chemical,-0.7587289,1.1654174,0.9787488,2.0292068,2.4408,-0.42287263,1.209926,3.2435315,1.5888634,-0.12943715,-2.7944686,-3.5746355,-1.3793204,-1.0739601,-2.1630757,-0.6100202,0.58709615,-0.55482924,-4.2274723,-0.99389017,-2.7852094,-0.1716531,-2.7096434,-2.7627125,0.73766834,1.5445371,0.6054627,-2.766001,-3.573402,-3.026043,1.042791,7.155187
drug_delivery_device,-1.4107897,-1.2542099,-3.5689468,-1.9964234,-1.9555404,-0.7942739,-0.9474159,-1.6586579,1.6189759,3.8784788,7.375709,7.23195,5.1469755,4.4638686,-0.3132151,-1.8347356,-0.3273901,-3.4629486,-1.3005953,0.35158744,1.298949,0.07002201,0.018281393,-1.3331381,-2.558405,0.59280497,-2.2809422,-5.139094,0.17194273,2.8113074,0.19318663,2.6676607
educational_activity,0.24260882,-0.8759924,-0.72720146,-4.271581,-0.15199071,-0.69951445,0.05871056,2.2481265,0.98272383,-1.1239002,-0.9014406,-1.5081058,-2.0212746,0.6577274,-0.21609679,-1.2014614,1.9927369,0.6334591,1.3842012,1.9920255,1.8786128,2.365782,0.6820115,-2.9503868,-3.826502,-2.4051297,-2.2675397,-3.9801075,-4.0639963,-1.0985041,2.0174549,-1.6539749
chemical,0.9773218,1.5064174,1.071223,1.1661344,6.3145266,4.4855356,-1.5601784,-2.9220002,0.77700853,0.25260702,4.097536,2.0369415,2.9447002,2.0959976,1.4024475,1.0439347,3.823309,-1.310014,-0.19538142,0.09083623,-3.257922,-0.24660479,-0.22923891,2.5489244,1.87542,-1.8859254,-2.0847588,-1.8867908,-3.7081687,-0.162603,1.4827906,3.3885138
vitamin,2.5894132,4.861909,-2.1269512,-2.7917423,-3.0137992,-3.2227814,0.37386423,0.6043268,-0.34400097,0.15445186,3.1275344,0.51679474,0.9434805,-0.8009994,1.0052215,1.533944,0.5992281,-1.3419338,-1.3814473,-0.32467657,-0.81588537,-0.8333235,0.8034509,0.29065356,2.5860991,4.1053123,5.111907,1.5913261,0.3997819,1.8225293,2.450402,1.367499
fully_formed_anatomical_structure,0.06616815,2.2940524,2.296088,2.8170474,1.8072224,-0.28811637,-2.7138145,-2.2368171,-0.48741215,1.678564,2.088903,-0.7334547,-2.3325005,1.0431906,-3.6016731,-6.224652,-2.3034766,4.420406,2.9486187,-0.33052364,1.6456184,-2.9014337,4.6345196,2.79754,0.22018415,-1.0296744,3.3673825,1.4274077,1.6869307,-1.233601,-0.07178985,-2.2708616
group,1.9217751,5.984803,3.6895192,-1.4215022,-2.841921,-2.9234319,-2.4184246,-3.545843,-0.56818825,1.6107142,1.2897675,2.5098643,1.2952332,-0.72955614,2.5176113,-0.5246827,-1.4291178,-0.6656447,0.10118208,1.6567824,1.8413999,2.8902144,1.5192039,0.7882999,-0.58092064,-1.3737582,0.51463795,2.292906,-0.9648386,-2.5323575,-2.8375301,0.083475284
nucleotide_sequence,4.0969667,6.5963078,6.2582464,2.0431514,6.694282,1.1478842,0.8814115,1.9992869,0.37535343,-4.148312,-1.4874952,-0.34786344,0.15662694,0.17357482,-5.0940795,-7.7719216,-3.1024141,-1.9690158,-0.73108727,1.764892,5.711014,3.83302,1.600834,-0.87384725,-0.75843316,4.365787,1.431294,0.6741634,2.1572638,0.37663618,-1.5518001,-2.8358238
body_system,-0.8504717,0.81594086,0.68856746,-1.2555175,1.7067847,-2.6000524,-2.610219,-4.192145,-1.6583123,-2.7816012,-2.0561411,0.028758377,-2.8208642,-2.1508043,-2.4361005,-3.19905,-7.224556,-4.626558,-2.0800629,-5.7698293,-3.1249099,1.1897688,-1.4281514,0.8133627,-0.94176805,-1.2527491,-0.34377116,-1.8279226,-5.48943,-2.0560596,-5.065725,-4.1677723
food,-0.15722495,0.57317185,-1.0522246,1.2895563,3.723193,4.1030793,0.068692386,-1.2432166,-0.15410411,-1.7537949,-0.014717577,-1.9582331,0.82203895,2.0672421,-0.13416067,-1.3113298,0.15775828,1.2811052,1.6520648,-1.4568248,2.13902,2.9528108,-2.4461026,-2.832396,-1.5706702,-2.4090457,-3.7886188,-0.7912908,-2.840252,-2.0672226,-6.412834,-11.5500555
bacterium,2.2662153,0.4274186,1.3598058,0.47581184,1.3613772,2.6331558,-1.9712063,0.28164074,0.040424883,-0.37539083,-0.2591866,-1.3142952,1.4028434,2.4092708,3.4144523,2.1686702,2.4368532,-1.7856103,-0.9598215,-3.4594324,-3.9886096,1.9226393,0.81239355,0.4325129,1.2537128,0.9292471,-0.98059773,-1.5779041,-3.2944856,1.4575013,1.0817971,5.1787457
fungus,0.7021373,0.9608117,0.009356543,2.0829258,-1.571308,-1.971162,-1.6880196,-3.134247,-1.3901979,-2.2291071,-3.792464,-1.3639051,-0.23682146,3.6089635,1.2088696,-1.4738945,-4.2986503,-1.5850111,-3.568384,-0.8668689,1.7444774,-1.9380318,-1.8277715,-5.319201,-4.3076377,0.9770188,-0.5307033,-0.04878933,1.3352396,-1.5732778,0.8481902,0.15295185
research_device,1.8690273,1.8728836,1.0298305,-1.7992889,0.8649875,0.39016977,0.6487429,2.4490952,4.9249387,1.674479,-2.4885492,-3.9883473,-1.1785865,4.691012,3.9850676,-0.5048408,-0.53016776,-1.3364738,-1.970103,2.1683736,1.9979955,2.6847713,3.0103798,1.0086396,-7.230802,-4.5023947,-6.452451,-1.7742227,-2.9081554,1.5329199,-1.5874597,1.059542
governmental_or_regulatory_activity,0.7037182,-1.6336828,-2.3735812,-1.0124215,-3.1945753,-1.7124975,-2.0347872,1.240901,0.25440374,-2.3391237,-0.93006486,0.63480794,-0.48732787,-1.2869257,-0.57272375,0.7831939,1.9214953,-0.98641086,1.2907376,-2.1379921,-3.026695,0.5643184,7.318078,3.5095062,0.80122244,0.12213114,2.7935674,1.7475526,-4.2556252,-2.7911096,1.182264,4.784986
idea_or_concept,-2.1494174,-1.1059937,1.3400779,-0.35247004,-0.099919476,1.3070791,1.7133764,-1.8172373,-2.635263,-1.2868705,-0.47415468,-0.34490654,-0.31117642,-3.0308099,1.422043,4.1673174,2.9343169,2.1092286,1.5696464,-3.0543544,-3.2493446,-2.414143,-6.0918183,-5.528676,-4.320576,1.6685187,-1.3581208,-1.4698024,-0.99645025,-1.9039801,4.4416437,4.7795353
occupational_activity,2.88459,2.3123755,0.9500511,1.5356194,1.6376407,2.1377952,1.9117117,-1.7728128,0.86110646,-0.608194,0.28003716,0.7905856,3.0132742,0.40210345,-1.4542488,1.2476381,1.4214182,-1.5104514,-1.5979447,-3.9703317,-1.7643394,-0.008868476,4.5251756,2.6172671,3.241449,-0.057485987,-3.5465548,-8.026205,-5.0917363,-0.006561354,2.141753,3.932226
physical_object,-8.327571,-0.2578788,-0.17991903,0.6031607,-2.8611457,0.6779647,0.792484,2.5087652,0.8279311,-0.98990786,-0.8499038,-3.0284271,-2.6233323,0.25405422,-0.05872713,3.833608,2.7687383,5.0370607,4.9361563,3.9470913,2.7777815,0.7107965,0.9449839,-1.3554871,2.7815194,1.371225,-2.0557654,0.23241243,-1.3005517,1.1575966,0.13016109,0.8734803
vertebrate,-2.3485434,-1.8886828,-0.046517406,-0.6560733,-1.4661056,-1.3138351,-0.799984,-0.9793891,0.8026241,-2.1722565,0.13293993,-0.82761186,-1.130885,0.68320924,0.40248954,0.48198453,0.8180799,-0.31329772,-0.7222605,-1.0752769,2.5759199,5.3009915,2.9683053,3.9713867,0.35637137,1.3771827,0.4262014,1.3941126,0.35013613,-1.8353661,-0.8029647,-0.7786379
substance,5.256972,1.377631,0.7468165,1.4296378,2.453595,5.301746,5.5226502,4.7515903,0.8783496,0.5259347,-1.4886345,-1.8507154,-0.88054264,-0.017802779,2.1965284,2.5825977,-0.5010212,3.1109884,5.418573,3.569048,2.4886715,-0.369181,-1.0780132,-2.2984788,-4.048931,-2.1503487,2.4966254,-1.7262442,0.8090582,2.956106,-2.244836,-2.7414887
medical_device,2.5859337,2.0471609,-2.555723,-1.011133,-2.910732,-2.8569613,-4.5519505,-2.7125003,0.7773985,1.7463204,2.4715688,5.14224,5.4900517,-1.8238587,-1.4608048,-2.318876,-2.6383097,-0.58372813,-1.3346877,-2.5581322,-1.4418648,-1.7983705,0.9543389,2.1016495,-2.6887758,-4.292175,-2.1291604,-1.9299295,-2.210711,-2.5365052,-2.4814103,-1.4444369
manufactured_object,-0.12185936,-4.1749983,-5.5077477,-4.549714,-0.43355283,0.26996636,-0.14011315,2.7688599,-2.234887,-0.20852345,-0.5028157,-1.7499443,-3.0063765,-1.1129599,0.49928817,-2.632939,0.062116846,0.8711879,2.3155763,1.8208541,2.1755702,-1.5854976,-1.2266927,-1.9553748,-5.255964,0.21388786,-0.14908342,6.850577,3.2705743,0.5106444,0.22833401,-2.8304331
classification,4.3003488,3.1185899,-0.37931356,0.60999584,3.5677187,-1.0287434,1.3037261,3.0672214,2.8053026,0.63841045,1.3972712,-0.19121705,0.62543756,-0.5649764,0.18437152,1.7416155,0.23802054,2.7673292,5.9263926,3.4250548,2.579718,-0.1148537,-1.8792812,-1.2291653,0.5147841,-1.5936729,-3.1833818,0.90960604,1.5074148,0.21096487,0.49131575,-0.3894024
daily_or_recreational_activity,-6.926771,-1.4523689,-0.9382174,-2.8772523,-0.03527408,2.7600448,1.0933256,2.3170931,-0.5392263,6.287882,8.561065,2.901287,-1.4314488,-1.6414766,-4.2189846,-2.7881339,-1.1408631,1.5709715,3.1511705,1.2484207,3.6293375,4.192675,3.6767092,3.7224588,-1.082129,-6.1290336,-5.5624523,-4.007097,-2.9569051,0.93309754,0.79063374,1.3131799
conceptual_entity,6.2109523,5.330639,2.6830955,1.0920966,-1.2038542,1.0142682,3.0298579,3.4156444,2.9287074,1.9730718,3.3870158,2.7868211,2.25708,-0.64809066,-3.8853118,-5.950266,-3.536296,-3.7157788,-1.769375,-0.67950666,-4.756977,-3.5586748,-0.8390962,-1.1993307,-0.15502056,3.437401,2.1005964,2.2360704,2.2427392,1.1543487,2.7117326,-0.91552615
occupation_or_discipline,1.5340626,0.79294074,0.8255555,-1.2026185,-0.5016011,-2.308803,-3.5238261,-5.1446815,-3.137882,-2.0428987,-0.39353502,2.493462,1.5576516,1.6496654,0.19378668,0.69952345,-3.079351,-2.0947902,2.4256716,-0.3711363,1.0935315,0.7063925,0.5230171,0.2657817,1.1430781,-0.8528662,0.064416446,-0.61521053,-1.5544319,-0.5195892,1.8679377,1.088861
amino_acid_sequence,1.5036784,-5.309843,-6.675526,-2.7521281,0.79909414,0.1660822,1.1064422,5.1332517,4.6731386,3.0891488,0.83470154,-1.6877664,0.90997934,-0.15243629,-6.5571027,-0.29867333,1.1338531,-0.16457482,-0.98529804,-0.73370486,-3.9939,-3.0909212,-3.484032,0.35898805,5.912839,7.2742443,3.8409808,4.7598767,3.4410653,-2.312473,-1.0905753,-1.9153488
clinical_drug,0.16657965,2.3532953,3.9922912,1.4128923,3.7946346,4.409012,-0.58136857,0.88238275,1.4354421,1.5646706,-5.3702726,-3.7301874,-3.169614,-0.8785251,2.1197274,0.9250195,-0.8563758,1.6095401,3.000699,2.5543065,-3.2915838,-1.8848364,-4.9704394,2.6060855,5.5867443,4.488834,-2.1313972,-5.4361887,-1.6014615,-0.21267651,2.1714623,-0.09130445
activity,1.6377227,-0.2264369,0.57973254,3.2986152,0.47040364,-1.5584775,-3.9525743,0.9265845,-4.590159,-6.6104684,-7.036811,-3.3774772,-1.4895544,0.49591854,0.15673928,1.1324382,-1.7315893,-7.9421372,-6.5141606,-3.6560645,3.2622237,-1.2340882,-3.438234,-2.399744,-0.3649945,-0.030530896,0.15787393,1.1630199,1.0836791,2.664981,3.6425314,3.2855375
event,-3.4197812,-1.1654135,0.049118333,1.9706876,-0.24969468,0.3366786,2.7533634,4.2772827,4.023004,1.2133124,-2.8975832,-4.021277,-0.89057034,-3.2916775,-1.114438,1.1024425,3.7260494,1.1187586,1.0630723,0.7323713,-1.6862798,-2.5845125,-1.453363,-2.1735573,-2.9516501,-0.85083616,1.0140609,1.785258,0.13128291,0.8069305,-2.2724605,-0.30905318
temporal_concept,4.3695245,1.1948382,0.40644068,-4.141839,2.145589,-3.0295632,-4.4043303,-1.3718827,2.9178514,-0.02566246,-2.2682,-2.5517397,-5.1601534,-0.67528623,-0.6590704,0.850155,-1.7194308,-1.4325336,-2.0257292,0.25761986,1.5362078,-0.8947995,0.5402684,-0.84440756,-1.2283558,-1.2059939,-1.3992537,-0.45850477,-1.5121841,-2.4409518,-1.182707,0.53700286
archaeon,-2.0961816,-1.4980102,0.79201096,1.1879567,2.1708202,2.4081523,4.1473274,5.4480624,0.8214506,-3.353423,-1.4024764,-0.08629478,4.046727,3.8680234,3.8728607,2.7581496,-1.347153,0.34630814,-2.373161,1.6171399,-0.24497962,-1.8384608,-0.86625135,2.8095746,-1.4273218,1.6771417,-2.9971375,1.0180357,0.117582284,-3.0089917,-3.9908845,-0.0020444451
language,-2.2994845,-0.29062495,1.2306778,-3.8724413,-1.8865752,-5.1073604,-5.820805,-2.9791925,-3.7055378,-4.029333,-3.2172415,-6.024831,-2.384013,-4.3224463,-6.81917,-6.8681884,-2.3793604,-0.07732947,-1.1803147,-1.5658449,1.6807737,1.4392521,1.0376322,-0.7691308,5.214071,4.4985237,-2.7163157,-3.7724879,0.6768961,-1.5572473,-4.0912795,-4.000654
biomedical_occupation_or_discipline,-2.3251987,1.6442755,0.3158547,2.237786,-3.1196797,-1.0848436,0.008117184,0.027554259,0.8808344,-0.5329918,-1.9136515,-0.7641662,-1.5216402,2.5907116,2.186327,0.5738848,0.100024216,-0.3533438,-0.44468108,-0.9658882,-2.6847057,-2.3955708,-0.616661,-0.0021946672,0.07589548,2.487301,4.604851,4.9787602,3.8316638,2.9851,0.46863556,-1.1719238
functional_concept,-1.1925828,-2.3253832,-3.2424598,-1.3487165,2.6448245,0.7354847,-0.37911612,1.6331325,1.5234438,-0.7793245,0.8314436,-2.5153537,-3.3277576,2.401564,6.1667185,5.2228446,1.3742529,-0.15405816,-0.7354274,1.4076922,2.2442176,-0.4357665,-1.5383126,-0.21855868,0.32920435,-0.3158501,-1.533088,-5.2830644,-1.2857058,-0.85239047,1.536796,-0.15267953
machine_activity,4.5038867,4.0609546,0.4065619,-2.680865,-0.7838252,-0.40253234,2.6205935,0.80214924,-0.26127812,-1.6613914,-4.5465426,-7.187907,-1.1398493,-2.9799244,-2.5264583,-2.0120807,-4.3685,-3.4330902,-0.8056484,-2.4702592,-1.945409,1.5381218,2.8139668,2.6947281,0.19111142,0.37570116,2.073133,1.7484394,-0.5284048,-0.62530243,-1.5283962,-4.4659524
entity,-4.801895,1.2470604,1.3915573,2.7082624,0.7125964,1.917579,0.6548339,-0.44804123,-0.44421822,0.044894703,0.65011173,-0.26186603,2.224827,2.3152826,0.75042945,2.2589302,-0.41661736,-1.4369167,-1.2102361,1.7128053,1.2215047,1.1134336,2.581955,-0.35343903,-3.1826565,-0.31576732,-1.0460862,-0.753547,-2.340213,-2.3658965,-0.2467253,-0.49691907
carbohydrate_sequence,1.8423386,-1.9482594,-4.792818,-0.45334443,2.2818906,2.1299236,3.0098348,1.0700868,-1.234343,-4.5463815,-5.141021,-1.1484091,-3.930818,-2.2721407,-1.4688823,0.63798237,0.9057359,2.4395568,-0.47139052,-0.37742668,1.8733948,0.93514663,-0.17292887,-1.263583,4.1831913,1.0521631,-1.2798856,-4.9408135,-0.6460665,0.6330844,1.7236902,0.5833951
organism,-4.3360224,0.4064257,-2.609272,-0.09813511,0.1917569,-1.9805242,-2.7024968,-2.0027604,-3.3461359,-3.7203987,-6.4548993,-1.4844693,4.4229536,3.8207347,-0.39324448,-1.4979525,-3.5044858,-2.671036,-1.9240687,-0.46991,0.8760992,0.8641416,-0.6107312,0.47997573,-0.30102184,-0.39125466,-0.3048417,-2.446057,-2.0692296,-1.2296896,-0.24216905,4.849964
