,0,1,2,3,4,5,6,7,8,9,10,11,12,13,14,15,16,17,18,19,20,21,22,23,24,25,26,27,28,29,30,31
acquired_abnormality,-1.4760586,-0.7245842,-0.6882234,-1.4914329,-0.07429419,-0.6115725,-1.0331277,-1.4892966,-0.6582953,0.4202678,-0.7089522,-0.34339282,-0.2513894,1.6343579,0.19560787,0.47233766,-0.76643914,-1.1902633,0.733659,0.111880206,0.8279071,0.26729062,-0.6062071,0.79220253,1.0396953,-0.1273555,-2.293892,-1.4938725,0.00889651,-0.55064327,-0.7422385,-0.16932851
anatomical_abnormality,1.8190082,-0.15027556,0.024880672,-0.82790023,0.2155181,-0.029003508,0.11149137,-0.5068673,-0.06734682,0.31782657,-0.09695046,-0.07683433,2.3418803,-1.0932481,1.5771532,-0.6536521,-0.95942044,0.5229748,0.16437048,-0.4504711,0.76594687,0.47723386,1.2374754,1.9589211,0.08138295,0.9310765,-0.1821322,-0.5759826,1.4778701,-0.833803,-3.329305,-0.81435573
alga,-0.0073215747,-1.1360608,-0.61534023,-1.0031531,-0.26803967,-0.08854688,1.6009282,-0.019336635,-0.724482,-0.19034529,-1.0597064,-0.8022182,-0.36642572,-0.49413884,0.32862347,-0.98720455,-0.50972646,0.12099945,-0.61688006,0.7927091,-1.3840412,-0.56811845,0.099865995,-0.07946045,0.25250554,-0.45299748,-0.95996934,0.8017533,-0.98776233,-0.43963575,0.27692008,2.0890207
mental_or_behavioral_dysfunction,0.74750686,1.1934375,0.77149224,-0.96117526,1.4408418,-0.7314855,-0.8446313,1.0863307,1.3626257,0.66163963,-0.1483006,-0.07054069,-2.0057716,-0.5812262,-1.3943276,-1.0802991,0.8229576,-0.54978424,1.2576363,0.888559,0.11457004,0.2195492,0.55302954,-0.38977072,2.4830613,-0.21133105,-0.00044047684,1.8029724,-1.9843493,1.7235916,0.16158299,0.2914334
health_care_activity,0.6417664,-1.7444462,0.26308826,1.2002356,-0.25415215,-1.7487266,0.71352774,-0.749746,-1.6329323,-1.7979277,0.5291784,0.7149447,2.2393925,0.6223815,1.657953,-1.7401805,-1.2926494,-1.0224915,1.4646919,0.6752327,0.52988636,-0.5080404,0.55009,-1.6040114,0.44126758,0.17312068,0.3262825,1.3972781,1.6737713,1.8009821,-0.6529955,2.62603
population_group,0.36130825,-0.1579329,-0.89853185,-0.47630912,-0.5684382,-0.92305547,0.8053354,1.0430281,0.33605736,1.4741976,1.2607858,-1.8729055,-0.35058117,-1.0149361,-0.06110349,-0.093758605,0.9085585,1.1103128,0.5829535,1.6754014,-0.9087718,0.08594104,-0.07535627,-0.30444378,1.7160918,-0.25072613,0.18169938,1.4030753,0.15928191,1.1632253,-0.2867179,1.0367725
clinical_attribute,-0.61775696,0.9087322,1.744148,-0.2664939,0.5573383,-1.8273848,-2.9082181,-0.62285477,-0.6095753,0.79810894,-0.97351474,0.5226756,-1.4887955,-0.16860808,0.7479005,0.09252734,0.8968202,1.1209558,-0.46117145,1.3463297,0.25918022,2.0216165,1.8199921,1.3511102,-0.9385148,1.1961725,1.1761664,-0.4971284,0.1593815,-0.5475037,1.5003628,1.8253909
body_part_organ_or_organ_component,1.7056644,-0.46680534,-0.34057745,-1.5110676,1.3085078,1.3400596,0.5072777,0.42531124,-0.054917984,0.28982344,0.86001027,-1.3255448,1.6629587,-2.411725,-0.8589612,0.22709708,0.14336768,0.8938426,1.5569277,-0.5342795,-0.6768432,-0.16088217,-0.30979428,-0.054427,0.2874414,-0.54166025,-0.56177646,0.9952905,-0.1769397,-1.1212566,-0.021210093,0.49153832
biologically_active_substance,-1.1950008,0.87163556,0.10845539,0.82054,2.391839,0.9626829,-0.40291467,-1.7014923,-1.252981,1.4775707,-1.1542327,0.7665173,-0.6129305,2.0005786,-0.51733905,-2.4357686,-1.1910825,-1.1169963,0.7748781,-0.44084576,-0.26159152,-0.018267164,0.8046357,1.0576291,0.8230907,-1.8305651,-0.34625036,-0.65327686,0.28200725,1.0815302,0.31314954,-0.64890254
disease_or_syndrome,-0.20096153,-1.3678813,0.19058195,0.21979642,-1.59169,-1.0561597,-0.77978736,-0.4613938,0.9702285,-0.09409152,1.0992726,0.58761406,0.850168,1.2747344,-0.768372,0.5432381,1.0144904,-0.31482357,0.116246685,2.3622758,-0.58520854,0.7824327,0.22763713,-0.3045603,0.23631929,0.7246969,-0.191669,0.11933634,1.1189498,-2.194232,-1.012227,-0.88920826
carbohydrate,0.6371416,-0.8332773,0.13690907,-0.31940374,1.4688379,0.5188851,-0.64405096,-0.805854,0.7184894,0.7965014,-0.96749103,-0.7688575,-0.72872657,0.69593495,0.05298743,1.0648303,-0.5381771,-0.51396465,-0.53469366,-0.060256038,0.72942305,0.08276746,0.15495108,-2.3967228,0.36464256,0.5028454,1.2534935,1.1762986,0.14017035,0.47268662,-0.42741615,-1.8708234
molecular_sequence,0.20840743,0.7768362,0.6917903,-1.7932979,-0.8484721,-1.5046039,1.5564443,-0.07528232,0.8659352,-0.027249679,-1.799696,0.9599148,-2.6372395,-0.18750766,0.35342574,1.1209427,-0.4988033,0.9303533,-0.080828376,-1.3399497,-0.9219861,0.7958039,1.2075552,-0.9130846,1.3605746,-0.37516627,-0.14841005,-0.61100966,0.6900409,0.4231327,-1.0232477,0.94860107
steroid,-0.61520076,-0.20396608,1.5971829,-1.3399098,0.85379153,-0.63261336,1.1868387,0.57225007,-0.19478309,1.747819,-0.055852164,-0.03225313,-0.55698764,-0.6971192,-0.38044262,-2.1220317,0.4965762,-1.4859827,-1.0000646,-0.005089585,-0.26739874,0.12595227,-0.3668807,-0.20503442,-0.7370804,1.1876136,0.71201193,-0.40760735,-1.0140157,0.3158428,-0.7981829,-0.6079831
experimental_model_of_disease,-0.49785212,0.37792963,-0.38460508,0.6127615,-0.4002845,-2.411315,-1.241021,0.028052317,-0.13102718,-2.2832384,0.6674503,0.48142025,-0.23324423,0.637644,0.38281703,2.2001395,1.0225233,1.4736029,1.5523793,0.1121454,-1.4847833,-0.033209287,0.1863512,0.6110069,0.62650234,-0.23748584,-0.01977194,-0.53728116,-0.3355213,-1.1995646,1.9555757,-1.8068221
patient_or_disabled_group,-0.06656176,0.15900862,0.3220058,0.22095187,-0.49039933,0.93464684,1.8071405,-1.0332162,0.8255199,0.2886823,-1.3905455,1.6055138,-3.213082,0.42200086,-2.1500363,-1.5096402,1.0608696,1.3417172,0.54185426,0.83748674,1.1029453,-0.307791,-0.41452274,0.6328375,-0.25758803,-0.8215925,-0.14729965,-0.44618103,0.10516502,-0.66095984,-0.94375944,0.6492322
professional_or_occupational_group,-0.45600516,0.04127016,-0.53640395,-0.5984817,0.7741052,0.78207904,-0.48932078,-0.44146276,-1.4439709,-0.6491814,-1.1337652,1.3761075,-2.166421,0.35843527,-0.15652709,-2.478923,-1.6302452,0.27515614,-0.21538407,1.3570915,0.13313453,-0.38035995,0.1358469,-0.57529116,0.99871135,0.64446443,0.60173523,0.4797524,-0.5224552,0.2336223,0.25791246,-0.46745327
nucleic_acid_nucleoside_or_nucleotide,0.48912528,1.2628559,-0.27890244,-5.1161118e-05,-0.06802668,0.5550105,-0.21367769,-1.3007176,0.094008,1.4933541,-1.8218334,0.13176018,0.47752672,0.33256125,-0.7348247,-0.20510915,0.4176663,-0.5769338,0.7945799,1.2536345,0.19594377,1.0558238,-0.08056602,-0.3025238,-0.7278912,-0.05850827,1.268806,-0.5352436,-1.4849237,0.9667449,1.1299002,0.4566704
organism_function,0.271841,1.1741229,0.044543996,-2.3050766,0.59707916,-0.33557066,0.43813422,0.29156497,-0.59259397,1.0924193,0.4820568,-0.91734415,-0.44972533,1.679514,1.1454421,0.7913194,-0.5738958,-0.92150646,0.7130059,-0.6788726,1.1368594,0.7425486,-0.3625907,-0.6371163,-0.5865878,-0.009279173,-0.7928844,0.25474256,0.8980628,0.8223442,0.4331648,0.5414764
mental_process,-0.8834617,0.436628,0.23840757,0.40947497,-0.18702136,1.0311745,-0.841508,1.4713199,-0.8179995,0.7468068,1.4899347,-0.9101664,-2.0488942,-0.78252375,0.25320628,-1.883953,0.8838841,-1.4313607,0.95221996,-0.5830178,0.18826053,0.8960243,0.29618672,2.9432058,-1.4853573,0.31692415,0.016440112,-2.691086,1.2431855,0.234627,-1.0464289,-0.52878076
therapeutic_or_preventive_procedure,-0.31676245,-0.26610658,1.1792417,-0.48092955,-0.94627106,-0.532381,0.85608834,-1.777475,-0.5314725,-1.5977446,-0.5427646,-0.76518124,-0.37752765,1.2342073,-0.9623408,-0.77456105,-1.8553718,-0.5083583,-0.20593521,-1.5134593,-0.9446473,-1.1038498,2.0800395,0.35413572,-0.20106836,2.766562,0.8719818,1.0959692,-0.015715884,2.1226587,0.31107453,0.78076863
cell_function,0.98454684,-0.55513656,1.1115903,-1.0033773,1.6681582,0.047863968,0.13185678,0.89318454,0.4141108,0.7474758,1.56716,-1.9336592,0.8649703,1.5492537,0.3327051,2.5408945,0.48186982,-1.9626256,1.1221861,0.8517238,0.07344532,1.615419,-0.1995855,-0.19660892,-0.65369713,2.241111,-0.2430778,1.2652447,0.08393208,1.724997,-1.0076263,0.19834086
pathologic_function,0.18543085,1.0583214,0.64115983,-0.29010507,-0.6621795,0.47758955,-1.0463986,-0.13346286,-0.31413314,-0.8200742,0.8695157,1.4556489,-0.31496534,0.043323364,-1.5460881,0.68993807,-0.20358735,-0.2470069,1.063358,0.34524512,0.26124194,0.23573144,-0.24714258,-0.005334544,-0.82602566,0.5306579,-1.2104872,-0.45272154,0.36210054,0.85839534,0.57787097,-0.21854654
organ_or_tissue_function,1.0209544,0.016683297,0.44215822,-2.765399,-1.6102762,-0.08783892,-0.9905156,0.20698775,-0.4881644,0.8834027,1.697985,-0.1794665,1.258461,-0.39678442,-0.4163591,0.9256759,-1.8706878,-0.56454325,1.4150212,0.42530906,-1.6251807,1.0176361,0.28341854,0.03635546,-0.3785289,1.6553276,-0.35808757,-0.08524047,0.5103217,1.5914513,-1.3505938,-0.88295484
enzyme,1.5725738,0.1975308,1.0691147,0.67616576,0.15146142,-0.41336948,0.764482,1.0988679,0.70005614,-0.5983744,-0.9386974,-0.50037026,-0.30098653,0.2659091,-1.4343274,-1.0363917,1.2501876,0.21779327,0.5696659,1.7167566,-1.5152647,-1.5156546,0.35822624,-0.66853696,1.3123349,0.5071621,-0.6151267,1.0599277,1.3805792,-1.0572535,0.801275,-0.6168976
cell,-1.0427341,0.05964824,0.13121547,0.110952124,0.05317513,-1.571014,-2.674067,-0.8419057,-0.37367764,1.6475117,0.5346331,1.375636,0.36122778,-0.9623493,0.9613704,-0.25504166,-0.55697906,0.12512161,0.39233732,-0.37411326,1.4130762,-0.6173544,-0.13963655,0.343659,-0.020815667,-0.678716,-0.14885986,-0.31965953,-1.8892393,1.4222391,0.09800872,1.0590392
cell_component,1.3585737,-0.08172888,-1.755218,0.9461748,-0.279703,-1.0196035,-1.0123351,0.2921897,0.30983004,2.5057685,-0.7662877,3.4032614,-0.77095824,0.29362836,1.0297847,-2.1020117,-1.9001341,-0.67510754,-1.1856422,-0.891686,1.3226737,-1.3060615,-0.30198765,1.0724761,-0.7087789,2.8606362,1.1936013,0.82270336,1.7936422,1.8081183,-0.6867224,-1.2126269
cell_or_molecular_dysfunction,-0.29232892,-0.09078667,1.4672484,-0.8787242,-0.793674,0.12732136,0.78644484,-2.067362,-1.150959,0.08909963,0.67881626,0.0022160362,-2.1902032,0.06742748,0.396867,0.09303189,0.84156823,1.4805526,0.08929475,1.0216175,0.17815359,-0.88747376,0.053413093,0.8462943,0.4952709,1.1444645,0.15806313,0.42217407,-0.4418037,0.4065688,0.7547552,-1.1183741
hormone,-0.88021284,-1.5332206,-0.85499895,-0.18116675,1.1604333,-1.5313894,0.09114196,1.0160387,-0.6370158,-0.55793697,0.1272396,0.40444568,0.815474,-0.9774889,0.19009402,0.5872045,-0.8440926,-0.065115765,0.23997742,1.4335275,0.25861648,-0.13786338,-0.63555795,0.26669535,0.036177766,-0.5914633,-1.3737922,-1.3901389,-2.165013,-0.5749529,1.6501801,1.8635032
organic_chemical,0.5542241,1.8589147,-0.92130613,-1.1428002,0.3281203,0.2868658,-0.500432,-0.12751994,-0.58927256,1.3452543,0.38347617,0.27366108,0.15275148,-1.0592678,0.8823265,-0.65997136,-1.4622049,-1.005064,1.3348098,1.3808266,-2.320986,1.3085239,-0.5571318,0.39966395,-0.79172146,-2.272701,0.2772784,-1.4546529,-1.1863309,0.36629286,-0.9013599,-0.88571507
behavior,-1.061404,-1.9032977,-1.1278238,-0.15374868,0.58163524,0.8337154,0.39971134,0.2717329,-1.005435,1.0872873,-0.09872918,-0.34579375,0.95940053,-1.7510186,-0.6305246,-1.527697,-4.01282,1.1760854,0.5695802,-0.9688317,0.90374404,0.95118093,-1.3571277,-0.12168276,-0.45484498,-0.12796077,0.38507226,0.6476173,-0.058383342,-1.2100925,-1.7788904,0.67400473
neuroreactive_substance_or_biogenic_amine,0.99704057,-0.12962016,0.12890738,-0.20624168,-0.24949248,-1.3502467,-1.1350967,0.86890477,-0.49925348,0.29255313,-0.11545076,-0.038625356,2.8470242,1.6707008,0.9400691,0.24964763,0.60431427,-0.96245664,-0.7119728,1.817937,0.9591674,0.3119255,-1.3059322,1.8719317,1.2742368,0.28492942,1.3490077,-0.59475005,0.40364146,1.722232,-0.4298085,-0.6126714
embryonic_structure,-1.4979155,0.0931257,0.10326144,0.072691165,-1.3344165,-0.19454885,-0.017456163,-0.15211107,1.165318,0.074444756,0.4234569,2.906874,0.16566558,-0.38377878,-0.86124325,1.5032777,-0.4517358,0.48990178,-1.9718477,3.1080732,3.0184202,-1.5191243,-0.49362412,0.556219,-0.90898204,0.22694448,-0.33612785,2.0386958,-0.08621059,0.24248756,0.9480547,0.98969746
neoplastic_process,0.83627266,-1.1481322,-0.29328996,-0.3721486,0.24455172,-0.92204744,0.47651282,-0.74246943,-1.0018595,-0.6988164,-1.2209208,0.5592856,0.12436051,-0.75252104,0.8061917,-0.2606948,-0.5948517,-2.0844681,-0.09859872,2.1901078,1.9038476,-2.0611947,-0.22694787,-1.2947341,-0.010490226,0.0103879105,0.62412393,0.5305392,-0.48863953,-0.26635045,-1.8110124,-0.14371318
laboratory_procedure,1.4502269,-0.5716981,-0.48994368,1.3075162,1.5170691,-1.6458912,0.13493222,1.1031567,0.33938202,0.19251604,0.029042598,1.6199292,0.017075565,-0.08622043,-0.018612195,-0.37693366,0.59573555,-0.8449397,0.4413259,0.28209698,0.8830408,-2.4680333,0.8145476,1.136218,-0.02654316,-0.6066478,-0.16635658,-0.3316985,-0.2038814,-1.4804707,0.5714744,0.57924795
natural_phenomenon_or_process,0.6755207,-2.0696504,-1.2242808,-1.406003,-0.21492289,-0.2282508,1.5490624,-1.0383053,-0.026891142,0.7517569,1.1703849,0.012727387,-0.4658314,-0.53431475,1.5435029,0.11319661,0.5014518,-1.6778564,-1.7068944,1.735685,1.3271767,1.6240553,-0.10398733,-1.2372779,0.6023104,-0.76671994,0.0034986844,0.06384731,2.0912633,-0.003910262,0.061161134,-0.7239806
immunologic_factor,1.1848854,-1.1246244,0.9371348,1.290234,0.84139,0.75574684,0.28521758,-1.3143083,1.6689966,-1.8295287,-1.8927249,-0.71847546,0.035564627,-0.5224468,0.5915586,0.3702277,-2.1068902,-1.3219521,0.36531416,-0.21433923,-0.21204026,1.8269833,2.3984303,-1.1193382,-1.3412718,1.2054517,0.9566911,1.8567029,-0.04591849,1.1474376,1.663597,-0.41790962
receptor,0.4816172,-0.013760857,1.042827,0.28671223,-0.97707987,0.9293279,0.48633263,-0.5510212,0.3957508,-0.78908664,-0.42231947,0.6859703,2.3019836,-0.11612241,0.589283,-0.77861786,-0.09557585,0.2967638,-1.110225,0.14924015,1.7838228,0.9273817,-0.22725914,-0.25117052,-0.5515523,-0.013639277,0.6242312,0.62506884,0.101514265,-0.07602139,-1.2143055,-0.7689078
self_help_or_relief_organization,-1.308529,-0.37728068,-1.4518319,1.2208802,0.83470523,-0.36871523,-1.8885747,-0.5541286,0.0372844,1.7144561,-0.35573426,-1.0227168,-1.5916061,1.3213611,1.3683578,-1.7793303,0.9139592,2.460349,0.9243256,-0.6167662,1.2038105,-0.22572571,0.3299556,0.2881694,1.197577,1.0918202,-1.331988,-1.2340653,0.7742958,-0.0003790536,-0.82832295,-1.2237864
pharmacologic_substance,-0.07714649,0.11635592,-1.244559,-0.2909097,-0.31445637,0.11417915,0.76873595,1.0755857,-2.482396,0.77230227,1.1180834,0.32284597,0.93235207,0.5945368,-0.77730674,-1.4004384,-2.0625007,0.3748201,-0.61161846,0.74296397,-0.48790497,0.5697761,0.5805429,0.4700563,-0.91020805,0.73750585,-1.9881511,0.50986683,0.87585294,0.84504825,-0.9545708,-0.7313487
molecular_function,-0.448825,-0.7324445,1.5427269,-0.9834119,-1.1999906,-0.550888,-0.34669155,0.68691415,0.29040965,0.041535884,-1.8410152,-1.0264617,-1.5862349,-0.06957058,1.5658882,1.7912208,1.7602363,0.19775717,0.4544119,-0.013993666,0.5353986,1.1412508,0.47455105,0.37779236,-3.292995,-1.0408142,2.3107445,2.1515512,0.58004844,0.5012687,-0.8676457,1.0590292
regulation_or_law,-1.1233376,-1.1214278,0.7242501,-1.0630426,0.9515396,-1.3010654,-1.9156008,1.1395155,-0.014347596,-0.4483343,-1.1841908,-0.45547053,-1.412034,0.43776956,-0.10639117,-0.71953523,-0.21465439,-0.3543216,-0.5069106,-0.1291989,-0.61606884,0.511393,-0.9498624,1.3068851,-0.11091881,-1.1343898,2.4513743,-0.6734039,0.80048275,-0.9753336,1.265289,0.6258131
human,0.7249563,-1.7359258,-1.1667798,1.2495279,-0.8387719,1.2057985,1.1291817,0.2534139,0.89160126,-0.25644088,0.31991938,-0.10870074,0.76069283,-1.2003258,0.5324422,0.10702121,-0.644841,-0.59830767,0.9238848,-1.0315355,0.097047895,1.696918,0.6070758,-1.3216778,-0.87324363,0.29805577,0.41251597,-0.6891259,0.44692686,-0.74142677,0.26046953,1.5859402
eicosanoid,0.3709259,-0.5758631,0.79785824,-0.98745954,1.1110854,0.95475316,-1.2237856,-0.7412473,0.73252416,0.32848352,-0.16173142,0.46726468,0.60831434,-0.85452986,-1.1195394,-0.49696797,1.2450602,-1.3699476,0.21926083,-0.7148873,1.4905746,-0.89394206,1.7883694,1.803328,-0.3310079,1.3171718,0.8098513,1.8339076,2.310503,-0.06946112,-0.16802396,-0.24491616
amino_acid_peptide_or_protein,-1.9858905,0.7253803,-0.18512742,1.4969511,1.520314,-0.36197212,-0.7244227,0.044297054,0.15938449,0.9893438,1.1203488,-1.0418727,-0.85304546,0.96197295,0.6086135,1.5969559,-0.71952164,-0.36973786,-0.008627966,0.54782254,0.2291829,0.35182065,1.0466682,-0.15396233,0.40828604,2.5527673,0.38742867,1.5344815,0.2240315,0.65368116,-0.08341679,1.1952486
group_attribute,-0.3675498,-0.47035486,0.46905336,1.7012191,0.0385201,0.08463337,-0.3638763,-0.46117198,0.0663599,-1.8807627,-1.5030165,0.87076014,-0.11799572,0.13033679,-0.44320428,-0.6760827,0.640126,-1.4362615,1.0723051,-1.7481349,1.444289,0.6708992,0.057629652,0.4659596,-1.2508004,-0.3098457,-0.19663483,0.5878201,-0.0022522155,2.3322546,-1.3001503,0.47476134
organism_attribute,0.51958925,-0.794766,-1.7051587,0.061806984,0.054946825,-1.634907,-0.4655791,-1.4808867,1.903165,1.0722829,0.018993722,-0.3519979,-0.13649191,0.4066177,0.68496305,0.1533084,1.4827172,-0.035585623,-0.76112974,-0.29984012,-0.9973853,0.43655947,-0.55150723,-2.2122676,0.6901936,0.34499678,0.42277262,0.010894942,0.7625906,1.0606489,1.6912841,0.17886505
finding,-0.25808674,0.583901,1.4343542,0.5173406,-1.1481042,-0.37679365,0.09203842,0.8137572,2.0984488,-0.75201035,-1.1888837,0.05827224,0.34317318,0.20821853,0.18796508,0.9686546,-0.89209753,1.5994424,-1.3325824,-0.9878853,-0.5978728,-0.44475394,-1.1098114,0.61249566,0.15407473,0.4887666,0.13033292,1.595278,0.9403821,1.5700903,0.90917283,0.67735606
congenital_abnormality,0.6597529,0.6101939,0.9868063,-2.0424457,1.5330465,1.449739,-0.8355521,-0.41046777,1.0307432,-1.0441788,-0.17663085,1.0460601,-1.237077,-0.25184846,0.22759908,1.2948107,1.0972799,-0.66036236,-0.13669886,-1.152502,-0.16523227,0.2703977,-1.04394,-1.1944948,-0.46753648,1.0976776,-0.05991747,0.38831013,0.82098705,1.8935398,-0.046078816,-1.643708
anatomical_structure,0.7538018,0.61255205,1.6910034,0.99612,0.7962477,0.42531264,0.4172638,0.19212271,0.8569459,-1.0730621,0.6751146,1.0155743,-1.3313242,-1.311828,0.05300603,-0.5680427,0.49150103,-1.2908401,-0.42655733,0.1717434,1.4285438,-2.0461814,-1.7213292,-0.08983919,0.8464985,0.19425873,-0.5868151,-1.090072,0.011424619,0.4726206,-0.24190423,0.67247385
molecular_biology_research_technique,-2.0513568,-0.69423044,0.29541266,0.45451266,0.58190966,-0.4852736,-1.3127171,2.2995648,-0.317315,0.6784482,-0.0914585,-0.5088913,-0.96354735,-0.15562327,-0.21239172,1.9378154,-1.0431455,-2.5162945,-0.42073658,-0.29220983,1.3831807,-2.3208497,2.1603086,0.5762876,-0.68534446,-1.3802997,1.2508589,0.100322895,-0.9718045,-0.7291438,-0.33942387,0.99468476
diagnostic_procedure,0.27483532,-1.1635178,0.6444162,0.9857114,-1.6344595,0.30284473,1.4611269,-2.2218666,0.99923444,0.1900204,-0.030657336,1.9113076,1.007975,0.5494953,-1.8900793,-1.2251908,-0.021552034,-0.6870183,0.4242201,-0.051444255,-0.9797368,-0.15834768,-0.22106627,0.95853835,1.5934429,1.9238749,-1.0079019,-0.116740815,-0.8185372,-1.1068947,-1.459645,1.2946041
biologic_function,0.06755236,0.404592,0.03848221,-1.2920077,0.12376857,-1.8817314,0.14759314,-2.454392,1.2210503,-1.2811819,-0.095819965,0.59661525,1.2285731,0.9835676,0.12690523,-0.9084686,-0.55575246,0.91375214,0.65379965,-1.7768592,2.1495752,-0.45221335,1.560694,-0.94236094,-1.4116871,1.1293432,0.25621876,0.09760273,1.2034366,-0.89388627,-0.2610725,0.5894266
tissue,1.0115286,-1.1947762,-0.8334243,-0.20856045,0.5555531,1.2366197,-0.06229586,-1.0789889,0.6121241,0.31475636,0.083225794,1.0837511,-1.2999709,-1.743325,0.436677,0.57181764,0.7578594,-0.6492657,0.20057389,-1.6172837,-0.3053915,1.4423794,0.008551076,-0.117942974,-0.49822053,1.0329359,1.5273877,-1.9091295,0.08239106,0.48410007,0.6110927,0.36019346
hazardous_or_poisonous_substance,0.47100258,-0.44670945,0.15954474,-1.6628357,-0.44438598,-0.1766484,-2.1130362,-0.6714651,1.0683037,-0.48304412,-0.17688575,0.6406395,0.14911793,-1.121504,-0.81263804,-0.48359853,0.513099,-0.6358924,0.57256556,0.85329807,-1.7300143,-0.8254487,-1.1850955,-0.19645667,-1.6397129,-1.6120092,-0.18497191,0.28916883,-0.8704947,-0.897539,0.8260239,2.8148558
chemical_viewed_functionally,-1.127468,0.48136872,0.123793304,1.9960519,-0.7331278,0.9021283,1.5046104,0.7424575,-0.6466795,0.05892509,-0.87896913,0.7632948,-0.2861994,-0.030977653,0.7369277,-0.60537446,0.42582476,-0.4190873,-0.9145488,1.7786852,1.1356186,-1.2942753,0.64386845,0.47453904,-0.48731545,-1.104984,-0.92836094,1.8348333,0.8438238,-0.9436156,0.63440025,-0.66913253
reptile,-1.7770301,0.4520711,0.587859,-0.71532774,-0.7009465,0.50433135,-0.20229766,-1.0522826,-1.2465036,-0.7109631,-0.4214641,-2.8588965,-0.42163265,-0.07503327,0.4501935,0.62819946,1.8579531,0.63494784,-0.23354173,-1.2866691,-0.004066991,-0.8425731,-0.034297112,1.4471531,-1.16235,0.5447941,1.6404124,-0.12091919,-1.5760341,0.48746684,0.33455217,-1.2646829
family_group,0.519377,-1.3353262,0.18590118,0.8264749,0.8494369,0.022099636,-1.5103368,-0.5925932,-0.6837738,-2.074694,1.1038084,-1.4965215,1.1635973,-1.446156,1.2880355,-1.0111184,-0.06865165,-0.52744484,0.7661226,-0.71840465,0.20666891,-0.14156854,0.6525673,-0.060223807,1.0252889,-1.3120174,-0.15152265,-1.3342966,1.675774,-0.094281435,2.2396033,-0.39206308
virus,-0.822327,1.1714448,0.5840478,-1.3182188,-1.1890348,-0.06485825,-0.46106675,0.07665839,0.85828304,-0.39389768,0.041802295,0.8977478,-2.4577117,-0.52359647,1.4844708,0.7958296,1.0828807,0.059404235,1.0778391,0.22858217,0.42657065,0.96455175,0.31793743,-0.259502,0.9287607,-0.24124293,-0.66527593,0.63115543,-0.84462893,-2.1429932,0.12155388,-0.66576165
indicator_reagent_or_diagnostic_aid,-1.4055982,-0.97765774,-1.8618292,0.35744706,0.803515,0.5357092,0.00514562,0.14626063,-0.8210618,-0.25167963,-0.36158907,1.0300999,-0.58263856,1.6508539,0.2202596,0.0057137036,0.07445789,0.10241412,-0.19132471,-1.8056157,0.9042778,-1.4200151,2.4552438,0.24459007,0.008523939,-1.3208375,0.73254454,0.40925664,2.6375408,-0.36464694,0.2753962,0.6207131
sign_or_symptom,-0.15845482,-0.67550534,1.1062135,0.36650154,-0.7554092,-0.14886847,0.33092368,1.1606483,0.2587485,0.80511886,0.3581715,-0.050133392,-0.2003095,-1.8564463,-1.2562308,-0.4901332,0.4336898,0.22934212,0.3710424,0.6171172,0.28023586,1.4495618,0.2217824,-1.4882983,-0.40578258,-1.4927979,0.19634627,-1.4069794,0.592625,0.3000584,-0.44601935,-0.8131379
antibiotic,0.4008262,-0.2005066,1.4256399,-0.6996879,-0.20724943,0.2573272,-0.25042674,0.9060683,0.8427648,0.4207522,0.120823264,0.30879784,0.4185212,-1.0531307,0.22486448,-1.44799,-1.287807,-1.2709253,-0.8097064,0.416001,0.4745524,-0.38002467,0.6585517,-1.6616962,1.9809602,0.23449394,-0.19771235,0.18892008,-0.29232147,0.747025,0.3028469,0.13440515
chemical_viewed_structurally,-0.27157673,0.6078229,0.51632214,0.559977,0.1500369,-1.5850376,-1.3653698,0.8138009,-0.12570992,-1.2106818,0.25914624,0.91558653,-0.8596976,-1.3474215,-1.646126,-3.2135837,0.24768005,0.77888644,-0.883458,-0.50186795,1.3301764,-2.1629002,-0.5995168,0.6172648,-1.849826,-1.369193,0.115818724,0.7938267,-0.056135416,-0.3797122,-0.84044015,0.80298656
body_space_or_junction,0.04747382,-0.006135215,0.6040625,2.2631795,-3.0632586,-0.98613304,-0.087980226,0.0788997,-0.5553255,0.0023283511,2.07702,-1.3321415,1.0466857,-2.1885982,1.1524575,1.5950067,0.44001323,-0.9659687,1.7476507,1.572295,-0.7780273,3.0595968,-0.48448297,-0.1398707,0.9361867,-0.6272427,-0.49350238,0.9185177,-0.6965225,0.8956568,0.39028743,1.1701195
amphibian,-1.0582492,0.2158328,0.22678125,-0.10271211,0.44329596,-0.8487562,-0.69750065,2.0403864,-0.4568936,0.4505769,1.3231305,0.29072577,1.2618858,-0.27128124,-0.08353863,-0.9444053,1.0928649,0.28557125,2.0131686,-0.833848,-0.46056226,1.930839,2.1755533,0.42049307,0.7134554,0.69526076,1.0365225,1.1872853,-0.96513003,0.4728683,0.10236525,0.11886653
health_care_related_organization,-0.2585704,-0.0022123426,-1.3939167,-1.622955,1.205911,-0.1576234,1.238706,0.3361569,-0.6134148,-1.9332919,-2.0013444,-2.8687475,0.17283884,0.31590205,2.7060194,-0.46148074,0.48633048,1.1474042,1.5104048,1.93207,0.25547454,0.19962345,-1.8288723,-1.4399418,0.43987826,-0.5430284,1.8387363,-0.9250313,-0.34716758,-0.30067593,1.1906335,-0.4652586
fish,-0.2084696,1.1218741,0.588807,1.1437311,0.10625932,-1.9156085,-0.46858978,-0.48199973,-0.3037946,1.3202666,1.0076587,1.7088367,0.82102,-2.1346443,1.9299393,0.8989735,1.0503796,-1.3194393,-0.51112616,-0.3691429,0.5306341,-1.4471151,-1.8683962,1.8445574,1.6033776,0.39509562,-0.43984202,0.81094724,-0.878562,0.49858794,-0.7289187,1.0236385
physiologic_function,-1.932279,-0.1904034,0.8037927,0.36540347,-1.7835995,-1.1666036,-0.7948807,-0.29892388,-0.47767854,-0.52090365,-0.86475927,-0.33925873,1.0258166,0.45438752,-1.3090017,0.3403953,-0.7108935,0.35845625,0.1670799,0.45031378,-1.3044608,-0.41313615,-0.87871,-0.17762695,0.4104972,-0.006609101,-0.05701622,0.49973404,-0.005089276,-1.1989195,-0.97087103,1.3161913
animal,0.06487307,-2.0268292,1.2060857,0.7465664,1.5249033,1.6154469,1.1117716,0.24656111,0.30086443,-0.754473,-0.1302881,-2.3006837,-0.49216473,-0.3679446,-0.90130043,0.9068794,0.5934545,1.2089372,-0.687221,-0.77397096,-0.1628774,-0.06370732,-0.8222172,-2.8383584,0.4799649,0.10476089,-0.35879576,-0.65163875,0.7532441,2.3826427,-0.9917631,-0.3804113
injury_or_poisoning,-0.9831608,1.3679955,-0.75531405,-1.0864674,-0.27138796,-0.55383307,-1.0836648,-1.3085496,0.13276495,1.1179415,0.019784924,1.945563,0.4734884,0.47540575,-0.97058886,1.1448268,-0.17246932,0.2458357,0.034780618,0.055140678,1.1054224,0.32614595,1.9305909,0.75547695,0.597344,0.636515,-0.4642538,0.002773718,-1.1138943,1.7030169,0.35022292,0.88809216
lipid,-1.8681216,1.874437,0.7871953,1.2364125,0.9807436,-1.1857556,-1.8276902,-0.43417338,-1.1158963,-0.51710045,1.0899009,-0.06844031,1.9765549,1.3476849,0.17553808,-0.5045898,0.22431639,0.6591615,0.0880005,0.6749912,0.3681204,0.062004954,2.757302,0.09311659,1.3457737,0.06761336,1.6994097,-1.1585209,-0.9372733,0.13083006,1.8870467,0.78108275
plant,1.1700584,1.3970909,0.34257796,-0.06288058,0.34063467,-0.47189566,-3.1703174,-0.5825007,0.82413524,2.1450653,-1.1127634,-0.7992031,-0.9098683,0.13721672,2.3095345,-0.9636529,-1.0564755,0.8979791,-0.76409507,-0.68405455,0.3777131,-0.2580433,-0.5881124,0.818213,-0.6030002,0.05705418,-1.1616207,-0.11903708,0.32038483,0.8764868,0.3402133,0.99144256
organization,-1.2603402,-2.0168245,-0.76525795,-0.83515,0.9037196,-1.9822236,0.51213473,-0.1748348,0.07518747,-0.3078611,1.6760492,0.27983612,0.6201218,-2.89031,0.8074208,-0.375696,-1.3699404,-0.33170193,-0.55793214,1.0632124,0.16635391,-1.4755569,0.98253053,1.2227952,1.6012961,-0.59027565,-0.7321349,0.76859134,-1.2543473,1.1355282,-0.3013004,0.081560776
genetic_function,0.9546579,-0.48113027,0.10650293,0.27291492,0.6580547,-0.3916988,-0.44401902,2.0184338,0.39963046,1.5828365,-2.0246456,-1.1218082,0.20328209,-0.22874056,-0.09064497,-0.50517046,-0.7959729,1.0166652,0.93865424,1.5189211,-1.1333575,-0.6623628,-0.7147575,0.6498647,-0.91906005,-1.3411187,0.76619554,1.9174191,-0.050647344,0.040641338,1.126167,-0.42575815
gene_or_genome,0.7816197,0.93102515,-1.3289552,0.9589876,-0.065214895,-0.4297828,-0.58981353,1.3331201,-1.2856854,0.2584617,-0.19264875,-0.29037386,-0.6642668,1.5574585,-0.17946906,0.30566272,0.4177788,-0.7677339,-0.027191948,-0.7692876,-1.210553,0.52936125,-0.81879026,-0.30917645,1.3419884,-2.1813304,-2.3932586,0.9528489,1.0426955,0.8993513,-0.33065158,-1.0701566
laboratory_or_test_result,-2.499177,0.08296908,0.2258235,0.33453074,0.8078481,0.8828031,-0.999725,-1.3025233,0.97402793,-0.15205401,-0.24493268,1.1080995,2.4375095,0.756751,1.0095268,0.11079644,1.369685,-0.13364333,0.098688245,-0.0903323,-0.6127963,-0.78279555,1.6697974,-0.37153792,1.7323947,0.03931294,-1.9457476,0.7455,-0.96522695,0.8211852,0.34082058,-0.18960904
spatial_concept,-0.66525996,1.2805609,1.6562138,-1.7174883,0.4352988,0.21658152,0.13363753,-1.0757872,-0.8449499,1.1195521,-0.9933747,0.5580401,1.7162489,-0.46235117,-0.02363147,-0.6448079,0.82078445,0.046681624,0.14362259,0.036057603,-1.5708599,0.81211025,-0.48615795,-1.4822991,0.4401362,1.3216728,-0.4908637,1.7634889,-0.97950757,-0.48874235,0.12714878,1.2671355
rickettsia_or_chlamydia,2.2714891,1.1008643,0.76238424,-0.60392916,-0.39758077,0.63782674,0.063282736,0.4058284,1.3739454,-0.5976929,1.268134,-0.69719243,-0.30380043,-1.1730069,-0.6770415,0.6145463,-0.5436715,-0.42449847,0.3383019,0.9067306,0.021424055,0.6220681,-0.58635575,-2.2073631,-1.4923321,0.7139051,1.1914463,0.16383386,0.42549422,1.3183253,-0.11781194,-1.9806734
body_substance,-0.70480216,-0.6970491,-0.58919007,0.32127088,0.4780103,1.1210674,0.035540797,0.3322842,-2.2226272,1.1378678,0.8620725,0.77821815,0.9335712,1.2768757,0.13232371,0.1297751,-0.71901673,1.794703,-0.12571898,2.0316415,-0.33194122,-0.6350327,0.0069570313,0.3531438,-0.15914863,-1.1148422,0.76168054,-0.47492284,0.062023137,1.125961,-1.0728655,-0.26513222
intellectual_product,2.0868056,-0.34750563,0.22503977,-0.27475396,0.7587526,-0.60067374,-1.4865648,-0.14826727,0.94006354,1.73341,0.35062024,-0.86370975,0.89332134,0.5152737,-0.5853805,-0.9090738,0.0488167,-1.5483552,-0.015101918,-0.52188593,-1.5350083,-0.6741983,0.83152443,1.3049866,0.4479028,1.1473763,0.56892186,0.084383905,-0.0889062,-0.009152181,1.667061,0.7327556
element_ion_or_isotope,-0.1436294,-1.1484747,-1.2026846,0.009136555,0.04464175,-0.50712,-1.8326316,0.09726363,0.6769879,0.63396364,0.67748225,0.7446808,-1.0693247,1.1108433,-0.5525499,0.3292277,-3.1259694,-0.2234513,-0.92760247,1.6758438,-0.5962023,0.09977231,-1.7672483,-0.26304564,1.2586603,-0.6166892,-0.123434015,-1.4654925,1.5552335,0.21608599,-0.46085984,-0.6461755
research_activity,-1.0563079,-0.80635357,0.3889219,0.60215276,0.36452174,-0.3632308,0.008793623,0.55125326,-1.8717439,0.35070646,-0.9885825,-0.38232666,0.30573782,-0.31594834,-0.5906772,0.43935263,0.7954738,1.8214489,0.0067118686,-2.4367514,0.8564642,-1.3718317,2.1949837,-0.11293987,-0.36166114,0.74545133,-0.5270095,0.353074,-0.7539258,0.0923965,0.16123927,-0.054203875
geographic_area,-1.8213444,-0.8532498,-0.06553516,-0.86500806,-0.41713578,-1.3713452,-1.3557949,0.68162143,0.22394915,0.6280051,-0.17599058,-0.6644729,-1.1979474,0.5096893,0.4593209,-0.88693786,0.69747186,0.11938852,-1.0282077,-2.602756,-0.9011879,-1.177786,0.35744447,-0.87409264,-1.1300495,0.3206873,0.9447051,-0.11641346,0.42769155,1.3674304,-0.4865587,0.6022756
professional_society,-0.96825564,-1.3814456,-0.35206768,0.5772142,1.1636351,-0.37509686,-0.12217821,-2.1587179,-0.29503942,-1.6235696,1.2353477,0.52915037,1.3465703,-0.6982674,-3.5297515,0.08920174,-0.5448022,-0.76294106,-0.28669757,0.6484563,-1.8280745,0.27571416,-1.9317638,-0.7970602,0.66729635,0.45111042,0.58324176,0.3505222,-0.41472334,0.27095637,-0.22917597,1.5207692
organophosphorus_compound,0.35899177,-0.32010725,-2.2197766,1.3359079,-0.37654155,0.47226146,0.8718542,1.5935235,-0.27787584,-0.045309342,-0.74334675,-1.4979477,-2.4156742,1.3582875,-1.3882333,-0.13119529,-0.39928335,-0.20364329,1.0163038,0.6834741,-0.1653889,-0.20229262,-0.4745407,-0.78073406,-0.8603056,-0.26865104,-0.35651436,0.099093035,-3.3430042,0.91984534,-0.58115023,1.6428978
body_location_or_region,2.0551426,0.27882457,-0.68689644,-0.408986,-1.169525,0.17354953,0.14375308,1.548115,-1.5696852,-0.86300176,0.99909025,-0.34364837,-1.2081633,-0.014717717,-1.7275002,1.1797812,-1.1473035,2.458858,-0.7504278,1.2841488,-2.4796107,0.101775706,2.1776974,-0.5729215,-0.9252056,1.4959056,-0.45985198,0.27195117,-0.99515647,-2.1515179,0.68734306,0.32802206
invertebrate,-0.42174047,-0.69819444,0.4983045,-0.65523696,-0.4416738,0.32241654,0.047919046,0.8384231,0.6573615,1.9686726,-0.85465723,-1.7364029,-0.11572665,-1.235929,2.055447,0.84414995,0.9212418,-0.95977134,0.010614513,-0.57561886,0.17249955,1.0153457,0.46645746,-0.38726044,0.38906,1.8276939,-0.15628053,-0.49046347,-1.3416351,-1.0331562,-1.7187741,1.4747179
age_group,0.018147081,1.1103388,-1.0954341,1.0243915,0.93967116,1.0668881,0.39792404,0.34651542,-0.9036577,-0.022285499,-0.19410737,0.25411695,-0.20257913,0.49194777,1.8405024,-0.54916924,-1.4220068,-1.9203176,-1.5207711,-0.1862173,-0.498875,-1.0653155,-0.12854241,-2.0738113,0.87185115,-1.1638385,0.17555161,0.24268226,0.34995836,-1.4438695,0.14971778,-1.1966796
human_caused_phenomenon_or_process,1.8812805,1.1307807,0.45846447,-0.11521201,-0.5737,1.2881405,-0.66907465,0.8331954,1.203489,-0.4585383,0.17771369,0.41199553,-1.6777326,-0.592934,1.3112894,0.14557552,1.2779227,-0.792197,-0.96496046,0.124258555,1.4572902,-0.013618589,-1.193426,0.6599674,-0.59195477,0.7493665,-0.29553938,0.27325264,1.4753454,1.3676149,-0.71170026,1.6164385
phenomenon_or_process,1.7808425,1.0979444,0.7735036,-1.5918055,-1.9427238,-0.8499143,0.7142514,-0.7076721,-0.4101672,1.1978205,-0.48311377,-0.040550783,-0.48132706,-0.07092249,1.6157306,1.5984888,-0.3836559,0.7733686,1.2759687,0.35485205,-0.16283374,-0.11248888,0.1764209,0.117799535,-0.03391796,-0.8780662,0.35222846,0.3710968,1.4780492,0.20196602,1.7335725,-0.011798016
individual_behavior,-0.01677022,-0.5528707,-0.2669664,0.8439985,-0.4964118,0.15554984,0.7228758,-0.063317865,-0.45046577,-1.5171909,-0.53313583,-0.36785904,0.06008733,-0.07342955,0.30069947,1.2882748,-0.28522182,0.14052854,0.56600875,-0.16274612,0.8672776,-1.09007,-0.9632174,-0.15628241,-0.28642195,0.66411334,-0.039232336,-0.036936637,-2.5115256,0.57581234,-1.3451385,-0.9025828
bird,1.9213046,-0.22610973,0.18531184,-0.03175754,0.7891471,1.0765604,0.42313224,-0.5709415,-0.41280648,0.0780896,0.74574983,1.1811584,-2.6946676,-2.633568,-0.21097648,0.37523586,-0.3561756,-0.3025889,-2.4020224,-0.0953342,1.3637958,0.6077516,0.8909655,-0.98404676,0.9164711,1.0462376,0.2851306,-0.28715912,-0.9139554,0.16232543,-0.70331365,2.0530386
mammal,0.82228935,-0.7000458,1.3602134,0.16397719,0.5893235,0.5784625,-1.8328147,0.007450257,1.0039275,-0.23110384,-0.12119554,0.10000433,-0.32235408,-0.5770625,-0.3556254,1.4765561,-1.6903751,1.4586483,-0.5847361,-0.32011598,0.091392405,-0.46998194,0.5773655,0.046424136,0.057519,-0.63289714,-0.58227694,-0.63012797,0.5223414,0.60337615,-1.2157437,-1.6465863
qualitative_concept,0.6844642,-0.5015699,0.24298486,1.2735213,0.48707873,-0.3423828,-0.9417332,0.013533831,-0.97302,0.3559305,-0.046970434,0.35017097,0.36840945,0.95875156,0.19113643,-0.16054042,0.67431307,-0.1772903,-0.44399902,-0.6595432,1.7081958,0.47273836,-0.28703415,-0.39944956,0.825604,-0.06146605,0.05354927,0.36034822,-1.320441,1.084684,-0.006217753,0.71084183
environmental_effect_of_humans,0.5911256,-0.2950529,-0.78023595,-1.202515,-0.6504348,0.8364042,-0.8780535,0.38597462,1.11042,0.46229088,0.24817899,0.89511925,-0.15342966,0.14700842,0.57926774,0.2013568,-0.91169155,-2.452581,0.4421123,0.1437026,-2.6651742,-0.6656411,1.569604,-0.6070653,-1.490421,0.22837844,-0.2702034,-0.37816197,1.0884854,-1.9101326,0.56389225,-0.27459162
social_behavior,-0.31364602,2.0833097,0.13529886,-0.39722183,-0.470253,-0.6642217,-0.07269441,0.124828435,-0.6068014,0.68267775,0.5287809,0.12781921,-0.011696992,0.68344307,-1.2933193,-1.0483276,0.66573125,0.6994316,-1.0122765,0.2990454,-0.63746494,0.94577277,-0.5834822,-0.28118223,-0.81942415,1.0277934,-0.15699922,1.2257986,0.4929989,0.41987067,0.16991758,2.2973983
biomedical_or_dental_material,0.022514438,-3.0860171,0.043392144,1.5700117,-1.3607694,0.46017012,0.061937794,1.5346318,-0.394467,0.44701654,1.305624,-1.1565026,0.31690606,0.99216884,-0.75724787,-0.0035526303,-1.3409756,-2.081045,-0.21818683,-0.091082074,-0.6744172,-1.8555065,-0.244035,0.00024353358,2.2063732,0.56010747,-2.3668535,-0.013206059,1.2336409,1.2701105,-0.570978,1.465812
quantitative_concept,-1.6553415,0.18089703,0.55618924,-0.61653465,0.46468318,1.4205263,-0.0719,0.57985955,-0.90794873,-0.17174251,0.07791776,1.2731433,-1.016648,1.1673385,-1.5293226,-0.98369414,1.4012762,0.6451159,0.66384286,0.680508,-0.33175713,1.490046,-0.67284703,1.0262785,-0.3779453,0.06560144,-0.009882059,-1.3084949,0.5967631,0.1533009,1.3262248,-0.9141302
inorganic_chemical,0.34389186,-0.63802636,-1.5434744,-0.7453095,0.95997846,-0.6424105,0.28661716,-0.8974592,-0.93961906,-1.6332655,-0.66392434,0.36265168,1.441343,1.421978,-0.53045046,0.23617445,0.43757173,1.0734949,-0.120970905,0.7628527,-0.3061471,0.1537668,0.6446677,-0.63718474,0.5050064,-0.62138796,-0.29996276,0.89835536,1.0580052,-0.07314179,-0.1468504,-0.10471608
drug_delivery_device,-0.9157873,-0.37293735,-1.705625,0.67539346,-1.2925098,0.5940674,1.2226568,0.13299946,0.80333537,0.16688369,0.038120285,0.57010937,0.19117387,0.6878934,-1.0149672,-1.4370495,1.1214925,-0.56351274,1.0352696,0.023344105,-0.7092365,0.5711243,1.4145595,-0.64172226,0.27647796,1.9322572,-0.6700563,-2.5663726,1.0773165,1.4074677,-0.16525666,-0.12499851
educational_activity,0.28027743,0.80385023,1.0585674,1.0506793,0.8198248,-0.5174709,-0.43548337,1.4763029,0.259512,-0.45633456,-0.75118333,-0.029959135,0.13165374,1.3105984,0.39874676,0.4199294,1.5457664,-0.68768084,0.5655061,0.49544334,0.32086042,1.248354,0.6737042,-0.41768786,-0.66779757,0.5052766,1.0294417,-1.583952,0.3968697,-0.22805797,-0.42888704,-1.9320565
chemical,0.687641,1.9845033,0.99615526,-0.9466037,-0.1824386,0.2565156,-1.8028418,-2.282083,0.11735342,-0.5792092,1.7830001,-0.4914735,0.65985936,1.2256705,1.0459456,-0.17986594,0.30802378,-0.82683146,-0.78894603,0.19138391,-0.4598542,0.4256628,-0.17210259,0.99855894,-0.27243266,-0.19086108,1.8308045,1.0438426,0.44903672,2.285485,0.005397311,-0.26001248
vitamin,-1.4311838,0.2323119,-1.6412301,0.15010925,1.151732,1.2562952,1.289748,-0.16920306,-0.84170675,-0.7589214,0.43125495,-0.2707485,0.49560016,-1.862238,0.057051472,-0.4294837,-0.20889476,-0.7861259,-1.0439216,-0.69957906,-0.8652342,-0.3478878,-0.6147863,-1.8529283,-0.30032516,-0.23232046,0.5401342,-0.68975246,-0.6525143,0.2787413,-0.0123650115,-0.36644694
fully_formed_anatomical_structure,-2.377752,0.30849257,-0.49396917,0.65699214,0.6474981,0.43771765,-0.4657702,0.062520474,0.6658577,0.104833215,-0.36864448,-0.6054317,-1.4543585,0.39313433,0.6203267,-0.7916692,-0.24087141,0.9840953,1.231196,-0.69519746,-0.1391134,-2.5235713,0.73286796,-0.8179996,-1.5585614,-1.2684709,0.9549651,-0.74736094,1.8534858,-0.4641567,1.2981057,0.48287234
group,-1.1510072,0.121981226,-0.4810936,-0.73977846,-0.6591226,-0.5395678,0.81810254,-2.0189035,-0.046354253,0.5896817,0.027945155,1.4589568,-0.47724885,-1.8276898,0.26870087,-1.0641117,-0.848744,-0.7093903,1.1320639,0.97637683,-0.4074473,-0.7595331,-0.40125558,0.5198054,-1.3868293,0.3247297,0.15238427,1.3877325,0.12496624,1.9236339,0.24732564,-0.762462
nucleotide_sequence,0.6415322,0.07971875,-0.120850645,-0.7523819,0.6390788,-0.5959108,-1.1449149,-0.67228454,0.43671417,-1.2765112,0.3527032,0.1350865,2.0952535,1.3660696,-0.21800767,0.45932528,0.9449318,-0.41395468,-1.4606969,-1.4277853,1.3810483,1.2896911,-0.1463783,0.7373742,-0.61642367,1.0196728,-0.21835998,-0.28403348,2.0090964,-0.19767681,0.28638586,0.7469928
body_system,-0.30124143,0.6281331,-0.0621802,-0.63214135,2.0003636,-0.26618987,0.43387526,-1.4582325,0.45969725,-0.12851118,0.15375003,1.9806356,1.3127971,0.35515016,-0.5220056,0.85975224,0.20641704,1.7860858,0.3273775,-1.2885902,-1.1386669,0.7557227,-2.2468357,0.5520966,0.26316413,0.15804446,-0.652066,0.8552985,-2.8078558,1.490758,-0.48633626,-0.13604537
food,1.2016306,1.3330046,0.03314307,-1.3049101,-0.9079688,0.35864958,-0.13097398,-0.8951264,0.19162533,-1.7240423,0.5331918,0.14842409,-0.025333334,-0.02092099,0.7227015,-0.5416269,-0.65233636,-1.3797805,-0.7451812,-0.9048349,1.0816702,1.3328652,0.17810082,-0.25784865,0.7274491,-1.1058642,-1.2548994,-1.1327989,-1.2610346,-0.31803566,0.35391077,1.5115597
bacterium,-1.2482915,-0.96844065,-0.3414288,-0.0202366,0.7199519,0.98052365,-1.7064441,-0.61223125,-1.0505403,-0.4265232,1.3616502,-0.41262227,-0.3893234,-0.686324,1.4752944,0.12099622,1.1062964,-1.0312302,0.50627494,-0.120328166,-1.8040707,1.744469,-0.77626014,-1.7524345,0.57318133,1.3990178,-0.404681,1.344879,-0.31053331,-0.22713503,-0.36427036,-0.07818583
fungus,0.8609852,0.1175063,0.21104263,1.3440527,0.8348278,-1.2109836,-0.00875467,-1.139969,1.0395194,0.61565226,0.039332908,0.8688683,-0.75523055,1.0315331,1.187576,1.6194115,-0.68013895,0.71742046,0.17905653,-1.073122,1.0380135,0.20013104,1.3468565,-0.7880685,0.9441578,0.5659281,-0.029693957,-1.6010135,0.47077683,-0.4847621,0.47625667,0.29225826
research_device,-0.14761548,-0.60577065,0.005123133,0.60704273,1.0312523,1.1936758,0.4836664,-1.5077559,0.47598872,0.19047603,-0.4100634,-0.21156916,-0.6627369,0.30956405,0.55692405,-0.8157993,0.80373645,1.0807252,-0.28636444,0.5588884,-1.4634548,-0.5912023,-1.6078469,0.61513126,-0.8666131,1.7137443,-1.6402144,0.045645326,-2.048351,1.2156172,-0.14166859,-0.7035643
governmental_or_regulatory_activity,0.6718346,0.64215904,-1.2458751,0.695907,-0.010694846,0.30212635,-1.7503306,0.16771743,0.24649377,-0.41663948,0.58391,0.22985238,-0.8935662,0.7456749,0.31686857,-0.30327702,0.6162301,0.12412303,0.682219,0.8423513,-0.31773874,1.9964015,1.303507,0.5202205,0.1553348,0.51435083,1.0762736,-0.013587476,0.8427063,-0.28894058,-0.1455065,1.4039978
idea_or_concept,-1.4089351,-0.046204083,2.5392349,-1.863339,-0.8915387,1.3601516,0.96751803,0.94191206,0.70221364,0.77776533,1.4017045,0.8499723,1.0912987,-0.97594154,-0.21736221,0.27088615,0.55185795,0.117102,0.09141077,0.1667078,0.32052198,0.78820586,-0.60731137,-0.7598568,0.05792095,0.68364114,-0.0071621616,1.0250344,1.3165119,-0.7560614,1.1538748,0.53087246
occupational_activity,0.034925003,-0.77652806,-0.93570036,-0.772507,-1.2097906,-1.5430479,-0.3874691,-2.0349874,0.6014606,0.30836618,-0.84634614,-1.0609163,2.1548293,-0.48936796,-1.1440732,0.31484887,0.84691,0.0654973,-0.6818856,0.012672803,0.90825784,0.31934747,0.13831526,-2.1717136,0.18134521,-0.304648,0.11916888,-0.026863271,-0.11693095,-0.14301927,0.8904004,-0.21475747
physical_object,0.13001797,0.18452848,-1.5864749,-1.3767495,-0.96707284,0.15789457,-0.76906765,0.52660775,0.8808821,-0.12702939,-0.08133149,-0.93619454,-1.9821783,-0.59426934,-0.6866773,1.5554315,-0.88996154,0.74988014,0.9348647,0.06381402,0.51752114,0.40810782,1.059387,-1.3149816,2.2236993,0.42168754,-0.8444322,0.09430349,-0.6817091,1.9824256,-0.6744985,-0.12632298
vertebrate,0.30551213,-0.20502564,1.9644107,-0.33915308,-0.18019904,0.8959393,-0.41970876,-1.5818025,0.64040315,-3.120118,-0.74434876,-0.73998886,0.68698114,-0.14998327,1.1208452,-0.9492734,-0.09513768,1.4278108,0.11409245,-1.0382395,-0.06289259,0.22604366,0.039076496,1.9245726,-0.53868717,0.74054706,-0.16341735,1.0288836,0.55083305,0.12170393,0.786378,-0.40518647
substance,-0.36153954,-1.0343409,-0.8006405,-0.24358647,-0.78618747,1.238123,1.285489,1.3013525,-0.40215638,1.7208693,0.15428504,-0.28565812,0.30284902,-0.9423943,-0.695724,-0.5516526,-2.2435799,-0.08170669,-0.9906626,0.0375208,1.9279944,-0.9867515,0.7892107,1.3059638,-1.1716422,0.09724954,0.21137404,-1.7916479,-0.2669666,0.8396593,-1.2575774,-0.21151584
medical_device,-0.86429065,1.7884417,-1.6434841,-0.27486068,-0.5399749,0.61196935,0.40803444,0.78931767,1.0495435,1.1071537,0.290811,-0.12810554,0.23688719,1.3969046,0.7561367,-0.46356845,-1.5793319,0.4921864,-0.23608534,-0.9136101,-0.34876332,0.13140835,-0.33099926,1.12095,1.6053659,-0.53756243,-0.52089673,0.26864803,0.654375,-0.051310524,0.35956365,2.0317643
manufactured_object,-1.2673333,-0.87262714,-1.1980826,-1.2932991,-0.09160353,-0.28995335,-0.7544426,1.1725764,-0.9127623,0.09342011,1.0481235,0.785301,-0.2908211,0.7989586,1.058334,-0.24754064,2.5290518,1.8894434,1.3357842,-0.09072411,0.8366104,-0.487153,0.3378655,0.8385572,-0.43715462,0.31253004,-1.8679854,0.46685293,-0.5281465,-0.27140012,0.7255677,-1.4924531
classification,-0.1301347,0.027924942,0.5542038,-0.8102944,1.534846,-0.5420809,-0.6380874,1.2192842,-0.57766324,-0.7774208,0.37163064,-1.3016635,0.4199232,0.42168602,0.20203422,0.43782452,-0.22845349,-0.13424571,0.7908212,-0.5122658,-0.3101476,0.10024334,-1.2922009,-0.47906417,1.7469474,0.5741786,-1.0714284,-0.51528156,1.7114724,1.4408537,1.0312853,1.0689889
daily_or_recreational_activity,-0.8449014,1.2981391,0.37771356,-1.9415729,-0.5698465,-0.3819864,-1.5656726,-0.14860037,-0.19263239,2.2512589,0.56016904,-2.6517677,-2.1975052,0.5643578,0.6452613,-0.20641293,0.2618859,-0.57538277,0.06922052,-0.5998001,1.871149,0.82912827,-0.7815423,0.19709945,-0.025706716,-1.079703,0.17377229,0.6955133,-1.3773786,0.057237037,-0.30373845,0.15259987
conceptual_entity,-0.01100214,-1.0424454,-1.3791155,0.17637144,-0.7460814,0.41329607,0.89528394,-0.15890555,-0.52740884,-0.06741682,0.6337154,0.11799741,0.0041487217,-0.019458612,0.26583534,-0.6966651,-0.0021543158,0.54498446,0.11603394,-0.99902153,-1.7147075,-0.8713475,-0.564709,-0.59687424,0.089860335,1.1472071,-1.2753417,-0.38194597,0.6276567,0.4180503,1.8002225,-0.35563064
occupation_or_discipline,-0.23274058,0.29936743,-0.5511336,-0.41378948,-0.5562869,-0.13656811,-0.011976244,-1.2441679,-1.178511,-1.0887394,-0.6053375,0.40933713,-1.1030031,-1.2734743,-0.26674753,1.9186753,-0.60314375,-1.0754393,2.1684666,-0.6523197,0.7264518,-0.59426296,-0.3470927,0.46962252,0.24368745,-0.4304301,-0.22101662,-0.28089887,-0.5789572,-0.30853117,0.19066249,-1.4123373
amino_acid_sequence,0.9726324,-1.057594,-0.4532649,0.3434586,0.124364294,1.4849988,-1.170024,0.57615805,1.1281531,0.024308568,-1.1643274,-0.72494817,1.0466522,1.1705067,-1.9505666,2.4161253,1.5946856,0.59707403,0.51469326,0.40774438,-0.1670448,-0.081336506,-1.200785,-0.8018943,3.3665519,-0.07849725,-1.6510988,-0.7594858,0.48997647,-0.032008868,-0.9663643,0.27533972
clinical_drug,-0.8941508,-0.2416961,-0.05570977,-0.96547556,0.69972855,-0.27296418,-0.51894724,0.81709635,1.4198819,1.0307434,-0.9329422,0.58278584,-0.6071528,-0.5625841,0.8611947,-0.091024175,-0.3602535,0.060032066,1.4169271,-0.5582877,-1.9236013,1.9271232,-0.7552249,0.65549874,-0.7338596,-0.368102,-1.1573427,-0.50799865,-0.530634,-0.72705543,-0.53548354,0.506506
activity,0.71713763,-0.3654319,-1.4115115,0.10441056,-0.024372388,-0.2768703,-0.6304597,1.808695,0.48806682,-1.0178084,-0.32197547,-0.11484746,0.06047409,0.6505214,-1.1816589,0.22375855,1.1771687,-0.77026904,0.72086793,-0.58512473,1.8649014,-0.90578467,-0.91750693,-0.3966488,1.3518627,-0.30094007,1.037085,0.15168525,-0.9285498,-1.1961915,1.0605208,0.7336915
event,0.49615926,-0.08645055,-0.40463644,-0.18156,-0.40111166,0.6272063,0.077175304,-0.36325747,-1.5249126,0.4292927,0.18357858,-1.0834594,1.8179036,-0.008525238,1.0470985,0.7005373,-0.40033296,-0.69088984,0.058242425,0.3214671,0.20967385,1.3559324,0.6818653,-0.03525365,-1.1828208,-0.123669624,0.117704056,-0.4422237,0.23524046,2.042431,-0.9800491,-0.7281135
temporal_concept,-0.5408841,-1.5287734,0.70283604,-0.13863923,1.0649971,-0.8019728,-1.4394687,0.36228123,1.5081137,0.047920454,-0.46993572,0.014300021,-0.36739144,1.6378927,-1.3268124,0.9203075,-1.1323205,0.7664476,0.47799253,2.4103563,1.8690366,-1.2439674,0.33364525,-1.0891496,-0.48394695,1.9076096,-0.1133944,-0.020113295,-0.67363095,-1.6954299,-0.79282606,-1.6739539
archaeon,-0.072460696,0.7082174,0.1974013,-0.6630949,-0.9881169,-0.7156278,-0.03499054,1.6344723,-0.2817762,1.3378073,-0.4120595,-0.5511989,-0.3844392,-0.22792727,0.964997,1.0078219,-1.1833924,-0.15651187,0.18226126,2.042153,-1.6531359,-1.6622185,-1.4904903,0.8721549,-0.5195611,2.239635,0.38549566,1.3449168,-0.2326049,-0.789092,-0.9616996,1.7746528
language,-1.8774291,-0.17178576,-0.04818031,-2.5101435,-0.45969245,-1.5705802,-0.1343835,1.4598016,0.2571176,0.5916854,-0.28535658,-1.7886351,1.3316029,1.4030888,-1.2596663,-2.090697,0.18231581,-0.35942107,0.30750528,-1.2112784,1.0193968,0.9226656,0.41110307,-2.1533997,0.42932096,-0.3679381,-1.7756823,-1.5921772,-0.29950774,0.12235988,-1.5160182,0.62324274
biomedical_occupation_or_discipline,0.58875346,0.7769852,-0.44346946,2.255586,-0.5783917,0.33815122,-0.4444553,-1.6039604,-0.49219266,-1.082728,-0.72176206,0.49998987,-0.16581832,1.3522811,-0.66405946,-0.6656293,0.35325354,-0.4146098,-0.5921198,-0.1735896,-0.67781174,-0.87233365,1.5877781,1.4490939,0.25820515,0.21970813,-0.44107676,0.17843804,-0.6055629,0.16748147,0.65073,-0.7480673
functional_concept,0.45988703,0.7496032,-0.7121428,0.33195862,1.0580323,0.8653719,-0.098335795,-0.05776387,-0.24591853,0.44018742,1.0899855,-1.4913995,-1.013509,-1.1608508,0.3471644,-0.49254256,0.28015688,-0.1230658,-0.43961993,0.23740336,2.4675853,-0.9438736,-1.4326713,-1.5413336,-1.5525916,-0.51062167,0.41256204,-1.1811074,0.33596286,-0.28345984,-0.5658419,1.2990226
machine_activity,-2.635365,-0.20206627,-0.1913077,-1.1289803,0.62305933,-0.6731454,-1.3003292,0.978518,-0.1839125,0.22884499,0.4853281,1.8433571,0.7744226,-1.1316719,0.30408788,1.945735,-0.4243236,-0.43291277,1.3966913,0.62087816,-2.5087721,-0.27122915,-0.53200054,-0.3037279,-0.83604515,-0.81571835,0.6182367,0.24193956,-1.3864465,0.12309932,2.823608,1.0999167
entity,-0.10750176,1.2865635,0.031012086,0.7401536,0.084789544,0.8583416,-0.10327238,0.16558327,-0.60486186,-0.8498517,0.41606292,-0.2559398,1.70449,-1.3334733,-0.8283189,0.15713887,-0.2186142,0.6292704,-0.99548316,0.09626806,-0.4943379,-0.8126464,0.32514387,-0.732317,-1.3372525,0.35172206,-0.23249643,1.147054,-0.1097423,1.2830414,1.8899579,0.64416707
carbohydrate_sequence,-0.23602606,0.64549273,-0.27781618,-0.9031942,-0.14198774,0.5861845,0.78748125,0.51114637,-0.18182041,0.54507977,-0.79622644,2.8211844,-0.6898198,-1.0371292,-0.7312424,-0.12276699,-1.0205622,-0.0680769,0.8258291,0.07974526,1.374471,0.13208035,0.6349143,-2.179861,0.24158838,0.022489036,-0.28087023,0.1882243,0.38838872,-0.38356957,-0.93772256,0.65110826
organism,0.38439,1.3017118,-0.9607622,0.23417766,0.002686517,-0.7516436,-1.6503106,0.48885646,-0.1577295,-0.19117454,-1.022933,0.5321873,0.833103,0.90765506,-0.5513329,1.0237404,-0.21253851,0.2691344,0.26266864,-1.024714,-0.71332705,0.9880462,-1.0113238,0.6259095,0.066257924,-0.91155523,0.34304222,-1.1612277,-0.20953728,0.035866678,-1.3272858,1.1192863
