,0,1,2,3,4,5,6,7,8,9,10,11,12,13,14,15,16,17,18,19,20,21,22,23,24,25,26,27,28,29,30,31
acquired_abnormality,1.3995018,0.0029877748,0.9556119,-0.90280557,0.6915717,0.991614,-1.1115675,-1.7960467,0.25338688,0.13621843,1.2139536,0.19633357,-0.5741885,-1.0352646,1.3002727,1.1918755,-0.8514431,-0.6381869,1.0650455,1.5608393,-0.018873278,-1.1375247,0.43238446,-0.23730671,0.36522558,0.9910332,-0.43233368,-0.6686735,-0.09703163,1.1234233,-0.8347715,-1.0763541
anatomical_abnormality,1.6611903,0.28192824,0.81337166,-0.8173895,0.39498383,0.89431506,-0.9116776,-1.9517877,-0.12406373,0.9638779,0.64421606,-0.039412547,-0.6510461,-1.1591722,0.3550848,1.3679284,-0.8114503,-0.82878244,1.0798861,1.3564347,0.09617404,-1.1909281,0.59683186,0.0972287,0.05349873,1.0756917,-0.7681672,-0.36846438,0.3585895,1.4023607,-1.1298602,-1.1639494
alga,0.727744,1.1835419,0.8849787,-1.1877943,-0.070265874,-0.0922782,0.5464755,0.6252165,0.088721044,0.44499198,-1.0479167,-0.5007175,0.10730372,-1.5243096,0.22822197,0.6486186,0.9608838,-0.5782699,-1.3892101,-1.3741705,-0.8505628,0.49443537,-0.956545,-0.91467845,0.43470517,1.9355173,-1.354708,0.19590923,0.51923996,1.1587961,-0.6145676,1.0949069
mental_or_behavioral_dysfunction,0.85744107,-0.104159996,1.431152,-0.4322981,0.5235486,-0.7415313,-1.5406837,0.1679162,0.3665587,0.21444982,0.5650527,0.6868265,-0.62659955,0.09905019,-0.77998006,1.0805429,0.8446857,-0.71675557,1.0974755,0.9194007,0.43334922,1.339795,1.222736,-0.31724116,0.07592373,0.91828847,-0.28233588,0.3619136,-0.6825067,0.9407849,0.43742648,-0.8477825
health_care_activity,-0.23689783,-1.2340719,0.7842581,0.76486033,-1.0689821,-1.5002451,-0.403984,-0.9257179,-1.4086851,0.078001715,0.49308485,-0.15873584,0.8840413,0.07339185,0.81636745,-0.37858215,0.037758984,-2.0838227,1.0469573,-0.9626528,0.11917412,-0.014611397,0.55807245,0.19503023,1.2678759,1.7034184,0.43251267,-0.9174518,-0.020331487,1.9241973,-0.99718654,2.1082785
population_group,-0.7103668,-1.6507938,-0.83668375,0.77092135,1.1148392,1.2985079,-0.5274973,-1.0116107,-0.8154775,-0.05637457,0.3879073,0.63072145,0.25784004,-0.84846485,-0.38097543,-1.7692485,0.81155306,0.7249168,0.8966448,-0.761853,-0.08238471,-0.52906483,0.69705105,-0.40789455,-0.10015827,1.8770822,0.113330476,1.052862,1.6362437,1.1769478,0.371782,-0.27839974
clinical_attribute,-0.8528741,0.4641004,0.6232587,0.21522275,1.5217981,0.54719865,-0.83996093,-2.4919167,0.038434096,1.2684091,-0.16259874,0.9439188,-0.81433296,-0.22305912,0.5382914,0.69915336,-0.0069151702,-0.682438,1.3536116,0.25353235,-1.0077072,1.4291068,0.36218524,0.5417761,-1.1663171,1.539049,0.8334644,0.98247504,1.3602283,1.940081,1.821415,1.0495547
body_part_organ_or_organ_component,1.1519593,1.2966391,-1.7342639,0.7848103,1.3208798,-0.41111776,0.023641856,0.27637684,-0.56948453,1.4478108,1.5404813,-0.2984003,-0.32600546,-1.7103617,-1.2241634,0.14414482,-1.5611694,1.0944545,0.9832828,0.784595,0.76671547,-1.4963429,-0.25371623,0.57195276,0.112062365,1.6707844,0.41783658,0.6739601,-0.055721693,0.86159676,-0.032859743,-0.07867127
biologically_active_substance,0.9138281,1.0192107,0.6339452,1.4444194,0.8639377,-0.059365515,-0.5087618,-0.773893,-0.99581534,-0.5860067,-0.4833008,0.4345631,0.6431844,0.6877365,-0.58242905,-0.61003447,-0.048593283,-0.9572682,-1.4484717,1.3072289,-0.9156315,-0.84264255,0.1878961,-0.5603276,-0.005782312,1.7250047,-0.5667312,-0.46449134,-0.04785206,0.91479415,0.72889286,0.3535371
disease_or_syndrome,0.49945602,-0.14684816,1.2998459,-0.24426286,0.7415066,-0.90075344,-0.67167974,-0.20512179,0.40014568,-0.16795607,0.5698396,0.8913829,-0.35738024,0.30626336,-0.32669938,1.0652164,0.16244783,-0.40294877,1.1441435,0.987521,0.9287486,0.93874526,1.1817414,0.2904664,0.27091026,0.92847997,0.40542078,0.3066472,-0.3386303,0.9439492,0.50520337,-0.97241384
carbohydrate,0.16306284,0.66771835,0.62768257,-0.0035275095,0.7824655,-0.6730547,-1.2852114,-0.4245147,-1.1464124,0.79800284,-0.08662745,-0.10642193,-0.1574953,1.5310371,-0.9426424,-0.73867863,-0.0058860355,-0.38865995,-1.5390248,1.2337371,0.70650285,0.46954155,-0.19038507,-1.5030547,-0.35025746,1.6954093,1.3852729,-0.53196216,0.0068842834,1.3973889,-0.10778856,0.42854416
molecular_sequence,-0.93355685,-0.04699206,-1.9348435,-1.8056978,0.52481896,0.8081262,-0.014683736,-0.9654609,-0.08046915,-0.6500721,0.35945877,1.7199178,-0.56423724,0.93998384,1.1655898,0.4834515,0.27403423,0.1644457,0.18715663,-2.3957942,-1.5862561,0.03151859,-1.4569738,-0.6907387,-0.77541083,2.0806441,-1.0752542,1.6745546,0.11449531,2.0250745,-0.6899847,0.4625281
steroid,-0.4983258,1.1684343,0.56722426,-0.30105168,0.89127576,-0.32369646,0.8381577,-0.34064862,-0.9130141,1.1976962,0.5363356,-0.19172563,0.19597062,1.3837241,-0.1363235,-0.91303647,-0.4460591,-0.86570436,-1.6222004,0.8066469,0.20473981,0.19894636,-0.7023647,-1.1269023,-0.3384229,2.045855,0.9287279,-0.08633775,0.05438381,1.0049696,0.7317982,0.6708718
experimental_model_of_disease,0.49648917,-0.05879732,1.252838,-0.7374566,0.77105826,-0.99316806,-0.43225533,-0.2474544,0.5501129,0.11771459,0.91245663,1.1090993,-0.025569662,0.25856605,-0.09554165,1.2047983,-0.001235015,0.0988414,1.3481104,0.9940197,0.07002129,0.92558414,1.2111038,-0.4340819,0.1394493,1.0600374,-0.1264131,-0.057169974,-0.13362919,0.8490832,0.4458721,-0.71051097
patient_or_disabled_group,-0.3713208,-1.750988,-0.5319961,0.22007306,0.084110215,1.2778499,-0.06991682,-0.8436833,-1.015917,0.3231211,-0.27211684,2.0319593,-0.7664956,-0.9265707,-1.803451,-1.8650862,1.1180062,1.6450193,0.25248384,-0.7763487,1.0325215,-1.2581707,-0.61244214,-0.9088607,-0.55639386,1.7317418,0.15587412,1.1067929,1.057558,0.9300483,0.021390935,-0.74350137
professional_or_occupational_group,-0.43633875,-1.9682342,-0.32561818,-0.7065424,0.25949582,0.598483,-0.69171286,-0.47262847,-1.6833175,-0.18704595,-1.6897727,2.0661218,-1.2523876,-0.6779969,-0.25570893,-1.9960396,0.029305274,0.3615457,0.1418436,-0.7476333,-0.6116055,0.049661744,-0.10348271,-0.1368334,-0.285992,1.7951787,0.45302486,1.0600495,1.6227849,1.2562562,-0.14185867,-0.7964794
nucleic_acid_nucleoside_or_nucleotide,-0.084913015,0.5774975,0.6035509,-0.0717647,0.80512875,-0.5922914,-1.3626853,-0.21786632,-1.0131981,0.64032185,0.07595652,-0.030907163,0.82474786,1.5281123,-0.29133463,-0.5954039,0.3667701,-0.81016403,-1.6443541,1.1859131,0.09121184,0.46869862,-0.0043026125,-1.0542752,-0.33978975,1.9295726,1.4178802,-0.8439607,0.1522555,1.415428,0.24951302,0.9959641
organism_function,0.33737117,0.4821006,1.325353,-1.3001641,-0.26955146,-0.8001234,-0.3847112,1.1279988,0.7542672,0.91073287,0.71339446,-0.8776364,-0.7251172,0.5939176,0.32531238,0.24831529,0.08666513,0.19460383,0.74871665,0.70777506,-0.6504389,0.80408764,-0.52158654,0.06300006,-1.2845671,0.99973863,0.19966918,0.11132885,0.7766286,1.4176847,0.29628804,-0.3511558
mental_process,-0.428375,0.72669184,0.9641247,-0.9941293,-0.69140273,-1.406184,-1.1136214,1.3874685,0.53971046,1.3952209,0.8734577,-0.68511003,-1.1154172,0.25736594,-0.002177854,0.6225116,0.23098364,-0.1912072,0.6670349,0.5039644,0.46795332,0.7962997,-0.6885132,0.54985875,-1.2069817,0.6685292,-1.1221062,-1.9471157,-0.16135049,1.6781273,0.076643005,-0.04970469
therapeutic_or_preventive_procedure,1.1270984,-0.35030073,0.9740024,0.7907616,-1.8710341,-0.51229733,0.8032093,-0.15573826,-1.5980638,-0.1553079,1.1891323,-0.68856573,0.21978213,0.8940175,-0.04620575,-1.6831064,-0.24378653,-1.5558727,1.4190987,0.09511269,-0.1885374,-0.4724412,1.1888111,1.3315527,1.1565685,1.639966,1.0783864,0.108160034,-0.9637849,1.080758,-0.39470166,1.4173322
cell_function,0.6001125,0.6667126,1.2133638,-1.4963986,-0.34514472,-0.7985015,-0.6766822,0.79935014,0.6991712,0.8049119,0.35320944,-1.2179124,-0.65458184,0.8789223,0.31374756,0.64620733,-0.32023126,0.4712326,0.69984484,0.78076637,0.07319033,0.92406714,-1.0384544,0.14775315,-0.7964839,0.9099327,0.08580551,0.4973233,0.7460526,1.5086042,-0.15925364,-0.15161362
pathologic_function,0.2617182,-0.10081865,1.2553699,-0.3547859,0.76325697,-0.85949755,-0.7565091,0.056682017,0.49277446,-0.10025322,0.683874,0.45120195,-0.30398348,0.18014155,-0.0810214,1.2514328,0.15387005,-0.32213572,1.1285065,0.89519703,0.558094,0.6646235,1.148507,0.1184753,0.29275534,0.84227794,0.15023917,0.1454527,-0.29796463,0.9777168,0.607792,-0.6947323
organ_or_tissue_function,0.5497876,0.6477959,1.384785,-1.493799,-0.67779917,-0.8513388,-0.7359926,0.92741275,0.78700924,0.9737934,0.40163806,-0.78488255,-0.43437347,0.6765712,0.21743336,0.48784444,-0.057680115,0.2622461,0.6460347,0.5705333,0.14481689,0.8220765,-0.5483947,0.12574847,-1.2487402,0.90735525,0.009606555,0.4227228,0.7162448,1.4791616,-0.012149378,-0.3798823
enzyme,0.96025735,0.6823364,0.58572143,1.3630583,0.6316125,-0.11754669,0.0656135,-1.1582747,-1.1479288,-0.56591016,-0.52198297,0.16467941,0.70125806,0.6728258,-0.8860157,-0.32939273,-0.7270576,-0.58841866,-1.5437616,1.5223463,-0.3481462,-0.5363103,0.30767208,-1.2806015,0.36623523,1.9576517,-0.3648962,-0.13867629,-0.23398335,0.5488086,0.49444836,0.26244596
cell,0.8596569,1.6395086,-1.9045285,1.1803833,0.9438089,0.44834936,-1.058346,0.10872689,0.70306736,1.2389499,0.5213213,0.12157073,-1.4670604,-1.8361442,0.11405569,0.077167146,-0.51869357,0.8540014,0.4199458,0.30221936,1.3235286,-0.88525593,-0.6554552,0.7767354,0.06814337,1.759353,0.38468015,-0.4065883,0.28205895,0.73335165,0.43585333,0.22515371
cell_component,1.1267272,1.2816728,0.12021989,0.88193786,0.7994666,-0.3443748,-0.3639832,-0.37354046,0.44523248,1.8001264,1.4573252,1.4264983,-1.6835431,-1.7992423,-0.3521974,-0.43071806,-0.18866551,-0.17535685,0.83848083,0.9215911,1.8536059,-1.3419743,-1.3890876,1.3005213,0.43622866,2.2039766,0.2875199,-0.6285265,0.87159175,0.49946007,0.28463086,0.7803564
cell_or_molecular_dysfunction,0.5346833,-0.01215144,1.257946,-0.34987637,0.468862,-0.81282777,-0.4917431,0.15837732,0.38508555,0.16231738,1.1008567,0.73162997,-0.21491288,0.22936794,0.030019946,0.9535619,-0.9002385,-0.18488653,1.1574147,0.96350765,0.85180825,1.0840943,1.233609,-0.092047356,0.08267999,0.83790416,0.1844113,0.10468699,-0.23421562,0.93448293,0.78184235,-0.8604588
hormone,1.1371304,0.4605269,0.59311354,1.1390736,0.89918447,-0.12930879,-0.43407017,-0.643937,-1.1904553,-0.9191131,-0.5364927,0.1332069,1.0272744,0.70912695,-0.22918388,-0.5081516,-0.76081955,-0.6903991,-1.4435021,1.5897163,-0.65205806,-0.63843685,0.77778673,-0.9120257,-0.07434252,1.884193,0.21351892,-0.46523395,-0.33584982,0.84947675,0.7793098,0.09212948
organic_chemical,0.059352238,0.55216104,0.19962092,-1.161352,0.7973057,-0.5192811,0.412475,-1.4048868,-1.3410428,0.6960124,0.5793971,-0.23562215,0.48774016,1.286923,0.98725367,-0.98833215,-1.0344137,-0.09338176,-1.3057693,1.0686221,-0.51327306,0.4631718,-0.7445702,-0.33055097,-0.25408682,1.6228281,1.496942,0.21475023,-0.22992983,1.929924,0.80284965,0.85493165
behavior,-0.9009534,-1.6308562,0.24792439,-0.77329147,-0.11168558,0.19744113,-0.7716755,-1.3821443,-0.29027957,2.0033486,-1.1243846,-1.0012088,1.023124,1.4393626,-1.1995018,0.15215877,-2.4613354,0.23383912,1.0695239,0.32435632,0.11228196,0.53792,-1.0334324,0.8648414,0.10609701,1.4301354,-0.065863065,1.3936701,-2.8670592,1.7271919,-2.046961,0.97165483
neuroreactive_substance_or_biogenic_amine,0.7606151,0.79142153,0.7498623,0.9892608,0.44301182,-0.19167122,-0.8815717,-0.9222849,-1.1349682,-0.6758484,-0.7088716,0.018715136,1.452383,0.5218694,0.45176384,-0.639751,-1.0468422,-0.7468052,-1.3568349,1.2592311,-0.88703865,-0.5423783,0.67956287,-0.7103353,-0.1990172,1.7695135,-0.5459267,0.26341534,-0.20730437,0.86597437,0.65371966,-0.24228522
embryonic_structure,-0.23272635,0.22796284,-2.201184,0.8895766,-0.6371197,0.48949194,-0.9639789,0.10399958,0.9936683,2.0622642,1.2301449,1.0133493,-1.0088375,-1.6526436,-0.07390737,0.7798214,-0.54672694,0.46510506,0.44213462,1.2848953,1.0025436,-1.5825255,-1.1300061,-0.3012971,-0.48247272,2.0524192,-1.1312332,0.016218275,-0.08204323,1.08212,0.20553787,1.1394073
neoplastic_process,0.8463987,-0.24232231,1.2025138,-0.6932015,0.8165202,-1.1515672,-0.4465426,0.082226805,0.5996112,-0.1877922,0.8360787,1.0162694,-0.47306862,0.32449982,0.18814524,1.077307,0.14872755,-0.019801432,1.3759238,0.7388176,0.7891368,0.79136914,1.3254607,-0.3615989,0.06375776,0.9640825,0.35304183,-0.3970182,-0.5197119,0.9417224,0.26547053,-0.5551772
laboratory_procedure,-0.10997462,-0.47192073,1.1023092,-0.6300545,-0.66316396,-0.8953318,-0.65951645,0.20458226,-1.1088822,0.32576513,-0.53698975,0.31523183,0.18876114,-0.6657516,-0.29678985,-0.46181133,-0.24031036,-1.7172594,0.90207,-1.8529122,-0.13856788,-1.1180446,0.2654853,0.47349414,1.1285659,1.2467467,-0.017127533,-0.68891525,-0.6795587,0.6584067,-0.97407067,1.9000796
natural_phenomenon_or_process,-0.42074364,0.36758825,1.3284605,-1.27265,-0.8732919,-1.584911,0.78503007,0.050088514,1.0063248,0.99623746,-0.025619991,0.19174317,1.1843535,-0.58385575,-1.0385445,0.6022544,1.0602431,-0.4564943,1.0285083,0.73953307,0.995011,0.843711,-0.47772443,0.13609868,-0.47381708,1.245412,0.6709842,0.8322892,0.85388315,2.6581726,0.7959164,0.63667107
immunologic_factor,0.6660288,0.82404536,0.85669047,1.4957942,1.2052728,0.21413201,-0.11952746,-0.88206357,-0.7882301,-0.39494774,-1.2839271,0.14872046,0.45388427,0.66246307,0.23222083,-0.7710282,-0.67804456,-0.5729661,-1.6531467,1.1547276,-0.0903359,-0.88428736,0.28327718,-1.0847678,-0.8224724,1.664066,-0.77505,-0.34726954,-0.45802623,1.0164796,0.6254547,0.3375997
receptor,1.0260458,0.23666893,0.641121,0.92549443,0.111246645,0.081429966,-0.38997334,-1.2429906,-0.8059642,-0.6833886,-0.961346,0.24767394,1.0397652,1.0002378,-0.3816144,-0.44122356,-0.9468625,-0.5636142,-1.4306552,1.5055859,0.14335598,-0.6763253,0.80932987,-0.9080928,-0.20914045,1.7951845,-0.09619225,-0.5559436,-0.03596457,0.81153715,0.76564884,0.27157244
self_help_or_relief_organization,-0.34472644,-1.255593,-1.238715,-1.3965124,0.10724426,1.0705193,-0.05536556,-0.746788,-1.9904649,-0.083430216,-0.17160796,-1.7769307,0.48073396,0.4513549,0.41459507,-0.6452276,0.8226284,1.3712683,0.47143355,-0.72532237,1.1788965,-0.03405229,-1.0888035,-0.38872054,2.0571811,2.2590837,-0.8953612,-0.4600918,0.5358414,1.1196817,1.349372,0.583826
pharmacologic_substance,-0.003700473,0.455313,0.9349842,0.85810417,-1.2619339,-0.4342279,0.47609255,-1.2001588,-1.2827847,-1.2171355,0.40032473,-0.0748981,0.39701536,0.8224592,0.083461165,-1.890038,-0.78783137,-0.7600967,-1.351687,0.9405531,-0.401101,-0.4086916,1.3362006,-0.9285481,-0.15921552,1.7099273,0.073706545,-0.0990933,0.34458685,1.0406549,0.42416847,-0.43752363
molecular_function,0.495302,0.61789906,1.3098797,-1.39943,-0.5447454,-0.60076386,-0.4843077,0.82118464,0.69725144,0.96674967,0.5252084,-1.2280401,-0.69024134,0.6159161,0.18648382,1.1859863,0.71862614,0.38877562,0.7296742,0.8287975,0.46855402,1.0412269,-0.5691576,0.766195,-1.0235103,0.98692626,0.25692815,0.6020441,0.95136285,1.3848021,-0.01786748,-0.059024014
regulation_or_law,-1.3082044,-1.7468201,-0.6165356,0.77244145,0.55477417,1.1140041,-0.53343606,0.969002,1.305729,-0.48313335,-0.50137144,-1.0721531,-0.10146421,0.6023084,-0.027109038,-0.44003898,0.40994915,-1.824821,-0.6072284,-1.0829608,-1.560399,-0.94245875,-1.5188539,-0.59854174,-0.5180106,1.8922621,1.2728647,-0.19374815,0.82366997,1.7245028,1.2725415,1.1301583
human,0.31641728,-0.14204428,0.8956724,0.9661251,0.6601717,-0.41802457,0.61260587,0.85596704,0.011324209,0.159027,-0.511114,-0.39498433,-1.3034644,-1.7845768,0.65019786,0.8451855,0.067966424,-0.7236853,-1.5881503,-0.99789655,0.068156384,1.2213674,-0.54302675,0.2356644,-0.3955797,1.8097435,-0.87012154,0.5615584,0.46165273,1.4681798,-0.7188581,1.4941446
eicosanoid,0.27831715,0.3310258,0.43650723,-0.6839908,0.70841575,-0.7285685,-1.1436888,-0.44850656,-0.99791265,1.1704943,0.14580497,0.27197596,0.82166797,1.2390473,0.0008540086,-0.98989844,0.17502499,-1.1792938,-1.5656496,1.0268192,0.35151282,0.0749761,-0.40627605,-0.81725216,-0.27181092,1.9270585,1.2427479,-0.18742564,0.39493966,1.0513132,0.715001,0.528926
amino_acid_peptide_or_protein,0.51631796,0.47962815,0.67199475,-0.05033392,0.60183257,-0.42538628,-1.036735,-1.0402912,-0.80748606,1.1795279,-0.11274485,-0.93274707,0.34907272,1.798001,-0.95013124,-0.5048867,-0.64204603,-0.7727366,-1.687978,0.9134301,-0.13388819,0.042688318,-0.40884152,-0.78923905,-0.602739,1.7528739,1.7622507,-0.18714863,0.66453034,1.2745886,0.31378207,1.0317659
group_attribute,1.0103652,-1.1972095,-1.6859033,0.321704,0.22399133,0.19308089,-1.23554,-0.74543536,0.58515847,-0.6325853,-1.1532272,-0.6532345,-1.3484445,-0.5289241,-0.8229232,-1.5616456,-0.44355115,-0.55093545,0.35006413,-0.60875416,-0.33026135,-0.81678873,-1.1595715,-0.42978224,0.105921954,1.9187984,-0.62149876,1.601042,1.5698138,2.1547012,0.58584017,-1.0279994
organism_attribute,-0.17566773,0.13813096,0.18569732,0.29370266,1.5367007,0.5351017,-1.0914085,-2.1688285,0.44846737,0.3064694,0.6075548,0.8899692,-0.69668365,-0.37345937,1.4741777,0.5260001,-0.5128737,-1.2590306,1.3099266,-0.21559729,-1.1149383,1.542263,0.5281769,-1.7645118,-1.0671234,1.2078319,0.6989782,-0.32767618,1.8418841,2.1991813,1.641207,0.83138
finding,-0.35172176,0.27343503,-0.105756335,0.30063468,-0.63867843,0.98348826,-0.28177217,-0.20843527,1.3377911,0.17694148,-0.05654461,0.13479069,1.3443543,-0.042107616,-0.19119866,1.2405661,-0.036514115,0.050950654,0.76004744,-2.225329,-1.0374744,-1.008497,1.4584128,0.49257007,1.765989,1.8400549,-0.44526896,0.5994322,0.5106488,1.663287,0.9690487,-0.58569777
congenital_abnormality,1.4643576,0.21563111,0.81666696,-0.95875996,-0.18216003,0.92067844,-0.52658784,-1.5813386,0.0012148999,0.41103357,0.75979406,0.20185259,-0.5520519,-0.94060993,0.8468833,1.4171038,-0.69616735,-1.1051079,1.103687,1.5139564,0.8255586,-0.9321432,0.39235428,-0.24513993,0.5887536,1.0614092,-0.67485803,-0.10498031,0.26242858,1.3107976,-1.3922871,-0.796839
anatomical_structure,0.4957322,0.6155768,-1.5810348,0.28704828,1.3377455,0.55747,0.9381649,-0.10870882,0.5639516,-1.4541059,-0.15004131,1.2817322,-1.0997826,-1.972218,-0.22383691,-0.32229218,-0.73982674,-1.4234377,0.32282716,1.3844572,0.09090791,-2.3455186,-0.71007186,-0.9407689,0.8400179,1.9217842,-0.13881475,-0.11925132,0.17597826,1.5619693,-0.29759222,0.69050497
molecular_biology_research_technique,-1.7007389,-1.0062505,-0.51134247,0.183745,0.11384957,-1.1946707,-0.6113626,-0.21376169,-1.5295498,0.725396,0.5501067,-0.28761414,-0.23797466,-0.6624685,0.12807384,0.43428853,-1.4061811,-1.2015557,0.6211945,-1.7792566,0.66478086,-1.3994352,0.96329504,1.151255,1.238282,1.7758545,0.8644882,1.2320869,-1.2801803,0.5495495,-1.2190249,0.9216463
diagnostic_procedure,0.35521355,-0.2673454,0.6201897,-0.19007072,-1.0308051,-0.95361704,0.10180233,-0.20153795,-1.173818,0.20461197,1.1979475,0.4457208,-0.34009272,-0.62639046,-1.0553168,-1.4617912,-0.83097196,-2.077303,1.0342283,-1.7817619,0.33175662,-0.5985164,0.19094697,0.61931825,1.0221723,1.4521977,-0.22562696,-0.79540473,-0.5718364,0.58595586,-1.157726,1.967645
biologic_function,0.35013732,0.4981561,1.1321083,-1.6402829,0.07910362,-1.326205,-0.513108,0.20151053,1.0873985,0.14238006,0.92490077,0.29288548,-0.5371505,0.8203249,0.13425903,0.5902661,-1.1939405,0.35085928,1.061875,0.6677335,0.56337196,0.5810479,-0.45955256,0.15208289,-0.7953198,1.0760528,0.19193614,0.41952673,-0.09740481,1.4038392,0.4974079,-0.5231943
tissue,1.0057862,0.77069175,-2.6397433,0.27511913,0.41969988,0.10699235,-0.21459544,0.30946127,0.40929747,1.0771192,1.2750964,1.4128902,-0.6853606,-1.8408897,-0.75749564,0.76780194,-0.33283246,0.8279218,0.33045194,0.7724305,-1.4444032,-1.1176795,-0.33001372,1.1354204,0.09145141,1.8033618,0.5313374,-0.64681673,0.087992884,0.6397315,0.7961783,1.1514045
hazardous_or_poisonous_substance,-0.38250655,0.80366755,0.8544268,0.89128816,-0.2328308,-0.2838195,-0.11443741,-0.8713036,-1.3775187,-0.64113766,-0.2921638,-0.40736863,0.5138544,0.7430744,-0.06941909,-1.4157658,-0.31280935,-1.0291657,-1.1087928,1.587388,-0.13812436,-1.1036226,-0.34929147,-1.0200169,-0.46514866,1.6917003,-0.23668917,-0.00885808,-0.8454323,0.9137685,0.48461488,-0.06499518
chemical_viewed_functionally,-1.6304445,0.07020446,0.39427438,0.59919333,-1.1569086,-0.42667213,-0.3110487,-0.14886457,-0.93599606,1.2702668,-0.045103725,0.36969137,0.3219567,1.3104366,-0.32047877,-0.8504957,-0.4701875,-0.45764855,-1.7477143,1.3184958,0.6101126,-0.37889773,-0.15293494,0.4556617,-0.62151754,1.4539617,-0.89615875,-0.742647,0.17601109,1.7414914,0.9243661,0.76040304
reptile,-0.6404697,0.06735356,0.990876,0.33079344,0.4697255,-0.7010458,0.08758371,0.21146005,0.4931261,0.33945954,-0.3709274,-1.2554486,-1.0834719,-1.5440272,2.3534813,1.1611354,1.7677466,-0.58630276,-1.6282064,-1.3562505,0.16960067,0.5166751,-0.99776703,0.31384373,-0.23132388,1.9858147,-0.31600708,1.0636584,0.44614404,1.1535889,-0.5518707,1.0026705
family_group,-0.4405414,-1.4703431,-0.7340738,0.30403283,-0.09785894,1.5998465,-0.0092722215,-1.6827881,-1.2154186,-0.026497962,-0.62558377,1.2452918,0.52590966,-1.2808182,-0.24334994,-1.7549244,0.4942343,0.06268847,0.29308572,-0.16178876,1.1019337,-0.68015885,-0.13979623,-1.127149,-0.34119076,2.013129,0.6683611,0.9761239,1.6971292,0.7600658,0.9064104,-0.82326543
virus,1.6857493,0.83254164,0.639893,-1.1478775,0.9717733,-0.13851182,-0.82706374,0.4440884,-0.10215216,0.65116125,0.48601067,-0.8998058,-1.3393649,-1.0531989,0.88023686,-0.087214656,-1.0418028,-0.58719337,-1.8280888,-1.1507351,0.5251494,1.6650295,1.1838746,-0.7451372,0.5160758,1.8748846,-0.11477558,0.062927015,-0.08260198,0.93977433,0.39748463,1.2523234
indicator_reagent_or_diagnostic_aid,-0.7386534,0.67617875,0.59830004,-0.2610942,-0.8285294,-0.7271016,-0.26994422,-0.5692111,-1.0590445,-0.051946413,0.5364626,0.19483568,0.20771219,1.4239568,0.38936108,-0.94295263,-0.8053079,-0.014620255,-1.4647901,1.0131385,-0.15311025,-0.30596778,0.20892993,-0.91491127,-0.09971259,1.794642,-0.42173922,-0.32159075,0.29199213,1.525779,1.096276,1.0961485
sign_or_symptom,-0.47617793,-0.00851396,-0.07614788,-0.20536825,-0.26458326,1.1795689,-1.9587351,-0.022403046,0.94419146,0.5618251,-0.013940587,0.27729872,1.1042219,-0.37569156,-0.6783001,0.43998453,1.0858557,-0.335135,0.6264545,-2.3932192,-1.0283,-0.6770105,1.6457759,-0.57265145,1.2702091,1.7379574,-0.31220657,-0.40299645,0.63906986,1.045358,0.8970073,-1.0181237
antibiotic,-0.44413564,0.20351548,0.5396939,1.1266158,-1.9026567,-0.17377177,0.37301052,-0.7671286,-1.2525781,-0.7209831,-0.4428635,0.37275654,0.3277712,1.0005823,0.8204539,-1.6239848,-0.88392913,-0.9429121,-1.1162846,1.2000434,-0.14324391,-0.6632907,1.4488742,-0.9419779,-0.50276995,1.6064148,-0.13207728,0.6948684,-0.50379026,1.116914,0.67903,0.292243
chemical_viewed_structurally,-0.34827235,0.10947219,0.063116506,0.12759104,0.272922,-0.71252126,0.025620077,-0.7874149,-1.1137586,-0.21779382,-0.091186084,-0.24176165,-1.6277657,1.176052,-0.34196874,-0.617669,-1.2283984,-0.30465996,-1.6938959,0.7788341,0.9716839,-0.2004228,-0.69469774,0.5675356,-1.2237264,1.733697,1.2796686,-0.20567131,-0.2612008,1.4293996,0.71513045,0.4033964
body_space_or_junction,0.4133947,0.8586414,-1.7522955,0.8505853,-0.5561307,0.81398064,-1.4794856,0.025928674,-1.2116153,-1.5251254,2.0579612,-0.68650377,-0.20311564,-1.130517,-0.10097014,0.68039936,-0.51435673,1.4586926,0.5795517,-0.33370104,-1.2172766,1.0613097,-1.5434153,0.3054545,-0.59934765,1.7590729,-1.3676027,1.6962601,0.7484931,1.145441,-0.24191213,0.67687374
amphibian,0.43132362,0.79714215,0.96546894,0.62768734,0.6880562,-0.3569959,0.51932645,0.2727054,0.29122445,0.9275734,-0.10616342,-0.6718032,-0.106601715,-1.5526497,0.9483661,0.9130886,1.0640843,-0.65654945,-1.5629135,-1.4095644,0.074459404,1.1884532,-0.5517436,0.7012288,0.36453348,1.9878592,-0.19060828,0.15813293,0.5165102,1.1318548,-0.1992252,0.9053006
health_care_related_organization,-0.17011489,-1.5717939,-1.0624518,-1.2863867,0.76266325,0.8155214,-0.109785646,-0.40330374,-2.198476,-1.0068345,-0.21345025,-1.5508616,0.8679214,0.13760182,0.48457223,-0.6979408,-0.40117306,1.1699631,0.80628496,-0.47644082,1.125708,0.3350215,-1.7108978,-0.73017675,2.1181834,2.3377147,0.39720187,-0.6144475,0.018614123,1.2811143,1.2841916,0.3780771
fish,0.34335586,0.07292328,1.1301233,0.41099903,0.70880103,-0.17583846,0.99520004,0.37210792,0.48838812,0.5182693,0.1327657,-0.3304293,-0.7280962,-1.7824838,0.90315455,0.9119894,0.34509382,-0.18260492,-1.590036,-1.0239766,-0.25926328,0.8074533,-0.6968787,0.7209044,0.56114113,1.9567105,-0.59096223,0.37717912,0.5912622,1.3281106,-0.527176,1.1982301
physiologic_function,0.48844936,0.8206413,1.1577749,-1.161458,-0.74148124,-0.7890081,-0.32642937,0.74077344,0.85247964,1.0818065,0.96397525,-0.6450451,-0.8466291,0.37950817,0.032470584,0.7647361,-0.24585584,0.46373978,0.9735215,0.84438056,0.049961288,0.8771026,-0.7218865,-0.11000507,-1.2208012,0.8888141,0.2508334,0.43762738,0.58321303,1.4744074,0.08383243,-0.13614155
animal,0.75559735,-0.05228434,0.9207368,0.86934984,0.9477915,-0.06582587,-0.3909111,0.1288966,0.65504354,0.2446536,-0.18566397,-0.6066871,-1.0370581,-1.7299211,0.30042052,0.6954339,1.1777395,-0.93582255,-1.7409948,-1.1678576,0.045939732,0.7663983,-0.7130122,-1.8308874,0.5376186,1.7838082,-0.14204788,1.2434297,0.62667,1.625515,-0.372511,0.8545223
injury_or_poisoning,0.7180459,-0.10953715,0.49450853,-1.1052563,-0.050583944,0.9179919,-1.2742279,-0.96250075,0.34570265,-1.4565445,-0.115625136,0.2487452,0.25789472,0.07767934,-1.3282164,0.9151975,-1.0155462,-1.6641669,1.2603046,1.8360904,0.2373534,-0.20501032,1.0740939,1.0774871,-0.045733854,1.1400282,0.06891013,-1.1063359,-0.5997341,1.1359844,-1.0542723,-1.292952
lipid,-0.11970158,0.55525744,0.49342272,-0.31985444,0.3058118,-0.49300334,-1.7144213,-0.35430074,-1.0547227,0.65671206,-0.050303455,0.38377285,0.24268997,1.6277113,0.5731082,-0.76201546,-0.48002324,-0.71626073,-1.6181555,1.1140342,0.8181145,0.4130096,-0.4369022,-0.54681635,-0.22312292,1.8236244,1.5390126,-0.39095846,0.2698818,1.172088,0.3791397,0.50898546
plant,1.3043672,1.2212164,1.0322143,-1.634961,0.0057197716,-0.7524823,-1.3380963,0.35790026,0.312234,0.6690547,-1.3316281,0.1274327,0.30068436,-1.6586156,2.1305501,0.3554425,-0.7822677,-0.09523294,-1.4313905,-1.578898,-0.83969027,0.738888,-1.2259105,-0.06967523,0.006953444,2.1412592,-0.9481204,0.08539974,0.91414267,1.1564004,-0.21207036,1.5359493
organization,-0.49322084,-1.6174914,-1.08381,-1.3616846,0.8502614,0.7106918,-0.873833,-0.63681763,-2.1081285,0.59234434,0.26407135,-1.1359539,0.5489971,0.2208548,0.58436906,-0.21658814,-0.012001539,1.1364626,0.39289838,-1.0429537,0.5113512,-0.10071152,-1.6062443,0.8866082,1.4242089,2.1397517,-0.38193113,-0.26529923,0.12318172,1.1633201,1.343465,0.056891415
genetic_function,0.6226839,0.58038276,1.2235847,-1.54092,-0.47466466,-1.0232404,-1.0157449,0.9426416,0.725362,0.90339154,0.330862,-0.65101457,-0.427903,0.5131807,0.039972723,0.85008734,-0.64243454,0.4342456,0.5368274,0.8546191,-0.90940744,0.8035641,-0.90607077,-0.15477839,-1.0185001,0.88357466,0.29570004,0.55697733,0.8136585,1.3979545,-0.18530633,-0.3961114
gene_or_genome,1.282674,1.2073162,-0.06971364,1.8424964,1.1638016,-1.1083148,-0.64784753,0.42125782,0.5949517,1.9274466,0.83941185,0.60665435,-1.667439,-1.5275822,-0.52914834,-0.15213159,-0.48622936,-0.58760273,0.83415806,0.9404535,0.75491524,-1.2493991,-0.745898,0.6376873,0.18413438,2.196951,-0.039763063,0.20572415,1.6372901,0.8808063,-0.3657532,0.3795525
laboratory_or_test_result,-0.8464958,0.9428523,-0.011016003,0.987145,-0.24701278,0.61505175,-0.46206856,-0.60819656,1.1099396,-0.1803488,-0.55695355,-0.76285225,0.83863527,1.6526662,-0.72878337,-0.28053993,0.8917111,-0.24203774,0.3260858,-2.3164408,0.023141215,-0.7994041,1.1034662,0.50443834,1.9385109,1.44558,-0.33235994,-0.005807203,0.3635424,1.1711831,0.24887256,-1.098977
spatial_concept,-0.16649641,0.92589474,-1.750292,-0.9836935,-0.2095685,0.40457243,0.72041345,-0.345697,0.17209747,1.4458228,-0.6467934,0.6653764,0.3066671,0.43367592,0.48008102,-0.11860544,-0.36514026,-0.13577583,0.6579975,-1.9876021,-0.94695985,0.2313177,-0.72723305,-0.111486234,-0.7171734,1.9293311,-1.7925264,1.7644615,0.8497886,2.5462213,0.14210342,0.36777478
rickettsia_or_chlamydia,1.9007461,0.7507123,0.895838,-0.7236864,0.57941276,-0.21889092,-0.48967713,0.5500238,0.3092295,0.7061073,0.92660826,-1.5792412,-0.27265316,-1.4300233,0.5188699,-0.010171969,-0.2005885,-0.33640176,-1.596133,-0.69193923,-0.18370445,1.4911549,0.27232832,-0.77626,1.0253297,2.023423,-1.1421722,-0.06584354,-0.27411878,1.0133013,0.49195454,0.7634733
body_substance,0.012290908,1.428536,-1.4673721,-0.38893968,0.7166068,0.48411396,-1.6074924,-0.6744245,-1.5950862,1.4175626,1.3322903,0.99800915,1.8643042,-0.7935342,0.21774714,-0.090303496,0.01515042,0.5389865,-1.0575142,1.146543,-0.119746715,0.2821367,0.17111592,-0.77971303,-1.3914615,1.6626971,1.1642617,0.3509212,-0.48776826,0.8483189,0.47954342,1.6562991
intellectual_product,0.49019343,-1.651033,-0.9923881,0.33792388,0.94422615,0.7047184,-1.0143222,-0.044689536,1.2095782,-0.07303236,-0.5809748,-0.730661,0.09872983,0.72994155,-0.18822955,-1.5142584,0.4791778,-1.7574352,-0.22328475,-1.6363025,-0.57428914,-0.4335183,-1.624628,0.063064516,-0.042204533,2.1533294,1.268563,-0.55610055,0.6488202,1.090318,1.4254991,0.6859181
element_ion_or_isotope,-0.55979574,-0.16194782,0.41399044,0.0836848,-0.83069175,-0.8742304,-1.3468553,-0.9633508,-0.7833009,0.08383291,-0.25226346,0.025660973,-1.5375217,1.0374036,-0.0818883,-0.63678026,0.452133,0.20734994,-1.6804329,1.2419895,-0.26860175,0.14893515,-0.97474384,-1.0607721,0.24414632,2.1804507,0.5641839,-0.14580198,0.0036512807,0.9289024,0.80307585,1.2205653
research_activity,-0.6972506,-0.9703025,-1.2114195,0.36870673,0.07080638,-1.3847798,0.17486805,0.21306513,-1.2998507,0.28749785,-0.028955232,0.12668787,0.17407121,-0.41607955,-1.1304904,-0.5348121,-0.4632967,-0.79607975,0.8417127,-2.1232455,1.4079213,-1.0776861,0.6421675,0.9021362,0.8796863,1.8704935,1.044361,0.12974916,-1.21152,0.49808303,-1.3094456,1.5547855
geographic_area,-0.5825505,0.022431612,-1.3482085,0.32725993,0.45130658,-0.4398942,-0.68466455,-0.98478734,0.58888775,-0.7723649,-0.41225612,-0.027291767,-0.5219075,0.24310526,0.406417,0.012459298,0.5613093,-0.031548504,1.264259,-1.7155417,-0.9041135,-0.053298812,0.5485126,0.27490112,-0.8714502,1.9456987,-1.3639532,1.6456325,2.0752413,1.6344148,1.0307789,0.42514223
professional_society,-0.9707451,-1.7081861,-0.8642085,-1.818682,0.76358736,0.39214206,0.5097377,-1.135069,-2.1384242,-0.9445164,1.2675661,-1.2225624,0.82928175,-0.4040912,-1.2746061,-0.57187736,-0.09776716,0.86201197,0.28897205,-0.19528721,-0.90127987,-0.0515572,-1.9316348,-0.38696873,1.1968879,2.3288069,-0.39219934,-0.16048642,0.3702234,1.1200411,1.1951011,0.31034395
organophosphorus_compound,0.20910431,0.8925852,0.39276156,-0.20862442,1.1633382,-0.9205959,-1.2334281,-0.3588175,-1.1686327,1.0909988,0.09373304,-0.36458758,-0.6821285,1.2594533,-0.44112062,-0.6532935,-0.0632842,-0.1062831,-1.4516293,0.9201917,-0.64603776,0.36976078,-1.4794462,-1.1370407,-0.29439783,2.0352895,0.89342594,-0.49537635,-0.13316362,0.987507,0.528517,0.42519885
body_location_or_region,0.41304117,0.7633743,-1.5099685,0.7007465,-0.76729834,1.8982127,-0.60446566,-0.09556366,-0.26306838,-1.4605114,1.650136,0.38605374,0.23873344,-0.26172715,-1.0293603,1.0138211,-1.4471883,2.1421514,1.0253158,-0.78357106,-0.55956274,0.6127762,-0.9675795,0.1543158,-1.1589884,2.3824937,-2.0507257,0.45284784,0.6052721,0.8320362,1.1866146,0.7121381
invertebrate,0.4249479,-0.43903884,0.9380945,0.6636468,-0.5060839,-0.17459615,-0.008878195,0.089246996,0.45866257,0.68941367,0.038282618,-0.41120768,-0.57726187,-1.5707959,0.97776234,-0.36249113,0.20167996,-0.69868046,-1.5159822,-0.72282994,0.61639416,1.9791865,-0.19343738,-0.03981298,-0.7181976,1.9965391,-0.43003547,-1.0706038,0.2704193,1.2470083,-0.22761062,2.0064113
age_group,-0.7391859,-1.1521645,-0.7309452,0.17259188,0.17311439,1.2614545,-0.024475953,-1.3577857,-1.4986441,0.42836425,-0.58547014,0.90001124,-0.007455607,-0.8619198,0.17862242,-1.8682435,-0.26223773,0.3431049,0.33990484,-0.20737642,0.93646836,-0.60641074,-0.021349208,-1.5378617,-0.48694134,1.9723325,0.43170896,0.9038293,1.6339921,0.66615415,0.34923112,-0.97338516
human_caused_phenomenon_or_process,1.2983855,-0.016569862,-0.4075729,-1.4260291,-1.1020634,1.0300697,-0.00015620835,-0.40004745,0.45072898,0.013930429,0.051885553,0.28277352,0.46374243,-0.13485438,0.20690551,0.06871659,0.5229863,-1.5998006,0.94739467,-0.124047115,0.40598574,-0.13498259,-0.08164679,1.5295935,-1.7192066,1.457047,0.06365878,0.81099015,1.0428518,3.1444674,-0.34422654,0.8168074
phenomenon_or_process,0.28095406,-0.44589245,0.038248647,-1.7099731,0.08512022,-1.266946,-0.16544859,-0.4351155,0.4701696,-0.8167932,-1.9421939,0.22244188,0.58507293,0.709647,0.56609684,0.6846034,-0.4685073,-0.782479,1.471205,0.6699025,0.5979428,0.8876657,0.18393101,1.0122685,-0.6242257,1.5917484,0.6308799,-0.5927681,0.7987014,3.417225,-0.22585943,0.6153044
individual_behavior,-1.4868208,-1.543115,0.40798426,-0.02311857,-0.32622173,0.39686865,-0.33185,-2.2071857,0.71861166,1.5769689,-1.5444092,-0.8365301,1.1790547,0.8547958,-1.0594351,-0.03579309,-1.1007487,0.038794387,0.9089489,-0.17015256,0.9682667,0.33385795,0.39668515,-0.5665129,-0.1991344,1.2033621,-0.19312385,0.9365231,-2.401105,1.9166534,-2.1783907,1.7762902
bird,1.0451201,-0.2274233,0.8886486,0.37463394,0.5578765,0.24776316,0.048294216,0.5321753,0.33714104,0.30832043,-0.20917393,-0.17313924,-0.9015387,-1.9445552,0.6990162,0.6138157,0.19453263,-0.84327316,-1.4836854,-1.2157599,0.117249176,0.7524724,-0.04589966,0.045912303,0.20999618,2.0253382,-0.7508284,-0.5826072,0.63323176,1.7243637,0.2680268,1.2425478
mammal,-0.011836197,-0.00725991,0.78440154,1.0140185,1.1267635,-0.49071252,-0.13996136,0.50734603,0.20340705,0.028632222,0.1419053,-0.50205857,-0.3441304,-1.7525146,1.2052927,0.24529424,0.16580379,-0.4145504,-1.4263647,-0.7742079,0.15485352,0.7846838,-0.34118962,0.72024596,0.6890816,1.8397337,-0.06240542,0.36421117,0.39533487,1.4782112,-0.6163823,1.3624964
qualitative_concept,-0.6799663,-0.45162642,-1.2655749,-0.07486728,0.6675214,1.6828787,-0.9303539,-0.83754253,-1.4417138,0.5659896,-0.4335955,0.5214776,0.023774847,0.60988176,1.0536315,-0.40020004,-0.08176302,0.058560837,0.49069288,0.43688416,-0.51778215,-0.21160102,-0.52655673,-0.9206371,-1.0916114,1.7377291,-1.0286932,0.8336557,-2.2738237,2.0448272,-0.3040711,0.4897322
environmental_effect_of_humans,0.94826025,-0.34056938,0.13510275,-1.3722013,-0.9937559,1.2375968,-0.13367504,0.5465665,0.29974705,-0.54530907,-0.6819121,0.5601147,0.35289013,0.8890017,-1.4622552,0.48833004,-1.2105987,-1.4659793,1.0716242,0.3229127,-1.039442,-0.4619566,0.24485934,-1.4373026,-1.1565424,1.4687797,0.51793194,-0.7129518,1.3322803,3.3380675,-0.5475137,0.061505336
social_behavior,-1.5630301,-1.6823698,0.12325866,-0.66652155,-0.11411736,0.2836156,-1.1636453,-2.2976105,-0.037016172,1.7936767,-1.2370065,-0.8463809,0.46377933,1.6332057,-0.48506638,-0.123078786,-0.3893278,-0.5908645,0.8354847,-0.119901665,0.09440308,1.6009222,-1.1116188,0.1860945,0.10598406,1.394014,-0.39464927,1.2089279,-2.687242,2.0104704,-2.1336634,0.8595442
biomedical_or_dental_material,-0.06338008,-0.08211623,0.4924116,0.054069106,-0.22830151,-0.48058364,-0.97582453,-0.3572544,-1.3201332,0.65750515,-0.042257175,-0.32478422,0.71600425,1.4695544,-0.122767754,-1.1351748,-1.8272645,-0.83480453,-1.8451633,1.0549259,-0.021823224,-1.0290719,-0.48198235,-0.5174936,0.47210988,1.6969733,-0.5708,0.25332788,0.9439664,2.1481395,-0.3340395,1.0239745
quantitative_concept,-1.9753908,0.93351597,-1.0678408,-0.22221462,0.46094772,0.8570483,-1.5227088,-1.1577957,-0.62967616,-1.0242629,1.3703741,0.60606205,-0.4926327,0.7884663,-0.040310778,0.471026,-0.09055813,-0.9794345,0.52276003,0.69973266,-0.99693614,1.1967168,-0.3804595,-1.1718396,-0.8451462,1.8585982,-1.7552044,-1.2040472,2.0000494,1.328633,1.4074512,0.46989748
inorganic_chemical,-1.042715,0.40527338,0.53835344,0.040931642,0.15252742,-0.8511375,-0.6477281,-0.63443494,-1.3789622,0.8520957,-0.26295254,0.25720674,-0.09788819,1.1437435,-0.20306385,-1.0399481,-0.3834978,-0.7316305,-1.4917495,0.87412083,0.633003,-0.5385929,-0.39949536,-0.9053654,-0.3557788,1.8438363,0.51057994,-0.18816139,0.5166802,1.4013681,0.9493653,0.80300087
drug_delivery_device,0.29575974,-0.8866657,-1.8421973,0.7457685,-0.45155284,-0.16463806,0.23913704,0.11457798,0.27691776,-0.14459881,1.0929421,-0.20763183,0.13168792,0.79223293,-1.4377091,-2.461654,0.7269395,0.1876837,-1.2634853,0.17733426,-0.31334355,-0.13030337,1.500432,-0.25834492,0.7888899,1.9708633,-1.5002204,-1.5505998,0.31317407,1.4631541,-0.342094,1.0457102
educational_activity,-0.8084982,-0.7655786,-1.461789,0.9692899,-0.38076672,-1.4081309,-0.7755169,0.052760504,-1.5668569,0.6773581,-0.24877702,-0.4128244,1.3575914,0.79941803,-0.32249618,-0.4193353,1.2078121,-0.7013919,0.82226616,-1.1931202,1.3009074,-0.13085163,1.1767199,0.26809978,1.0145061,1.9509416,0.4712941,-0.67798585,-1.3123221,1.030562,-0.7675835,1.188383
chemical,-0.42284828,0.66284937,0.3093674,0.15496853,-0.34344834,-0.5471254,-0.22408944,-0.3080226,-0.6097789,0.04799168,1.488116,-0.08452327,0.1437804,1.1534293,0.012756646,-0.89681673,-0.081624836,-0.9248315,-1.6998304,1.1713523,-0.47350454,-0.090379745,-0.55202144,0.7582373,-0.05188492,1.4879504,0.5194291,0.31209603,-0.17518105,1.96821,1.1787595,0.58222526
vitamin,0.6361712,0.52774405,0.7904923,1.2012826,0.15503483,0.43418026,-0.24310331,-1.1694739,-1.0040345,-0.6200427,-0.5516183,0.19379328,0.7309392,0.7535811,0.43344975,-0.5233241,-0.38075638,-0.43460286,-1.4782426,1.3747185,0.07267711,-0.3906976,0.7371208,-1.120146,-0.11714033,1.812327,0.15976396,-0.102540575,-0.38787857,0.6617976,0.9769218,0.33609214
fully_formed_anatomical_structure,-0.029291205,1.2941313,-2.5540128,1.2664663,1.6564054,-0.78671074,-0.16879313,0.3461919,0.41130227,0.37520173,0.7722786,0.2537575,-1.6701277,-1.8832184,1.4523221,0.51984096,-0.7201186,1.2265315,1.1879438,0.6091,0.62715036,-1.3305678,-1.2275683,-0.09721376,-0.20656495,1.9568202,0.77058744,-0.14652807,0.17431083,0.8310509,0.7794005,0.16678795
group,-0.6543333,-1.8145188,-0.7287198,-0.13898534,0.060061112,1.1960653,-0.9160586,-0.77490485,-1.2511907,0.084549,-0.36349475,1.4720701,-0.21068305,-1.1126806,0.34996063,-2.0168762,0.2066537,0.067829035,0.5236932,-0.71096176,1.2088056,-0.34331685,-0.4397225,0.33336172,-0.6158002,1.9724525,0.56219673,1.1760039,1.3453966,0.91364694,0.93471104,-1.316934
nucleotide_sequence,-0.7917069,0.8905453,-1.4533983,-1.5876869,0.66143316,0.48999748,-0.8764584,-0.5390011,-0.08529558,-1.4572431,-0.14613554,-0.41261426,1.0654995,0.30975017,-0.5209463,0.006179381,0.27154592,-0.2865193,0.22924794,-1.8819631,0.14938755,0.1269539,-0.86721426,0.03441891,-1.1334314,2.1904986,-0.666434,1.7198352,2.073576,2.186384,0.33364713,0.391416
body_system,-0.6649865,0.21997587,-1.6043043,0.1850391,1.4040538,1.6963468,0.5206463,-1.0655118,-0.14001386,-0.4937934,0.39638624,0.7518343,1.9480318,-1.223921,-0.8956877,0.45623842,1.6660922,2.345973,0.06661552,-1.4635433,0.91355014,0.6361268,-1.9837186,0.023656884,-1.1472216,2.478735,-1.183612,0.41212484,-0.97513974,2.2437544,1.444962,0.21574573
food,0.13763055,0.6622172,0.6145102,0.7345834,-1.6155729,-1.1694605,-1.4011438,-1.1648299,-0.095856674,0.38352737,0.4972037,-0.052159794,0.14400613,-1.030231,0.52329594,-2.1859183,-0.26463494,-0.83342284,-1.4497533,0.6403967,1.1461694,-0.11810722,0.15283917,-0.82267034,-0.057162303,2.0821028,0.3480393,-0.9858717,-0.65835875,1.7215012,-0.47931597,2.0847101
bacterium,1.5474917,0.5771524,1.2327933,-1.0158427,0.26486146,0.28969672,-0.8102987,0.41970247,0.41033652,0.5727535,1.0429548,-1.2787817,-0.6453444,-1.2244571,1.1631047,-0.06935508,-0.27434736,-1.0993508,-1.3179743,-0.5271694,-0.110999465,2.4395132,-0.37724525,-1.6344389,0.18824333,2.0610125,0.49959528,-0.97743356,0.6215554,0.92528504,-0.84609604,0.96371084
fungus,1.9429537,0.9893053,0.8448625,-0.7292421,0.17392173,-0.3572656,-1.3102715,0.3499233,0.19166124,0.6545559,0.08988329,-1.4512119,-0.37594214,-1.0552111,1.2629944,-0.04768815,-0.46475235,-0.65785956,-1.6095091,-0.93181944,0.16793534,1.730099,0.010278303,-0.06518617,-0.052142147,1.8921287,-1.069041,-0.21695445,-0.21735114,0.92509043,0.03639778,1.2554625
research_device,-1.0336622,-1.6574068,-1.4946735,-0.35611993,0.3095133,-0.59975356,0.28497964,-0.44583574,1.5279704,0.53920716,0.17783618,-0.5429383,0.6442414,0.34795836,-0.4115999,-1.9627854,-0.48073357,0.4541702,-1.5578305,0.98341995,-0.89534235,-0.008898802,0.06555127,0.6448882,-0.8299371,2.0536654,-1.5132843,-1.446084,-1.0313967,1.3362107,-0.7769085,0.5275873
governmental_or_regulatory_activity,-0.7950151,-0.5791394,-1.4791951,1.3160223,-0.047169935,-1.1800402,-0.63410383,-0.28451958,-1.4122864,-0.06487345,-0.20607984,0.076343134,0.7701343,1.1294432,-0.11903969,-0.11831775,0.13996197,-0.13848886,0.4776932,-1.1868637,-0.11866742,0.0015004796,0.90738565,0.61693925,1.5108532,1.871457,1.2233466,-0.39741787,-0.85415107,1.3624132,-0.41603586,1.6269314
idea_or_concept,-0.4060652,1.653374,-1.6749202,-0.5827455,-0.04418642,0.818194,-0.075376995,0.83985704,-0.6808141,0.88578063,-0.20247084,0.07552305,1.3046036,-0.17926273,0.3187098,-0.43087673,2.0035493,-0.030375483,0.37263343,-1.2093459,1.3278137,0.043984767,-2.1352131,0.8528565,-1.1173273,2.04755,-2.3945842,0.6856645,0.7991592,1.6468076,1.0853369,-0.11116126
occupational_activity,-0.8654378,-1.0551976,-1.109606,0.65030766,-0.7097996,-1.8399893,-0.66029066,-0.48903173,-1.812321,-0.042795274,-0.3957094,-0.042788737,1.6817151,0.4698672,-0.12391521,-0.22100286,-0.067368135,-0.18649288,0.86477697,-1.5336415,1.0009198,-0.22901551,1.0144492,-1.1531901,1.4727348,2.0703757,0.34568244,-0.3991339,-1.119437,2.013004,-0.70521843,1.0278692
physical_object,-0.9679103,0.10750368,-1.4209836,1.05336,0.41008973,-0.21710116,-0.3401299,1.1317062,-0.07941602,-0.81371105,-1.2238562,-0.3931334,-0.57440406,-0.35042432,-1.1217681,0.5883771,-0.07296523,0.1146422,-1.4644053,1.0197959,0.23600936,-0.6994729,0.3158841,0.021858681,0.7226156,0.34974337,0.09804638,-0.2876471,0.11043822,4.0589757,-0.5173616,-0.26922664
vertebrate,0.71108335,0.31406623,1.1310055,0.7025397,1.0086726,-0.21329026,-0.3762563,-0.21226527,0.37154526,-0.61363405,-0.12030343,-0.24531569,-0.5581719,-1.6827147,0.10437073,0.6685904,0.65170175,0.1733663,-1.4932765,-1.4309192,-0.20263919,1.1697555,-0.71398747,-1.2554752,0.3606569,1.88248,-0.86800665,0.20762105,1.0841733,1.5171493,-0.1413044,1.1874088
substance,-0.38717154,0.7751275,-1.8969592,0.4946369,-1.1449447,-0.45417452,0.6715239,0.724286,-0.8827686,0.02256094,-0.45773032,0.28560457,0.26535454,0.100296,-0.23393704,-1.3321497,-0.9811466,0.7007987,-1.826414,0.9727579,0.52975416,-1.4572839,-0.67722017,0.7737391,-0.8327138,1.3537341,0.40499458,-0.574289,-0.14389586,2.4456701,0.13910058,0.95476073
medical_device,0.104777254,-0.6916259,-2.2644112,0.369811,-0.9002983,-0.09541796,0.36316615,-0.5522323,0.82387424,0.66936374,-0.16478445,-0.14689995,0.58830154,0.5382314,0.15413691,-1.9449211,-0.06609657,0.6996707,-1.1860634,0.06476892,-0.7008788,-0.9856731,1.5007885,0.851248,-0.061287068,2.020369,-1.9520794,-0.92698884,0.20994751,1.5085044,-0.48747027,2.0069125
manufactured_object,-0.3737018,-1.58081,-2.2904465,0.16290066,-0.2791521,-0.23189048,-1.3238896,0.09341245,0.88988996,0.60539323,0.16470031,-0.120694965,0.32855675,0.66922027,0.58438355,-1.9605838,1.1243312,0.08618673,-1.2735515,0.088601425,-0.5165969,-0.3677845,-0.1006526,-0.062666744,-0.86959004,2.0094857,-2.5703661,-0.99458605,0.34736598,1.3172534,-0.42440936,0.83849853
classification,-0.118143596,-1.2675788,-0.58127457,0.20284544,0.86236984,-0.11499736,0.4137459,0.38634318,1.0919938,-0.9622029,0.14195074,-0.70304817,0.4131489,0.46019393,0.7928835,-1.5312943,-0.08655447,-1.3897163,-0.42083544,-1.08734,-0.66157866,-0.54027706,-1.793277,-0.14452827,1.4631729,2.8918426,-0.19821113,-0.79520845,0.7895232,0.83196926,0.5200132,0.47464153
daily_or_recreational_activity,-1.5158454,-0.34189954,-1.9293733,0.30953074,-0.45333543,-1.4854611,-0.9864463,-0.38785875,-0.6894167,0.22706562,0.2018306,-2.1035366,-0.043557886,1.1088274,-0.22944666,-0.5072283,0.03503787,-0.05743461,0.5677713,-1.6718751,0.19020057,0.6067358,0.85671365,0.78741765,0.12932265,1.8394035,0.8739425,0.7816049,-1.3865023,1.3928872,0.26698667,1.9310799
conceptual_entity,0.034716196,-0.742789,-2.5431366,-0.5950318,0.57012624,1.1876698,0.81746846,1.3105192,-0.36690497,1.03419,-0.4295247,0.58062094,0.04485535,0.03180266,0.52413744,0.057567727,0.23985507,-0.32019243,0.28387013,-1.3796077,0.008155679,0.092905164,-1.4237691,0.92709684,-0.11125334,1.0763891,-0.00085274514,0.40715173,0.18988192,2.9290504,0.79768753,0.78480995
occupation_or_discipline,-0.53582776,-0.43459493,-0.8127255,-0.056670062,-0.5177352,0.7726766,-0.25837114,-0.08782752,-0.913042,-0.0018392093,-0.4299749,0.7260951,-1.2470604,-0.04234988,0.5822497,-0.11494925,0.26037058,-0.7591534,0.06806443,-1.0915422,0.060372576,0.09947067,-1.7422757,-0.5674861,-0.14901043,1.6773416,0.19590668,-0.42673093,-0.19816731,-0.030324452,1.48993,-0.37219873
amino_acid_sequence,-1.014166,0.22596844,-2.355616,-0.8666428,0.2668044,-0.09714446,-1.5424118,0.6276441,0.48651218,-0.9103245,-0.66359407,1.407728,-0.7170246,1.9235418,-2.6283154,0.07679495,1.4577856,0.6896198,0.17574394,-1.9440624,-0.627788,0.8144588,-0.95857483,-0.26683363,1.0015974,2.1801023,-1.4071672,0.94070774,1.0005099,2.418041,-1.0629845,0.8553828
clinical_drug,-0.42575896,-1.1809919,-1.7186918,0.02474664,0.017473275,0.406938,0.3786926,-0.069166124,0.45764488,0.21593414,0.5157416,-0.9629285,-0.89681935,0.50754184,0.47613713,-2.252468,-0.7929556,0.3842691,-1.3587059,-0.79067576,0.034456115,-0.008561391,-0.48132032,0.2621136,-1.1554563,1.6582482,-1.0534861,-0.7700772,-0.32512936,1.2357448,-0.2150949,1.4236606
activity,0.6435962,-1.4653708,-1.8965982,0.16495454,-1.2223728,-1.553814,-0.646896,1.0566921,-0.6140882,-0.8660214,-0.7204571,-1.2542669,-0.06308106,1.045111,0.096729964,-0.7464607,0.9086061,0.07362662,0.65185255,-1.3285834,0.8959072,0.041980907,-0.20895645,-0.6860922,0.54137206,1.915901,1.242669,0.32672885,-1.7624084,2.2530212,-0.7863955,0.60213757
event,-0.5046508,-0.4589576,-1.2100267,-0.9096693,-0.79154444,-2.0540035,1.0996217,0.10827068,-0.23762994,-0.871201,0.016486172,-0.49393988,0.74691784,0.7402968,1.0279479,0.053681977,0.4486657,0.7678122,1.2451223,0.3084122,1.3727485,0.7847414,0.18355432,-0.9891174,0.7492259,1.7303761,1.0709186,0.17690107,-0.23902121,2.5764775,-0.82661664,-0.38182878
temporal_concept,-1.3913294,0.047316812,-1.7413166,-2.016835,0.3620106,-0.15493461,-0.3491154,-1.5516644,0.48810568,0.31143472,0.20230034,-0.6708644,0.77647346,1.034435,-0.9058561,-0.5201882,0.0633907,0.3148665,0.5939751,0.5937929,0.96296185,-0.38015783,-1.6310385,-1.6523657,-1.7995569,2.2889588,-1.6399827,-0.2432323,-1.0504763,1.0531182,1.8630816,0.29841742
archaeon,0.6167152,1.0766633,0.9002014,0.30738923,0.3416411,-0.8571049,-0.13962667,0.88882357,0.72622275,0.41088516,-0.03160781,-0.631626,-0.097197086,-1.769335,1.6902665,0.2040118,0.95854574,-0.63740116,-1.2819809,-1.1369486,-0.031982437,0.47112465,-0.7202458,-0.23400764,0.26110882,2.1712086,-0.31358603,0.70714635,0.2779109,1.2670625,0.03987978,1.6655835
language,-1.0226307,0.03774899,-2.1370788,-1.166402,-0.45818993,0.7366877,-0.096240856,-0.49347553,-1.0310538,-0.7686818,0.5975438,0.26224515,-0.2236133,0.6768149,-0.28604564,-0.019285167,0.28988206,-0.80339146,0.08135967,-1.7125834,-0.8508805,-0.45854974,-1.2869,-2.1948836,0.40308967,2.578566,-0.65468985,-0.9602061,0.41189396,1.4713167,-0.07848914,1.0465448
biomedical_occupation_or_discipline,0.15622796,-0.48334053,-0.7313437,-0.10774133,-0.5831364,0.51849204,-0.46778268,-0.14803538,-0.422715,-0.6672112,-1.2628415,0.29870436,-1.4649502,0.64959264,0.062190335,0.15379378,0.17510182,-0.95439696,0.44615176,-0.9989507,-0.68505424,0.10617423,-1.2603779,0.5173857,-0.07814112,1.6859522,-0.09024709,-0.0655054,-0.13785675,-0.062825955,1.8460269,-0.14293623
functional_concept,-0.70118916,0.46580783,-0.9540239,-0.18544436,1.4616863,1.2664591,-1.0147587,0.5727024,-0.23007257,-0.91865426,-0.49716404,-0.18389234,0.9045436,-0.00012379064,0.2700145,-0.58795637,-0.6414715,-0.65795493,0.62880504,-1.3748566,2.448966,1.593565,-1.4410493,-1.1590139,-1.398062,2.0227115,-1.2953773,0.31964707,-1.0071048,2.2534554,0.33861202,0.46128252
machine_activity,-1.7528387,-1.0528685,-1.7253971,-0.51061475,-0.14099364,-1.7832944,-1.7088836,0.24362166,-1.099977,0.22523084,-0.19904067,0.1747939,0.5002041,0.06329046,-1.4338309,0.38035172,-0.86028004,-1.6881775,0.25527453,-0.7798016,-0.9629367,0.16895455,-0.58117527,0.28442642,-0.0431791,2.359968,0.6650294,0.36404386,-1.8606951,1.55619,0.47378674,0.46201345
entity,-0.6330176,0.3190639,-1.6053213,-0.09183541,0.108058035,0.61100036,-0.051536467,1.3752109,-0.32135093,-0.34868285,-0.6980565,0.13528588,-0.026290221,-0.2145951,-0.36198094,-0.013197784,0.1478184,-0.085098125,-0.8131905,-0.51974446,-0.6022144,-1.154124,-0.2176731,0.14023031,0.19030607,0.1454309,-0.13068798,0.37999168,0.3500081,3.3705106,0.6955729,0.43417758
carbohydrate_sequence,0.03918523,0.4640888,-2.9162974,-1.1466655,0.1617155,0.19934544,-1.6709497,0.082442194,0.3942519,-0.017669776,-0.19127432,1.3904907,-0.58480054,1.0935454,-0.9057249,0.1318689,-0.7757434,0.0753044,-0.31266293,-2.3692486,-0.7997639,-0.13152286,-0.23444828,-0.4031186,0.5095413,1.8698215,-0.6303495,1.1606215,1.2814293,1.9434078,0.020243613,0.76735026
organism,0.15610872,1.0872788,0.83287144,0.7652818,0.29824325,-0.2036195,-0.10508848,0.35757,0.45591563,-0.0024567165,-0.4969119,-0.43403548,-0.9229063,-1.2811537,-0.5385017,0.24976705,0.39837414,-0.40239814,-1.445903,-1.5850608,0.06969198,0.8641899,-0.90709156,-0.38505724,0.77823776,1.4912168,-1.1585711,0.20949844,0.48781627,2.107889,-0.29545292,1.0109203
