,0,1,2,3,4,5,6,7,8,9,10,11,12,13,14,15,16,17,18,19,20,21,22,23,24,25,26,27,28,29,30,31
acquired_abnormality,0.17999397,-0.36242044,0.019723227,0.09165498,-0.17088345,0.28598124,0.20553689,-1.33079,-0.6854976,0.50015354,-1.363701,0.9247238,-1.5752455,0.5221208,0.7488138,-1.5804294,0.44417918,-0.6179423,1.5445828,2.3769243,-1.0866685,-1.1411183,0.32904357,-1.8811526,-1.0331988,-0.06625748,1.084365,1.5428622,0.17505418,-0.9252706,0.30874178,-0.4626033
anatomical_abnormality,0.5037195,-0.50226295,0.19331537,-0.47475457,-0.38529357,-0.10771882,0.9483069,-1.8837934,-0.81360495,0.8255222,-1.1621361,1.0784447,-1.9364781,1.4707459,0.65955615,-0.26055172,0.50918925,-0.75016546,1.6431847,3.1110432,-0.53982115,-1.0853943,-0.35325807,-2.1475496,-1.1429807,-1.1502417,1.0115681,1.907566,0.023428682,0.061431583,0.019502724,-0.50110376
alga,-0.55519265,-0.5048092,-0.49471357,0.0029473836,0.17763881,0.68055284,1.2073693,-1.7644199,2.2776167,0.8471881,-1.1394383,0.7167428,1.741079,-0.28209674,2.5474868,-0.0725638,-1.6669785,0.06741259,0.2198988,1.656234,0.23548469,-0.62431914,-1.3438593,-1.1615851,-1.6580607,0.104944035,-0.40225247,0.55695325,0.8175588,-0.11092254,-1.0008869,-2.6097946
mental_or_behavioral_dysfunction,0.65171057,-1.6827035,0.8853299,0.40719578,-1.8478675,0.19104381,1.1681287,-0.4848337,-0.57925874,1.1596439,-0.8191437,1.1956202,-1.6052123,0.42007923,-0.09283409,0.6106597,0.95958525,-1.0510478,1.4826522,0.679157,-1.0887178,-0.99478406,-0.65183425,-1.3602495,-0.8013855,0.7895913,0.34395733,-1.2701149,-0.17578223,-0.7664756,-0.9200732,-0.94923306
health_care_activity,-1.1123704,-0.9485989,-0.32565218,-0.06263058,-0.71910256,-0.84995997,-0.016520945,-0.7471483,2.2657979,1.4661088,-0.15864135,-0.56773573,-0.7923908,0.06101514,1.0272386,0.11750525,0.4522136,-0.19594009,1.1874293,-0.1692051,-0.4945065,0.30003557,0.339599,-2.1413405,-0.5358791,-0.276348,-1.6888571,-0.38444063,0.7490547,-1.1155757,-2.7208247,-1.1332682
population_group,-0.8480904,0.65877056,-0.1498379,0.042580266,-1.4634672,0.5456402,2.600512,-1.5392039,0.30074847,0.8788928,-1.4672118,1.5971954,-1.3373387,0.7316337,1.2836425,-0.09296997,-2.2735648,0.0053940085,0.4091376,-1.4651313,-1.0105419,1.3892852,0.32739714,-1.325753,0.11911682,0.12068342,-0.9320313,-0.06010519,-0.665696,-0.15856197,0.5839733,-2.2827537
clinical_attribute,1.1582364,-2.069628,-1.6571705,0.004453948,-0.4908849,0.6800894,0.65005416,-1.653208,1.9886348,0.4113022,-0.4774046,1.7268507,-2.0137196,0.87343085,-0.422846,0.16332531,-0.41295883,-0.56383264,1.5819542,-0.07772734,-0.8603327,1.7428323,0.21074815,-1.7297428,-0.16006717,-0.44878256,-0.4115531,-0.43718293,-0.3253956,-0.84293455,-0.16823715,-1.9972602
body_part_organ_or_organ_component,1.4911225,1.0562906,0.08559685,-0.6045299,-0.41183853,0.58458287,-0.26358643,-1.8748446,-0.6891278,0.708275,-1.2124531,-0.0465128,0.5547581,0.38068146,-0.40681583,-0.14649107,-0.46528545,-0.7092873,1.2797406,0.750472,-0.81703043,-0.6859871,-2.2461743,-0.75913167,-1.0067049,-0.95092183,-0.6865938,0.9248514,0.22271666,-1.500749,0.2919006,-1.6068791
biologically_active_substance,1.00773,0.012424182,0.32134894,-0.7755199,-0.9904218,0.8517355,0.8494484,-0.6031554,2.1600797,1.0181657,-1.0655513,-0.21899225,1.6360296,0.52683276,-0.4742564,0.0598916,0.32741827,-0.41469017,0.6601171,0.048302297,0.29090092,-0.7270911,-0.122358896,-2.515114,1.6789402,-0.59294885,-1.1938547,-0.64023656,0.37888852,-1.0189638,-0.04486681,-1.2415273
disease_or_syndrome,0.5238903,-1.5495118,0.25081223,0.44867572,-1.5502852,0.7513707,0.77562964,-0.6593491,-0.5501427,0.9788318,-0.72439367,0.95123965,-1.601941,1.1071672,0.4809291,-0.42432764,0.9033315,-0.47464016,1.4677371,0.8009452,-1.1912469,-1.0727335,0.2273297,-1.0633754,-0.7501488,0.4461532,0.27315608,-0.7712447,-0.36207774,-0.108026326,0.07118484,-1.4160615
carbohydrate,1.0058722,-0.09150114,-1.2877784,-0.5449638,0.17222244,0.39632374,0.74191445,-1.5365067,0.9186292,2.3912706,-2.1216803,0.98762137,1.7201278,-0.03871753,1.3594178,-0.43361652,-0.31785342,1.7917868,0.45811003,-1.6454438,0.35907185,-0.18050307,0.01662927,-1.9931079,1.6487063,0.26682198,-1.108722,-0.06209986,-0.9633741,-0.91947955,-0.8553802,-0.64124876
molecular_sequence,-0.7327487,0.4358672,-0.37052396,-0.51327676,0.45751402,-0.097343855,1.2861181,-1.3033136,0.6055024,1.3687489,-0.34037772,1.2483691,-1.086134,0.14637512,0.01564892,-0.28089085,-0.9786203,-0.67309475,0.5729921,0.37485942,-0.5240329,2.226202,-0.84239197,-2.2093408,-1.3746092,0.56172323,-0.2385478,0.3417233,1.621534,-1.6166655,-0.52361196,-2.3336632
steroid,1.0713892,-0.2716052,-0.9049884,-1.0526872,-0.35604393,-0.032827213,0.74237436,-1.6089358,1.2358358,1.86108,-0.9380792,1.0033535,1.5369152,-0.7767629,0.9553456,0.23829444,-1.2759197,0.029333487,0.45237756,-0.24093321,0.55152047,-0.053619258,-0.44626218,-2.0907824,1.968573,-1.4596442,-1.4725909,0.5626827,-0.07691749,0.16894954,-0.44251153,-0.9128793
experimental_model_of_disease,0.53334117,-1.5715221,0.8187735,0.12177483,-1.4746298,0.8295436,-0.46659112,-0.92016274,-0.6848395,0.9677657,-0.8567856,1.1351609,-1.5035264,0.7386142,0.36742976,0.11386283,1.1680523,-0.33166894,1.7316736,0.8458805,-1.4435536,-1.1119117,0.36626235,-0.95369697,-0.8288302,0.37805802,0.56420004,-0.18631221,0.7213614,-0.64314586,0.06408722,-1.5319682
patient_or_disabled_group,-0.65338415,0.552403,0.209772,0.83938974,2.1405041,0.23253784,2.5784016,-1.3421749,-0.4966281,0.512178,-0.46306205,1.4992048,-0.8126661,0.5073393,1.6324584,-0.9524439,-2.4512503,0.32231772,0.3648457,-1.6823918,-1.1004871,1.2452562,-0.42200044,-1.3870282,-0.057178337,0.29639456,-0.18773434,-0.44594583,-1.4845693,-0.23276646,1.2458323,-2.429736
professional_or_occupational_group,-0.4807113,0.7747886,-0.7944259,0.7340537,-2.8045895,-0.4151334,1.7181504,-1.3483942,0.12995774,0.3993894,-0.89805907,1.5399216,-0.7696574,-0.36525562,1.4619373,-0.7154148,-2.6819236,1.1826937,0.1148371,-0.9977474,-0.16373119,0.8792696,0.34652156,-1.9337571,-0.15696962,0.3851933,-0.5924528,-1.166561,-1.9687638,0.118993066,0.81503683,-2.3259888
nucleic_acid_nucleoside_or_nucleotide,1.2857546,0.1714427,-0.5039894,-0.6256361,-1.5150797,0.701578,0.039039686,-1.2473102,1.0082971,2.9381132,-1.2115139,1.3196532,1.883115,-0.2781669,1.525177,-0.069194056,-0.74218476,0.043898057,0.6643516,-1.3973391,0.681764,-0.4018421,0.042754974,-2.5470138,1.6797867,-0.25550807,0.0073170243,-0.11440723,0.14120862,-0.19262291,-1.7107102,-1.138206
organism_function,0.915047,-1.961653,0.28251278,1.1025702,0.5855751,-0.44972646,1.4363358,-0.6851596,-1.3311124,2.1131275,-1.5847474,0.53315324,-1.644103,0.511467,1.1493438,-0.24941206,-0.47132012,0.07175632,2.3188596,-0.3070734,2.2220612,-0.78886074,-0.022377357,-1.3962314,-1.0417389,-0.49143782,-1.2468706,0.3353942,-0.6357199,-0.04627572,-0.1392802,-1.4229116
mental_process,1.5976615,-1.623715,0.33479583,1.8142163,-0.7742687,-0.53536683,-0.96357685,-0.928496,-0.94284093,1.9508933,-0.2498239,0.6774864,-1.0964831,-1.1279318,1.040548,-2.283521,-0.3695428,-0.5566139,2.085663,0.27749047,1.9220655,-0.7352977,-1.0092063,-1.2880099,-1.182037,0.21137403,-1.0456885,0.9970829,-0.43634307,0.5339739,-1.0417149,-1.0676253
therapeutic_or_preventive_procedure,-2.316569,-0.66027296,-0.8553096,-0.015022414,-0.2870261,0.69873476,-0.061963767,-0.73596436,1.8021843,0.909295,-1.7797303,-0.05083278,-0.79030395,-1.7048995,1.1559877,-1.6257136,0.24117345,-1.1429641,1.3895754,-0.35997772,-0.62713665,0.039241735,-0.5780437,-1.6282309,0.41469124,-0.61572737,-2.277789,-0.70934695,0.4149346,-0.6129382,-1.3251816,-0.9196158
cell_function,0.68640375,-1.7982429,-0.6421365,0.40999985,0.08186157,0.18318981,-0.055103824,-0.8809685,-1.3518666,1.7069358,-0.8711597,0.9630173,-1.6495862,0.83349884,1.6684057,0.18953949,-0.4128497,0.7623214,2.5603032,0.014050829,2.5143192,-0.82073605,0.050100002,-1.2001094,-1.1905528,0.9078735,-1.1508749,1.060478,-1.8964416,-0.5433032,-0.34235018,-1.5028127
pathologic_function,0.6556572,-1.8960212,0.15694635,0.19999526,-1.1642696,-0.17327847,0.702574,-0.659859,-0.77955955,1.0134526,-0.6657035,1.1492451,-1.6195838,2.060032,0.5412911,-1.3852042,1.0850142,-1.2069613,1.5553241,1.0504801,-1.6055379,-1.1090374,0.6212475,-1.0204631,-0.8516359,0.2508818,0.29010093,-0.42113373,0.61061954,-0.60542536,-0.2748037,-1.6245385
organ_or_tissue_function,0.67950016,-1.7237751,-0.3707835,0.19420688,-0.39976135,0.38875726,0.19697213,-0.7158766,-1.2497891,1.794323,-1.0664694,1.1498116,-1.4372785,-0.82369024,1.1236806,0.13945556,-0.2107872,-1.9050453,1.8473865,-0.2331962,2.26594,-0.83746487,-0.15364516,-1.3211933,-1.0489342,2.7149694,-1.2112517,1.1782023,-0.2365336,-0.83652073,-0.25752646,-1.3484099
enzyme,0.6324302,0.28834233,-1.1952387,-0.23004264,-1.0937114,1.5314637,0.63906556,-0.9940843,2.0242977,1.1877165,-1.4113224,0.89026713,1.8870288,1.125691,-0.3999682,-0.10949829,-0.0066219624,-1.0599841,0.23129654,0.10598366,0.17619085,-0.9033197,-0.8204975,-2.4699368,1.8051057,-0.93862534,-0.8153752,0.16724166,0.20763923,-0.6358716,-0.20178057,-1.0552908
cell,-0.30266172,1.791844,-0.634982,-1.8061962,-0.8691706,0.11624118,-0.47318015,-1.4926926,-0.2758226,1.3395412,-1.9992604,-0.032191742,1.0203611,-0.04489524,-0.41644448,-1.0365767,-0.1717967,-0.6968983,1.117056,0.92890584,-1.0540764,-0.17698427,-1.7422189,-1.1108011,-1.3298281,-0.21848825,-0.43340883,-0.038062546,-0.4639731,-1.1380994,-0.06333522,-1.684402
cell_component,0.06667322,0.8630979,1.4875907,-1.769444,-0.6196106,0.15703404,-0.9436016,-1.9517779,-0.139373,1.4401447,-1.7423757,0.2144017,0.963161,0.16972294,-0.41136092,-0.28664282,0.3002678,-0.24776052,1.5801032,1.3118181,-1.577681,-0.5093654,-1.1377391,-1.3214842,-1.2222387,-0.99317557,-0.42071575,0.7044486,-1.0349917,-0.60443354,-0.03625864,-1.3968269
cell_or_molecular_dysfunction,0.91552156,-1.9551762,0.2815666,0.6510247,-1.3780631,0.79799134,1.4462383,-0.8930571,-0.5662021,1.1092846,-1.0546101,1.2703148,-1.9811354,0.70362043,1.3814512,0.1952821,1.1214042,-1.5273482,1.8802493,0.74577194,-1.4462606,-1.2230127,-0.07477284,-1.0936867,-1.0264413,0.3033171,0.3892562,-1.1838738,1.3636042,-1.1990395,-0.16564849,-0.9594354
hormone,1.0611379,0.5118247,-1.4469582,-0.13480724,-1.5638419,0.5664019,0.16743402,-1.0200636,2.1996586,1.25078,-0.7300925,0.0395818,1.7727203,1.9507966,0.16315268,-0.25837353,-0.22312012,-0.3656667,0.6945818,-0.0029516919,0.6327616,-1.3693417,-1.1602261,-2.2947795,1.6564358,-1.5635253,-0.5261731,-0.2917205,-0.3209744,-0.6975379,0.4111972,-1.5354376
organic_chemical,1.0030301,0.19101058,-0.73751754,-1.367859,-0.34282294,0.35904193,0.90642273,-1.7571243,1.2283084,1.8426019,-0.31525046,1.3210036,1.9821687,1.1122785,0.618528,-0.010373552,0.008015141,-0.5978341,0.9892641,-0.677497,1.8234755,-0.10327762,0.82722867,-1.6530265,1.3048553,-2.0889962,-0.4016845,-0.21989751,-0.9177475,-0.41243094,-1.1955584,-1.393971
behavior,-0.05641512,-0.2642625,0.3834708,-1.5632907,-0.20378155,-0.662206,0.4718395,-1.8970126,0.55632496,1.3771406,-0.48124573,-3.1549056,-0.6183797,0.15591459,1.2263199,0.41388854,0.44519347,-0.9632156,1.7258617,1.1740973,0.9411514,-1.9608647,2.123091,-1.466871,-1.6327637,-1.7047727,-0.9395203,-0.6331971,0.066752106,-1.5427277,0.3085997,-1.8646576
neuroreactive_substance_or_biogenic_amine,0.64981294,0.40207058,-0.61146593,0.50969076,-2.1700273,0.69250727,0.92572826,-0.8480689,2.0279922,1.0274713,-1.4564385,0.6168447,1.9467049,0.75120616,0.2927165,-0.48718554,0.24378419,-0.46638682,0.54419595,0.12950598,0.053160936,-1.0645579,0.33075225,-2.4632897,1.7930989,-0.20371222,-1.1737751,0.4041249,-1.1305885,-1.3651123,0.32223696,-1.2336392
embryonic_structure,0.38867712,2.62934,-0.057516262,-0.63449055,-0.1241405,2.803796,-0.6142721,-2.3988914,-0.5797635,1.6191608,-1.3342103,0.85050875,0.48914653,0.08312395,-0.5060535,-0.7894436,0.3703362,1.4481833,1.7093536,0.37563914,0.32477242,-1.1058775,-1.2830169,-1.942863,-1.6580254,0.19227783,-0.89406234,-0.74548763,-1.2954078,-1.163165,-0.0076510073,-0.64936763
neoplastic_process,0.8795641,-1.6917413,1.057328,0.8432674,-1.9032965,0.48762295,0.20425414,-1.3633624,-0.6240826,1.164693,-0.96044207,1.0991114,-1.7779433,0.331596,1.1175795,0.3590967,0.7852568,-0.7874948,1.7771485,0.7711553,-1.3061618,-1.3311274,0.344471,-0.9272534,-0.7515517,-0.61549926,0.1442423,-0.43877718,0.4512722,0.21579571,-0.047807686,-1.2429826
laboratory_procedure,-1.665428,-1.1792262,-0.9487534,-0.8312,-1.2124643,-0.052988164,-1.0859447,-1.0922151,1.065973,-0.69388264,-0.4333794,0.52554315,-0.30225483,-0.949246,2.3518603,-1.2274102,0.92225665,-1.3197525,2.7934394,0.09170472,-0.3838665,0.9345387,1.695225,-1.0222027,-0.9098476,-1.2177427,-2.8270974,0.5407125,0.1543541,-1.9270762,-1.9456701,-1.4410851
natural_phenomenon_or_process,0.40116766,-2.0281,-0.09672339,0.02677967,-0.4362714,0.86539245,0.3207456,-1.1085579,-0.9266985,3.5122228,-0.53441817,1.0740651,-1.8958566,0.45928067,0.74265945,0.8042338,0.11656681,-0.21167862,1.0220494,0.15366499,-0.2623723,-1.3321931,0.17867212,-1.5708531,-0.3644267,-0.07704222,-0.62790096,-0.1441563,1.6303351,-0.75814027,-1.6451061,-1.9310279
immunologic_factor,0.17813689,0.28890622,-1.3792906,-0.6298271,-1.5691822,-0.37194118,0.6842662,-1.1947914,2.2654912,1.7238872,-0.73294884,-0.101825014,1.5680058,1.6865678,-0.2901567,-0.26446438,0.64716816,-0.24331033,0.28719866,0.14459774,-0.065858044,-0.73086214,0.5373708,-2.3138835,2.1400976,-0.21789728,-0.9143174,-0.54714036,-0.969681,-1.3601254,-0.033249103,-0.6150444
receptor,0.6210183,0.48198283,0.24698208,-0.21733177,-0.54713553,-0.252205,0.6097496,-0.5916673,2.0029223,1.0569457,-0.7290069,-0.39665103,1.6058437,0.7461859,-0.04599524,-0.5537198,-0.26835603,0.09332941,0.68623424,0.08963382,-0.04533092,-1.0664377,-0.49521846,-2.2892718,1.513403,-1.4916295,-0.8057794,-0.79553246,-0.38487795,-0.98355764,0.33714277,-1.2910341
self_help_or_relief_organization,2.3072896,1.0180223,0.1117279,-0.2362024,-0.24182238,0.5554493,-0.084012255,-2.6721253,1.6150209,1.2918301,-0.9684747,0.0807682,-0.5034112,-0.86696666,1.5737468,-0.22924118,-2.0356572,-0.6120842,1.4556466,-0.3133349,2.0925915,0.8831601,-0.43929583,-1.1622901,-0.108846046,-0.09136956,0.87354463,-0.97019225,0.7079279,-1.0257564,1.0001936,-2.1947813
pharmacologic_substance,0.52947783,0.2845337,-1.2518368,0.89676446,-0.49492398,0.42133993,1.0364962,-0.655285,2.1979883,0.767857,-0.38703707,-0.15627562,1.5379981,-0.94270563,0.82430166,-0.010595307,-0.8488014,-0.6979834,1.4974133,-0.75708234,-1.0482707,-1.1511993,0.010175761,-2.1365237,1.3888751,-0.3648063,-0.44172704,-0.6903216,0.45422712,-0.59073406,-0.30648136,-1.7155017
molecular_function,0.74638444,-1.7413671,0.13487604,0.27721846,0.6916907,0.969691,-0.06640802,-0.6757477,-1.2233584,1.6393776,-1.0326414,0.90687996,-1.4022704,1.9002788,1.8122592,0.9769376,-0.65611607,-0.10512705,2.0598347,-0.37448838,1.6276897,-0.9976578,-0.45469528,-1.1917112,-1.1367594,0.57760906,-1.2083699,1.3694746,0.13282256,-0.85086846,-0.34952867,-1.0176666
regulation_or_law,1.2060525,1.2529993,-0.76962304,-0.60276943,1.3605917,1.036042,-0.67793757,-0.21503013,-0.9467482,1.1664406,-0.19398253,0.14066994,0.7484218,-0.30848187,-0.5504027,0.19675194,-0.9352697,0.119126074,1.1110338,-0.6098961,-0.5837495,2.0379865,0.19922312,-3.089479,-0.32566276,-0.43798345,-0.19987164,-0.9918684,-0.08177837,-1.199562,-3.6158848,-1.2141178
human,-0.05297254,-0.24258386,0.11962322,-0.056407534,0.2297892,0.86312145,0.17333338,-1.2182944,1.8309855,0.85901856,-1.8817902,2.0699298,1.6277035,-1.8107282,0.96654415,0.06428952,-0.5990192,-0.6819328,0.43780383,0.70909953,-0.5941374,0.5082082,-0.121392265,-1.4866797,-1.777519,0.24515978,-1.2939131,-0.082127854,0.56195647,-0.26763016,-0.65191483,-1.9229268
eicosanoid,1.1373563,0.2580231,0.279613,-0.9022776,-0.5407403,-0.48961493,0.3409034,-0.97645634,1.230281,2.5839567,-1.8511455,1.1961749,1.43539,0.85405445,1.3347919,-0.25107038,-0.5990492,0.4265299,1.0125822,-0.97806096,0.19379894,-0.32578313,-0.18778655,-2.2156105,2.13722,-1.0742192,-1.6317402,0.4183405,-0.037206043,-0.076586455,-1.000023,-1.229812
amino_acid_peptide_or_protein,0.22555964,0.47494617,0.036319807,-0.8123344,-0.093653195,-0.40652597,0.8441853,-0.7066099,1.2827499,2.167573,-1.2859571,1.0336298,1.7384596,0.59769315,1.0686004,-0.8252172,-0.9483066,-0.09267929,0.9835607,-0.9865525,0.80836403,-0.2657539,-1.1678373,-2.038384,1.8512056,0.49950728,-1.239474,-0.22730234,-1.1043411,-1.2173299,-0.18192928,-1.2331605
group_attribute,-0.45818877,1.3599404,-1.6495069,0.87036663,0.06064029,0.551758,1.865474,-2.9359555,0.028386448,1.2370858,0.5999783,2.1085072,0.35971487,0.115933344,0.37974915,-0.26915473,0.82201654,-1.0575618,1.5189737,0.4355954,0.370939,1.7479296,-0.7197575,-1.6941067,-0.9178557,-0.6108065,0.07378,0.028090175,-0.11305205,-0.81612355,-1.8394781,-0.9401581
organism_attribute,1.3777382,-2.3254185,-0.8461121,0.371663,-0.6632307,0.8004234,0.828784,-2.0152364,1.8210577,0.23414864,0.9526744,1.6675714,-1.8667699,0.19766703,0.39323974,-0.13880308,-1.0505437,-0.7796003,2.2366219,0.03634611,-0.90624154,2.1589234,0.03540425,-1.7935213,-0.45220956,-1.5959116,-0.6575965,-0.17552604,-0.8586827,-0.4077328,-0.82043016,-2.1523843
finding,1.5159922,2.268617,-0.22472702,0.6959714,-0.85877144,0.87911767,2.0381444,-2.1120548,-0.03511055,0.34996462,-1.2742208,-0.8011964,-1.8583593,0.24273115,-0.41423526,-0.17901523,0.17726584,-0.37148347,0.037756387,-1.090141,-0.24567759,0.49406654,0.25952902,-2.344717,-2.748005,-1.8710135,-0.17963485,-1.6324966,0.48687947,-0.30435157,-2.1580932,-1.7398901
congenital_abnormality,0.43543905,-0.5129556,-0.08873403,-0.5113971,-0.7778357,0.030304767,0.30267102,-1.5747349,-0.92482007,0.80062914,-1.3340123,1.2915802,-1.84137,1.3540331,0.33595413,-0.4439358,0.8696431,-0.4962594,1.435096,2.561168,-0.91539365,-1.1364727,0.24109203,-2.2095544,-0.96908957,-0.73506415,1.0343456,1.8214778,0.27618217,-0.17667255,0.11989781,-0.55538636
anatomical_structure,0.81010735,1.4370723,0.18991517,-0.5229835,-1.0017806,1.0908321,0.8395971,-2.1581733,0.3150389,1.0548878,-0.57804805,1.085441,0.19593608,0.2502972,0.3497609,-0.19758199,0.52627015,0.01677823,-0.021187302,1.4863114,-1.1375779,-1.3546044,0.4295028,-2.353963,-2.333161,-0.27009994,0.115286045,-2.1078174,2.2517226,-2.040723,1.5086074,-1.3338684
molecular_biology_research_technique,-3.7756753,-0.22035061,-3.2115452,0.15112779,-0.9010155,1.1563952,0.3148394,-1.8205372,0.95056856,0.17651635,-1.7166946,0.20251237,-0.3548619,0.21049903,1.1685295,0.49884182,1.271358,0.5271035,1.1975489,-0.6814105,-0.478627,0.8468359,0.6904057,-1.6239884,-0.75373644,-1.1032104,-2.5751257,0.4302305,-0.40866843,-2.6276052,-1.0570526,-1.3330599
diagnostic_procedure,-2.0281935,-0.67184174,-1.3478655,-0.62009805,-0.8950188,0.15773615,-0.8790489,-1.1546749,1.900815,-0.6761768,-2.0671713,1.2710388,-0.26850355,-1.5985801,1.5393864,-0.45227772,1.0460103,1.1201909,2.1209571,-0.22108962,-0.43049943,1.042252,-0.72322506,-1.2582215,-1.0820572,0.2696517,-2.9671679,0.36216444,0.12814176,-0.7742624,-1.8715078,-1.1663703
biologic_function,0.94842166,-1.8578156,-0.8722877,0.48515102,-1.8191171,-0.9054202,0.56968063,-0.54380286,-1.265932,1.7985976,-0.4561519,0.7086948,-1.5969517,0.27788904,0.920434,0.01883528,0.38142067,-0.97905767,1.2678788,0.50849414,0.4410353,-1.1056418,-0.73370725,-1.6551301,-0.9952214,-1.3368648,-0.022061637,0.3337421,0.06804435,-0.6314823,0.30498022,-1.6822315
tissue,0.19049796,1.7337388,-0.44775638,-0.7719561,-0.119799726,0.44816807,0.27857643,-1.8284062,-0.26176274,0.9725712,-1.8891121,0.20931138,0.6531457,-0.46550894,0.18186864,-0.08912437,-0.02910192,-0.26160645,0.4431269,0.70172566,0.13525441,-0.6675896,-1.7458736,-0.9770747,-1.0578727,-0.41100258,-0.2101233,-1.0514095,-0.39118257,-0.8439466,0.2994832,-1.3359356
hazardous_or_poisonous_substance,1.6395564,0.08965111,-1.2324064,0.116971195,-0.118863955,0.83659655,-0.062328942,-1.2888217,2.1721945,0.6847281,-0.73892903,1.1625701,1.5787969,1.5410453,0.48428008,0.51131487,-0.58908165,-0.4615589,1.0081282,-0.26097697,-0.31903294,-0.7500782,0.40711126,-2.5720932,1.7705582,-0.8459284,-0.94835687,-0.42048174,-0.34107238,-0.09900762,0.3441422,-1.1643454
chemical_viewed_functionally,1.1473138,0.16770312,-0.15745011,-0.036882933,-0.03362574,-0.23423325,0.097522885,-2.0429373,1.4432627,2.404668,-0.8766936,-0.15417573,1.4899453,0.39221558,0.14717364,0.18151572,-0.5765273,0.3027868,0.43666077,-0.25918534,0.12588462,-1.3024366,0.38284597,-1.7033329,1.3865131,0.20152403,-0.5082738,0.08229903,-0.31931764,-0.66642404,-0.31293288,-1.3332971
reptile,0.671785,-0.876979,-0.6816926,-0.02054758,0.6251041,1.4576771,1.01447,-0.69758946,1.71008,0.8812842,-1.3764238,1.8498502,1.1002158,-0.3880135,-0.1610639,0.6537323,-1.0551083,-1.2086471,0.45143828,0.5825308,0.81355906,0.30984253,0.28167075,-1.9119188,-2.0511446,-1.5911502,-0.63072544,0.07256909,-0.11908895,-0.6884375,-2.1748528,-2.0857804
family_group,-0.64574915,0.5205794,-0.13501593,0.95779186,0.51078355,1.7098325,2.8706744,-2.2375402,0.6025328,0.38336462,-0.5510477,2.3079727,-0.929839,-0.43251535,0.31996047,-0.3211043,-2.3081486,-0.91380084,-0.11734809,-1.221554,-0.46513584,0.67833406,-0.22850911,-1.1355473,0.5040208,0.60360354,-0.86420727,-0.8609195,-0.31184366,-0.75505,0.50573504,-1.7589333
virus,-0.33064488,-0.5985909,-1.4418274,-0.072326705,-1.5732406,0.095382884,0.35034147,-0.94741654,1.0321661,1.1241786,-1.540607,0.607051,2.2845213,0.6033311,1.7790071,-0.06680365,-1.0807517,0.6398337,0.79109925,1.4071034,-0.6134226,0.44299072,-0.5220541,-0.9969892,-1.2666888,-0.760327,-0.50433755,-0.031400546,0.72625387,-0.5270454,-1.6667407,-2.268822
indicator_reagent_or_diagnostic_aid,2.003834,0.3706715,-0.008391315,0.10024329,0.76446164,0.9691913,0.9523267,-1.5929745,1.3586043,1.6247253,-0.886123,0.55448836,1.4839919,-0.04437671,1.0724525,0.3452298,-0.7638067,-0.54652685,1.4418312,-0.7124139,0.89499444,-1.401349,1.0663636,-1.8513191,1.0206364,-1.8368843,-0.43501696,-0.42959166,-0.113792494,-0.49094173,-0.7081201,-1.4080166
sign_or_symptom,1.8941809,2.2493756,0.32933024,1.2235944,0.12158433,0.62133867,1.6733979,-2.54132,0.3092535,-0.33435053,-0.18977845,-0.24223621,-1.4578946,0.83467156,0.27456814,-0.014091533,0.25344282,-0.48621872,2.4522238,-0.5993585,-0.7554431,1.4167905,0.50283086,-1.0902718,-1.2843522,-2.0020313,0.37450248,2.1786747,0.63842696,-0.33058318,-1.6770561,-1.795588
antibiotic,0.9967898,0.24351974,-1.5981861,0.28152162,-0.11480087,0.500394,0.7978979,-1.0971954,2.0279875,0.7872594,-0.26271126,0.08964324,1.2103957,-0.6516342,0.9169277,0.29085004,-0.7505569,-1.0194873,1.0006788,-0.5785768,-0.7083358,-0.97926384,0.8266805,-2.2222006,1.429167,-0.1046115,-0.6647563,-0.3895939,-0.7491179,-1.1194855,-1.1992627,-0.86366844
chemical_viewed_structurally,1.0977441,0.09073041,-1.749351,-0.85936314,0.9271983,0.025095869,0.82920873,-1.5487667,2.06173,2.2723784,0.009300163,1.380907,1.931158,0.60650605,0.7341865,0.30354622,-1.6581396,-0.7448347,0.62062407,-1.242838,0.2917296,0.46450973,-0.4504008,-2.185417,1.4195045,0.9216147,-0.46499318,-0.18636249,-0.68488425,-0.21963745,-0.46079525,-1.822099
body_space_or_junction,0.41263455,1.4681193,-1.1415828,-0.76629263,-0.13849244,-1.1137147,0.9303217,-2.3103411,-0.2590766,0.16450742,-1.5332943,0.95568335,-0.55457586,-0.19892196,0.43533933,0.27391425,-1.1017922,-0.09271877,1.4405991,1.4523951,0.007590131,0.9952513,-2.5425181,-1.282932,-0.58835167,-0.5547073,0.47231108,-0.55812126,0.08969605,0.21211322,-1.3075765,-1.0673808
amphibian,0.23251879,-0.6157878,-0.077067696,0.3646685,0.18312252,1.0697182,0.25700107,-1.1713243,1.4765356,0.8522652,-1.4926405,1.221183,1.8205081,-0.25434914,0.914215,0.077876635,-1.2559627,-0.3325513,0.3649243,0.07080428,-0.7842639,0.5406903,-0.3505726,-1.5863665,-2.2230582,-1.4137431,-1.1545435,0.4513366,0.022062585,-1.4464992,-0.9548479,-1.860145
health_care_related_organization,0.76086324,0.1651385,-0.9603667,0.19049169,-0.25152108,1.350366,0.47410578,-2.744734,2.4259806,0.6117999,-0.89300346,0.38864332,-0.08614008,-0.08571771,1.7504272,0.36237106,-1.8616827,-0.26769897,0.97699475,-0.3304574,1.6996926,2.3019085,0.90950066,-1.8924351,-0.24687529,-0.6340941,0.68329674,-0.5672363,1.3710628,-0.48820394,1.0324278,-1.7028496
fish,-0.06493589,-0.72381544,-1.0184993,0.0041120006,-0.8503413,0.059820592,0.49248558,-0.79560894,1.7837503,0.77301884,-1.5381746,1.5084542,2.041242,-0.7098126,0.905333,0.26352742,-0.92374694,-0.1867083,0.6233222,0.748557,-1.7952008,0.7293918,-0.19650728,-1.6418176,-2.1171021,-0.78566706,-1.7970835,0.3616091,0.7500796,-1.0163298,-0.71793103,-2.41842
physiologic_function,1.0600575,-1.8050427,-0.55917764,0.37621692,-0.74682695,0.10036577,-0.69825023,-0.87802964,-1.351765,1.8789173,-0.74878937,1.1443112,-1.2531796,0.65261704,0.8013888,0.9109837,-0.25156546,-1.7222644,1.6213262,-0.15348323,1.7266611,-0.5772418,-0.74318105,-1.0520245,-1.06002,-0.91355073,-0.8708468,0.56856567,-0.6038116,-1.385445,-0.26762253,-1.1558502
animal,0.65793866,-0.6969672,-0.033731226,-0.15874274,1.3305768,-0.012203691,1.1359067,-0.52195424,1.3798765,1.1368978,-0.57696235,1.5698918,1.3104852,1.5007412,0.6797059,0.03245397,-0.8878385,0.49200106,0.60290855,0.39155138,-0.14860046,0.5447488,0.23812829,-1.7628284,-2.123336,0.11140558,-0.4164839,0.13522275,-1.1187634,-1.5476019,-2.1594,-2.1701953
injury_or_poisoning,0.5527506,-0.8770263,0.5136964,0.25607258,0.002864358,1.086632,0.2986773,-0.30750892,-0.633208,0.43091694,-1.1679494,0.86110884,-1.6716065,0.45211437,1.3633018,-1.0654569,0.1449284,-1.6853454,0.9288804,1.1689496,-1.2223926,-0.81575924,-0.17454845,-2.3147612,-0.7631699,-0.95214623,1.3944252,0.18733682,-1.5089011,-0.43682215,-1.5040287,-1.134927
lipid,1.4708182,-0.1251409,-0.8195741,-1.1343131,0.15797934,-0.6199113,-0.37600714,-1.0659664,0.95806414,2.073972,-1.4444337,1.2964228,1.4458243,0.73205787,0.36351663,-0.6836517,-0.7911919,-0.018419083,0.82632875,-0.6191391,1.25047,0.41637206,0.101607256,-2.3211298,1.8886179,0.31094095,-0.83900356,1.0832456,-0.77687275,0.17647175,-1.0430118,-1.3707771
plant,-0.21318714,-0.78393155,0.1033873,-0.3543623,-0.31638977,-0.30869684,0.8012197,-1.3284715,2.2015123,0.8122787,-0.79894376,0.004881239,1.6511918,0.5130335,0.83774704,0.80457264,-1.2374232,-0.45915622,0.14931634,1.1503389,0.90905875,-0.4911812,-0.47406647,-1.3205136,-1.4966104,-2.1735668,-0.046572313,-0.3604214,-0.56467885,-0.832602,-1.7645624,-2.548269
organization,1.8181713,1.0202363,0.42607096,-0.17354232,1.8686616,0.23248051,0.49335074,-2.1968582,2.2687986,1.1746773,-0.8522148,1.0824506,-0.42395297,-0.48092747,2.1362844,0.19940841,-1.4762349,-0.3942678,0.14443552,0.010459194,1.2830971,1.1323667,-0.0913558,-1.6611537,-0.65872055,0.24313919,0.7585141,-0.9088485,0.2740406,-0.9674128,0.9315871,-2.332849
genetic_function,1.4380661,-1.8284601,-0.7115695,-0.65946573,-0.122053415,0.22934344,0.036459364,-0.65847224,-1.6049827,1.9286276,-0.5962407,1.1711922,-1.4061663,-0.46306118,1.3580842,-0.24310194,-0.4577357,-0.9483288,2.120203,0.37147522,2.614589,-0.5405512,-0.19083966,-1.0299562,-1.1280973,-0.30536672,-1.0625507,1.0582607,-1.6776841,-1.5753849,-0.16156638,-1.6136185
gene_or_genome,-0.6935399,0.98968726,0.5761722,-1.8338182,0.31441882,0.70110065,0.70970803,-2.136596,-0.5496466,1.728753,-2.1923356,0.31424198,1.2234007,1.2486572,-0.4843061,-0.44914263,0.87682474,-0.09865166,1.3598984,1.202655,-1.6844652,-1.0223598,-0.3830134,-1.2037627,-1.3762658,0.8150271,-0.377686,0.7365075,-1.2083207,-0.35684514,-0.39185518,-1.4094661
laboratory_or_test_result,-0.7371955,1.994836,-0.3692463,1.6769321,0.7220522,1.3147967,1.9049377,-2.3838387,-0.9092017,-0.41766798,0.63177186,-0.6856517,-1.1391093,1.4982611,-0.3808964,-0.24873038,0.55041605,-1.4049052,0.5135339,-1.3966537,-1.1375579,0.48210773,1.0015695,-1.2003355,-1.4772794,-0.07069104,-0.22098576,2.2707362,-0.49992537,-0.65834004,-1.5816456,-2.2411752
spatial_concept,-0.12782225,0.6722409,1.1004462,-0.48163566,0.76316345,0.57202625,0.95015883,-2.3200324,-0.22700804,1.0881598,-0.031018464,1.1846825,-1.6517388,-0.40479693,0.5696772,-0.28215408,-2.1075764,0.002752294,-0.01863395,1.1676569,0.0025003208,1.3090922,0.43208766,-2.223414,-2.0129101,-1.5451113,0.2725256,0.21692254,-0.24129839,-1.6423446,-0.4268612,-1.950745
rickettsia_or_chlamydia,-0.277804,-0.6923697,-1.3199439,0.2882209,0.15310614,0.18428575,0.40704873,-1.1677734,1.046647,1.032169,-1.7022498,0.7380046,1.7789327,1.607525,1.327926,0.59137094,-1.4220362,-0.46548763,0.20379303,1.402559,0.07310831,-0.15561132,-0.99034435,-1.1671317,-1.2968494,-1.1016562,-0.5180627,0.32083526,0.69499654,-0.37388408,-1.8910518,-1.9415728
body_substance,0.611714,0.51706487,-1.3244572,-0.86097175,-1.4706844,3.0032268,0.6668304,-0.56725806,1.6340936,0.90716887,-1.1913679,0.050267108,1.5368289,0.4591087,-0.31676975,0.1636612,-0.15573151,0.347935,-0.5032751,-0.85467273,-0.020411734,0.07318927,-1.6788449,-2.4679108,1.3608574,-2.1408188,-2.676973,0.9123539,0.53386015,-0.6739166,-0.14996275,-1.9590435
intellectual_product,1.5000951,0.84326595,-0.03964946,-0.30171043,-0.43985707,0.29478014,-1.1200778,-1.6782408,-0.33169392,1.3911178,-0.05471959,-1.0381238,0.56661063,-0.35958725,-1.3274549,0.06250909,-1.9264863,-0.84831095,0.83404684,-0.4291137,-0.38970426,1.8072586,-1.0218974,-2.04349,-0.6936819,-0.4154842,-0.17698584,-0.30013278,0.1831121,-1.4783084,-2.0894384,-2.31784
element_ion_or_isotope,1.3238509,0.19610885,0.04546383,-0.6493367,-0.3220976,1.1095593,0.5956365,-1.5040746,1.075501,1.5962727,-1.3116693,2.1389132,2.0193381,0.4582149,0.8212955,0.7133574,-0.729795,-0.30422634,0.75011605,-0.66952467,-1.1144375,-0.07539624,-0.17263454,-2.1768942,1.2290987,-1.0125616,-1.1232761,-0.8453849,-0.25650075,0.060560726,-0.4039862,-1.061348
research_activity,-2.9119713,-0.21758515,-0.59750533,-0.05150625,-1.4650476,0.27774203,-0.14355992,-1.2770237,0.97593266,-0.60185117,-1.8863926,1.1547863,-0.5378852,0.5473627,0.85914665,-0.054052167,1.848827,-0.342302,1.2702451,-1.4417511,-0.4481909,0.7542896,0.04713878,-1.6601274,-0.63760614,-0.23926978,-3.0152414,0.49744657,-0.5412855,-1.6603358,-1.428675,-1.9941465
geographic_area,-0.03290717,0.19114377,-0.8496987,-0.11469165,-1.0826192,-0.20817134,1.3812367,-1.7209628,0.14041097,1.0075551,-0.6203951,1.262966,-1.5002474,2.3589623,0.74686146,-0.44482693,-1.0138848,-1.0814466,1.0822839,-0.6009678,0.008775083,1.463849,-1.1235064,-1.5529491,-1.8495393,-0.16981035,-0.8756866,-0.28424174,-0.63857347,-0.6065576,-1.2644291,-1.6593132
professional_society,1.8423036,0.21087919,-0.27168885,-0.15761226,0.39106667,-0.3822553,0.37991312,-2.6983194,1.6298003,1.0134515,-0.43320233,1.1929986,-0.30811417,1.7963187,2.1279511,-0.20188086,-1.7757609,0.35924768,1.2900441,-0.57290536,0.22593117,1.4871039,-0.054049462,-1.4827799,0.08420355,0.20942013,0.5114113,-0.80001915,1.3819469,-0.41348627,0.30393508,-1.6560158
organophosphorus_compound,1.1461704,0.22517282,-0.63317657,-0.5241545,0.07323519,0.5738227,0.30793273,-1.1067101,1.3893076,1.7369452,-1.7104595,1.5360141,1.8037261,-0.43024752,1.2073761,-0.28372,-0.7895146,-0.27921206,0.905368,-0.7825736,0.54510814,-0.07895527,-0.9222933,-2.3201556,1.7708561,-0.26100063,-1.8819326,0.5058848,-1.3540738,-0.5222622,0.0862497,-0.9701887
body_location_or_region,-0.40596434,1.0175319,-0.059154607,-1.12383,-0.73539,0.29390746,0.62611914,-1.5992105,-0.2885105,0.9125975,-1.6581111,0.8157999,-0.84324145,-0.907456,-0.10147731,-0.6919025,-1.2474881,0.702621,1.5089741,0.843038,-0.13702561,0.70525116,-1.9894122,-1.6419357,-0.36385015,0.11893723,0.22740899,-2.169436,0.8371985,-1.5231608,-1.0708942,-1.1877223
invertebrate,-0.14936565,-0.5037664,-0.838481,0.4998274,-0.32694525,0.43507686,-1.1993072,-1.0411564,1.282207,0.9664678,-2.0343223,1.8546938,1.5356952,1.005566,-0.18623586,-0.07781313,-0.86475134,-0.93553346,0.46227804,1.0274348,-0.030932304,0.336001,0.60398346,-1.6190686,-1.9876528,-1.4154177,-0.86435235,0.56430984,0.1758558,-0.2588014,-1.5307938,-2.3484197
age_group,-1.1241839,0.77056813,-1.6730726,0.8039027,-0.19698325,0.3640749,2.254578,-1.8887184,0.5461971,0.40949896,-0.81549484,1.4015192,-0.96345115,-0.756928,0.33240864,-0.020122908,-2.3507688,-0.47045904,0.13171865,-0.9146791,-0.6491719,0.5874767,-0.07357648,-1.17195,0.119912736,0.5088585,-0.34623522,-0.62238514,0.8858145,-0.9347566,0.7046468,-2.028957
human_caused_phenomenon_or_process,-0.18705499,-1.5159309,-0.4950508,-0.2539672,0.6179846,1.9252778,-0.71916866,-1.9217207,0.04415016,1.5037568,-0.5432188,0.19367838,-2.0218902,1.5959282,0.3934172,-0.2949661,-1.501818,-0.534863,0.43143386,1.8826901,0.36300513,0.47551858,0.20712659,-2.0724912,-0.5060265,0.54378027,0.032449834,0.53879493,0.1970613,-1.7710211,-1.4635968,-2.584669
phenomenon_or_process,-0.06254255,-1.3821071,-0.490933,1.1997954,0.36875403,1.3291782,0.46005788,-1.6323946,-0.17908797,1.951749,-0.9254184,-0.31476378,-2.2344093,0.48060623,0.9539619,-0.32262817,-0.6652876,-0.003031489,0.104085125,1.037644,1.0937347,-0.76206523,-0.39782012,-2.7984428,-0.9408091,-0.3954068,-0.40175587,1.8195173,-0.654508,-0.94815785,-2.2325683,-1.2464831
individual_behavior,-0.05947134,-0.4195078,0.16633849,-1.0220847,-0.3501496,0.91463965,0.44803503,-1.4716662,1.0391747,1.1367253,-0.5246048,-2.8884056,-0.8138672,0.86349773,0.4495122,0.48046455,-0.1973372,0.69585997,1.2490191,0.4489508,0.17695838,-1.2968351,1.0117712,-1.6297748,-1.4189179,0.2386091,-1.403586,-1.3992631,-0.19743204,-1.4429153,0.53188163,-1.4971082
bird,0.096248694,-0.30080494,-0.2953376,1.0076567,0.25678837,0.71528095,1.272319,-1.14122,1.2460533,1.3361863,-1.7763317,1.7490898,1.9491347,-2.1512656,2.1751027,-0.1698176,-1.2560304,0.19198425,0.70725465,0.96381694,-0.5350656,0.20569433,0.19559309,-1.5620229,-1.9348314,-0.9991757,-0.99234307,0.09114766,0.58576685,-0.99522,-1.8740286,-1.7077014
mammal,-0.43075803,-0.6539507,-0.81244403,-0.4986367,0.11430004,0.14924689,0.35972214,-0.57224554,1.1408119,1.421248,-1.2532429,1.2541571,1.7176248,0.34178576,1.9184227,1.1262634,-0.8296714,-1.2406408,0.112112835,0.9191994,-0.4402156,0.3534226,0.2264507,-2.0728834,-1.9993701,-0.09867098,-0.3923788,0.34490332,0.22202112,-1.0318928,-2.5850277,-1.7634301
qualitative_concept,-0.13290097,0.029567465,-0.7345676,-0.39731917,0.097420566,1.79368,1.6246971,-2.8941412,0.23354127,0.4691036,0.5717944,1.6018407,-0.25355107,-0.24127021,-0.77008706,-0.41070703,-2.65775,0.8076003,0.6212978,1.1237247,0.4562497,0.65131,-0.4296604,-1.799463,-0.9853692,0.15678547,1.2954918,-0.8629469,-0.2578789,-0.81904274,-0.23365544,-2.1818435
environmental_effect_of_humans,0.22689052,-1.705905,-0.17176302,-0.6045076,-0.28297395,0.2301715,0.4578455,-1.7862495,-0.48522532,1.065553,-0.60530436,0.5730138,-2.0417886,-2.2372048,0.97845626,0.041940343,-2.16096,-0.7248206,1.1642603,2.038666,0.8644213,0.64040357,0.30299628,-2.7459152,-0.5227786,-0.29130182,0.9360403,1.6782857,-1.0069776,-2.4727783,-1.7427919,-1.6369833
social_behavior,1.0813438,-0.29961333,0.012530699,-0.88932735,0.04058282,1.4238285,0.4316836,-1.3018314,0.2954902,1.0869956,-0.88799465,-2.534467,-0.5058656,-0.40685025,1.9548414,0.54346526,0.07950718,-0.54329795,1.5759783,0.5828989,1.0030533,-1.6885214,0.7432578,-1.7559341,-2.1530871,0.26340094,-0.68111706,-0.3173012,0.27958122,-1.8570243,-0.84947866,-1.4792273
biomedical_or_dental_material,1.2153808,0.33042082,-0.5780509,0.093260385,0.61391085,0.030229107,1.1759396,-2.2622228,1.533261,1.6044968,-0.5276299,0.67379236,1.4535056,0.5038774,0.3165262,0.36410058,-1.4401187,0.9977027,1.2637585,-0.78242654,-0.23140721,-1.1782308,0.11435667,-1.5395273,1.167444,-0.72707593,-0.45185894,-0.22284058,-0.49764422,-0.7697597,-0.004814854,-1.4012777
quantitative_concept,1.2850274,-0.26486266,-0.24139531,-0.9313375,-0.1751864,0.4514649,1.6847992,-1.8496442,0.5099817,0.16482584,0.72955066,1.2863191,-0.52860945,-0.66048276,-0.4295511,-0.50159156,0.8756122,-0.02306902,1.3936656,0.99401885,-0.7514349,1.9603697,-0.9294435,-1.2942199,0.92697185,-0.40921053,-0.22446734,-0.31425795,0.0072560385,-1.053799,-0.4022689,-2.8357859
inorganic_chemical,1.7674267,0.2987289,-0.8171118,-0.3369631,-0.1558104,0.5454885,0.78725696,-1.965713,1.2854937,2.2614503,-1.1914738,1.3765382,1.4578168,0.37239307,0.5074769,0.3900362,-0.5452155,0.40579954,0.93919194,-0.32522854,0.041541,-0.51857674,0.36565393,-1.8232914,1.5147461,-1.031625,-1.106694,-0.35594946,-0.31530505,-0.08335121,-0.570389,-0.74163
drug_delivery_device,1.2125349,0.7764852,-1.4425107,-0.10681438,0.40170354,1.5245758,-0.6089286,-1.7746332,-0.0060995286,2.0097406,-0.91426945,-1.1120769,0.19204421,-1.6430956,0.65981394,0.7590498,-3.455737,-1.4217762,0.72116286,-1.880999,-0.7155488,0.3637154,0.7637643,-2.4438088,0.9939704,0.27492306,-0.60341316,1.052553,-0.88815475,-0.56078446,-2.697611,-1.6268913
educational_activity,-1.5505883,0.7618032,-0.5002078,-0.49608535,-0.06013339,0.5436149,-0.07669055,-1.5660648,1.8010215,1.1732519,-0.47820055,-1.1542723,-0.27039018,0.8437789,0.83586574,-0.1748092,1.6809559,-0.4527775,2.0937858,-0.9005452,0.532064,1.4460007,0.03016222,-1.6799403,-1.1072322,-0.29972395,-2.0552788,-0.04713127,-0.22090761,-1.065831,-1.6578377,-1.8921679
chemical,1.5184387,0.27845687,-0.35648665,-0.6391041,-0.36245513,0.64860517,1.1589375,-2.1453586,1.1237552,1.8027208,-0.14811961,1.528196,1.8604518,-0.65413606,0.37031168,0.15257417,-0.7631093,0.4032766,0.89651424,-0.41159928,0.16728918,-1.239468,0.685751,-1.4279939,1.6686294,0.09480947,-0.77910155,0.08755856,2.2198026,-0.6213448,-1.1007622,-1.8802742
vitamin,0.8224564,0.26724586,-0.94431245,0.20873298,-1.3587782,0.46246508,0.7889555,-1.1887919,1.9489276,0.73156357,-1.2099878,0.7849209,1.5942622,0.9138036,-0.13882896,-0.0019971048,-0.10920676,0.03593854,0.6996021,0.14702913,-0.104046896,-0.9734623,-1.1288317,-2.2215984,1.619495,-1.4082375,-0.63566273,-1.0328629,-0.32474318,-0.7340413,-0.511798,-1.0159523
fully_formed_anatomical_structure,0.18083599,1.8036213,0.66024804,-1.3039377,-1.2992889,0.6180663,-0.0419613,-2.163176,-1.0069517,1.3010077,-0.7440398,0.07524469,1.282313,-1.1708674,-0.22971685,-0.6659678,-0.69435155,-0.32379296,0.69939363,1.2393425,-1.3076227,-0.70200044,-0.8377265,-1.4748046,-1.3361882,1.4338936,-1.1846868,-2.4152954,-0.49042967,-1.9177154,0.4047481,-1.3195544
group,-1.3368535,0.6178858,-0.9250467,0.4554759,-0.11023472,0.7497324,1.540126,-2.4938157,0.30190748,0.86907536,-1.1999962,1.6591074,-1.3189149,-0.5767949,0.71170056,-0.41603538,-2.6979802,0.6071031,0.30555785,-1.8998929,0.046721492,0.727695,0.19466679,-0.97247195,-0.052662652,-0.76459795,-0.025491294,0.12830934,0.4549881,-0.5609941,0.72176147,-2.196025
nucleotide_sequence,0.53547597,0.78024244,0.018353567,-0.75609994,-0.57994246,0.65131927,1.1374426,-1.7914587,-0.7002253,1.678903,0.8902982,1.1517211,-1.2764376,0.6700507,1.7044855,-0.28867608,-1.996156,0.23805921,1.3926369,1.1372564,0.028992116,1.0646404,-0.5575341,-2.1571746,-1.8686689,0.2425226,-0.31564423,-0.3003889,-0.65933615,-0.44017172,-0.6177576,-1.572622
body_system,1.2958258,0.57221097,-0.68802565,-0.8090198,0.225,0.58208835,0.84136903,-2.0837135,-0.7715724,1.2914027,0.9430734,0.020987578,-0.54114044,-0.10785611,0.81520027,-0.18046647,-1.883349,-0.2633194,0.85743564,1.1114621,-0.15294755,1.0757902,-1.8291224,-1.7463803,-1.1372788,-1.4333209,-0.32095474,-1.2321949,-0.051313326,-0.6757099,-0.36711654,-1.8463404
food,0.16636217,0.5494285,-0.10050132,-0.51618266,0.06898426,1.505499,0.32423404,-1.7225235,0.6803093,2.3956623,-1.3351958,2.0130608,0.942396,-0.47936314,-0.28259784,0.41999227,-1.7755228,-0.26142997,1.5187721,-1.6018276,-0.11414197,-1.5522709,0.4331299,-2.2996116,0.4970998,-0.3813476,-1.608795,-0.38051793,-0.6971564,0.54714113,-1.1406294,-1.5474119
bacterium,-0.24400577,-0.7121302,-0.80283046,0.22925486,-1.2262604,-0.59853673,-0.47836316,-0.72775054,1.0046624,0.7793427,-2.1966095,0.06245998,1.7370673,1.3681056,0.84660125,-0.29145253,-0.8366981,0.27309817,0.41373158,0.80895644,-1.0781131,-0.21662797,-0.12607534,-1.5106777,-1.3829237,-0.32661754,-0.7436571,0.68336695,0.23957895,-0.07972325,-1.6703848,-2.1533463
fungus,-0.11701717,-0.7681467,-1.723514,1.1575336,-0.36387563,0.0067314976,0.29768887,-1.4676161,1.7071289,1.0255826,-1.4140645,0.43583527,1.7084792,0.4486708,0.23637213,0.5520708,-1.3031768,0.7756838,0.48461142,1.8169034,0.24407545,-0.01992222,-0.85960656,-0.9570259,-1.0571858,-0.6966632,-0.4438058,0.46726635,0.14072713,-0.6682376,-1.6688138,-2.3398662
research_device,1.240137,1.665805,-1.9572308,0.5736816,-0.7914719,1.0808316,0.17316075,-2.0640554,0.5299869,1.9490263,-0.7399442,-1.1487305,1.0911882,-0.49226883,-0.59610194,0.3374476,-1.1987318,-0.49580044,1.1673672,-0.9990399,0.10741095,-0.46277574,1.5738556,-1.5550464,-0.63009727,-0.19599718,-0.8682923,-0.1930754,-0.08340878,0.3452655,-2.3823972,-1.7984396
governmental_or_regulatory_activity,-1.1158468,1.1593299,-0.33181635,-0.22175834,-0.9158105,1.97383,0.5283942,-0.6850973,2.5332854,1.0851965,-0.9875661,-0.8546417,-0.3624258,-0.21184263,0.0021509668,-0.11979416,0.8342322,-0.013846171,1.3542539,-1.0374014,1.2848679,0.6958914,0.07681256,-2.2011738,-1.0877988,-0.18543535,-2.9152873,-0.08631621,1.2271944,-0.8021468,-1.6596427,-1.5219662
idea_or_concept,0.8813991,0.50980645,-1.046491,-1.2957438,1.2730768,0.748852,-0.045757763,-1.7636653,-0.67431575,0.4641587,-0.7461419,1.5680307,-0.3214049,1.4598663,-0.06861093,-0.6349959,-1.1707538,-2.0560126,0.17806105,1.5479609,0.14048922,1.4571809,0.7167975,-2.3436902,-0.03167284,0.5702289,-0.50779647,0.255133,-0.50643843,-0.6855149,-0.7913991,-1.0821692
occupational_activity,-1.547415,0.16035242,0.4149892,-0.070326395,-0.7991159,0.43361044,0.07573761,-1.4068009,2.254522,1.642142,-1.001524,-0.8723364,-0.049864355,2.6607149,0.49146724,-0.5959594,1.3050679,0.027493283,0.19312657,-0.9468765,0.84187627,0.75817984,0.080039665,-1.810753,-1.338967,-0.49348742,-2.803462,0.1461015,0.22330277,-1.4663273,-0.84353715,-1.9129547
physical_object,1.270746,1.2470115,1.5321407,-0.85069525,-0.7066434,-0.5101063,0.20845827,-2.9783683,0.9836695,1.2648954,1.3731087,1.6535617,1.6283008,-0.51470566,1.1498991,0.11436165,-1.3270369,0.61497504,-0.30269402,-0.28918603,-1.8455366,-1.3946866,-0.15230304,-1.2705141,-0.87773895,1.1720182,-0.9678346,-1.2379109,0.5761499,-2.4288275,-0.3793596,-2.0073702
vertebrate,-0.08322219,-0.72794324,-0.15496019,0.7333063,0.70921135,0.6448796,0.29885116,-1.3939863,1.4920261,1.0220582,-0.49884042,1.1128722,1.81433,0.99208367,0.8634589,0.6789714,-0.9937245,0.7411612,0.77932,0.47509462,-0.8694234,0.5875402,-0.22662963,-1.2312715,-1.8291678,-0.68811363,-0.76997715,-0.3110822,0.3503221,-0.56136835,-1.6156453,-2.1605728
substance,0.68995535,1.0354921,0.0016515334,-0.121294856,0.11580006,-0.18718545,-0.05233191,-1.6588163,1.6914324,1.541416,0.49102014,1.1094728,1.0991315,-0.71962476,1.9766984,0.45101506,-1.3611885,0.67449725,0.40708387,-1.4836967,-0.42217052,-1.07917,0.3237032,-1.4737198,0.7796036,-0.3186103,-2.3412502,-0.037016395,-1.0491602,-1.1058227,-0.54536664,-2.227939
medical_device,0.7136594,0.47599006,-1.1992599,0.18770203,-0.3770301,-0.24612084,0.53192896,-1.1965938,-0.3589964,2.021954,-0.33976075,-0.91014403,0.32812825,-0.86873156,0.79276866,1.4623312,-2.5080435,-1.4626107,1.0773462,-1.3114579,-1.0430129,-0.21020338,0.86291283,-1.5676739,0.9269094,0.38480443,-1.0291411,-1.3251126,0.0014576946,-2.1489253,-1.7629502,-1.6068709
manufactured_object,1.0988041,1.2774153,0.43872067,0.222264,0.027632402,0.7254481,-0.030601108,-1.3312051,0.31700984,1.7045945,-0.17569317,-1.0919058,0.980941,-0.9528935,-0.5790569,1.5922314,-2.35496,-0.037277598,0.6865449,-1.2260644,0.12168605,-0.71456826,-0.24162251,-2.216505,-0.32127658,-0.79288083,-1.0659425,-1.5101821,-1.380041,-1.0517964,-1.8398131,-1.6745085
classification,-0.012441243,0.4177583,-0.19349903,-0.16748998,-0.37666842,-0.16511843,-1.1707883,-1.730374,-0.060402144,1.0415175,-1.0165651,-0.20937045,-0.05707652,-0.109562054,-0.79765844,0.8997872,-2.5294578,-0.09715909,2.0848763,-0.03205002,-1.1720161,1.0003498,-1.5223283,-2.3176355,-0.31452549,-0.65736055,-0.8533745,-0.54284364,0.51530224,-0.48531497,-2.720423,-2.2738788
daily_or_recreational_activity,-0.5554085,0.91484356,-0.26683626,-0.36908978,-1.1361455,0.9710896,-0.05534627,-2.160667,1.0682892,1.5466388,-1.0974196,-1.1564243,-1.0225844,1.5854288,1.0114273,0.5440962,0.60226464,-0.30352882,1.3322039,-0.62589616,2.2303934,0.14607942,-0.5473145,-1.6780783,-1.534692,0.079221755,-1.7254244,-0.4982473,-0.41024327,-1.6382078,-1.0448576,-1.287858
conceptual_entity,0.84891635,1.0901846,0.52886856,0.1208532,-0.07696274,0.08590627,-0.8944432,-1.5064505,0.16200766,1.0354822,-0.5786084,0.7244491,-0.26007792,1.2546886,1.0461464,0.012894857,-1.7146106,-1.2239217,-0.30891326,0.14711002,0.24908674,2.0826733,0.0552978,-2.7757561,-0.12590508,-0.7152113,-0.6019773,0.77363247,0.3696275,-1.2479266,-0.7416933,-0.8304073
occupation_or_discipline,-0.4512838,0.510976,-0.38090953,0.09721247,1.1274812,0.9606358,1.321075,-2.4471161,-0.08835325,-0.3124795,-0.037130795,1.1734439,0.34529492,-0.060538724,0.7340612,-0.12829354,-0.9407924,-0.061747998,0.6041647,0.4851097,0.4122337,1.0635746,-0.15148398,-1.391068,-0.09252335,-0.5704761,-1.0298191,-0.34133613,-0.68224365,0.5641074,0.18268012,-0.25200638
amino_acid_sequence,-0.62060905,0.59625024,-0.8177728,-0.29442126,-0.43448487,0.46195206,0.7409228,-2.7719548,0.8220008,1.8487612,0.2883977,0.9375861,-1.4897074,-0.15427648,0.6205876,0.17092918,-0.66197723,-0.49939412,0.92581314,1.6836296,0.6692454,1.637062,0.7709142,-1.7516384,-1.7710135,0.6006869,0.008478337,-0.80747205,-0.8974418,-0.614479,-1.5298945,-1.3266476
clinical_drug,1.1673808,0.5724817,-2.084636,0.25734797,-0.4768551,1.4122397,-0.32490778,-2.2146904,-0.73190665,0.2397889,-1.2007757,-0.7270969,-0.07807732,-0.9794054,0.089368016,0.14638986,-3.5392456,-1.108352,0.8362198,-1.0247947,0.4552692,-1.1350312,0.8960315,-1.8463407,1.1877834,-1.5966704,-0.82916147,1.0632645,0.30831283,-1.1072407,-2.2860365,-2.1533809
activity,-0.96156365,-0.032140397,-0.13553038,-0.45776412,-0.09245988,0.41893268,0.5198502,-2.205827,1.154024,1.345642,0.9232726,-1.4269128,-0.345557,0.34056628,1.6934735,0.4094323,1.0252613,-0.910685,0.16003557,-0.659783,0.95357305,-0.8684759,-0.040570028,-1.7109296,-1.3313149,-0.32987303,-1.2612681,0.4532983,-0.3457258,-1.9991379,-1.9693809,-1.5356958
event,-1.2187177,-0.23798026,-0.2002212,1.3449037,-0.4745059,-1.401902,-0.08184241,-2.9945817,0.46437538,2.016803,0.066176705,-0.58973503,-0.86290073,-0.66643834,0.74995005,0.1573077,0.41320953,0.6694735,-0.7389277,-0.5459591,1.1093916,-0.8834187,-0.42050442,-1.2803125,-1.1620371,0.5994305,-0.37258983,0.84226096,0.5343553,-2.3806934,-2.2115152,-1.1867671
temporal_concept,1.060954,-0.026870878,-1.2477692,-0.10037835,-0.22855942,0.59956646,2.6229,-2.2162497,-1.1176245,-0.09896762,0.18333417,0.9450282,0.17118204,0.15173069,0.4479118,-0.1021595,-1.2211089,0.9040942,0.33533743,1.2000653,2.4692147,2.0913835,-1.0129805,-2.1547346,-0.23271717,-1.5033504,0.014543524,0.11050224,-0.19783972,-0.6539948,-0.46748415,-2.654711
archaeon,-0.08692392,-0.7330962,-0.29148558,-0.15473843,-0.4446381,0.340163,0.64067835,-0.95763415,1.8069631,0.976146,-1.3989812,0.7001152,1.8342204,1.7795563,1.7535213,0.96831214,-0.994817,-0.40243918,0.75481534,0.77950555,-0.47489515,0.050302967,-0.2399337,-1.772764,-2.4407787,-1.5788165,-2.3548532,0.28255555,-0.24115236,-1.2188809,-1.9038894,-2.0672076
language,0.55163074,0.9082662,-1.2609186,0.10002135,-0.4219682,-0.5270423,0.33314216,-2.5262613,0.37274683,1.8755091,-0.51439923,0.8954475,-0.36687687,-1.3577088,1.2090144,-0.37731868,-2.9094484,-0.49217665,1.8620095,0.25133398,-0.24102809,0.8356839,-0.9397829,-1.7402308,-0.8347802,-0.045385774,-0.6476435,-0.11018692,0.8408745,-0.30636314,-0.76798654,-2.55292
biomedical_occupation_or_discipline,-0.50678796,0.62559676,-0.4460929,0.09626697,0.22155324,1.4974128,0.54852265,-2.4488363,-0.016153645,-0.33745274,0.10421975,1.2381878,-0.03050258,1.0299866,0.8799707,-0.3215517,-0.5420537,-0.13375205,0.9509119,0.33591035,0.68779,1.1218512,-0.54896736,-1.2956365,-0.2206024,-0.75985104,-0.98140395,-0.04024653,1.3131363,0.6916778,0.18336886,-0.09135595
functional_concept,1.7196035,-0.27999395,0.56707734,-0.96806425,-0.27232122,0.7908426,0.739769,-1.7999352,-0.87756723,1.346845,-0.946637,0.62582976,-0.46586615,0.015854245,0.15932943,0.15079103,-1.4511065,0.603797,1.1157881,1.2242864,-0.3488873,1.7149559,0.95133156,-2.0138094,-0.5625785,0.6242228,0.018260935,-0.016482206,-0.055212103,-0.62422305,-0.6952563,-2.0868192
machine_activity,-1.3661577,0.4087722,-1.3644545,0.6423184,0.48255786,1.0867188,0.48569018,-2.1973436,-0.094067045,1.8070203,0.088666365,-1.556084,0.18613616,-0.33951056,0.8161897,-0.4113744,0.36212102,-0.07281206,1.5444089,0.3849656,0.60685813,-0.38373047,-0.42189038,-1.7187947,-1.7867881,-0.3489093,-2.4181316,0.06623364,-0.55364424,-1.5700796,-0.7568787,-1.520519
entity,1.2116904,1.5108259,1.1407634,0.2777655,-0.55248636,-0.7058295,-1.6739893,-2.219478,0.76101404,0.9250892,-0.0033829045,1.6881019,0.021777585,-0.5668778,1.6196482,-0.44136623,-1.8497703,-0.11598846,-0.4272148,1.3570353,-0.8364491,0.10672159,2.1842802,-1.4722698,0.629043,1.8662417,-0.8689766,0.15800673,-0.5545854,-3.6610904,-0.2674391,-0.9025762
carbohydrate_sequence,-0.6780154,0.64234316,-0.39744383,0.0077035944,-0.33388206,0.24338475,0.36040172,-2.5122554,0.7518188,1.497615,-1.0091889,1.1162823,-0.6156735,0.37974727,0.67194825,0.011541969,-1.608623,-0.21039127,1.4448895,1.1408199,-0.12272834,1.9846675,-0.12669703,-2.0610423,-1.8788909,-0.28178033,-1.0925959,-1.1863676,-1.0132022,-1.4798309,-0.5966396,-1.3563912
organism,0.44120944,-0.87270296,0.36684585,0.42106465,0.40804598,0.29049346,0.5664782,-1.0195707,1.3667445,1.085357,-0.118134245,1.1849712,1.7151341,0.11364382,0.2928528,0.010671334,-0.80214775,0.27635625,0.8970244,1.135662,-0.22466625,0.3895611,-1.0171494,-1.4443272,-2.4992497,0.7494923,-1.2184715,0.47109205,0.2564424,-1.571096,-0.9619601,-2.3967452
